{"learner":{"attributes":{"scikit_learn":"{\"_estimator_type\": \"classifier\"}"},"feature_names":["daily_return","return_5d","return_mean_5d","return_std_5d","return_max_5d","return_min_5d","return_10d","return_mean_10d","return_std_10d","return_max_10d","return_min_10d","return_20d","return_mean_20d","return_std_20d","return_max_20d","return_min_20d","return_30d","return_mean_30d","return_std_30d","return_max_30d","return_min_30d","return_60d","return_mean_60d","return_std_60d","return_max_60d","return_min_60d","momentum_5_30","momentum_5_60","momentum_10_30","momentum_10_60","momentum_20_30","momentum_20_60","volatility_5d","volatility_10d","volatility_20d","volatility_30d","volatility_60d"],"feature_types":["float","float","float","float","float","float","float","float","float","float","float","float","float","float","float","float","float","float","float","float","float","float","float","float","float","float","float","float","float","float","float","float","float","float","float","float","float"],"gradient_booster":{"model":{"gbtree_model_param":{"num_parallel_tree":"1","num_trees":"1600"},"iteration_indptr":[0,8,16,24,32,40,48,56,64,72,80,88,96,104,112,120,128,136,144,152,160,168,176,184,192,200,208,216,224,232,240,248,256,264,272,280,288,296,304,312,320,328,336,344,352,360,368,376,384,392,400,408,416,424,432,440,448,456,464,472,480,488,496,504,512,520,528,536,544,552,560,568,576,584,592,600,608,616,624,632,640,648,656,664,672,680,688,696,704,712,720,728,736,744,752,760,768,776,784,792,800,808,816,824,832,840,848,856,864,872,880,888,896,904,912,920,928,936,944,952,960,968,976,984,992,1000,1008,1016,1024,1032,1040,1048,1056,1064,1072,1080,1088,1096,1104,1112,1120,1128,1136,1144,1152,1160,1168,1176,1184,1192,1200,1208,1216,1224,1232,1240,1248,1256,1264,1272,1280,1288,1296,1304,1312,1320,1328,1336,1344,1352,1360,1368,1376,1384,1392,1400,1408,1416,1424,1432,1440,1448,1456,1464,1472,1480,1488,1496,1504,1512,1520,1528,1536,1544,1552,1560,1568,1576,1584,1592,1600],"tree_info":[0,1,2,3,4,5,6,7,0,1,2,3,4,5,6,7,0,1,2,3,4,5,6,7,0,1,2,3,4,5,6,7,0,1,2,3,4,5,6,7,0,1,2,3,4,5,6,7,0,1,2,3,4,5,6,7,0,1,2,3,4,5,6,7,0,1,2,3,4,5,6,7,0,1,2,3,4,5,6,7,0,1,2,3,4,5,6,7,0,1,2,3,4,5,6,7,0,1,2,3,4,5,6,7,0,1,2,3,4,5,6,7,0,1,2,3,4,5,6,7,0,1,2,3,4,5,6,7,0,1,2,3,4,5,6,7,0,1,2,3,4,5,6,7,0,1,2,3,4,5,6,7,0,1,2,3,4,5,6,7,0,1,2,3,4,5,6,7,0,1,2,3,4,5,6,7,0,1,2,3,4,5,6,7,0,1,2,3,4,5,6,7,0,1,2,3,4,5,6,7,0,1,2,3,4,5,6,7,0,1,2,3,4,5,6,7,0,1,2,3,4,5,6,7,0,1,2,3,4,5,6,7,0,1,2,3,4,5,6,7,0,1,2,3,4,5,6,7,0,1,2,3,4,5,6,7,0,1,2,3,4,5,6,7,0,1,2,3,4,5,6,7,0,1,2,3,4,5,6,7,0,1,2,3,4,5,6,7,0,1,2,3,4,5,6,7,0,1,2,3,4,5,6,7,0,1,2,3,4,5,6,7,0,1,2,3,4,5,6,7,0,1,2,3,4,5,6,7,0,1,2,3,4,5,6,7,0,1,2,3,4,5,6,7,0,1,2,3,4,5,6,7,0,1,2,3,4,5,6,7,0,1,2,3,4,5,6,7,0,1,2,3,4,5,6,7,0,1,2,3,4,5,6,7,0,1,2,3,4,5,6,7,0,1,2,3,4,5,6,7,0,1,2,3,4,5,6,7,0,1,2,3,4,5,6,7,0,1,2,3,4,5,6,7,0,1,2,3,4,5,6,7,0,1,2,3,4,5,6,7,0,1,2,3,4,5,6,7,0,1,2,3,4,5,6,7,0,1,2,3,4,5,6,7,0,1,2,3,4,5,6,7,0,1,2,3,4,5,6,7,0,1,2,3,4,5,6,7,0,1,2,3,4,5,6,7,0,1,2,3,4,5,6,7,0,1,2,3,4,5,6,7,0,1,2,3,4,5,6,7,0,1,2,3,4,5,6,7,0,1,2,3,4,5,6,7,0,1,2,3,4,5,6,7,0,1,2,3,4,5,6,7,0,1,2,3,4,5,6,7,0,1,2,3,4,5,6,7,0,1,2,3,4,5,6,7,0,1,2,3,4,5,6,7,0,1,2,3,4,5,6,7,0,1,2,3,4,5,6,7,0,1,2,3,4,5,6,7,0,1,2,3,4,5,6,7,0,1,2,3,4,5,6,7,0,1,2,3,4,5,6,7,0,1,2,3,4,5,6,7,0,1,2,3,4,5,6,7,0,1,2,3,4,5,6,7,0,1,2,3,4,5,6,7,0,1,2,3,4,5,6,7,0,1,2,3,4,5,6,7,0,1,2,3,4,5,6,7,0,1,2,3,4,5,6,7,0,1,2,3,4,5,6,7,0,1,2,3,4,5,6,7,0,1,2,3,4,5,6,7,0,1,2,3,4,5,6,7,0,1,2,3,4,5,6,7,0,1,2,3,4,5,6,7,0,1,2,3,4,5,6,7,0,1,2,3,4,5,6,7,0,1,2,3,4,5,6,7,0,1,2,3,4,5,6,7,0,1,2,3,4,5,6,7,0,1,2,3,4,5,6,7,0,1,2,3,4,5,6,7,0,1,2,3,4,5,6,7,0,1,2,3,4,5,6,7,0,1,2,3,4,5,6,7,0,1,2,3,4,5,6,7,0,1,2,3,4,5,6,7,0,1,2,3,4,5,6,7,0,1,2,3,4,5,6,7,0,1,2,3,4,5,6,7,0,1,2,3,4,5,6,7,0,1,2,3,4,5,6,7,0,1,2,3,4,5,6,7,0,1,2,3,4,5,6,7,0,1,2,3,4,5,6,7,0,1,2,3,4,5,6,7,0,1,2,3,4,5,6,7,0,1,2,3,4,5,6,7,0,1,2,3,4,5,6,7,0,1,2,3,4,5,6,7,0,1,2,3,4,5,6,7,0,1,2,3,4,5,6,7,0,1,2,3,4,5,6,7,0,1,2,3,4,5,6,7,0,1,2,3,4,5,6,7,0,1,2,3,4,5,6,7,0,1,2,3,4,5,6,7,0,1,2,3,4,5,6,7,0,1,2,3,4,5,6,7,0,1,2,3,4,5,6,7,0,1,2,3,4,5,6,7,0,1,2,3,4,5,6,7,0,1,2,3,4,5,6,7,0,1,2,3,4,5,6,7,0,1,2,3,4,5,6,7,0,1,2,3,4,5,6,7,0,1,2,3,4,5,6,7,0,1,2,3,4,5,6,7,0,1,2,3,4,5,6,7,0,1,2,3,4,5,6,7,0,1,2,3,4,5,6,7,0,1,2,3,4,5,6,7,0,1,2,3,4,5,6,7,0,1,2,3,4,5,6,7,0,1,2,3,4,5,6,7,0,1,2,3,4,5,6,7,0,1,2,3,4,5,6,7,0,1,2,3,4,5,6,7,0,1,2,3,4,5,6,7,0,1,2,3,4,5,6,7,0,1,2,3,4,5,6,7,0,1,2,3,4,5,6,7,0,1,2,3,4,5,6,7,0,1,2,3,4,5,6,7,0,1,2,3,4,5,6,7,0,1,2,3,4,5,6,7,0,1,2,3,4,5,6,7,0,1,2,3,4,5,6,7,0,1,2,3,4,5,6,7,0,1,2,3,4,5,6,7,0,1,2,3,4,5,6,7,0,1,2,3,4,5,6,7,0,1,2,3,4,5,6,7,0,1,2,3,4,5,6,7,0,1,2,3,4,5,6,7,0,1,2,3,4,5,6,7,0,1,2,3,4,5,6,7,0,1,2,3,4,5,6,7,0,1,2,3,4,5,6,7,0,1,2,3,4,5,6,7,0,1,2,3,4,5,6,7,0,1,2,3,4,5,6,7,0,1,2,3,4,5,6,7,0,1,2,3,4,5,6,7,0,1,2,3,4,5,6,7,0,1,2,3,4,5,6,7,0,1,2,3,4,5,6,7,0,1,2,3,4,5,6,7,0,1,2,3,4,5,6,7,0,1,2,3,4,5,6,7,0,1,2,3,4,5,6,7,0,1,2,3,4,5,6,7,0,1,2,3,4,5,6,7,0,1,2,3,4,5,6,7,0,1,2,3,4,5,6,7,0,1,2,3,4,5,6,7,0,1,2,3,4,5,6,7,0,1,2,3,4,5,6,7,0,1,2,3,4,5,6,7,0,1,2,3,4,5,6,7,0,1,2,3,4,5,6,7,0,1,2,3,4,5,6,7,0,1,2,3,4,5,6,7,0,1,2,3,4,5,6,7,0,1,2,3,4,5,6,7,0,1,2,3,4,5,6,7,0,1,2,3,4,5,6,7,0,1,2,3,4,5,6,7,0,1,2,3,4,5,6,7,0,1,2,3,4,5,6,7,0,1,2,3,4,5,6,7,0,1,2,3,4,5,6,7],"trees":[{"base_weights":[2.1090366E-1,5.2911395E-1,-6.970955E-2,1.2158844E0,3.226693E-1,-2.2157031E-1,4.7899687E-1,2.6046512E-1,1.0540146E-1,5.3560144E-1,-2.3859648E-2,-2.6794259E-2,-4.1985816E-1,1.983471E-2,6.6422015E-2,-1.8039217E-2,4.156863E-2,-3.041825E-3,7.5135136E-1,-3.593052E-1,4.875E-1,-2.639676E-2,1.0196079E-2,3.3103447E-2,-2.1772152E-2,-2.9430053E-1,2.5882354E-2,1.2622222E0,2.8474575E-1,1.0196079E-2,-2.5345346E-2,5.1076926E-2,-1.5189874E-3,-2.3529413E-3,-1.98374E-2,1.0206896E-1,2.7096776E-2,-4.9799196E-3,4.70073E-2],"categories":[],"categories_nodes":[],"categories_segments":[],"categories_sizes":[],"default_left":[0,0,0,0,0,0,0,0,0,0,0,0,0,0,0,0,0,0,0,0,0,0,0,0,0,0,0,0,0,0,0,0,0,0,0,0,0,0,0],"id":0,"left_children":[1,3,5,7,9,11,13,15,-1,17,-1,19,21,23,-1,-1,-1,25,27,29,31,-1,-1,-1,-1,33,-1,35,37,-1,-1,-1,-1,-1,-1,-1,-1,-1,-1],"loss_changes":[7.5556173E0,5.0541286E0,3.845727E0,6.59243E0,5.6849394E0,1.3429153E0,3.7269573E0,2.253388E0,0E0,3.06595E0,0E0,3.513039E0,1.3282704E0,2.5221927E0,0E0,0E0,0E0,1.376425E0,3.895832E0,1.180627E0,2.342692E0,0E0,0E0,0E0,0E0,8.971602E-2,0E0,3.370636E0,2.964327E0,0E0,0E0,0E0,0E0,0E0,0E0,0E0,0E0,0E0,0E0],"parents":[2147483647,0,0,1,1,2,2,3,3,4,4,5,5,6,6,7,7,9,9,11,11,12,12,13,13,17,17,18,18,19,19,20,20,25,25,27,27,28,28],"right_children":[2,4,6,8,10,12,14,16,-1,18,-1,20,22,24,-1,-1,-1,26,28,30,32,-1,-1,-1,-1,34,-1,36,38,-1,-1,-1,-1,-1,-1,-1,-1,-1,-1],"split_conditions":[-4.539821E-2,-2.5370014E-1,-1.3798173E-2,7.038565E-1,4.846009E-2,-3.254382E-2,2.5070542E-2,2.9309872E-1,1.0540146E-1,-2.8163219E-2,-2.3859648E-2,-3.6660515E-2,2.3105477E-1,7.687792E-2,6.6422015E-2,-1.8039217E-2,4.156863E-2,-7.621982E-2,3.180752E-2,2.425423E-2,-1.6991904E-2,-2.639676E-2,1.0196079E-2,3.3103447E-2,-2.1772152E-2,-5.41824E-2,2.5882354E-2,2.9765997E-2,1.115006E-2,1.0196079E-2,-2.5345346E-2,5.1076926E-2,-1.5189874E-3,-2.3529413E-3,-1.98374E-2,1.0206896E-1,2.7096776E-2,-4.9799196E-3,4.70073E-2],"split_indices":[10,28,5,33,3,10,3,11,0,30,0,10,11,24,0,0,0,6,13,18,28,0,0,0,0,1,0,29,0,0,0,0,0,0,0,0,0,0,0],"split_type":[0,0,0,0,0,0,0,0,0,0,0,0,0,0,0,0,0,0,0,0,0,0,0,0,0,0,0,0,0,0,0,0,0,0,0,0,0,0,0],"sum_hessian":[8.26875E1,3.85E1,4.41875E1,7.65625E0,3.084375E1,3.521875E1,8.96875E0,4.375E0,3.28125E0,2.471875E1,6.125E0,1.859375E1,1.6625E1,6.5625E0,2.40625E0,2.1875E0,2.1875E0,7.21875E0,1.75E1,1.159375E1,7E0,1.44375E1,2.1875E0,2.625E0,3.9375E0,5.03125E0,2.1875E0,7.4375E0,1.00625E1,2.1875E0,9.40625E0,3.0625E0,3.9375E0,2.1875E0,2.84375E0,2.625E0,4.8125E0,6.78125E0,3.28125E0],"tree_param":{"num_deleted":"0","num_feature":"37","num_nodes":"39","size_leaf_vector":"1"}},{"base_weights":[-2.2235294E-1,2.2832245E-1,-3.1085914E-1,6.051282E-1,-2.2569833E-2,-3.5477617E-1,1.6708862E-2,-2.0307694E-2,1.1439252E0,-3.598616E-2,-4.5946947E-1,7.036497E-2,2.2385322E-2,-2.4486693E-2,3.020173E-1,-4.956802E-1,1.0196079E-2,-5.6140352E-2,4.0000003E-2,-7.4418604E-2,-5.335223E-1,-2.1772152E-2,2.5882354E-2,1.0196079E-2,-1.8039217E-2,-4.0366976E-3,-2.7766118E-2],"categories":[],"categories_nodes":[],"categories_segments":[],"categories_sizes":[],"default_left":[0,0,0,0,0,0,0,0,0,0,0,0,0,0,0,0,0,0,0,0,0,0,0,0,0,0,0],"id":1,"left_children":[1,3,5,7,-1,9,-1,-1,11,13,15,-1,-1,-1,17,19,-1,21,-1,23,25,-1,-1,-1,-1,-1,-1],"loss_changes":[3.4696732E0,3.962277E0,2.1505027E0,5.8509254E0,0E0,2.194045E0,0E0,0E0,4.107027E-1,2.9368942E0,1.3471146E0,0E0,0E0,0E0,2.0533495E0,6.7216206E-1,0E0,1.767864E0,0E0,5.1768357E-1,3.268013E-1,0E0,0E0,0E0,0E0,0E0,0E0],"parents":[2147483647,0,0,1,1,2,2,3,3,5,5,8,8,9,9,10,10,14,14,15,15,17,17,19,19,20,20],"right_children":[2,4,6,8,-1,10,-1,-1,12,14,16,-1,-1,-1,18,20,-1,22,-1,24,26,-1,-1,-1,-1,-1,-1],"split_conditions":[2.2629991E-2,4.8890308E-2,1.5306917E-1,1.8514534E-2,-2.2569833E-2,7.327483E-2,1.6708862E-2,-2.0307694E-2,2.0446463E-2,2.922232E-2,6.659051E-2,7.036497E-2,2.2385322E-2,-2.4486693E-2,5.7191722E-2,-5.555149E-1,1.0196079E-2,5.08301E-1,4.0000003E-2,2.850851E-2,-4.1583934E-1,-2.1772152E-2,2.5882354E-2,1.0196079E-2,-1.8039217E-2,-4.0366976E-3,-2.7766118E-2],"split_indices":[8,11,9,9,0,24,0,0,8,18,0,0,0,0,28,31,0,21,0,3,28,0,0,0,0,0,0],"split_type":[0,0,0,0,0,0,0,0,0,0,0,0,0,0,0,0,0,0,0,0,0,0,0,0,0,0,0],"sum_hessian":[8.4E1,1.334375E1,7.065625E1,8.75E0,4.59375E0,6.671875E1,3.9375E0,3.0625E0,5.6875E0,1.70625E1,4.965625E1,3.28125E0,2.40625E0,7.21875E0,9.84375E0,4.746875E1,2.1875E0,6.125E0,3.71875E0,4.375E0,4.309375E1,3.9375E0,2.1875E0,2.1875E0,2.1875E0,2.40625E0,4.06875E1],"tree_param":{"num_deleted":"0","num_feature":"37","num_nodes":"27","size_leaf_vector":"1"}},{"base_weights":[4.747512E-2,-1.9781181E-1,1.7083561E-1,-3.5029587E-1,1.9555555E-1,6.507463E-1,-2.4717407E-2,1.6994819E-1,-2.6485438E-2,3.696203E-2,-2.1111112E-2,-8.595041E-2,1.1435583E0,-2.1934016E-1,3.2666665E-1,2.5882354E-2,-6.8292688E-3,-2.2325581E-2,2.5882354E-2,3.5772359E-3,1.5353191E0,-3.3481094E-1,2.1111112E-2,8.132231E-1,-1.362963E-1,1.0196079E-2,1.0206061E-1,-4.3659306E-1,5.090909E-3,-2.3529413E-3,1.1906977E0,2.2385322E-2,-2.3005182E-2,3.5772359E-3,-2.6593003E-2,2.5882354E-2,7.294118E-2],"categories":[],"categories_nodes":[],"categories_segments":[],"categories_sizes":[],"default_left":[0,0,0,0,0,0,0,0,0,0,0,0,0,0,0,0,0,0,0,0,0,0,0,0,0,0,0,0,0,0,0,0,0,0,0,0,0],"id":2,"left_children":[1,3,5,7,9,11,13,15,-1,-1,-1,17,19,21,23,-1,-1,-1,-1,-1,25,27,-1,29,31,-1,-1,33,-1,-1,35,-1,-1,-1,-1,-1,-1],"loss_changes":[2.5964677E0,1.7972192E0,5.4485517E0,2.0977745E0,3.1777835E0,6.285188E0,2.8968558E0,7.516281E-1,0E0,0E0,0E0,1.8698779E0,4.007944E0,2.1675558E0,3.5573964E0,0E0,0E0,0E0,0E0,0E0,4.305584E0,1.1431267E0,0E0,2.6262012E0,1.802799E0,0E0,0E0,1.0431817E0,0E0,0E0,1.718235E-2,0E0,0E0,0E0,0E0,0E0,0E0],"parents":[2147483647,0,0,1,1,2,2,3,3,4,4,5,5,6,6,7,7,11,11,12,12,13,13,14,14,20,20,21,21,23,23,24,24,27,27,30,30],"right_children":[2,4,6,8,10,12,14,16,-1,-1,-1,18,20,22,24,-1,-1,-1,-1,-1,26,28,-1,30,32,-1,-1,34,-1,-1,36,-1,-1,-1,-1,-1,-1],"split_conditions":[3.1349067E-2,3.2046217E-2,2.5070542E-2,1.9187033E-2,4.692979E-2,-1.3608006E-2,4.2825285E-2,-3.5737753E-2,-2.6485438E-2,3.696203E-2,-2.1111112E-2,-6.0816158E-2,-5.7669926E-2,4.839336E-2,8.754069E-2,2.5882354E-2,-6.8292688E-3,-2.2325581E-2,2.5882354E-2,3.5772359E-3,1.1464984E-2,7.7037275E-2,2.1111112E-2,-8.3895594E-2,-9.30031E-2,1.0196079E-2,1.0206061E-1,-9.7370096E-2,5.090909E-3,-2.3529413E-3,3.5944305E-2,2.2385322E-2,-2.3005182E-2,3.5772359E-3,-2.6593003E-2,2.5882354E-2,7.294118E-2],"split_indices":[23,3,3,8,28,0,30,1,0,0,0,20,16,18,30,0,0,0,0,0,3,1,0,15,20,0,0,10,0,0,3,0,0,0,0,0,0],"split_type":[0,0,0,0,0,0,0,0,0,0,0,0,0,0,0,0,0,0,0,0,0,0,0,0,0,0,0,0,0,0,0,0,0,0,0,0,0],"sum_hessian":[8.378125E1,2.75625E1,5.621875E1,2.0125E1,7.4375E0,1.575E1,4.046875E1,5.03125E0,1.509375E1,3.9375E0,3.5E0,6.5625E0,9.1875E0,2.646875E1,1.4E1,2.1875E0,2.84375E0,4.375E0,2.1875E0,2.84375E0,6.34375E0,2.296875E1,3.5E0,6.5625E0,7.4375E0,2.1875E0,4.15625E0,1.88125E1,4.15625E0,2.1875E0,4.375E0,2.40625E0,5.03125E0,2.84375E0,1.596875E1,2.1875E0,2.1875E0],"tree_param":{"num_deleted":"0","num_feature":"37","num_nodes":"37","size_leaf_vector":"1"}},{"base_weights":[-2.1902017E-2,-4.473318E-1,5.418595E-2,-2.5595566E-2,-2.3529413E-3,3.1674492E-1,-2.4120247E-1,1.3183214E-1,8.1921923E-1,2.5882354E-2,-3.0989632E-1,4.806387E-1,-2.1417323E-1,7.178808E-2,2.4672897E-1,2.2081448E-1,-4.3669724E-1,8.490797E-1,-1.584541E-1,-2.4257028E-2,3.0240549E-2,4.6896555E-2,-2.0307694E-2,-1.8715596E-2,3.2222223E-2,-2.6593003E-2,-2.4598338E-1,-1.9310346E-2,6.710744E-2,1.0196079E-2,-2.0729927E-2,-1.6074767E-2,3.706422E-2,-1.9381443E-2,1.0196079E-2],"categories":[],"categories_nodes":[],"categories_segments":[],"categories_sizes":[],"default_left":[0,0,0,0,0,0,0,0,0,0,0,0,0,0,0,0,0,0,0,0,0,0,0,0,0,0,0,0,0,0,0,0,0,0,0],"id":3,"left_children":[1,3,5,-1,-1,7,9,11,13,-1,15,17,19,-1,21,23,25,27,29,-1,31,-1,-1,-1,-1,-1,33,-1,-1,-1,-1,-1,-1,-1,-1],"loss_changes":[2.8716586E0,2.6817298E-1,5.8449764E0,0E0,0E0,3.5076451E0,1.9820511E0,3.814371E0,3.1505427E0,0E0,2.3492546E0,3.890149E0,1.1115327E0,0E0,3.4520166E0,2.0093944E0,2.859435E-1,6.8189588E0,7.060459E-1,0E0,2.5546422E0,0E0,0E0,0E0,0E0,0E0,8.163369E-1,0E0,0E0,0E0,0E0,0E0,0E0,0E0,0E0],"parents":[2147483647,0,0,1,1,2,2,5,5,6,6,7,7,8,8,10,10,11,11,12,12,14,14,15,15,16,16,17,17,18,18,20,20,26,26],"right_children":[2,4,6,-1,-1,8,10,12,14,-1,16,18,20,-1,22,24,26,28,30,-1,32,-1,-1,-1,-1,-1,34,-1,-1,-1,-1,-1,-1,-1,-1],"split_conditions":[-4.670618E-3,6.6571673E-3,5.6512527E-2,-2.5595566E-2,-2.3529413E-3,5.6186046E-2,2.1364091E-2,2.4005534E-2,-9.74865E-2,2.5882354E-2,-8.473889E-4,8.038151E-2,3.4224715E-2,7.178808E-2,5.279473E-1,3.343823E-2,5.821543E-1,3.1537968E-1,1.1464984E-2,-2.4257028E-2,-1.3837288E-2,4.6896555E-2,-2.0307694E-2,-1.8715596E-2,3.2222223E-2,-2.6593003E-2,1.3222481E-2,-1.9310346E-2,6.710744E-2,1.0196079E-2,-2.0729927E-2,-1.6074767E-2,3.706422E-2,-1.9381443E-2,1.0196079E-2],"split_indices":[17,2,11,0,0,4,13,3,27,0,7,19,23,0,33,4,33,33,3,0,29,0,0,0,0,0,17,0,0,0,0,0,0,0,0],"split_type":[0,0,0,0,0,0,0,0,0,0,0,0,0,0,0,0,0,0,0,0,0,0,0,0,0,0,0,0,0,0,0,0,0,0,0],"sum_hessian":[8.575E1,1.246875E1,7.328125E1,1.028125E1,2.1875E0,3.89375E1,3.434375E1,2.953125E1,9.40625E0,2.1875E0,3.215625E1,1.465625E1,1.4875E1,3.71875E0,5.6875E0,5.90625E0,2.625E1,9.1875E0,5.46875E0,6.78125E0,8.09375E0,2.625E0,3.0625E0,2.40625E0,3.5E0,1.596875E1,1.028125E1,2.625E0,6.5625E0,2.1875E0,3.28125E0,5.6875E0,2.40625E0,8.09375E0,2.1875E0],"tree_param":{"num_deleted":"0","num_feature":"37","num_nodes":"35","size_leaf_vector":"1"}},{"base_weights":[6.254168E-2,-1.2488688E-1,4.0789202E-1,-2.1952507E-1,3.830986E-1,-1.6521738E-1,7.2854865E-1,-2.8964558E-1,3.706422E-2,-2.7262568E-1,5.8686133E-2,2.2385322E-2,-3.8762885E-1,9.4898784E-1,-2.6666669E-3,2.2385322E-2,-3.4419972E-1,-1.8715596E-2,-2.3529413E-3,-2.3529413E-3,-2.3710407E-2,6.5822788E-3,1.2086957E0,1.0196079E-2,-3.8142416E-1,1.744E0,4.64E-1,2.4581007E-3,-2.2043668E-2,1.12615384E-1,2.5882354E-2,-1.9310346E-2,6.0689658E-2],"categories":[],"categories_nodes":[],"categories_segments":[],"categories_sizes":[],"default_left":[0,0,0,0,0,0,0,0,0,0,0,0,0,0,0,0,0,0,0,0,0,0,0,0,0,0,0,0,0,0,0,0,0],"id":4,"left_children":[1,3,5,7,9,11,13,15,-1,17,-1,-1,19,21,-1,-1,23,-1,-1,-1,-1,-1,25,-1,27,29,31,-1,-1,-1,-1,-1,-1],"loss_changes":[5.5386868E0,2.7238765E0,5.707071E0,3.361316E0,5.011175E0,1.7352309E0,3.5173063E0,1.9526443E0,0E0,6.8552375E-2,0E0,0E0,1.9369876E-1,2.9837685E0,0E0,0E0,9.639549E-1,0E0,0E0,0E0,0E0,0E0,3.554329E0,0E0,1.0943656E0,2.4531345E0,4.535779E0,0E0,0E0,0E0,0E0,0E0,0E0],"parents":[2147483647,0,0,1,1,2,2,3,3,4,4,5,5,6,6,7,7,9,9,12,12,13,13,16,16,22,22,24,24,25,25,26,26],"right_children":[2,4,6,8,10,12,14,16,-1,18,-1,-1,20,22,-1,-1,24,-1,-1,-1,-1,-1,26,-1,28,30,32,-1,-1,-1,-1,-1,-1],"split_conditions":[3.5944305E-2,1.9097632E-1,-2.8140637E-1,4.196158E-2,3.567912E-2,-5.5186555E-2,4.58559E-2,1.3858834E-2,3.706422E-2,-1.1473992E-2,5.8686133E-2,2.2385322E-2,4.277249E-2,3.4191392E-2,-2.6666669E-3,2.2385322E-2,-2.552325E-1,-1.8715596E-2,-2.3529413E-3,-2.3529413E-3,-2.3710407E-2,6.5822788E-3,7.687792E-2,1.0196079E-2,-1.8613945E-1,3.7901923E-2,6.013276E-1,2.4581007E-3,-2.2043668E-2,1.12615384E-1,2.5882354E-2,-1.9310346E-2,6.0689658E-2],"split_indices":[3,31,27,0,6,1,0,9,0,0,0,0,3,8,0,0,30,0,0,0,0,0,19,0,16,13,36,0,0,0,0,0,0],"split_type":[0,0,0,0,0,0,0,0,0,0,0,0,0,0,0,0,0,0,0,0,0,0,0,0,0,0,0,0,0,0,0,0,0],"sum_hessian":[8.334375E1,5.425E1,2.909375E1,4.6375E1,7.875E0,1.05E1,1.859375E1,4.396875E1,2.40625E0,4.59375E0,3.28125E0,2.40625E0,8.09375E0,1.44375E1,4.15625E0,2.40625E0,4.15625E1,2.40625E0,2.1875E0,2.1875E0,5.90625E0,3.9375E0,1.05E1,2.1875E0,3.9375E1,5.25E0,5.25E0,4.59375E0,3.478125E1,3.0625E0,2.1875E0,2.625E0,2.625E0],"tree_param":{"num_deleted":"0","num_feature":"37","num_nodes":"33","size_leaf_vector":"1"}},{"base_weights":[-9.539137E-2,1.9186991E-1,-2.540965E-1,-2.4E-2,3.902689E-1,1.9172113E-2,-3.4302583E-1,5.63142E-1,-2.1456955E-2,-2.5813332E-1,4.6896555E-2,-4.3675676E-1,6.064982E-2,6.972973E-1,-1.8039217E-2,1.6585367E-2,-2.4788734E-2,-9.959839E-2,-5.1153415E-1,-2.8387097E-1,2.9593496E-2,1.0453988E0,2.3087248E-1,2.2385322E-2,-2.2325581E-2,-2.723192E-2,-6.8292688E-3,-1.9310346E-2,-2.3529413E-3,1.4153846E-2,6.5964915E-2,-8.598131E-3,4.6896555E-2],"categories":[],"categories_nodes":[],"categories_segments":[],"categories_sizes":[],"default_left":[0,0,0,0,0,0,0,0,0,0,0,0,0,0,0,0,0,0,0,0,0,0,0,0,0,0,0,0,0,0,0,0,0],"id":5,"left_children":[1,3,5,-1,7,9,11,13,-1,15,-1,17,19,21,-1,-1,-1,23,25,27,-1,29,31,-1,-1,-1,-1,-1,-1,-1,-1,-1,-1],"loss_changes":[3.950059E0,4.277279E0,1.392257E0,0E0,3.7123E0,3.9645464E0,1.666256E0,2.8494325E0,0E0,1.823482E0,0E0,7.624736E-1,1.78305E0,2.634738E0,0E0,0E0,0E0,1.6771915E0,2.0387125E-1,7.936135E-2,0E0,1.5934448E0,2.8903468E0,0E0,0E0,0E0,0E0,0E0,0E0,0E0,0E0,0E0,0E0],"parents":[2147483647,0,0,1,1,2,2,4,4,5,5,6,6,7,7,9,9,11,11,12,12,13,13,17,17,18,18,19,19,21,21,22,22],"right_children":[2,4,6,-1,8,10,12,14,-1,16,-1,18,20,22,-1,-1,-1,24,26,28,-1,30,32,-1,-1,-1,-1,-1,-1,-1,-1,-1,-1],"split_conditions":[3.1611532E-2,2.2546012E-2,-1.6409276E-1,-2.4E-2,4.9193075E-1,-1.6479416E-1,1.0923017E-1,2.2778985E-1,-2.1456955E-2,5.2357063E-2,4.6896555E-2,-2.5243887E-1,-1.1497751E-3,2.0249018E-2,-1.8039217E-2,1.6585367E-2,-2.4788734E-2,-5.2119054E-2,5.1717933E-2,2.0886634E-3,2.9593496E-2,1.8812822E-2,1.68323E-1,2.2385322E-2,-2.2325581E-2,-2.723192E-2,-6.8292688E-3,-1.9310346E-2,-2.3529413E-3,1.4153846E-2,6.5964915E-2,-8.598131E-3,4.6896555E-2],"split_indices":[23,9,26,0,21,28,27,31,0,9,0,27,22,1,0,0,0,6,3,0,0,3,31,0,0,0,0,0,0,0,0,0,0],"split_type":[0,0,0,0,0,0,0,0,0,0,0,0,0,0,0,0,0,0,0,0,0,0,0,0,0,0,0,0,0,0,0,0,0],"sum_hessian":[8.44375E1,2.975E1,5.46875E1,6.34375E0,2.340625E1,1.334375E1,4.134375E1,1.96875E1,3.71875E0,1.071875E1,2.625E0,3.36875E1,7.65625E0,1.75E1,2.1875E0,2.84375E0,7.875E0,6.78125E0,2.690625E1,4.8125E0,2.84375E0,9.1875E0,8.3125E0,2.40625E0,4.375E0,2.40625E1,2.84375E0,2.625E0,2.1875E0,3.0625E0,6.125E0,5.6875E0,2.625E0],"tree_param":{"num_deleted":"0","num_feature":"37","num_nodes":"33","size_leaf_vector":"1"}},{"base_weights":[-2.3149315E-1,-3.7966102E-2,-3.718891E-1,-2.9807937E-1,4.287703E-1,-4.2012757E-1,7.4418604E-2,-4.4497043E-1,2.3649635E-2,9.4545454E-1,-1.8461539E-1,4.916201E-2,-4.7848102E-1,2.5882354E-2,-1.8039217E-2,-2.679868E-2,1.0196079E-2,7.448276E-2,1.6708862E-2,-2.1456955E-2,1.0196079E-2,-1.8715596E-2,2.5882354E-2,-2.3529413E-3,-4.9983248E-1,-5.2324325E-1,-5.5172415E-3,-2.7494991E-2,-1.0000001E-2],"categories":[],"categories_nodes":[],"categories_segments":[],"categories_sizes":[],"default_left":[0,0,0,0,0,0,0,0,0,0,0,0,0,0,0,0,0,0,0,0,0,0,0,0,0,0,0,0,0],"id":6,"left_children":[1,3,5,7,9,11,13,15,-1,17,19,21,23,-1,-1,-1,-1,-1,-1,-1,-1,-1,-1,-1,25,27,-1,-1,-1],"loss_changes":[2.2365503E0,4.5915236E0,1.1093292E0,2.972005E0,4.5192366E0,1.2739472E0,1.2392522E0,1.3899589E0,0E0,1.8355303E0,7.661711E-1,1.3178458E0,2.8564453E-1,0E0,0E0,0E0,0E0,0E0,0E0,0E0,0E0,0E0,0E0,0E0,2.1912575E-1,1.1391735E-1,0E0,0E0,0E0],"parents":[2147483647,0,0,1,1,2,2,3,3,4,4,5,5,6,6,7,7,9,9,10,10,11,11,12,12,24,24,25,25],"right_children":[2,4,6,8,10,12,14,16,-1,18,20,22,24,-1,-1,-1,-1,-1,-1,-1,-1,-1,-1,-1,26,28,-1,-1,-1],"split_conditions":[-3.6292482E-2,2.0434426E-2,4.361313E-2,1.006698E-1,1.3377981E-1,2.5423348E-2,6.9453806E-1,4.151329E-1,2.3649635E-2,1.6176429E-2,-6.636189E-3,1.7983567E-2,-1.1000883E-1,2.5882354E-2,-1.8039217E-2,-2.679868E-2,1.0196079E-2,7.448276E-2,1.6708862E-2,-2.1456955E-2,1.0196079E-2,-1.8715596E-2,2.5882354E-2,-2.3529413E-3,1.9898182E-1,2.5916687E-1,-5.5172415E-3,-2.7494991E-2,-1.0000001E-2],"split_indices":[5,27,23,30,27,18,21,16,0,31,2,3,6,0,0,0,0,0,0,0,0,0,0,0,28,16,0,0,0],"split_type":[0,0,0,0,0,0,0,0,0,0,0,0,0,0,0,0,0,0,0,0,0,0,0,0,0,0,0,0,0],"sum_hessian":[8.334375E1,3.5875E1,4.746875E1,2.340625E1,1.246875E1,4.309375E1,4.375E0,2.0125E1,3.28125E0,6.5625E0,5.90625E0,4.59375E0,3.85E1,2.1875E0,2.1875E0,1.79375E1,2.1875E0,2.625E0,3.9375E0,3.71875E0,2.1875E0,2.40625E0,2.1875E0,2.1875E0,3.63125E1,3.36875E1,2.625E0,3.01875E1,3.5E0],"tree_param":{"num_deleted":"0","num_feature":"37","num_nodes":"29","size_leaf_vector":"1"}},{"base_weights":[2.0830625E-1,9.4311625E-2,9.194667E-1,3.2333967E-1,-7.749288E-2,3.6013746E-1,1.0206896E-1,9.735849E-1,-1.0392749E-1,-2.0145985E-1,3.2E-1,8.3316064E-1,-2.0307694E-2,1.4596491E0,3.3684212E-1,-2.925373E-1,2.6835442E-2,-3.0144928E-2,-4.4931507E-1,6.0689658E-2,-1.125E-1,6.861789E-2,-2.3529413E-3,1.0431373E-1,3.696203E-2,-1.8039217E-2,3.696203E-2,1.0196079E-2,-3.8798285E-1,-3.2666665E-1,5.4876035E-1,-2.5652174E-2,-2.3529413E-3,2.5882354E-2,-2.27957E-2,-2.5595566E-2,2.919708E-4,-2.5759164E-2,1.4153846E-2,-8E-3,5.4444443E-2],"categories":[],"categories_nodes":[],"categories_segments":[],"categories_sizes":[],"default_left":[0,0,0,0,0,0,0,0,0,0,0,0,0,0,0,0,0,0,0,0,0,0,0,0,0,0,0,0,0,0,0,0,0,0,0,0,0,0,0,0,0],"id":7,"left_children":[1,3,5,7,9,11,-1,13,15,17,19,21,-1,23,25,27,-1,29,31,-1,33,-1,-1,-1,-1,-1,-1,-1,35,37,39,-1,-1,-1,-1,-1,-1,-1,-1,-1,-1],"loss_changes":[6.826861E0,3.032715E0,6.3784046E0,9.339122E0,2.2145972E0,3.6773357E0,0E0,3.4295273E0,2.6322675E0,1.3928087E0,4.35394E0,3.0596132E0,0E0,1.3916016E0,2.3047087E0,8.912194E-1,0E0,3.858428E0,2.7072787E-1,0E0,1.9610397E0,0E0,0E0,0E0,0E0,0E0,0E0,0E0,7.6433086E-1,1.8932487E0,3.1622002E0,0E0,0E0,0E0,0E0,0E0,0E0,0E0,0E0,0E0,0E0],"parents":[2147483647,0,0,1,1,2,2,3,3,4,4,5,5,7,7,8,8,9,9,10,10,11,11,13,13,14,14,15,15,17,17,18,18,20,20,28,28,29,29,30,30],"right_children":[2,4,6,8,10,12,-1,14,16,18,20,22,-1,24,26,28,-1,30,32,-1,34,-1,-1,-1,-1,-1,-1,-1,36,38,40,-1,-1,-1,-1,-1,-1,-1,-1,-1,-1],"split_conditions":[4.4123776E-2,-5.122183E-2,-5.592829E-1,2.4512322E-1,1.813214E-2,4.6703428E-2,1.0206896E-1,7.357174E-2,-5.8539283E-2,2.6565082E-3,-5.170542E-2,4.436702E-2,-2.0307694E-2,1.6069257E-1,3.2695245E-2,-2.9937807E-2,2.6835442E-2,2.1003967E-2,1.6916886E-2,6.0689658E-2,6.2211804E-2,6.861789E-2,-2.3529413E-3,1.0431373E-1,3.696203E-2,-1.8039217E-2,3.696203E-2,1.0196079E-2,-2.9937807E-2,1.6635108E-1,-3.6292482E-2,-2.5652174E-2,-2.3529413E-3,2.5882354E-2,-2.27957E-2,-2.5595566E-2,2.919708E-4,-2.5759164E-2,1.4153846E-2,-8E-3,5.4444443E-2],"split_indices":[23,27,27,21,0,13,0,19,20,2,10,3,0,21,13,0,0,4,2,0,19,0,0,0,0,0,0,0,10,31,5,0,0,0,0,0,0,0,0,0,0],"split_type":[0,0,0,0,0,0,0,0,0,0,0,0,0,0,0,0,0,0,0,0,0,0,0,0,0,0,0,0,0,0,0,0,0,0,0,0,0,0,0,0,0],"sum_hessian":[8.553125E1,7.48125E1,1.071875E1,3.19375E1,4.2875E1,8.09375E0,2.625E0,1.225E1,1.96875E1,3.325E1,9.625E0,5.03125E0,3.0625E0,6.125E0,6.125E0,1.575E1,3.9375E0,2.05625E1,1.26875E1,2.625E0,7E0,2.84375E0,2.1875E0,2.1875E0,3.9375E0,2.1875E0,3.9375E0,2.1875E0,1.35625E1,1.4E1,6.5625E0,1.05E1,2.1875E0,2.1875E0,4.8125E0,1.028125E1,3.28125E0,1.09375E1,3.0625E0,3.0625E0,3.5E0],"tree_param":{"num_deleted":"0","num_feature":"37","num_nodes":"41","size_leaf_vector":"1"}},{"base_weights":[1.6340344E-1,3.8401765E-1,-3.9094936E-2,1.0852649E0,2.2304033E-1,-1.7744341E-1,4.642742E-1,-0E0,9.706682E-2,6.73235E-2,5.9668627E-2,-2.3611002E-1,2.209351E-2,-1.5204182E-1,6.099012E-2,6.7367435E-1,-1.6563149E-1,2.1733453E-2,-3.0330664E-1,1.073911E-2,-2.0607464E-2,-0E0,1.0531994E0,-3.3147386E-1,4.417697E-1,1.0095772E-2,-3.5004756E-1,6.906966E-2,2.0751981E-2,-2.084308E-2,9.789665E-3,-2.6773901E-3,4.1818175E-2,3.7340333E-3,-2.1438671E-2],"categories":[],"categories_nodes":[],"categories_segments":[],"categories_sizes":[],"default_left":[0,0,0,0,0,0,0,0,0,0,0,0,0,0,0,0,0,0,0,0,0,0,0,0,0,0,0,0,0,0,0,0,0,0,0],"id":8,"left_children":[1,3,5,7,9,11,13,-1,-1,15,-1,17,-1,19,-1,21,23,-1,25,-1,-1,-1,27,29,31,-1,33,-1,-1,-1,-1,-1,-1,-1,-1],"loss_changes":[3.9644334E0,4.398678E0,3.2824976E0,6.8367224E0,5.1956534E0,1.4370711E0,5.00284E0,0E0,0E0,4.6763678E0,0E0,1.6883503E0,0E0,7.1773535E-1,0E0,2.2815194E0,2.5298767E0,0E0,8.500695E-1,0E0,0E0,0E0,4.6500158E-1,9.7593737E-1,1.1780167E0,0E0,1.0766487E0,0E0,0E0,0E0,0E0,0E0,0E0,0E0,0E0],"parents":[2147483647,0,0,1,1,2,2,3,3,4,4,5,5,6,6,9,9,11,11,13,13,15,15,16,16,18,18,22,22,23,23,24,24,26,26],"right_children":[2,4,6,8,10,12,14,-1,-1,16,-1,18,-1,20,-1,22,24,-1,26,-1,-1,-1,28,30,32,-1,34,-1,-1,-1,-1,-1,-1,-1,-1],"split_conditions":[-4.539821E-2,3.0056916E-2,9.91912E-2,-9.443761E-2,6.926051E-1,5.338913E-2,-2.324532E-2,-0E0,9.706682E-2,-1.1198689E-2,5.9668627E-2,-2.4815159E-2,2.209351E-2,2.0257716E-1,6.099012E-2,-8.445933E-2,1.55937495E-2,2.1733453E-2,2.0335829E-2,1.073911E-2,-2.0607464E-2,-0E0,8.909003E-2,1.7076251E-1,1.3552179E-2,1.0095772E-2,-5.6405743E-3,6.906966E-2,2.0751981E-2,-2.084308E-2,9.789665E-3,-2.6773901E-3,4.1818175E-2,3.7340333E-3,-2.1438671E-2],"split_indices":[10,13,26,11,21,0,5,0,0,7,0,0,0,26,0,5,2,0,13,0,0,0,26,28,30,0,7,0,0,0,0,0,0,0,0],"split_type":[0,0,0,0,0,0,0,0,0,0,0,0,0,0,0,0,0,0,0,0,0,0,0,0,0,0,0,0,0,0,0,0,0,0,0],"sum_hessian":[8.663321E1,4.1269306E1,4.53639E1,6.5170207E0,3.4752285E1,3.624758E1,9.116317E0,3.3538063E0,3.1632142E0,3.0956839E1,3.795448E0,3.382374E1,2.4238448E0,5.387726E0,3.7285907E0,8.186325E0,2.2770514E1,2.44638E0,3.1377357E1,2.148102E0,3.2396235E0,3.3709223E0,4.815403E0,1.837295E1,4.3975644E0,2.1947696E0,2.9182589E1,2.3073995E0,2.5080037E0,1.6155684E1,2.2172663E0,2.2207804E0,2.176784E0,4.3727317E0,2.4809856E1],"tree_param":{"num_deleted":"0","num_feature":"37","num_nodes":"35","size_leaf_vector":"1"}},{"base_weights":[-1.9509542E-1,2.7565834E-1,-2.9178268E-1,-2.2979941E-2,7.1386945E-1,-3.265296E-1,2.530085E-2,-1.9164199E-2,1.1815592E0,2.1802765E-1,-3.8329896E-1,7.660128E-2,3.138904E-2,3.2056227E-2,-1.8760702E-2,-4.861575E-1,-1.2923709E-1,-5.2573943E-1,-1.8954968E-1,-3.5905203E-1,2.3798496E-1,-1.0572285E-2,-2.7514849E-2,-2.1610903E-2,1.0685983E-2,2.295356E-3,-2.5035767E-2,-1.1596995E-2,3.864431E-2],"categories":[],"categories_nodes":[],"categories_segments":[],"categories_sizes":[],"default_left":[0,0,0,0,0,0,0,0,0,0,0,0,0,0,0,0,0,0,0,0,0,0,0,0,0,0,0,0,0],"id":9,"left_children":[1,3,5,-1,7,9,-1,-1,11,13,15,-1,-1,-1,-1,17,19,21,23,25,27,-1,-1,-1,-1,-1,-1,-1,-1],"loss_changes":[3.9196796E0,5.091252E0,2.1046581E0,0E0,5.505001E0,2.2143393E0,0E0,0E0,2.007761E-1,2.0059881E0,1.5079422E0,0E0,0E0,0E0,0E0,3.4327793E-1,1.7552961E0,9.9214554E-2,8.012539E-1,7.940587E-1,2.2430139E0,0E0,0E0,0E0,0E0,0E0,0E0,0E0,0E0],"parents":[2147483647,0,0,1,1,2,2,4,4,5,5,8,8,9,9,10,10,15,15,16,16,17,17,18,18,19,19,20,20],"right_children":[2,4,6,-1,8,10,-1,-1,12,14,16,-1,-1,-1,-1,18,20,22,24,26,28,-1,-1,-1,-1,-1,-1,-1,-1],"split_conditions":[2.2629991E-2,-6.879273E-2,6.804169E-2,-2.2979941E-2,1.747151E-2,-5.555149E-1,2.530085E-2,-1.9164199E-2,2.0446463E-2,-3.641728E-2,8.909003E-2,7.660128E-2,3.138904E-2,3.2056227E-2,-1.8760702E-2,-1.5367597E-2,-5.5948596E-2,1.9295879E-2,2.5663063E-2,-4.9102385E-2,1.195197E-2,-1.0572285E-2,-2.7514849E-2,-2.1610903E-2,1.0685983E-2,2.295356E-3,-2.5035767E-2,-1.1596995E-2,3.864431E-2],"split_indices":[8,26,8,0,9,31,0,0,8,11,26,0,0,0,0,5,15,3,3,1,0,0,0,0,0,0,0,0,0],"split_type":[0,0,0,0,0,0,0,0,0,0,0,0,0,0,0,0,0,0,0,0,0,0,0,0,0,0,0,0,0],"sum_hessian":[8.331417E1,1.3704416E1,6.960976E1,5.0142303E0,8.6901865E0,6.739072E1,2.219039E0,2.5872986E0,6.102887E0,5.9276776E0,6.146304E1,2.5451076E0,3.5577798E0,3.511293E0,2.4163847E0,4.281996E1,1.8643078E1,3.679947E1,6.020495E0,1.1648054E1,6.9950237E0,3.6585553E0,3.314091E1,3.8686893E0,2.1518054E0,3.0109587E0,8.637095E0,3.9256625E0,3.0693614E0],"tree_param":{"num_deleted":"0","num_feature":"37","num_nodes":"29","size_leaf_vector":"1"}},{"base_weights":[2.6247943E-2,8.524085E-2,-2.4800189E-2,-1.0263706E-1,3.6531112E-1,-3.6522564E-1,4.6578355E-2,-4.7636345E-2,6.06152E-1,-4.6410614E-1,1.041746E-2,4.5719713E-2,-4.011333E-2,3.7797254E-2,-3.9671266E-1,7.807187E-1,-2.6823962E-3,-2.0906746E-3,-2.604847E-2,1.1052947E-1,-3.2216647E-1,-1.8561786E-3,-2.4048476E-2,4.0256035E-1,8.010331E-2,-1.3146865E-2,1.8871633E-2,-2.4414374E-2,5.782282E-3,4.72246E-2,-1.1580693E-4],"categories":[],"categories_nodes":[],"categories_segments":[],"categories_sizes":[],"default_left":[0,0,0,0,0,0,0,0,0,0,0,0,0,0,0,0,0,0,0,0,0,0,0,0,0,0,0,0,0,0,0],"id":10,"left_children":[1,3,-1,5,7,9,11,13,15,17,-1,-1,19,-1,21,23,-1,-1,-1,25,27,-1,-1,29,-1,-1,-1,-1,-1,-1,-1],"loss_changes":[2.704916E0,4.2667274E0,0E0,1.9442387E0,3.317246E0,1.1365509E0,2.4931228E0,3.8397453E0,2.5051436E0,2.9924273E-1,0E0,0E0,1.3094639E0,0E0,2.220875E-1,4.3095827E0,0E0,0E0,0E0,2.0775313E0,8.7564135E-1,0E0,0E0,2.9012957E0,0E0,0E0,0E0,0E0,0E0,0E0,0E0],"parents":[2147483647,0,0,1,1,3,3,4,4,5,5,6,6,7,7,8,8,9,9,12,12,14,14,15,15,19,19,20,20,23,23],"right_children":[2,4,-1,6,8,10,12,14,16,18,-1,-1,20,-1,22,24,-1,-1,-1,26,28,-1,-1,30,-1,-1,-1,-1,-1,-1,-1],"split_conditions":[-3.159341E-2,-5.7715595E-2,-2.4800189E-2,1.2565142E-3,4.97651E-1,4.371328E-2,1.4356725E-1,1.8549522E-2,1.1382586E-1,1.52389575E-2,1.041746E-2,4.5719713E-2,4.2115465E-2,3.7797254E-2,2.4440294E-2,4.305148E-2,-2.6823962E-3,-2.0906746E-3,-2.604847E-2,3.3968672E-2,4.1076127E-2,-1.8561786E-3,-2.4048476E-2,2.4643172E-2,8.010331E-2,-1.3146865E-2,1.8871633E-2,-2.4414374E-2,5.782282E-3,4.72246E-2,-1.1580693E-4],"split_indices":[15,15,0,22,36,3,21,8,28,9,0,0,8,0,18,28,0,0,0,13,30,0,0,3,0,0,0,0,0,0,0],"split_type":[0,0,0,0,0,0,0,0,0,0,0,0,0,0,0,0,0,0,0,0,0,0,0,0,0,0,0,0,0,0,0],"sum_hessian":[8.675682E1,7.887541E1,7.8814087E0,4.7372963E1,3.1502453E1,1.6883678E1,3.0489285E1,1.1747354E1,1.9755098E1,1.4712534E1,2.1711447E0,2.006757E0,2.8482527E1,3.117885E0,8.629468E0,1.5596853E1,4.1582456E0,2.1606321E0,1.2551902E1,1.8731653E1,9.7508745E0,2.1369402E0,6.492528E0,1.1783473E1,3.8133805E0,7.6572986E0,1.1074354E1,7.1507516E0,2.600123E0,4.5745654E0,7.208907E0],"tree_param":{"num_deleted":"0","num_feature":"37","num_nodes":"31","size_leaf_vector":"1"}},{"base_weights":[-7.878994E-2,5.763266E-1,-1.2298052E-1,-3.9489334E-3,5.5815574E-2,-4.0735903E-1,-1.722122E-2,-2.1119997E-1,-2.5981193E-2,4.5191653E-2,-8.680947E-2,1.0178994E-1,-2.3011826E-2,-3.7597373E-1,4.4627056E-2,-1.7850904E-2,2.9072244E-2,1.8804878E-3,-4.648939E-1,3.2251588E-1,-1.6696171E-1,-2.6075384E-2,-2.1998356E-3,2.183527E-3,4.6336696E-2,1.3878998E-2,-2.0242816E-2],"categories":[],"categories_nodes":[],"categories_segments":[],"categories_sizes":[],"default_left":[0,0,0,0,0,0,0,0,0,0,0,0,0,0,0,0,0,0,0,0,0,0,0,0,0,0,0],"id":11,"left_children":[1,3,5,-1,-1,7,9,11,-1,-1,13,15,-1,17,19,-1,-1,-1,21,23,25,-1,-1,-1,-1,-1,-1],"loss_changes":[2.5917845E0,2.1856754E0,2.477171E0,0E0,0E0,3.1206846E-1,4.005011E0,8.768886E-1,0E0,0E0,2.2982764E0,1.3646598E0,0E0,7.5271225E-1,2.4993374E0,0E0,0E0,0E0,2.9632878E-1,2.96425E0,2.6544085E0,0E0,0E0,0E0,0E0,0E0,0E0],"parents":[2147483647,0,0,1,1,2,2,5,5,6,6,7,7,10,10,11,11,13,13,14,14,18,18,19,19,20,20],"right_children":[2,4,6,-1,-1,8,10,12,-1,-1,14,16,-1,18,20,-1,-1,-1,22,24,26,-1,-1,-1,-1,-1,-1],"split_conditions":[3.5649374E-1,2.8494028E-2,4.7405028E-1,-3.9489334E-3,5.5815574E-2,4.3945763E-1,5.2974597E-2,1.43555105E-2,-2.5981193E-2,4.5191653E-2,3.1081326E-2,-1.6814267E-2,-2.3011826E-2,-8.445933E-2,3.8027406E-2,-1.7850904E-2,2.9072244E-2,1.8804878E-3,1.2357048E-2,7.616746E-2,-5.8171064E-1,-2.6075384E-2,-2.1998356E-3,2.183527E-3,4.6336696E-2,1.3878998E-2,-2.0242816E-2],"split_indices":[35,23,35,0,0,35,14,1,0,0,4,0,0,15,23,0,0,0,0,16,27,0,0,0,0,0,0],"split_type":[0,0,0,0,0,0,0,0,0,0,0,0,0,0,0,0,0,0,0,0,0,0,0,0,0,0,0],"sum_hessian":[8.7644005E1,4.634449E0,8.300956E1,2.3956847E0,2.238764E0,2.147301E1,6.153655E1,9.189069E0,1.2283939E1,3.3796005E0,5.8156948E1,4.155784E0,5.0332847E0,1.7830233E1,4.0326714E1,2.1481714E0,2.0076127E0,3.0582418E0,1.4771991E1,1.7409895E1,2.291682E1,1.2600505E1,2.1714864E0,1.2759289E1,4.6506047E0,7.7840276E0,1.5132793E1],"tree_param":{"num_deleted":"0","num_feature":"37","num_nodes":"27","size_leaf_vector":"1"}},{"base_weights":[1.262714E-1,-2.7108757E-2,4.2880368E-1,1.2350765E-1,-3.0256253E-1,1.4153125E0,1.7668311E-1,-0E0,7.162037E-1,3.4955207E-2,-4.5767507E-1,9.8950714E-2,2.1694569E-2,8.4901065E-1,-1.7550497E-4,6.886988E-1,-1.726374E-1,6.4658426E-2,1.4901342E-3,-2.0187868E-2,2.2822684E-2,-2.5843645E-2,-3.8453632E-3,6.124232E-2,9.873258E-3,3.2800078E-1,-2.470428E-2,9.69553E-3,5.722797E-2,2.922736E-2,-2.6127937E-1,3.5299372E-2,6.013381E-2,1.2126659E-2,-1.767852E-2,-2.1856863E-2,1.9806249E-2],"categories":[],"categories_nodes":[],"categories_segments":[],"categories_sizes":[],"default_left":[0,0,0,0,0,0,0,0,0,0,0,0,0,0,0,0,0,0,0,0,0,0,0,0,0,0,0,0,0,0,0,0,0,0,0,0,0],"id":12,"left_children":[1,3,5,7,9,11,13,15,17,19,21,-1,-1,23,25,27,29,-1,-1,-1,-1,-1,-1,-1,-1,31,-1,-1,-1,-1,33,35,-1,-1,-1,-1,-1],"loss_changes":[4.0710754E0,2.4698133E0,6.907852E0,2.7893405E0,1.1628132E0,2.0893068E0,3.0166051E0,3.9863477E0,2.431438E0,1.5522286E0,2.3286772E-1,0E0,0E0,9.0215063E-1,3.4855647E0,1.1599252E0,1.919841E0,0E0,0E0,0E0,0E0,0E0,0E0,0E0,0E0,3.0945833E0,0E0,0E0,0E0,0E0,1.2504368E0,1.9860828E0,0E0,0E0,0E0,0E0,0E0],"parents":[2147483647,0,0,1,1,2,2,3,3,4,4,5,5,6,6,7,7,8,8,9,9,10,10,13,13,14,14,15,15,16,16,25,25,30,30,31,31],"right_children":[2,4,6,8,10,12,14,16,18,20,22,-1,-1,24,26,28,30,-1,-1,-1,-1,-1,-1,-1,-1,32,-1,-1,-1,-1,34,36,-1,-1,-1,-1,-1],"split_conditions":[3.6898527E-2,2.6016677E-2,3.9440446E-2,1.9097632E-1,-9.30031E-2,3.5197735E-2,-3.5840052E-3,-1.2824748E-1,1.1789224E-1,-4.178089E-3,8.038151E-2,9.8950714E-2,2.1694569E-2,1.3488601E-2,-5.46184E-2,3.2609362E-2,4.190992E-2,6.4658426E-2,1.4901342E-3,-2.0187868E-2,2.2822684E-2,-2.5843645E-2,-3.8453632E-3,6.124232E-2,9.873258E-3,1.5940199E-2,-2.470428E-2,9.69553E-3,5.722797E-2,2.922736E-2,-3.1034965E-2,3.8299773E-2,6.013381E-2,1.2126659E-2,-1.767852E-2,-2.1856863E-2,1.9806249E-2],"split_indices":[3,3,3,31,20,13,17,30,27,1,14,0,0,30,5,13,14,0,0,0,0,0,0,0,0,31,0,0,0,0,0,13,0,0,0,0,0],"split_type":[0,0,0,0,0,0,0,0,0,0,0,0,0,0,0,0,0,0,0,0,0,0,0,0,0,0,0,0,0,0,0,0,0,0,0,0,0],"sum_hessian":[8.5617874E1,5.719869E1,2.8419184E1,3.7100792E1,2.0097897E1,4.7648387E0,2.3654346E1,3.1529877E1,5.5709147E0,6.369062E0,1.3728835E1,2.3161395E0,2.4486992E0,4.252687E0,1.9401659E1,5.7199507E0,2.5809927E1,2.4673088E0,3.103606E0,3.0251775E0,3.3438845E0,1.1344962E1,2.3838723E0,2.0416162E0,2.2110708E0,1.1736704E1,7.664955E0,3.5315578E0,2.188393E0,2.0003366E0,2.380959E1,9.659076E0,2.0776281E0,3.2664943E0,2.0543095E1,3.9710553E0,5.68802E0],"tree_param":{"num_deleted":"0","num_feature":"37","num_nodes":"37","size_leaf_vector":"1"}},{"base_weights":[-2.8800955E-2,3.2976913E-1,-2.4106348E-1,-2.3711428E-2,5.415909E-1,-3.3931983E-1,-5.477453E-3,7.3565584E-1,-1.4958332E-1,-1.6848828E-1,-2.6531516E-2,4.1977867E-1,-3.179985E-1,-9.090948E-3,9.304646E-1,-2.0832794E-2,1.254652E-2,1.6839007E-2,-3.0563304E-1,-1.7833881E-2,8.131292E-1,1.0268122E-2,-2.4535438E-2,8.507326E-2,5.4891735E-1,-4.5250434E-1,1.0349386E-2,1.011867E-2,5.6851495E-2,-7.378492E-3,3.8905542E-2,-2.0598948E-3,-2.5728395E-2],"categories":[],"categories_nodes":[],"categories_segments":[],"categories_sizes":[],"default_left":[0,0,0,0,0,0,0,0,0,0,0,0,0,0,0,0,0,0,0,0,0,0,0,0,0,0,0,0,0,0,0,0,0],"id":13,"left_children":[1,3,5,-1,7,9,11,13,15,17,-1,19,21,-1,23,-1,-1,-1,25,-1,27,-1,-1,-1,29,31,-1,-1,-1,-1,-1,-1,-1],"loss_changes":[6.4778595E0,5.6367154E0,1.2051377E0,0E0,3.5939403E0,1.0672817E0,2.3960662E0,3.85806E0,7.96752E-1,1.594391E0,0E0,2.6383662E0,1.0839684E0,0E0,3.8220062E0,0E0,0E0,0E0,1.4465989E0,0E0,7.0315385E-1,0E0,0E0,0E0,2.2354984E0,2.8519678E-1,0E0,0E0,0E0,0E0,0E0,0E0,0E0],"parents":[2147483647,0,0,1,1,2,2,4,4,5,5,6,6,7,7,8,8,9,9,11,11,12,12,14,14,18,18,20,20,24,24,25,25],"right_children":[2,4,6,-1,8,10,12,14,16,18,-1,20,22,-1,24,-1,-1,-1,26,-1,28,-1,-1,-1,30,32,-1,-1,-1,-1,-1,-1,-1],"split_conditions":[3.1611532E-2,2.2546012E-2,5.806304E-3,-2.3711428E-2,3.3194773E-2,3.5554804E-2,1.0237614E-2,2.0032002E-2,3.5452417E-3,-7.3206853E-3,-2.6531516E-2,7.359155E-2,3.460666E-2,-9.090948E-3,-9.133846E-2,-2.0832794E-2,1.254652E-2,1.6839007E-2,4.2198098E-1,-1.7833881E-2,3.8348306E-2,1.0268122E-2,-2.4535438E-2,8.507326E-2,2.3513645E-2,3.2121446E-2,1.0349386E-2,1.011867E-2,5.6851495E-2,-7.378492E-3,3.8905542E-2,-2.0598948E-3,-2.5728395E-2],"split_indices":[23,9,12,0,8,8,12,8,0,12,0,14,18,0,26,0,0,0,21,0,23,0,0,0,8,23,0,0,0,0,0,0,0],"split_type":[0,0,0,0,0,0,0,0,0,0,0,0,0,0,0,0,0,0,0,0,0,0,0,0,0,0,0,0,0,0,0,0,0],"sum_hessian":[8.318278E1,3.0550251E1,5.2632523E1,6.013669E0,2.4536583E1,3.653147E1,1.6101053E1,1.922031E1,5.3162723E0,2.0568316E1,1.5963155E1,6.5394545E0,9.561598E0,3.2880774E0,1.5932233E1,3.315074E0,2.0011983E0,3.924579E0,1.6643738E1,2.1447735E0,4.394681E0,2.181866E0,7.379732E0,4.042333E0,1.18899E1,1.3179903E1,3.463834E0,2.1930137E0,2.2016673E0,2.9240227E0,8.965878E0,2.15741E0,1.1022493E1],"tree_param":{"num_deleted":"0","num_feature":"37","num_nodes":"33","size_leaf_vector":"1"}},{"base_weights":[-2.3708472E-1,2.8766185E-2,-2.7352348E-1,-3.025876E-1,2.6008997E-2,-1.3538904E-1,-3.9859027E-1,-3.410569E-1,2.1694198E-1,-4.2988148E-1,2.347684E-3,3.069486E-2,-4.629692E-1,4.2728674E-2,-1.3833039E-1,-3.5566166E-2,-4.8212814E-1,-1.9157907E-2,2.591225E-2,-1.8542417E-3,-2.6014252E-2,1.9189421E-2,-2.2839932E-2,-2.1308128E-2,2.5655711E-2,-2.0291444E-3,-2.756581E-2],"categories":[],"categories_nodes":[],"categories_segments":[],"categories_sizes":[],"default_left":[0,0,0,0,0,0,0,0,0,0,0,0,0,0,0,0,0,0,0,0,0,0,0,0,0,0,0],"id":14,"left_children":[1,-1,3,5,-1,7,9,11,13,15,-1,17,19,-1,21,23,25,-1,-1,-1,-1,-1,-1,-1,-1,-1,-1],"loss_changes":[2.6719828E0,0E0,2.0519037E0,1.1910205E0,0E0,2.3616312E0,7.6239014E-1,9.816971E-1,2.9093356E0,9.0935326E-1,0E0,1.3766227E0,3.0630088E-1,0E0,1.5908853E0,1.6799879E0,1.1900892E0,0E0,0E0,0E0,0E0,0E0,0E0,0E0,0E0,0E0,0E0],"parents":[2147483647,0,0,2,2,3,3,5,5,6,6,7,7,8,8,9,9,11,11,12,12,14,14,15,15,16,16],"right_children":[2,-1,4,6,-1,8,10,12,14,16,-1,18,20,-1,22,24,26,-1,-1,-1,-1,-1,-1,-1,-1,-1,-1],"split_conditions":[-2.4130395E-1,2.8766185E-2,2.9664788E-1,-3.6988165E-2,2.6008997E-2,-1.0288235E-3,2.3028882E-1,-2.0413364E-3,-2.0332204E-2,-5.256071E-1,2.347684E-3,3.0187448E-2,-6.910572E-1,4.2728674E-2,6.2542E-2,-6.010315E-1,2.5423348E-2,-1.9157907E-2,2.591225E-2,-1.8542417E-3,-2.6014252E-2,1.9189421E-2,-2.2839932E-2,-2.1308128E-2,2.5655711E-2,-2.0291444E-3,-2.756581E-2],"split_indices":[16,0,6,5,0,6,29,22,0,29,0,13,27,0,19,27,18,0,0,0,0,0,0,0,0,0,0],"split_type":[0,0,0,0,0,0,0,0,0,0,0,0,0,0,0,0,0,0,0,0,0,0,0,0,0,0,0],"sum_hessian":[8.496377E1,2.8946192E0,8.206915E1,7.988852E1,2.180629E0,3.0398432E1,4.949009E1,1.939356E1,1.1004872E1,4.6484978E1,3.005111E0,4.7715254E0,1.4622034E1,3.5355146E0,7.469358E0,5.8592014E0,4.0625774E1,2.5856907E0,2.1858346E0,2.1367428E0,1.24852915E1,2.6331992E0,4.8361583E0,3.6595674E0,2.199634E0,5.914223E0,3.471155E1],"tree_param":{"num_deleted":"0","num_feature":"37","num_nodes":"27","size_leaf_vector":"1"}},{"base_weights":[1.6844276E-1,5.1028293E-1,-1.7180926E-1,2.699506E-1,1.1017623E0,6.7003064E-2,-3.776838E-1,7.2533056E-2,8.952303E-2,1.367697E0,-2.3919484E-3,-2.4016687E-1,6.1288786E-1,-4.9489245E-1,2.5447367E-2,-2.8108767E-1,3.5312673E-1,2.279803E-2,8.7055735E-2,-4.1922143E-1,1.3768378E-2,4.6784785E-2,-3.7942857E-3,-2.6857633E-2,-2.2439295E-3,-4.140088E-1,1.2376252E-2,5.866869E-2,1.2175766E-1,-1.9744353E-3,-2.4778705E-2,-2.4651093E-2,-8.324015E-4,1.5686821E-2,-2.0711415E-2],"categories":[],"categories_nodes":[],"categories_segments":[],"categories_sizes":[],"default_left":[0,0,0,0,0,0,0,0,0,0,0,0,0,0,0,0,0,0,0,0,0,0,0,0,0,0,0,0,0,0,0,0,0,0,0],"id":15,"left_children":[1,3,5,7,9,11,13,-1,15,17,-1,19,21,23,-1,25,27,-1,-1,29,-1,-1,-1,-1,-1,31,-1,-1,33,-1,-1,-1,-1,-1,-1],"loss_changes":[1.0247289E1,5.7953024E0,2.2310278E0,6.6626935E0,3.932579E0,3.7228463E0,2.758012E0,0E0,2.981108E0,2.400114E0,0E0,1.4318236E0,1.9351056E0,3.345313E-1,0E0,1.0065026E0,3.1048758E0,0E0,0E0,2.4612081E-1,0E0,0E0,0E0,0E0,0E0,2.74163E-1,0E0,0E0,1.6727681E0,0E0,0E0,0E0,0E0,0E0,0E0],"parents":[2147483647,0,0,1,1,2,2,3,3,4,4,5,5,6,6,8,8,9,9,11,11,12,12,13,13,15,15,16,16,19,19,25,25,28,28],"right_children":[2,4,6,8,10,12,14,-1,16,18,-1,20,22,24,-1,26,28,-1,-1,30,-1,-1,-1,-1,-1,32,-1,-1,34,-1,-1,-1,-1,-1,-1],"split_conditions":[-5.122183E-2,-2.079109E-2,4.8999406E-2,-1.2728937E-2,3.7863743E-2,-4.801341E-4,8.209967E-1,7.2533056E-2,3.56772E-2,3.0454997E-2,-2.3919484E-3,1.3762704E-1,3.0087478E-2,3.876235E-2,2.5447367E-2,9.5574304E-2,4.3822846E-1,2.279803E-2,8.7055735E-2,1.6800014E-2,1.3768378E-2,4.6784785E-2,-3.7942857E-3,-2.6857633E-2,-2.2439295E-3,1.374227E-2,1.2376252E-2,5.866869E-2,3.1081326E-2,-1.9744353E-3,-2.4778705E-2,-2.4651093E-2,-8.324015E-4,1.5686821E-2,-2.0711415E-2],"split_indices":[27,5,9,7,8,1,32,0,8,23,0,27,13,23,0,28,32,0,0,9,0,0,0,0,0,1,0,0,0,0,0,0,0,0,0],"split_type":[0,0,0,0,0,0,0,0,0,0,0,0,0,0,0,0,0,0,0,0,0,0,0,0,0,0,0,0,0,0,0,0,0,0,0],"sum_hessian":[8.60571E1,4.282569E1,4.3231407E1,3.1608046E1,1.1217647E1,2.010205E1,2.3129358E1,3.1831665E0,2.842488E1,9.026775E0,2.190871E0,1.3104812E1,6.997239E0,2.0918625E1,2.210734E0,1.162922E1,1.6795658E1,3.3460076E0,5.680768E0,1.000922E1,3.0955908E0,4.6190953E0,2.3781438E0,1.8742674E1,2.1759505E0,9.61698E0,2.0122404E0,2.7044003E0,1.4091258E1,2.1488779E0,7.8603425E0,7.611143E0,2.0058367E0,1.0817785E1,3.2734728E0],"tree_param":{"num_deleted":"0","num_feature":"37","num_nodes":"35","size_leaf_vector":"1"}},{"base_weights":[2.0236716E-1,1.0653679E-1,1.1861068E0,4.7710955E-1,-7.397671E-2,-5.9514544E-3,9.676346E-2,3.22706E-1,7.809387E-2,-1.7773125E-1,4.5869225E-1,6.561538E-1,-4.6937883E-2,1.7407116E-1,-3.1902373E-1,8.5066235E-1,-1.5239118E-3,9.598227E-1,-1.9414464E-2,-3.7384045E-1,4.606655E-1,-2.9356924E-1,4.7811115E-1,2.5931051E-2,-3.9509386E-1,6.1005957E-2,1.0052956E-2,5.5520367E-3,7.234651E-2,-2.3391295E-2,-8.962061E-4,6.05609E-2,-1.8217934E-2,-8.66301E-4,-2.0135578E-2,5.148838E-2,-1.0910232E-2,-2.2270372E-2,2.074543E-3],"categories":[],"categories_nodes":[],"categories_segments":[],"categories_sizes":[],"default_left":[0,0,0,0,0,0,0,0,0,0,0,0,0,0,0,0,0,0,0,0,0,0,0,0,0,0,0,0,0,0,0,0,0,0,0,0,0,0,0],"id":16,"left_children":[1,3,5,7,9,-1,-1,11,-1,13,15,17,19,21,23,25,-1,27,-1,29,31,33,35,-1,37,-1,-1,-1,-1,-1,-1,-1,-1,-1,-1,-1,-1,-1,-1],"loss_changes":[8.06744E0,5.5369153E0,7.887661E0,3.8395615E0,3.1253605E0,0E0,0E0,3.176581E0,0E0,2.4261346E0,1.8688496E0,4.6694384E0,2.2644129E0,2.153083E0,2.3828297E0,8.7173367E-1,0E0,4.115015E0,0E0,2.231232E-1,3.8003073E0,1.3240874E-1,3.766824E0,0E0,7.6593876E-1,0E0,0E0,0E0,0E0,0E0,0E0,0E0,0E0,0E0,0E0,0E0,0E0,0E0,0E0],"parents":[2147483647,0,0,1,1,2,2,3,3,4,4,7,7,9,9,10,10,11,11,12,12,13,13,14,14,15,15,17,17,19,19,20,20,21,21,22,22,24,24],"right_children":[2,4,6,8,10,-1,-1,12,-1,14,16,18,20,22,24,26,-1,28,-1,30,32,34,36,-1,38,-1,-1,-1,-1,-1,-1,-1,-1,-1,-1,-1,-1,-1,-1],"split_conditions":[6.926051E-1,-5.486237E-3,-7.544317E-1,-6.4780368E-3,1.699771E-2,-5.9514544E-3,9.676346E-2,-4.4258397E-2,7.809387E-2,-9.745828E-2,-2.4815159E-2,9.245857E-2,-3.1415645E-2,-6.700736E-2,1.282285E-2,7.337515E-1,-1.5239118E-3,-8.445933E-2,-1.9414464E-2,5.4824525E-1,4.5700145E-1,2.6455112E-2,6.268625E-1,2.5931051E-2,2.0508234E-1,6.1005957E-2,1.0052956E-2,5.5520367E-3,7.234651E-2,-2.3391295E-2,-8.962061E-4,6.05609E-2,-1.8217934E-2,-8.66301E-4,-2.0135578E-2,5.148838E-2,-1.0910232E-2,-2.2270372E-2,2.074543E-3],"split_indices":[21,7,27,7,7,0,0,5,0,25,10,26,5,11,4,35,0,5,0,36,35,8,36,0,31,0,0,0,0,0,0,0,0,0,0,0,0,0,0],"split_type":[0,0,0,0,0,0,0,0,0,0,0,0,0,0,0,0,0,0,0,0,0,0,0,0,0,0,0,0,0,0,0,0,0,0,0,0,0,0,0],"sum_hessian":[8.72877E1,8.064196E1,6.6457343E0,2.605829E1,5.4583668E1,2.68163E0,3.9641042E0,2.4027887E1,2.030404E0,4.6399864E1,8.1838045E0,1.23671665E1,1.166072E1,1.302624E1,3.3373623E1,4.2465234E0,3.9372816E0,9.7183485E0,2.6488187E0,7.372966E0,4.287754E0,5.016285E0,8.009955E0,2.1846914E0,3.1188932E1,2.0489857E0,2.1975377E0,4.0662255E0,5.6521225E0,5.3617244E0,2.0112414E0,2.0635664E0,2.2241876E0,2.0082674E0,3.0080173E0,4.282152E0,3.7278037E0,2.8153288E1,3.035645E0],"tree_param":{"num_deleted":"0","num_feature":"37","num_nodes":"39","size_leaf_vector":"1"}},{"base_weights":[-1.9514367E-1,2.8337045E-2,-2.2948883E-1,-2.5741968E-1,2.8387824E-2,-1.4452735E-1,-5.026326E-1,-9.494906E-3,-2.6199529E-2,-2.6968801E-2,-3.7633074E-3,-1.2841749E-1,5.940667E-1,-1.2284291E-2,1.3324256E-2,-1.7770443E-2,5.3805895E-2],"categories":[],"categories_nodes":[],"categories_segments":[],"categories_sizes":[],"default_left":[0,0,0,0,0,0,0,0,0,0,0,0,0,0,0,0,0],"id":17,"left_children":[1,-1,3,5,-1,7,9,11,-1,-1,-1,13,15,-1,-1,-1,-1],"loss_changes":[2.376113E0,0E0,1.9901338E0,2.137113E0,0E0,2.9106967E0,2.9394722E-1,3.1842394E0,0E0,0E0,0E0,1.8081217E0,3.7835393E0,0E0,0E0,0E0,0E0],"parents":[2147483647,0,0,2,2,3,3,5,5,6,6,7,7,11,11,12,12],"right_children":[2,-1,4,6,-1,8,10,12,-1,-1,-1,14,16,-1,-1,-1,-1],"split_conditions":[4.914543E-2,2.8337045E-2,7.0123516E-2,3.721745E-2,2.8387824E-2,7.7400994E-3,-5.4612603E-2,3.64704E-2,-2.6199529E-2,-2.6968801E-2,-3.7633074E-3,1.5933175E-1,-2.955253E-3,-1.2284291E-2,1.3324256E-2,-1.7770443E-2,5.3805895E-2],"split_indices":[19,0,8,3,0,7,20,13,0,0,0,29,7,0,0,0,0],"split_type":[0,0,0,0,0,0,0,0,0,0,0,0,0,0,0,0,0],"sum_hessian":[8.612397E1,2.920697E0,8.320327E1,8.116236E1,2.0409129E0,5.6943592E1,2.4218767E1,4.2948772E1,1.399482E1,2.1844566E1,2.3742003E0,3.667537E1,6.273404E0,2.8764647E1,7.9107223E0,2.1311123E0,4.1422915E0],"tree_param":{"num_deleted":"0","num_feature":"37","num_nodes":"17","size_leaf_vector":"1"}},{"base_weights":[9.748486E-2,1.5472156E-1,-2.412278E-2,9.555548E-2,5.2709848E-2,1.756107E-1,-4.080774E-1,2.6715842E-1,-2.0788397E-1,-2.4410753E-2,-1.102881E-3,-3.1310698E-1,3.4267297E-1,1.3691241E-2,-3.9973003E-1,-8.1427686E-4,-2.1016609E-2,2.3637515E-2,4.4967784E-4,-2.2915658E-3,-2.4128973E-2],"categories":[],"categories_nodes":[],"categories_segments":[],"categories_sizes":[],"default_left":[0,0,0,0,0,0,0,0,0,0,0,0,0,0,0,0,0,0,0,0,0],"id":18,"left_children":[1,3,-1,5,-1,7,9,11,13,-1,-1,15,17,-1,19,-1,-1,-1,-1,-1,-1],"loss_changes":[2.8410974E0,3.9176838E0,0E0,3.0351603E0,0E0,2.3360848E0,2.565149E-1,2.4304998E0,1.308429E0,0E0,0E0,1.5533304E-1,2.0085697E0,0E0,2.1050966E-1,0E0,0E0,0E0,0E0,0E0,0E0],"parents":[2147483647,0,0,1,1,3,3,5,5,6,6,7,7,8,8,11,11,12,12,14,14],"right_children":[2,4,-1,6,-1,8,10,12,14,-1,-1,16,18,-1,20,-1,-1,-1,-1,-1,-1],"split_conditions":[-3.159341E-2,-9.392599E-3,-2.412278E-2,1.4584376E-1,5.2709848E-2,7.820888E-3,4.23103E-2,-1.661468E-1,-5.744773E-1,-2.4410753E-2,-1.102881E-3,-2.2200005E-1,-2.3826163E-2,1.3691241E-2,2.9617887E-2,-8.1427686E-4,-2.1016609E-2,2.3637515E-2,4.4967784E-4,-2.2915658E-3,-2.4128973E-2],"split_indices":[15,5,0,26,0,17,18,11,29,0,0,31,5,0,18,0,0,0,0,0,0],"split_type":[0,0,0,0,0,0,0,0,0,0,0,0,0,0,0,0,0,0,0,0,0],"sum_hessian":[8.332954E1,7.666846E1,6.6610813E0,7.307886E1,3.5896022E0,6.3789093E1,9.289761E0,5.1951393E1,1.1837701E1,7.2589984E0,2.0307622E0,5.467525E0,4.6483868E1,3.1015108E0,8.73619E0,2.0041425E0,3.4633822E0,3.293028E1,1.3553587E1,2.1808197E0,6.5553703E0],"tree_param":{"num_deleted":"0","num_feature":"37","num_nodes":"21","size_leaf_vector":"1"}},{"base_weights":[-3.8650062E-2,2.3904511E-1,-2.736304E-1,-1.5875627E-1,5.806473E-1,2.2749211E-1,-3.546792E-1,-3.8080707E-1,4.1649702E-1,4.4650245E-2,8.865307E-1,-1.8874964E-2,3.4397103E-2,-3.951902E-1,1.0993758E-2,-2.4977842E-2,-9.46963E-2,-1.8103229E-2,5.3545278E-2,3.3840975E-1,-1.9914635E-2,1.3967968E0,1.1735906E-1,9.894299E-3,-4.3999463E-1,-1.9134944E-2,1.22378925E-2,-3.9045133E-3,3.3114616E-2,1.7298654E0,1.2518135E-2,-1.8547773E-2,2.5607307E-2,-2.6969275E-2,-2.5299338E-1,2.8125122E-2,1.0938557E-1,2.8426012E-2,-2.1912267E-2],"categories":[],"categories_nodes":[],"categories_segments":[],"categories_sizes":[],"default_left":[0,0,0,0,0,0,0,0,0,0,0,0,0,0,0,0,0,0,0,0,0,0,0,0,0,0,0,0,0,0,0,0,0,0,0,0,0,0,0],"id":19,"left_children":[1,3,5,7,9,11,13,15,17,19,21,-1,-1,23,-1,-1,25,-1,-1,27,-1,29,31,-1,33,-1,-1,-1,-1,35,-1,-1,-1,-1,37,-1,-1,-1,-1],"loss_changes":[5.5409555E0,5.4035015E0,1.9651508E0,2.5263152E0,3.3449006E0,2.199848E0,1.0408401E0,3.703432E-1,3.2722204E0,1.2840563E0,4.9174414E0,0E0,0E0,1.1237326E0,0E0,0E0,6.5488726E-1,0E0,0E0,9.21489E-1,0E0,2.364564E0,1.454702E0,0E0,4.514041E-1,0E0,0E0,0E0,0E0,1.6169796E0,0E0,0E0,0E0,0E0,2.471569E0,0E0,0E0,0E0,0E0],"parents":[2147483647,0,0,1,1,2,2,3,3,4,4,5,5,6,6,7,7,8,8,9,9,10,10,13,13,16,16,19,19,21,21,22,22,24,24,29,29,34,34],"right_children":[2,4,6,8,10,12,14,16,18,20,22,-1,-1,24,-1,-1,26,-1,-1,28,-1,30,32,-1,34,-1,-1,-1,-1,36,-1,-1,-1,-1,38,-1,-1,-1,-1],"split_conditions":[-3.0533355E-2,-1.6311948E-1,-9.7370096E-2,4.851813E-2,3.0319547E-2,2.9240066E-2,4.839336E-2,-2.5656116E-1,4.160082E-2,-1.6629793E-2,6.895374E-2,-1.8874964E-2,3.4397103E-2,2.8136596E-2,1.0993758E-2,-2.4977842E-2,-3.983527E-1,-1.8103229E-2,5.3545278E-2,1.4707808E-3,-1.9914635E-2,-1.6991904E-2,-1.3747244E-1,9.894299E-3,4.6855215E-2,-1.9134944E-2,1.22378925E-2,-3.9045133E-3,3.3114616E-2,-1.3805642E-2,1.2518135E-2,-1.8547773E-2,2.5607307E-2,-2.6969275E-2,2.0482407E-3,2.8125122E-2,1.0938557E-1,2.8426012E-2,-2.1912267E-2],"split_indices":[30,29,15,23,23,18,18,31,18,5,14,0,0,23,0,0,28,0,0,0,0,28,28,0,4,0,0,0,0,21,0,0,0,0,1,0,0,0,0],"split_type":[0,0,0,0,0,0,0,0,0,0,0,0,0,0,0,0,0,0,0,0,0,0,0,0,0,0,0,0,0,0,0,0,0,0,0,0,0,0,0],"sum_hessian":[8.285967E1,3.777502E1,4.508465E1,1.756399E1,2.0211033E1,5.853281E0,3.9231365E1,1.3041685E1,4.522304E0,7.8784966E0,1.2332536E1,2.5136003E0,3.339681E0,3.7101612E1,2.1297555E0,8.442216E0,4.5994687E0,2.1994724E0,2.3228316E0,5.014586E0,2.8639107E0,6.8453593E0,5.4871764E0,2.2092454E0,3.4892365E1,2.5787659E0,2.0207028E0,2.3905604E0,2.6240253E0,4.8423853E0,2.002974E0,2.3667693E0,3.120407E0,2.120356E1,1.3688807E1,2.0535297E0,2.7888556E0,2.0388162E0,1.164999E1],"tree_param":{"num_deleted":"0","num_feature":"37","num_nodes":"39","size_leaf_vector":"1"}},{"base_weights":[-1.6411992E-2,4.1127887E-2,-6.368963E-2,-1.6265158E-1,4.0115488E-1,-4.5221567E-1,-2.2284545E-2,5.827835E-2,1.6627831E-2,7.5592618E-3,-2.6847005E-2,-2.4639753E-1,4.148849E-1,3.5947047E-2,-2.5889373E-1,2.854154E-2,-3.2208368E-1,5.4414693E-2,1.0710106E0,1.2059441E-2,-2.3413E-2,-2.0378923E-2,2.5369192E-2,3.972322E-2,-9.589218E-3,7.619154E-2,1.004675E-2],"categories":[],"categories_nodes":[],"categories_segments":[],"categories_sizes":[],"default_left":[0,0,0,0,0,0,0,0,0,0,0,0,0,0,0,0,0,0,0,0,0,0,0,0,0,0,0],"id":20,"left_children":[1,-1,3,5,7,9,11,-1,13,-1,-1,15,17,-1,19,-1,21,23,25,-1,-1,-1,-1,-1,-1,-1,-1],"loss_changes":[3.4505699E0,0E0,3.9034865E0,2.7920158E0,4.226568E0,1.2753744E0,4.837459E0,0E0,2.3567333E0,0E0,0E0,2.190446E0,3.7693355E0,0E0,1.0275846E0,0E0,2.3817756E0,2.381547E0,1.7888331E0,0E0,0E0,0E0,0E0,0E0,0E0,0E0,0E0],"parents":[2147483647,0,0,2,2,3,3,4,4,5,5,6,6,8,8,11,11,12,12,14,14,16,16,17,17,18,18],"right_children":[2,-1,4,6,8,10,12,-1,14,-1,-1,16,18,-1,20,-1,22,24,26,-1,-1,-1,-1,-1,-1,-1,-1],"split_conditions":[-1.6213484E-1,4.1127887E-2,3.6858987E-2,-2.4846265E-1,-6.5931105E-3,1.295744E-2,4.8558034E-2,5.827835E-2,2.6016677E-2,7.5592618E-3,-2.6847005E-2,-1.8884923E-1,3.4375887E-2,3.5947047E-2,4.58559E-2,2.854154E-2,2.2608925E-1,-1.4672135E-3,-3.7616353E-2,1.2059441E-2,-2.3413E-2,-2.0378923E-2,2.5369192E-2,3.972322E-2,-9.589218E-3,7.619154E-2,1.004675E-2],"split_indices":[6,0,0,27,6,3,11,0,3,0,0,28,8,0,0,0,28,22,5,0,0,0,0,0,0,0,0],"split_type":[0,0,0,0,0,0,0,0,0,0,0,0,0,0,0,0,0,0,0,0,0,0,0,0,0,0,0],"sum_hessian":[8.6586334E1,3.631398E0,8.295494E1,6.910765E1,1.3847288E1,2.1604828E1,4.7502823E1,3.8675826E0,9.979706E0,2.4181578E0,1.918667E1,3.1843512E1,1.5659311E1,2.4607482E0,7.518957E0,2.0326338E0,2.9810877E1,1.0904055E1,4.755257E0,2.0331182E0,5.485839E0,2.759572E1,2.215157E0,2.2674832E0,8.636571E0,2.5577817E0,2.1974754E0],"tree_param":{"num_deleted":"0","num_feature":"37","num_nodes":"27","size_leaf_vector":"1"}},{"base_weights":[-0E0,2.9593092E-1,-1.8300448E-1,-3.4487516E-1,4.7754648E-1,-2.951225E-1,6.004799E-2,-2.2141084E-2,-1.9464305E-3,3.1368795E-1,7.528316E-2,-9.1563925E-2,-4.7718626E-1,6.0901755E-1,-2.4416392E-1,-2.1794027E-2,4.9666685E-1,2.9781042E-2,-3.1524605E-1,-2.6379574E-2,-1.7168407E-3,-5.6637703E-3,5.929144E-2,1.443418E-2,-2.439059E-2,7.9185236E-1,-7.2492965E-2,-4.3302625E-1,1.0460451E-2,-0E0,5.330651E-2,-2.1283297E-2,1.7455041E-2,-2.5142238E-2,-1.8920869E-3],"categories":[],"categories_nodes":[],"categories_segments":[],"categories_sizes":[],"default_left":[0,0,0,0,0,0,0,0,0,0,0,0,0,0,0,0,0,0,0,0,0,0,0,0,0,0,0,0,0,0,0,0,0,0,0],"id":21,"left_children":[1,3,5,7,9,11,13,-1,-1,15,-1,17,19,21,23,-1,25,-1,27,-1,-1,-1,-1,-1,-1,29,31,33,-1,-1,-1,-1,-1,-1,-1],"loss_changes":[4.4673758E0,3.8517926E0,1.4268E0,1.5724033E-1,3.580536E0,1.2056565E0,2.9574368E0,0E0,0E0,3.3810892E0,0E0,2.9476247E0,3.2990408E-1,2.8756256E0,1.6248859E0,0E0,3.3357482E0,0E0,1.0053703E0,0E0,0E0,0E0,0E0,0E0,0E0,2.6928864E0,1.245901E0,2.6569462E-1,0E0,0E0,0E0,0E0,0E0,0E0,0E0],"parents":[2147483647,0,0,1,1,2,2,3,3,4,4,5,5,6,6,9,9,11,11,12,12,13,13,14,14,16,16,18,18,25,25,26,26,27,27],"right_children":[2,4,6,8,10,12,14,-1,-1,16,-1,18,20,22,24,-1,26,-1,28,-1,-1,-1,-1,-1,-1,30,32,34,-1,-1,-1,-1,-1,-1,-1],"split_conditions":[3.1611532E-2,2.0032002E-2,5.806304E-3,1.6983332E-2,1.0396628E-1,3.374781E-2,2.0030248E-1,-2.2141084E-2,-1.9464305E-3,-3.3451962E-1,7.528316E-2,-6.278828E-2,3.8040224E-2,1.6406193E-2,3.7167463E-2,-2.1794027E-2,6.446118E-2,2.9781042E-2,3.050036E-2,-2.6379574E-2,-1.7168407E-3,-5.6637703E-3,5.929144E-2,1.443418E-2,-2.439059E-2,-1.24518655E-1,4.9949458E-1,1.8172083E-2,1.0460451E-2,-0E0,5.330651E-2,-2.1283297E-2,1.7455041E-2,-2.5142238E-2,-1.8920869E-3],"split_indices":[23,8,12,3,6,28,11,0,0,29,0,16,0,1,4,0,30,0,29,0,0,0,0,0,0,11,35,30,0,0,0,0,0,0,0],"split_type":[0,0,0,0,0,0,0,0,0,0,0,0,0,0,0,0,0,0,0,0,0,0,0,0,0,0,0,0,0,0,0,0,0,0,0],"sum_hessian":[8.0413055E1,3.0567457E1,4.9845596E1,6.430115E0,2.4137342E1,3.4245598E1,1.5600001E1,4.2842937E0,2.1458218E0,2.2028822E1,2.1085207E0,1.7137257E1,1.710834E1,5.3223147E0,1.0277686E1,3.9439368E0,1.8084885E1,3.6902862E0,1.3446971E1,1.4985518E1,2.1228206E0,2.6429803E0,2.6793344E0,3.0381386E0,7.2395477E0,1.17667055E1,6.318179E0,1.1278983E1,2.1679876E0,3.3547044E0,8.412002E0,3.5618887E0,2.7562904E0,9.1389065E0,2.1400766E0],"tree_param":{"num_deleted":"0","num_feature":"37","num_nodes":"35","size_leaf_vector":"1"}},{"base_weights":[-1.7672996E-1,2.43879E-2,-3.3442947E-1,-1.5961534E-1,3.516442E-1,6.395992E-3,-3.840067E-1,-3.3323634E-1,2.8544987E-2,7.2396904E-1,-1.5484771E-1,-4.637681E-1,2.8692713E-2,7.009111E-3,-4.6399322E-1,6.5322876E-2,-0E0,-2.0645896E-2,1.0424823E-2,9.485338E-4,-5.159521E-1,2.4364782E-2,-2.0604042E-2,-1.626635E-3,-2.6026532E-2,-1.8687717E-3,-2.7287588E-2],"categories":[],"categories_nodes":[],"categories_segments":[],"categories_sizes":[],"default_left":[0,0,0,0,0,0,0,0,0,0,0,0,0,0,0,0,0,0,0,0,0,0,0,0,0,0,0],"id":22,"left_children":[1,3,5,7,9,-1,11,13,-1,15,17,19,21,-1,23,-1,-1,-1,-1,-1,25,-1,-1,-1,-1,-1,-1],"loss_changes":[2.593656E0,2.2462175E0,1.1174707E0,3.1557639E0,2.7115984E0,0E0,1.423893E0,1.3221617E0,0E0,3.4540448E0,7.0873463E-1,9.4282484E-1,1.7173337E0,0E0,3.156314E-1,0E0,0E0,0E0,0E0,0E0,3.7575817E-1,0E0,0E0,0E0,0E0,0E0,0E0],"parents":[2147483647,0,0,1,1,2,2,3,3,4,4,6,6,7,7,9,9,10,10,11,11,12,12,14,14,20,20],"right_children":[2,4,6,8,10,-1,12,14,-1,16,18,20,22,-1,24,-1,-1,-1,-1,-1,26,-1,-1,-1,-1,-1,-1],"split_conditions":[-3.6292482E-2,1.6256548E-2,2.5423348E-2,8.754069E-2,1.3377981E-1,6.395992E-3,2.5916687E-1,-1.746681E-1,2.8544987E-2,-6.2201176E-2,1.7138885E-1,-5.9276843E-1,4.6251428E-1,7.009111E-3,-5.7715595E-2,6.5322876E-2,-0E0,-2.0645896E-2,1.0424823E-2,9.485338E-4,-3.5582813E-3,2.4364782E-2,-2.0604042E-2,-1.626635E-3,-2.6026532E-2,-1.8687717E-3,-2.7287588E-2],"split_indices":[5,27,18,30,27,0,16,30,0,11,27,31,16,0,0,0,0,0,0,0,22,0,0,0,0,0,0],"split_type":[0,0,0,0,0,0,0,0,0,0,0,0,0,0,0,0,0,0,0,0,0,0,0,0,0,0,0],"sum_hessian":[7.954232E1,3.505153E1,4.449079E1,2.2568722E1,1.2482807E1,3.9603093E0,4.0530483E1,1.878486E1,3.7838612E0,7.060589E0,5.422219E0,3.4065327E1,6.4651556E0,3.8843431E0,1.4900518E1,3.4988928E0,3.5616958E0,3.2515466E0,2.170672E0,3.1983654E0,3.0866962E1,3.2279556E0,3.2372E0,2.1137533E0,1.2786765E1,2.138179E0,2.8728783E1],"tree_param":{"num_deleted":"0","num_feature":"37","num_nodes":"27","size_leaf_vector":"1"}},{"base_weights":[2.042947E-1,-2.6756442E-1,3.8975433E-1,2.8801566E-2,-3.698214E-1,6.5925205E-1,3.4763057E-2,8.538107E-3,-4.8520085E-1,1.7862388E-1,1.306475E0,-1.229958E-1,6.694308E-1,-9.148954E-4,-2.6596848E-2,-2.0131378E-1,6.350649E-1,9.087984E-2,6.1079025E-1,4.096018E-1,-3.1483182E-1,7.000218E-2,-1.8215058E-2,1.6916346E-2,-4.0136772E-1,5.560201E-2,1.3765185E-1,9.074459E-2,-1.174314E-1,-1.0296588E-2,6.1685067E-2,6.132336E-3,-4.5384386E-1,-8.181801E-4,-2.4273012E-2,-2.0692362E-2,4.5088887E-2,1.17256325E-2,-1.9735662E-2,-2.1765737E-3,-2.5803158E-2],"categories":[],"categories_nodes":[],"categories_segments":[],"categories_sizes":[],"default_left":[0,0,0,0,0,0,0,0,0,0,0,0,0,0,0,0,0,0,0,0,0,0,0,0,0,0,0,0,0,0,0,0,0,0,0,0,0,0,0,0,0],"id":23,"left_children":[1,3,5,-1,7,9,11,-1,13,15,17,19,21,-1,-1,23,25,-1,27,29,31,-1,-1,-1,33,-1,35,-1,37,-1,-1,-1,39,-1,-1,-1,-1,-1,-1,-1,-1],"loss_changes":[7.825548E0,2.3745065E0,6.011072E0,0E0,1.5660558E0,1.0832178E1,3.0152814E0,0E0,3.6281824E-1,3.9750385E0,4.021677E0,2.545307E0,5.1485577E0,0E0,0E0,1.5034404E0,2.1714149E0,0E0,7.3896246E0,3.6965518E0,1.193112E0,0E0,0E0,0E0,2.589041E-1,0E0,3.075948E0,0E0,6.811163E-1,0E0,0E0,0E0,2.8323364E-1,0E0,0E0,0E0,0E0,0E0,0E0,0E0,0E0],"parents":[2147483647,0,0,1,1,2,2,4,4,5,5,6,6,8,8,9,9,10,10,11,11,12,12,15,15,16,16,18,18,19,19,20,20,24,24,26,26,28,28,32,32],"right_children":[2,4,6,-1,8,10,12,-1,14,16,18,20,22,-1,-1,24,26,-1,28,30,32,-1,-1,-1,34,-1,36,-1,38,-1,-1,-1,40,-1,-1,-1,-1,-1,-1,-1,-1],"split_conditions":[7.327483E-2,-1.3231622E-1,5.3599066E-1,2.8801566E-2,-2.665954E-2,1.0553512E-1,9.55983E-1,8.538107E-3,4.261939E-1,2.9950952E-3,-5.177518E-2,-2.3237867E-2,1.1613461E0,-9.148954E-4,-2.6596848E-2,-8.519303E-2,4.8979428E-1,9.087984E-2,-8.445933E-2,-5.5948596E-2,6.542422E-2,7.000218E-2,-1.8215058E-2,1.6916346E-2,-1.3366341E-2,5.560201E-2,3.281494E-2,9.074459E-2,3.2677386E-2,-1.0296588E-2,6.1685067E-2,6.132336E-3,-4.318336E-1,-8.181801E-4,-2.4273012E-2,-2.0692362E-2,4.5088887E-2,1.17256325E-2,-1.9735662E-2,-2.1765737E-3,-2.5803158E-2],"split_indices":[24,6,32,0,0,21,32,0,36,26,28,0,32,0,0,21,35,0,20,5,19,0,0,0,31,0,13,0,13,0,0,0,31,0,0,0,0,0,0,0,0],"split_type":[0,0,0,0,0,0,0,0,0,0,0,0,0,0,0,0,0,0,0,0,0,0,0,0,0,0,0,0,0,0,0,0,0,0,0,0,0,0,0,0,0],"sum_hessian":[8.709247E1,2.4295721E1,6.279675E1,2.0200107E0,2.227571E1,3.504952E1,2.7747232E1,3.6812694E0,1.859444E1,2.0934235E1,1.4115282E1,2.2742731E1,5.0045013E0,2.013215E0,1.6581226E1,1.1610017E1,9.324217E0,7.124486E0,6.9907966E0,5.583823E0,1.7158907E1,2.781203E0,2.223298E0,2.8178613E0,8.792156E0,4.026486E0,5.2977314E0,2.123961E0,4.8668356E0,3.5563185E0,2.0275044E0,3.9925373E0,1.316637E1,2.003447E0,6.7887087E0,3.267202E0,2.0305295E0,2.053721E0,2.813115E0,2.1690667E0,1.0997304E1],"tree_param":{"num_deleted":"0","num_feature":"37","num_nodes":"41","size_leaf_vector":"1"}},{"base_weights":[1.9158931E-1,-2.4953272E-2,2.695177E-1,5.6662804E-1,6.473529E-2,4.1630837E-1,9.233452E-2,-1.1077811E-1,7.867735E-1,2.497989E-1,8.56091E-2,-2.0670037E-1,3.8685527E-1,-1.5830677E-3,1.3524636E0,-1.8465465E-1,6.664542E-1,-2.5574777E-2,-5.201882E-2,5.03855E-2,-1.9383613E-2,8.841057E-2,2.3290765E-2,6.0406453E-3,-1.9492116E-2,7.084026E-2,1.3190199E-3,3.609721E-2,-8.802003E-3],"categories":[],"categories_nodes":[],"categories_segments":[],"categories_sizes":[],"default_left":[0,0,0,0,0,0,0,0,0,0,0,0,0,0,0,0,0,0,0,0,0,0,0,0,0,0,0,0,0],"id":24,"left_children":[1,-1,3,5,7,9,-1,11,13,15,-1,17,19,-1,21,23,25,-1,27,-1,-1,-1,-1,-1,-1,-1,-1,-1,-1],"loss_changes":[4.9253597E0,0E0,4.8376513E0,5.3129673E0,6.411031E0,6.0001383E0,0E0,1.9941956E0,4.753124E0,5.3198433E0,0E0,1.5557438E0,3.6848185E0,0E0,1.1433849E0,9.884404E-1,6.9519677E0,0E0,2.4134145E0,0E0,0E0,0E0,0E0,0E0,0E0,0E0,0E0,0E0,0E0],"parents":[2147483647,0,0,2,2,3,3,4,4,5,5,7,7,8,8,9,9,11,11,12,12,14,14,15,15,16,16,18,18],"right_children":[2,-1,4,6,8,10,-1,12,14,16,-1,18,20,-1,22,24,26,-1,28,-1,-1,-1,-1,-1,-1,-1,-1,-1,-1],"split_conditions":[1.4531039E-2,-2.4953272E-2,-1.4690162E-3,-2.8720617E-2,-1.3798173E-2,4.972124E-2,9.233452E-2,1.3869627E-2,6.1239984E-2,3.5776615E-2,8.56091E-2,2.8347567E-2,1.3071215E-2,-1.5830677E-3,2.3105477E-1,-7.434101E-2,9.509585E-2,-2.5574777E-2,-6.057775E-3,5.03855E-2,-1.9383613E-2,8.841057E-2,2.3290765E-2,6.0406453E-3,-1.9492116E-2,7.084026E-2,1.3190199E-3,3.609721E-2,-8.802003E-3],"split_indices":[3,0,7,6,5,8,0,12,14,26,0,6,17,0,11,11,26,0,2,0,0,0,0,0,0,0,0,0,0],"split_type":[0,0,0,0,0,0,0,0,0,0,0,0,0,0,0,0,0,0,0,0,0,0,0,0,0,0,0,0,0],"sum_hessian":[8.844009E1,8.28909E0,8.015099E1,3.1783018E1,4.8367977E1,2.969879E1,2.0842285E0,3.9479385E1,8.88859E0,2.744257E1,2.2562196E0,3.3757904E1,5.721484E0,3.9463315E0,4.9422584E0,1.358944E1,1.3853129E1,1.0370298E1,2.3387604E1,3.0803494E0,2.6411347E0,2.6109428E0,2.3313153E0,5.4298086E0,8.159632E0,5.7466564E0,8.106473E0,2.4528677E0,2.0934736E1],"tree_param":{"num_deleted":"0","num_feature":"37","num_nodes":"29","size_leaf_vector":"1"}},{"base_weights":[-1.6834216E-1,6.9974543E-4,-4.064725E-1,-1.18162245E-1,5.2535933E-1,7.817053E-3,-4.555781E-1,1.0066155E-1,-3.441268E-1,-1.2048322E-1,6.331959E-2,-1.2842852E-1,-5.0730735E-1,-1.103958E-1,5.8595676E-2,-4.241433E-1,9.326928E-3,1.0515164E-2,-1.9603496E-2,1.1150663E-2,-1.994114E-2,-2.7055977E-2,-9.1345696E-4,3.571673E-1,-4.28485E-1,-2.6105002E-2,-1.1417809E-3,-1.8856002E-2,3.8836785E-2,-1.7598855E-3,-2.5056345E-2],"categories":[],"categories_nodes":[],"categories_segments":[],"categories_sizes":[],"default_left":[0,0,0,0,0,0,0,0,0,0,0,0,0,0,0,0,0,0,0,0,0,0,0,0,0,0,0,0,0,0,0],"id":25,"left_children":[1,3,5,7,9,-1,11,13,15,17,-1,19,21,23,-1,25,-1,-1,-1,-1,-1,-1,-1,27,29,-1,-1,-1,-1,-1,-1],"loss_changes":[3.4187999E0,3.2102883E0,1.0708241E0,2.1004791E0,4.834287E0,0E0,4.2447758E-1,5.1019526E0,9.845264E-1,6.3425803E-1,0E0,6.8296504E-1,3.9093542E-1,2.9587717E0,0E0,6.61299E-1,0E0,0E0,0E0,0E0,0E0,0E0,0E0,2.8088346E0,2.6528573E-1,0E0,0E0,0E0,0E0,0E0,0E0],"parents":[2147483647,0,0,1,1,2,2,3,3,4,4,6,6,7,7,8,8,9,9,11,11,12,12,13,13,15,15,23,23,24,24],"right_children":[2,4,6,8,10,-1,12,14,16,18,-1,20,22,24,-1,26,-1,-1,-1,-1,-1,-1,-1,28,30,-1,-1,-1,-1,-1,-1],"split_conditions":[4.7447305E-2,-1.8749143E-3,3.4766592E-2,3.1616878E-2,4.537402E-2,7.817053E-3,-4.1583934E-1,1.079323E-1,7.819919E-2,6.054172E-2,6.331959E-2,3.7117653E-2,6.6966884E-2,-1.9908106E-2,5.8595676E-2,1.04019195E-1,9.326928E-3,1.0515164E-2,-1.9603496E-2,1.1150663E-2,-1.994114E-2,-2.7055977E-2,-9.1345696E-4,1.3660878E-2,-3.566844E-2,-2.6105002E-2,-1.1417809E-3,-1.8856002E-2,3.8836785E-2,-1.7598855E-3,-2.5056345E-2],"split_indices":[16,16,9,18,21,0,28,30,9,14,0,18,8,29,0,31,0,0,0,0,0,0,0,9,30,0,0,0,0,0,0],"split_type":[0,0,0,0,0,0,0,0,0,0,0,0,0,0,0,0,0,0,0,0,0,0,0,0,0,0,0,0,0,0,0],"sum_hessian":[8.2915565E1,4.8829807E1,3.4085754E1,4.0286957E1,8.542853E0,2.396665E0,3.168909E1,2.0523754E1,1.97632E1,4.939941E0,3.6029124E0,5.0660257E0,2.6623064E1,1.7817049E1,2.7067049E0,1.7511848E1,2.2513535E0,2.1629543E0,2.7769866E0,2.1182518E0,2.947774E0,2.4610508E1,2.012557E0,7.036615E0,1.0780434E1,1.3633752E1,3.8780963E0,2.5087967E0,4.527818E0,2.1268265E0,8.653607E0],"tree_param":{"num_deleted":"0","num_feature":"37","num_nodes":"31","size_leaf_vector":"1"}},{"base_weights":[2.7121091E-2,1.9514659E-1,-2.3327959E-1,-3.448348E-2,7.2500736E-1,1.8136768E-1,-3.602327E-1,2.3035355E-1,-4.079596E-1,1.4581239E-1,1.238552E0,-1.642734E-1,4.49761E-2,-4.2243537E-1,1.0374899E-2,7.479713E-1,-1.6138288E-1,-2.5892764E-2,-0E0,4.88094E-2,-3.15501E-1,8.9082636E-2,3.6244735E-3,1.2307568E-2,-2.1184525E-2,-1.9706322E-1,-2.6387123E-2,3.9586082E-2,1.3210863E0,-2.4947323E-2,3.9759675E-1,-2.121938E-2,-7.955718E-4,-2.423629E-2,2.8538734E-2,2.8038025E-2,-1.925438E-2,2.5213758E-2,8.440568E-2,5.1427383E-2,-1.8208236E-2],"categories":[],"categories_nodes":[],"categories_segments":[],"categories_sizes":[],"default_left":[0,0,0,0,0,0,0,0,0,0,0,0,0,0,0,0,0,0,0,0,0,0,0,0,0,0,0,0,0,0,0,0,0,0,0,0,0,0,0,0,0],"id":26,"left_children":[1,3,5,7,9,11,13,15,17,19,21,23,-1,25,-1,27,29,-1,-1,-1,31,-1,-1,-1,-1,33,-1,35,37,-1,39,-1,-1,-1,-1,-1,-1,-1,-1,-1,-1],"loss_changes":[3.8698559E0,6.659053E0,1.9012227E0,3.9164062E0,4.5860004E0,2.350022E0,1.061228E0,4.8407974E0,7.357578E-1,3.8120232E0,5.0783796E0,8.1847644E-1,0E0,4.1177654E-1,0E0,3.948906E0,2.8120966E0,0E0,0E0,0E0,1.5955806E-1,0E0,0E0,0E0,0E0,2.4308267E0,0E0,1.4876513E0,5.8561516E-1,0E0,3.1518736E0,0E0,0E0,0E0,0E0,0E0,0E0,0E0,0E0,0E0,0E0],"parents":[2147483647,0,0,1,1,2,2,3,3,4,4,5,5,6,6,7,7,8,8,9,9,10,10,11,11,13,13,15,15,16,16,20,20,25,25,27,27,28,28,30,30],"right_children":[2,4,6,8,10,12,14,16,18,20,22,24,-1,26,-1,28,30,-1,-1,-1,32,-1,-1,-1,-1,34,-1,36,38,-1,40,-1,-1,-1,-1,-1,-1,-1,-1,-1,-1],"split_conditions":[8.543374E-2,-5.5948596E-2,-5.744773E-1,1.038914E-1,1.2757278E-3,1.05368085E-2,6.437642E-2,3.2825418E-2,-2.9084117E-3,-9.443761E-2,1.0257984E-1,6.5603346E-1,4.49761E-2,3.75429E-2,1.0374899E-2,3.0056916E-2,3.7645854E-3,-2.5892764E-2,-0E0,4.88094E-2,-1.9537987E-2,8.9082636E-2,3.6244735E-3,1.2307568E-2,-2.1184525E-2,2.0249018E-2,-2.6387123E-2,2.6630737E-2,-1.0954754E-2,-2.4947323E-2,6.248172E-2,-2.121938E-2,-7.955718E-4,-2.423629E-2,2.8538734E-2,2.8038025E-2,-1.925438E-2,2.5213758E-2,8.440568E-2,5.1427383E-2,-1.8208236E-2],"split_indices":[16,20,29,28,12,0,8,8,17,11,11,21,0,6,0,13,0,0,0,0,1,0,0,0,0,1,0,13,0,0,14,0,0,0,0,0,0,0,0,0,0],"split_type":[0,0,0,0,0,0,0,0,0,0,0,0,0,0,0,0,0,0,0,0,0,0,0,0,0,0,0,0,0,0,0,0,0,0,0,0,0,0,0,0,0],"sum_hessian":[8.649255E1,5.295656E1,3.3536E1,3.7465862E1,1.5490694E1,7.5758543E0,2.5960146E1,2.1988781E1,1.5477082E1,7.9749274E0,7.515766E0,5.541022E0,2.0348325E0,2.3786116E1,2.1740313E0,9.190667E0,1.2798114E1,1.1969394E1,3.5076878E0,2.5269752E0,5.4479523E0,4.7088904E0,2.8068757E0,2.0164483E0,3.5245733E0,8.791651E0,1.4994465E1,4.666414E0,4.5242534E0,8.157909E0,4.6402044E0,3.44537E0,2.0025823E0,6.7585707E0,2.0330796E0,2.057007E0,2.6094065E0,2.2231302E0,2.3011234E0,2.4182615E0,2.221943E0],"tree_param":{"num_deleted":"0","num_feature":"37","num_nodes":"41","size_leaf_vector":"1"}},{"base_weights":[5.242581E-3,2.6611996E-1,-2.1433683E-1,-1.2509072E-1,5.437746E-1,4.3521068E-1,-2.9460618E-1,-3.124431E-1,2.7942777E-2,1.3281555E-1,8.833654E-1,-4.104187E-3,4.548251E-2,2.2671601E-1,-3.8686025E-1,-4.2967722E-1,8.454585E-3,4.0112395E-2,-1.6498403E-1,-1.7485034E-2,1.1586117E0,-1.8532205E-2,3.225264E-2,1.1509779E-2,-4.527755E-1,-2.5071178E-2,-8.350112E-4,9.299373E-3,-2.233037E-2,1.485646E0,1.3196476E-2,-1.9916615E-2,2.875687E-2,-2.3734164E-1,-2.6892886E-2,8.648141E-2,2.734502E-2,-2.4016604E-2,1.0811246E-2],"categories":[],"categories_nodes":[],"categories_segments":[],"categories_sizes":[],"default_left":[0,0,0,0,0,0,0,0,0,0,0,0,0,0,0,0,0,0,0,0,0,0,0,0,0,0,0,0,0,0,0,0,0,0,0,0,0,0,0],"id":27,"left_children":[1,3,5,7,9,11,13,15,-1,17,19,-1,-1,21,23,25,-1,-1,27,-1,29,-1,-1,31,33,-1,-1,-1,-1,35,-1,-1,-1,37,-1,-1,-1,-1,-1],"loss_changes":[4.977306E0,4.4404316E0,2.5612867E0,2.3556612E0,3.0822887E0,1.489792E0,2.1480162E0,9.041828E-1,0E0,2.5909572E0,4.776684E0,0E0,0E0,1.9804538E0,1.0116558E0,2.9311585E-1,0E0,0E0,1.0026922E0,0E0,2.5440912E0,0E0,0E0,1.6241598E0,3.755951E-1,0E0,0E0,0E0,0E0,5.4164696E-1,0E0,0E0,0E0,1.3528756E0,0E0,0E0,0E0,0E0,0E0],"parents":[2147483647,0,0,1,1,2,2,3,3,4,4,5,5,6,6,7,7,9,9,10,10,13,13,14,14,15,15,18,18,20,20,23,23,24,24,29,29,33,33],"right_children":[2,4,6,8,10,12,14,16,-1,18,20,-1,-1,22,24,26,-1,-1,28,-1,30,-1,-1,32,34,-1,-1,-1,-1,36,-1,-1,-1,38,-1,-1,-1,-1,-1],"split_conditions":[-3.0533355E-2,-1.6311948E-1,-4.4265184E-1,4.851813E-2,3.188105E-2,7.0579216E-2,2.849998E-2,7.922268E-2,2.7942777E-2,2.12322E-2,-1.52416285E-2,-4.104187E-3,4.548251E-2,-1.5844722E-1,-2.1679671E-1,4.460534E-2,8.454585E-3,4.0112395E-2,1.731864E-4,-1.7485034E-2,3.367703E-2,-1.8532205E-2,3.225264E-2,9.619842E-3,-1.6538437E-2,-2.5071178E-2,-8.350112E-4,9.299373E-3,-2.233037E-2,4.774272E-3,1.3196476E-2,-1.9916615E-2,2.875687E-2,-2.444241E-2,-2.6892886E-2,8.648141E-2,2.734502E-2,-2.4016604E-2,1.0811246E-2],"split_indices":[30,29,29,23,23,30,23,1,0,13,0,0,0,21,31,3,0,0,17,0,13,0,0,0,0,0,0,0,0,17,0,0,0,0,0,0,0,0,0],"split_type":[0,0,0,0,0,0,0,0,0,0,0,0,0,0,0,0,0,0,0,0,0,0,0,0,0,0,0,0,0,0,0,0,0,0,0,0,0,0,0],"sum_hessian":[8.480317E1,3.88682E1,4.593497E1,1.6213278E1,2.2654919E1,4.4288225E0,4.150615E1,1.3268142E1,2.9451365E0,1.1013005E1,1.1641914E1,2.4135141E0,2.0153081E0,5.8585196E0,3.564763E1,1.0923964E1,2.344178E0,2.9726274E0,8.040378E0,2.0088272E0,9.633087E0,2.361459E0,3.4970603E0,4.9627423E0,3.0684887E1,8.918282E0,2.0056815E0,3.5725775E0,4.4678E0,6.488893E0,3.1441946E0,2.9404447E0,2.0222974E0,1.0093179E1,2.0591707E1,4.3970704E0,2.0918224E0,6.6773615E0,3.4158173E0],"tree_param":{"num_deleted":"0","num_feature":"37","num_nodes":"39","size_leaf_vector":"1"}},{"base_weights":[4.1273423E-2,-1.4253823E-1,3.897873E-1,-4.3339273E-1,4.8592477E-3,1.233564E0,1.8165267E-1,-2.6271148E-2,-6.870779E-2,-2.5579432E-1,2.2217233E-1,8.451273E-2,1.1850254E-2,2.4685552E-2,4.7447085E-2,1.0409548E-2,-1.7863916E-2,1.8240623E-2,-3.9585155E-1,5.768174E-1,-2.9159802E-1,-4.107384E-1,3.7507677E-1,1.0453962E-2,-2.597323E-2,2.2397628E-1,5.4918405E-2,1.22955395E-2,-2.4090398E-2,-8.5901155E-4,-2.4548464E-2,6.290399E-2,-9.32553E-3,3.460786E-2,-6.4787106E-3,-1.7822096E-2,3.904084E-2],"categories":[],"categories_nodes":[],"categories_segments":[],"categories_sizes":[],"default_left":[0,0,0,0,0,0,0,0,0,0,0,0,0,0,0,0,0,0,0,0,0,0,0,0,0,0,0,0,0,0,0,0,0,0,0,0,0],"id":28,"left_children":[1,3,5,7,9,11,13,-1,15,17,19,-1,-1,21,-1,-1,-1,-1,23,25,27,29,31,-1,-1,33,-1,-1,-1,-1,-1,-1,35,-1,-1,-1,-1],"loss_changes":[5.662611E0,2.514153E0,4.9987416E0,5.626521E-1,2.2617226E0,2.0354624E0,2.9828422E0,0E0,5.144631E-1,1.7104042E0,4.206077E0,0E0,0E0,3.5875254E0,0E0,0E0,0E0,0E0,1.2823234E0,2.10042E0,1.1169567E0,2.689799E-1,4.5942163E0,0E0,0E0,1.7026336E0,0E0,0E0,0E0,0E0,0E0,0E0,2.9959543E0,0E0,0E0,0E0,0E0],"parents":[2147483647,0,0,1,1,2,2,3,3,4,4,5,5,6,6,8,8,9,9,10,10,13,13,18,18,19,19,20,20,21,21,22,22,25,25,32,32],"right_children":[2,4,6,8,10,12,14,-1,16,18,20,-1,-1,22,-1,-1,-1,-1,24,26,28,30,32,-1,-1,34,-1,-1,-1,-1,-1,-1,36,-1,-1,-1,-1],"split_conditions":[3.5944305E-2,-3.3200976E-2,-1.4074431E-1,3.63937E-2,5.4141687E-4,5.4801513E-2,1.2805358E-1,-2.6271148E-2,-8.7825105E-2,2.7001414E-2,-2.319345E-2,8.451273E-2,1.1850254E-2,3.8157783E-2,4.7447085E-2,1.0409548E-2,-1.7863916E-2,1.8240623E-2,-1.6102803E-1,2.6991507E-2,1.7802069E-2,3.9602987E-2,-5.5186555E-2,1.0453962E-2,-2.597323E-2,-1.2824748E-1,5.4918405E-2,1.22955395E-2,-2.4090398E-2,-8.5901155E-4,-2.4548464E-2,6.290399E-2,-5.081931E-2,3.460786E-2,-6.4787106E-3,-1.7822096E-2,3.904084E-2],"split_indices":[3,5,16,8,17,30,30,0,20,23,10,0,0,23,0,0,0,0,16,29,1,3,1,0,0,30,0,0,0,0,0,0,31,0,0,0,0],"split_type":[0,0,0,0,0,0,0,0,0,0,0,0,0,0,0,0,0,0,0,0,0,0,0,0,0,0,0,0,0,0,0,0,0,0,0,0,0],"sum_hessian":[8.614092E1,5.65956E1,2.9545324E1,1.861042E1,3.798518E1,4.776044E0,2.476928E1,1.4289435E1,4.3209844E0,1.6980673E1,2.1004507E1,2.7289972E0,2.047047E0,2.1527767E1,3.2415123E0,2.170389E0,2.1505954E0,2.6996295E0,1.4281043E1,1.24692E1,8.535307E0,9.395076E0,1.2132691E1,2.168513E0,1.211253E1,8.404524E0,4.0646763E0,2.0169868E0,6.5183196E0,2.0076153E0,7.3874607E0,3.0693862E0,9.063305E0,3.3256814E0,5.078842E0,6.766272E0,2.2970335E0],"tree_param":{"num_deleted":"0","num_feature":"37","num_nodes":"37","size_leaf_vector":"1"}},{"base_weights":[1.1438435E-2,3.5903817E-1,-1.9314507E-1,-2.3367284E-2,5.5376345E-1,-3.4563337E-2,-4.417123E-1,6.7688394E-1,-1.942594E-2,-1.2331059E-1,4.5653973E-2,-2.6428044E-2,-2.260659E-3,9.1935873E-1,-4.467475E-2,2.3427172E-2,-2.4833938E-2,-3.85932E-3,1.0796214E0,-2.1735823E-2,2.8417537E-2,-2.2445877E-1,8.251496E-1,6.877051E-2,3.0111039E-2,1.1685043E-2,-1.943647E-2,7.129778E-2,3.7365456E-3],"categories":[],"categories_nodes":[],"categories_segments":[],"categories_sizes":[],"default_left":[0,0,0,0,0,0,0,0,0,0,0,0,0,0,0,0,0,0,0,0,0,0,0,0,0,0,0,0,0],"id":29,"left_children":[1,3,5,-1,7,9,11,13,-1,15,-1,-1,-1,17,19,21,-1,-1,23,-1,-1,25,27,-1,-1,-1,-1,-1,-1],"loss_changes":[6.240634E0,5.512851E0,2.1031802E0,0E0,3.4168062E0,2.9669235E0,6.4436674E-1,4.3769073E0,0E0,1.8597807E0,0E0,0E0,0E0,3.11018E0,1.8972492E0,5.0862026E0,0E0,0E0,1.2246933E0,0E0,0E0,1.5586601E0,2.476408E0,0E0,0E0,0E0,0E0,0E0,0E0],"parents":[2147483647,0,0,1,1,2,2,4,4,5,5,6,6,7,7,9,9,13,13,14,14,15,15,18,18,21,21,22,22],"right_children":[2,4,6,-1,8,10,12,14,-1,16,-1,-1,-1,18,20,22,-1,-1,24,-1,-1,26,28,-1,-1,-1,-1,-1,-1],"split_conditions":[3.1611532E-2,2.2546012E-2,3.374781E-2,-2.3367284E-2,2.2852269E-1,1.5354651E-2,1.7164787E-2,3.3194773E-2,-1.942594E-2,4.6968777E-2,4.5653973E-2,-2.6428044E-2,-2.260659E-3,2.0032002E-2,3.7645854E-3,4.002177E-2,-2.4833938E-2,-3.85932E-3,-9.7370096E-2,-2.1735823E-2,2.8417537E-2,2.6811289E-2,-2.5243887E-1,6.877051E-2,3.0111039E-2,1.1685043E-2,-1.943647E-2,7.129778E-2,3.7365456E-3],"split_indices":[23,9,28,0,31,28,2,8,0,23,0,0,0,8,0,23,0,0,25,0,0,8,27,0,0,0,0,0,0],"split_type":[0,0,0,0,0,0,0,0,0,0,0,0,0,0,0,0,0,0,0,0,0,0,0,0,0,0,0,0,0],"sum_hessian":[8.554793E1,3.1596832E1,5.39511E1,5.6605916E0,2.5936241E1,3.3878525E1,2.0072575E1,2.3281954E1,2.6542864E0,3.1869343E1,2.0091796E0,1.5985795E1,4.0867805E0,1.73246E1,5.9573526E0,2.3358587E1,8.5107565E0,2.3854992E0,1.4939102E1,3.9183E0,2.0390527E0,1.8296698E1,5.0618896E0,7.9332805E0,7.0058217E0,4.5566216E0,1.3740076E1,2.2372296E0,2.82466E0],"tree_param":{"num_deleted":"0","num_feature":"37","num_nodes":"29","size_leaf_vector":"1"}},{"base_weights":[-2.0804696E-1,-2.4868527E-1,4.511587E-2,-1.5412886E-1,-2.6668906E-2,-2.0626283E-1,3.581918E-1,2.262672E-1,-2.746741E-1,3.8069308E-2,-4.8602996E-3,-2.0121248E-2,6.9340926E-1,-2.7417632E-2,-3.7746578E-1,6.2461644E-2,-1.6428711E-3,-1.4058287E-2,3.5743337E-2,-2.2582341E-2,9.430867E-3],"categories":[],"categories_nodes":[],"categories_segments":[],"categories_sizes":[],"default_left":[0,0,0,0,0,0,0,0,0,0,0,0,0,0,0,0,0,0,0,0,0],"id":30,"left_children":[1,3,-1,5,-1,7,9,11,13,-1,-1,-1,15,17,19,-1,-1,-1,-1,-1,-1],"loss_changes":[3.866005E0,2.0058966E0,0E0,1.7097486E0,0E0,1.7511971E0,1.2233245E0,2.69341E0,1.2147858E0,0E0,0E0,0E0,2.2287095E0,3.1687818E0,1.5732436E0,0E0,0E0,0E0,0E0,0E0,0E0],"parents":[2147483647,0,0,1,1,3,3,5,5,6,6,7,7,8,8,12,12,13,13,14,14],"right_children":[2,4,-1,6,-1,8,10,12,14,-1,-1,-1,16,18,20,-1,-1,-1,-1,-1,-1],"split_conditions":[2.7559252E-2,5.3163305E-2,4.511587E-2,8.614762E-3,-2.6668906E-2,-2.0061444E-1,3.4809776E-2,-2.2443777E-2,-2.0332204E-2,3.8069308E-2,-4.8602996E-3,-2.0121248E-2,-5.64871E-3,4.0925503E-2,3.7123367E-2,6.2461644E-2,-1.6428711E-3,-1.4058287E-2,3.5743337E-2,-2.2582341E-2,9.430867E-3],"split_indices":[7,1,0,2,0,21,18,0,0,0,0,0,12,23,0,0,0,0,0,0,0],"split_type":[0,0,0,0,0,0,0,0,0,0,0,0,0,0,0,0,0,0,0,0,0],"sum_hessian":[8.115207E1,7.912235E1,2.0297122E0,6.0815914E1,1.830644E1,5.591824E1,4.897678E0,7.1217546E0,4.8796482E1,2.357817E0,2.5398607E0,3.0037284E0,4.1180267E0,1.4986745E1,3.380974E1,2.0028381E0,2.1151884E0,1.1732093E1,3.2546525E0,3.0227459E1,3.5822794E0],"tree_param":{"num_deleted":"0","num_feature":"37","num_nodes":"21","size_leaf_vector":"1"}},{"base_weights":[2.3190889E-1,1.4307305E-1,1.244874E0,6.295637E-2,7.3435926E-1,8.143347E-2,1.113807E-2,-7.487872E-2,4.2598182E-1,8.4584326E-2,1.8254209E-1,-2.3035473E-1,1.8497834E-1,1.0351645E0,-3.8442418E-2,2.6468685E-2,-1.84179E-2,4.9024273E-2,-4.79171E-1,6.198333E-2,-3.0566942E-2,-1.8117314E-2,1.5574092E0,-2.4007453E-2,4.9717146E-1,-1.5739184E-2,2.8169585E-2,-8.2376564E-4,-2.6432592E-2,4.1331902E-2,-1.29878E-2,3.7550356E-2,1.0080727E-1,5.7733715E-2,-7.052631E-3],"categories":[],"categories_nodes":[],"categories_segments":[],"categories_sizes":[],"default_left":[0,0,0,0,0,0,0,0,0,0,0,0,0,0,0,0,0,0,0,0,0,0,0,0,0,0,0,0,0,0,0,0,0,0,0],"id":31,"left_children":[1,3,5,7,9,-1,-1,11,13,-1,15,17,19,21,23,-1,-1,25,27,-1,29,-1,31,-1,33,-1,-1,-1,-1,-1,-1,-1,-1,-1,-1],"loss_changes":[7.5509133E0,3.7397418E0,2.13089E0,3.725188E0,4.5195866E0,0E0,0E0,2.2142944E0,5.9303646E0,0E0,1.5887609E0,2.4471276E0,4.794931E0,7.2401705E0,3.1908045E0,0E0,0E0,3.3554344E0,3.5795164E-1,0E0,3.6609912E0,0E0,7.1735E-1,0E0,2.7953477E0,0E0,0E0,0E0,0E0,0E0,0E0,0E0,0E0,0E0,0E0],"parents":[2147483647,0,0,1,1,2,2,3,3,4,4,7,7,8,8,10,10,11,11,12,12,13,13,14,14,17,17,18,18,20,20,22,22,24,24],"right_children":[2,4,6,8,10,-1,-1,12,14,-1,16,18,20,22,24,-1,-1,26,28,-1,30,-1,32,-1,34,-1,-1,-1,-1,-1,-1,-1,-1,-1,-1],"split_conditions":[4.8365723E-2,-1.9819275E-2,-3.905912E-2,1.0273377E-1,-3.9998457E-2,8.143347E-2,1.113807E-2,4.25191E-3,4.1886196E-2,8.4584326E-2,2.4354149E-2,-1.0565869E-2,-6.8946E-2,-8.689311E-3,3.4697812E-2,2.6468685E-2,-1.84179E-2,2.1003967E-2,-7.201622E-3,6.198333E-2,1.4175152E-3,-1.8117314E-2,2.9914612E-2,-2.4007453E-2,1.8378036E-1,-1.5739184E-2,2.8169585E-2,-8.2376564E-4,-2.6432592E-2,4.1331902E-2,-1.29878E-2,3.7550356E-2,1.0080727E-1,5.7733715E-2,-7.052631E-3],"split_indices":[18,10,28,26,31,0,0,12,4,0,13,0,1,17,13,0,0,4,12,0,17,0,8,0,28,0,0,0,0,0,0,0,0,0,0],"split_type":[0,0,0,0,0,0,0,0,0,0,0,0,0,0,0,0,0,0,0,0,0,0,0,0,0,0,0,0,0,0,0,0,0,0,0],"sum_hessian":[8.643222E1,8.060336E1,5.828857E0,7.210857E1,8.494798E0,3.735089E0,2.093768E0,5.2640186E1,1.9468382E1,2.2845435E0,6.210254E0,3.324663E1,1.9393553E1,7.9832273E0,1.1485154E1,3.9463415E0,2.263913E0,1.5850379E1,1.7396254E1,2.5633612E0,1.683019E1,2.202935E0,5.7802925E0,6.4534335E0,5.031721E0,9.397328E0,6.4530506E0,2.0046556E0,1.5391598E1,2.9085643E0,1.3921627E1,3.1311781E0,2.6491144E0,2.157025E0,2.8746958E0],"tree_param":{"num_deleted":"0","num_feature":"37","num_nodes":"35","size_leaf_vector":"1"}},{"base_weights":[2.0230824E-1,4.3535393E-1,-1.9794188E-2,8.33092E-1,2.553315E-1,-1.7278513E-1,5.040971E-1,-1.4538852E-3,1.0065799E0,-1.2516136E-1,6.590306E-1,1.6154025E-1,-2.719074E-1,6.4785354E-2,7.716065E-2,1.4107945E0,7.747069E-3,3.7071854E-1,-3.5602164E-1,-0E0,9.9129534E-1,-2.7547067E-1,3.7290618E-2,1.1258739E-2,-3.4932035E-1,3.38802E-2,-2.931065E-1,9.382337E-2,2.6826201E-2,4.1420523E-2,-5.377372E-3,-2.4513636E-2,-5.8970526E-2,-2.0586042E-2,2.8585324E-2,-1.6789252E-3,1.26169E0,-1.7855283E-3,-1.9042565E-2,-1.9823575E-2,-4.7757986E-1,-7.8056887E-4,-2.0139964E-2,1.2431621E-2,-1.8080495E-2,9.3829535E-2,1.8416997E-2,-2.1392185E-2,1.8233174E-2,-2.636206E-2,-2.1526755E-3],"categories":[],"categories_nodes":[],"categories_segments":[],"categories_sizes":[],"default_left":[0,0,0,0,0,0,0,0,0,0,0,0,0,0,0,0,0,0,0,0,0,0,0,0,0,0,0,0,0,0,0,0,0,0,0,0,0,0,0,0,0,0,0,0,0,0,0,0,0,0,0],"id":32,"left_children":[1,3,5,7,9,11,13,-1,15,17,19,21,23,25,-1,27,-1,29,31,33,35,37,-1,-1,39,-1,41,-1,-1,-1,-1,-1,43,-1,-1,-1,45,-1,-1,47,49,-1,-1,-1,-1,-1,-1,-1,-1,-1,-1],"loss_changes":[4.6757956E0,2.8197718E0,3.7805316E0,2.079731E0,5.0231457E0,1.2770689E0,4.5855436E0,0E0,3.4090195E0,2.0872195E0,3.4529166E0,2.507082E0,1.2088616E0,2.1173549E0,0E0,1.7042122E0,0E0,1.4268315E0,4.07094E-1,1.7075703E0,3.0649586E0,8.8355094E-2,0E0,0E0,1.0268981E0,0E0,1.3473022E-1,0E0,0E0,0E0,0E0,0E0,5.8532685E-1,0E0,0E0,0E0,3.6890764E0,0E0,0E0,1.489947E0,3.1381512E-1,0E0,0E0,0E0,0E0,0E0,0E0,0E0,0E0,0E0,0E0],"parents":[2147483647,0,0,1,1,2,2,3,3,4,4,5,5,6,6,8,8,9,9,10,10,11,11,12,12,13,13,15,15,17,17,18,18,19,19,20,20,21,21,24,24,26,26,32,32,36,36,39,39,40,40],"right_children":[2,4,6,8,10,12,14,-1,16,18,20,22,24,26,-1,28,-1,30,32,34,36,38,-1,-1,40,-1,42,-1,-1,-1,-1,-1,44,-1,-1,-1,46,-1,-1,48,50,-1,-1,-1,-1,-1,-1,-1,-1,-1,-1],"split_conditions":[-4.539821E-2,3.364821E-2,-1.3798173E-2,8.154422E-3,6.045227E-1,-1.2855886E-1,-1.3439977E-2,-1.4538852E-3,9.509585E-2,-1.597385E-1,5.4952517E-2,-1.2824748E-1,-5.0283724E-1,7.687792E-2,7.716065E-2,1.6354875E-1,7.747069E-3,4.2229107E-1,5.0880603E-2,6.635908E-3,-7.4974847E-1,-3.7241656E-1,3.7290618E-2,1.1258739E-2,2.927346E-2,3.38802E-2,-2.2463975E-2,9.382337E-2,2.6826201E-2,4.1420523E-2,-5.377372E-3,-2.4513636E-2,3.4137803E-1,-2.0586042E-2,2.8585324E-2,-1.6789252E-3,7.5144047E-1,-1.7855283E-3,-1.9042565E-2,-3.007607E-2,2.2778985E-1,-7.8056887E-4,-2.0139964E-2,1.2431621E-2,-1.8080495E-2,9.3829535E-2,1.8416997E-2,-2.1392185E-2,1.8233174E-2,-2.636206E-2,-2.1526755E-3],"split_indices":[10,8,5,4,34,26,26,0,26,11,16,30,31,24,0,31,0,32,11,0,27,26,0,0,23,0,31,0,0,0,0,0,16,0,0,0,34,0,0,5,31,0,0,0,0,0,0,0,0,0,0],"split_type":[0,0,0,0,0,0,0,0,0,0,0,0,0,0,0,0,0,0,0,0,0,0,0,0,0,0,0,0,0,0,0,0,0,0,0,0,0,0,0,0,0,0,0,0,0,0,0,0,0,0,0],"sum_hessian":[8.836671E1,4.287222E1,4.549449E1,1.2054982E1,3.0817236E1,3.587814E1,9.616354E0,2.062268E0,9.992714E0,1.6092268E1,1.4724967E1,7.8300223E0,2.8048117E1,7.573186E0,2.043168E0,6.251546E0,3.741168E0,4.781912E0,1.1310357E1,5.260986E0,9.463981E0,4.6839757E0,3.1460462E0,3.3482018E0,2.4699915E1,2.5658214E0,5.0073647E0,3.2563653E0,2.9951806E0,2.176253E0,2.6056588E0,7.10994E0,4.2004166E0,3.2309325E0,2.0300531E0,2.0812874E0,7.3826933E0,2.1286721E0,2.5553038E0,7.462666E0,1.723725E1,2.0005167E0,3.006848E0,2.0077574E0,2.1926594E0,3.6546242E0,3.7280693E0,3.6920068E0,3.7706592E0,1.5071273E1,2.1659758E0],"tree_param":{"num_deleted":"0","num_feature":"37","num_nodes":"51","size_leaf_vector":"1"}},{"base_weights":[-1.4269876E-1,4.0631138E-2,-3.8053703E-1,-2.641237E-1,3.8493687E-1,-5.0240016E-1,-4.531294E-2,2.374796E-2,-4.001015E-1,9.102133E-1,5.9133712E-2,-2.694924E-2,-7.9577713E-4,2.6663354E-2,-3.5255447E-1,-2.5945408E-2,-1.6213489E-1,3.7720536E-3,1.3010905E0,-3.61304E-1,4.9286535E-1,-6.9858576E-4,-2.257001E-2,1.7079324E-2,-2.3009954E-2,8.298633E-2,2.492335E-2,-1.074415E-3,-2.2854527E-2,5.1093455E-2,-8.974268E-3],"categories":[],"categories_nodes":[],"categories_segments":[],"categories_sizes":[],"default_left":[0,0,0,0,0,0,0,0,0,0,0,0,0,0,0,0,0,0,0,0,0,0,0,0,0,0,0,0,0,0,0],"id":33,"left_children":[1,3,5,7,9,11,13,-1,15,17,19,-1,-1,-1,21,-1,23,-1,25,27,29,-1,-1,-1,-1,-1,-1,-1,-1,-1,-1],"loss_changes":[3.5952556E0,5.002242E0,1.3821607E0,2.71037E0,3.6888404E0,3.966732E-1,2.097658E0,0E0,4.6695542E-1,2.5056205E0,2.9328115E0,0E0,0E0,0E0,2.0813239E-1,0E0,1.5245239E0,0E0,5.6282043E-1,2.0577776E-1,3.091764E0,0E0,0E0,0E0,0E0,0E0,0E0,0E0,0E0,0E0,0E0],"parents":[2147483647,0,0,1,1,2,2,3,3,4,4,5,5,6,6,8,8,9,9,10,10,14,14,16,16,18,18,19,19,20,20],"right_children":[2,4,6,8,10,12,14,-1,16,18,20,-1,-1,-1,22,-1,24,-1,26,28,30,-1,-1,-1,-1,-1,-1,-1,-1,-1,-1],"split_conditions":[3.4718458E-2,-7.4465364E-2,2.376906E-2,4.914543E-2,3.2000717E-2,1.15855575E-1,1.3091938E-1,2.374796E-2,5.6186046E-2,-3.2425422E-2,-4.1184776E-2,-2.694924E-2,-7.9577713E-4,2.6663354E-2,-5.3790694E-1,-2.5945408E-2,4.8600683E-1,3.7720536E-3,1.0923017E-1,-4.2304795E-2,-6.0600165E-2,-6.9858576E-4,-2.257001E-2,1.7079324E-2,-2.3009954E-2,8.298633E-2,2.492335E-2,-1.074415E-3,-2.2854527E-2,5.1093455E-2,-8.974268E-3],"split_indices":[11,11,0,19,23,1,11,0,9,1,10,0,0,0,29,0,34,0,27,1,15,0,0,0,0,0,0,0,0,0,0],"split_type":[0,0,0,0,0,0,0,0,0,0,0,0,0,0,0,0,0,0,0,0,0,0,0,0,0,0,0,0,0,0,0],"sum_hessian":[8.032042E1,4.5588623E1,3.47318E1,2.4152763E1,2.143586E1,2.48875E1,9.844297E0,3.2514982E0,2.0901266E1,7.4017296E0,1.403413E1,2.2855267E1,2.0322356E0,3.046383E0,6.797914E0,1.2873337E1,8.027928E0,2.8225734E0,4.579156E0,7.093996E0,6.940134E0,2.022644E0,4.77527E0,2.8053832E0,5.222545E0,2.340764E0,2.2383919E0,2.0587227E0,5.0352736E0,3.6764219E0,3.2637122E0],"tree_param":{"num_deleted":"0","num_feature":"37","num_nodes":"31","size_leaf_vector":"1"}},{"base_weights":[6.055858E-2,-2.9452124E-1,1.5103635E-1,-2.5507832E-2,9.923676E-2,2.592723E-1,-2.9473904E-1,2.846896E-2,-1.9524004E-2,7.374271E-1,1.3284451E-1,-4.1464648E-1,6.7933956E-3,2.4248421E-1,6.0091056E-2,-3.5379633E-2,4.8912382E-1,-2.4558289E-2,-1.8731185E-3,4.739278E-2,-2.0450154E-2,-4.037197E-1,1.2819517E-1,-1.5604194E-1,9.0231144E-1,-9.1171026E-4,-2.4324479E-2,4.5402657E-2,-2.7488093E-3,1.2220073E-2,-2.0879572E-2,6.373923E-2,2.8809088E-3],"categories":[],"categories_nodes":[],"categories_segments":[],"categories_sizes":[],"default_left":[0,0,0,0,0,0,0,0,0,0,0,0,0,0,0,0,0,0,0,0,0,0,0,0,0,0,0,0,0,0,0,0,0],"id":34,"left_children":[1,3,5,-1,7,9,11,-1,-1,13,15,17,-1,19,-1,21,23,-1,-1,-1,-1,25,27,29,31,-1,-1,-1,-1,-1,-1,-1,-1],"loss_changes":[2.6914682E0,1.529742E0,3.3008256E0,0E0,1.774975E0,3.1123126E0,7.739284E-1,0E0,0E0,2.0972853E0,2.7311673E0,2.4266565E-1,0E0,3.5167964E0,0E0,1.9461982E0,4.0908976E0,0E0,0E0,0E0,0E0,2.583692E-1,3.2818146E0,7.9322976E-1,2.657732E0,0E0,0E0,0E0,0E0,0E0,0E0,0E0,0E0],"parents":[2147483647,0,0,1,1,2,2,4,4,5,5,6,6,9,9,10,10,11,11,13,13,15,15,16,16,21,21,22,22,23,23,24,24],"right_children":[2,4,6,-1,8,10,12,-1,-1,14,16,18,-1,20,-1,22,24,-1,-1,-1,-1,26,28,30,32,-1,-1,-1,-1,-1,-1,-1,-1],"split_conditions":[-1.8518043E-1,7.420864E-1,1.3320877E-1,-2.5507832E-2,-1.8371512E-1,1.8142994E-2,3.824695E-2,2.846896E-2,-1.9524004E-2,1.282285E-2,7.583598E-2,6.139855E-2,6.7933956E-3,-1.4119238E-1,6.0091056E-2,-3.7120223E-2,3.0162992E-2,-2.4558289E-2,-1.8731185E-3,4.739278E-2,-2.0450154E-2,-5.395688E-2,-3.6201852E-3,-5.3095896E-2,8.206163E-3,-9.1171026E-4,-2.4324479E-2,4.5402657E-2,-2.7488093E-3,1.2220073E-2,-2.0879572E-2,6.373923E-2,2.8809088E-3],"split_indices":[28,36,28,0,30,3,3,0,0,4,31,1,0,11,0,1,18,0,0,0,0,30,2,6,12,0,0,0,0,0,0,0,0],"split_type":[0,0,0,0,0,0,0,0,0,0,0,0,0,0,0,0,0,0,0,0,0,0,0,0,0,0,0,0,0,0,0,0,0],"sum_hessian":[8.1838326E1,1.5936226E1,6.59021E1,1.0270242E1,5.6659837E0,5.3544098E1,1.2358002E1,2.911953E0,2.7540307E0,1.0020904E1,4.3523193E1,9.876948E0,2.4810536E0,5.691979E0,4.3289247E0,2.9985147E1,1.3538046E1,7.73952E0,2.1374283E0,2.5882456E0,3.103733E0,8.95758E0,2.1027567E1,5.4338174E0,8.104229E0,2.0126235E0,6.944956E0,3.350642E0,1.7676926E1,2.021714E0,3.4121034E0,5.188688E0,2.9155412E0],"tree_param":{"num_deleted":"0","num_feature":"37","num_nodes":"33","size_leaf_vector":"1"}},{"base_weights":[-8.112699E-2,1.0969119E-1,-2.4868153E-1,4.223945E-1,-2.3295048E-1,-3.6846152E-1,6.2189415E-2,-3.06804E-1,6.8921095E-1,-3.8504592E-1,1.306788E-1,-1.8008566E-3,-4.3655118E-1,5.480786E-1,-3.518768E-1,-2.0666212E-2,-1.4409058E-3,7.1720056E-2,3.8650975E-1,-2.5279215E-2,-7.773684E-4,-2.0390075E-2,3.9706327E-2,2.6735542E-2,-2.066419E-2,-2.407714E-1,-2.6505545E-2,-5.8631813E-3,5.2411616E-2,-9.2749635E-4,-2.2554658E-2,7.1236795E-1,-2.434622E-1,-2.4379913E-2,1.7400216E-2,-7.5856657E-3,5.9192378E-2,-1.7706892E-2,-8.4316096E-4],"categories":[],"categories_nodes":[],"categories_segments":[],"categories_sizes":[],"default_left":[0,0,0,0,0,0,0,0,0,0,0,0,0,0,0,0,0,0,0,0,0,0,0,0,0,0,0,0,0,0,0,0,0,0,0,0,0,0,0],"id":35,"left_children":[1,3,5,7,9,11,13,15,17,19,21,23,25,27,29,-1,-1,-1,31,-1,-1,-1,-1,-1,-1,33,-1,-1,-1,-1,-1,35,37,-1,-1,-1,-1,-1,-1],"loss_changes":[2.7583923E0,4.4191704E0,1.7603192E0,4.4327602E0,1.1625034E0,7.90843E-1,2.9028423E0,1.3193619E-1,2.9061966E0,5.770166E-1,2.6302156E0,1.6383618E0,3.0795527E-1,2.430501E0,1.9990093E-1,0E0,0E0,0E0,2.8783631E0,0E0,0E0,0E0,0E0,0E0,0E0,1.8153911E0,0E0,0E0,0E0,0E0,0E0,3.9059272E0,8.370075E-2,0E0,0E0,0E0,0E0,0E0,0E0],"parents":[2147483647,0,0,1,1,2,2,3,3,4,4,5,5,6,6,7,7,8,8,9,9,10,10,11,11,12,12,13,13,14,14,18,18,25,25,31,31,32,32],"right_children":[2,4,6,8,10,12,14,16,18,20,22,24,26,28,30,-1,-1,-1,32,-1,-1,-1,-1,-1,-1,34,-1,-1,-1,-1,-1,36,38,-1,-1,-1,-1,-1,-1],"split_conditions":[-3.0533355E-2,1.5755363E-1,5.338913E-2,-5.975394E-2,-1.6344441E-2,-6.3516736E-2,6.542422E-2,3.5209317E-2,-1.15286894E-1,4.851813E-2,3.0319547E-2,-3.9990924E-2,-1.6538437E-2,-1.2053594E-1,6.644533E-3,-2.0666212E-2,-1.4409058E-3,7.1720056E-2,3.0973159E-2,-2.5279215E-2,-7.773684E-4,-2.0390075E-2,3.9706327E-2,2.6735542E-2,-2.066419E-2,-1.3707001E-2,-2.6505545E-2,-5.8631813E-3,5.2411616E-2,-9.2749635E-4,-2.2554658E-2,1.9220479E-2,6.2542E-2,-2.4379913E-2,1.7400216E-2,-7.5856657E-3,5.9192378E-2,-1.7706892E-2,-8.4316096E-4],"split_indices":[30,16,4,1,31,26,4,18,30,23,23,1,0,16,21,0,0,0,8,0,0,0,0,0,0,6,0,0,0,0,0,3,9,0,0,0,0,0,0],"split_type":[0,0,0,0,0,0,0,0,0,0,0,0,0,0,0,0,0,0,0,0,0,0,0,0,0,0,0,0,0,0,0,0,0,0,0,0,0,0,0],"sum_hessian":[8.398614E1,3.9149525E1,4.483661E1,2.0499899E1,1.8649628E1,3.2464363E1,1.2372245E1,5.351047E0,1.5148851E1,1.3301929E1,5.3476973E0,5.475277E0,2.6989088E1,5.654631E0,6.717613E0,3.2565856E0,2.0944612E0,3.2005951E0,1.19482565E1,9.548174E0,3.753756E0,3.0813525E0,2.2663448E0,2.1411042E0,3.3341727E0,1.0228201E1,1.6760887E1,2.669314E0,2.9853172E0,2.0443354E0,4.673278E0,7.8933167E0,4.0549397E0,7.4476714E0,2.780529E0,2.951048E0,4.942269E0,2.049684E0,2.0052555E0],"tree_param":{"num_deleted":"0","num_feature":"37","num_nodes":"39","size_leaf_vector":"1"}},{"base_weights":[9.526202E-2,3.559418E-1,-9.383892E-2,-3.726758E-1,5.6598395E-1,-2.579592E-2,4.8883766E-2,-2.3231188E-2,-1.3373332E-3,-9.922042E-3,6.826788E-1,5.486262E-1,-2.2425139E-1,1.1441172E0,4.1784003E-1,-1.9777903E-2,8.371867E-1,6.398446E-2,-4.024468E-1,8.696723E-2,1.6950328E-2,-9.936148E-3,1.120264E0,-5.1842597E-3,1.151608E0,-2.3986971E-1,4.4011604E-2,-2.61064E-2,1.2075787E-2,-2.235702E-2,1.5164184E-2,7.557102E-2,9.641674E-3,6.9227874E-2,1.2290824E-2,8.853517E-3,-2.2651706E-2],"categories":[],"categories_nodes":[],"categories_segments":[],"categories_sizes":[],"default_left":[0,0,0,0,0,0,0,0,0,0,0,0,0,0,0,0,0,0,0,0,0,0,0,0,0,0,0,0,0,0,0,0,0,0,0,0,0],"id":36,"left_children":[1,3,5,7,9,-1,11,-1,-1,-1,13,15,17,19,21,-1,23,25,27,-1,-1,29,31,-1,33,35,-1,-1,-1,-1,-1,-1,-1,-1,-1,-1,-1],"loss_changes":[4.228439E0,5.737627E0,3.0588162E0,2.103591E-1,2.7206326E0,0E0,5.313695E0,0E0,0E0,0E0,2.4221153E0,4.128249E0,1.344448E0,3.2312965E0,5.411498E0,0E0,3.4641843E0,2.8063064E0,1.3726525E0,0E0,0E0,1.7717923E0,1.9904175E0,0E0,1.2629662E0,8.306915E-1,0E0,0E0,0E0,0E0,0E0,0E0,0E0,0E0,0E0,0E0,0E0],"parents":[2147483647,0,0,1,1,2,2,3,3,4,4,6,6,10,10,11,11,12,12,13,13,14,14,16,16,17,17,18,18,21,21,22,22,24,24,25,25],"right_children":[2,4,6,8,10,-1,12,-1,-1,-1,14,16,18,20,22,-1,24,26,28,-1,-1,30,32,-1,34,36,-1,-1,-1,-1,-1,-1,-1,-1,-1,-1,-1],"split_conditions":[6.2426704E-4,-2.0060158E-1,2.6981665E-2,2.0554811E-1,-9.242024E-3,-2.579592E-2,7.357174E-2,-2.3231188E-2,-1.3373332E-3,-9.922042E-3,-1.4511758E-3,-1.8563855E-2,-3.301648E-1,3.1023288E-2,-4.4333383E-2,-1.9777903E-2,4.1886196E-2,-3.9942634E-1,2.9664788E-1,8.696723E-2,1.6950328E-2,3.0592132E-2,4.2453106E-4,-5.1842597E-3,1.1639517E-1,-2.2582809E-2,4.4011604E-2,-2.61064E-2,1.2075787E-2,-2.235702E-2,1.5164184E-2,7.557102E-2,9.641674E-3,6.9227874E-2,1.2290824E-2,8.853517E-3,-2.2651706E-2],"split_indices":[22,21,8,31,12,0,19,0,0,0,22,0,31,13,21,0,4,31,6,0,0,13,0,0,6,0,0,0,0,0,0,0,0,0,0,0,0],"split_type":[0,0,0,0,0,0,0,0,0,0,0,0,0,0,0,0,0,0,0,0,0,0,0,0,0,0,0,0,0,0,0,0,0,0,0,0,0],"sum_hessian":[8.356932E1,3.4986374E1,4.858295E1,7.549039E0,2.7437336E1,1.1792968E1,3.678998E1,5.464405E0,2.0846338E0,3.4275146E0,2.400982E1,1.27745285E1,2.4015453E1,7.4068875E0,1.6602934E1,2.8223417E0,9.952187E0,9.205333E0,1.4810122E1,3.519957E0,3.8869302E0,1.0843023E1,5.75991E0,2.5810034E0,7.3711834E0,7.1334662E0,2.071866E0,1.2779517E1,2.0306041E0,4.480572E0,6.3624506E0,3.532514E0,2.2273958E0,5.3550277E0,2.0161555E0,2.3118312E0,4.8216352E0],"tree_param":{"num_deleted":"0","num_feature":"37","num_nodes":"37","size_leaf_vector":"1"}},{"base_weights":[1.7110407E-2,3.3444187E-1,-1.6995317E-1,-2.2901494E-2,5.056921E-1,-2.782392E-1,4.965507E-2,6.76286E-1,-1.4899917E-1,-6.2857725E-2,-4.7743842E-1,3.2127127E-1,-2.3247657E-2,8.1385183E-1,-1.7950332E-2,-2.0806491E-2,1.2495773E-2,-2.5194296E-1,4.514109E-1,-1.6018313E-3,-2.6299817E-2,-8.768551E-2,7.828749E-1,-5.3753373E-3,9.6405387E-1,1.7430795E-2,-4.2886293E-1,2.907587E-2,8.4731765E-3,2.8749919E-2,-2.251498E-2,5.957182E-2,-8.927661E-4,1.3553361E-2,5.826064E-2,-1.4532729E-3,-2.5033334E-2],"categories":[],"categories_nodes":[],"categories_segments":[],"categories_sizes":[],"default_left":[0,0,0,0,0,0,0,0,0,0,0,0,0,0,0,0,0,0,0,0,0,0,0,0,0,0,0,0,0,0,0,0,0,0,0,0,0],"id":37,"left_children":[1,3,5,-1,7,9,11,13,15,17,19,21,-1,23,-1,-1,-1,25,27,-1,-1,29,31,-1,33,-1,35,-1,-1,-1,-1,-1,-1,-1,-1,-1,-1],"loss_changes":[5.1558895E0,4.6184244E0,1.3287215E0,0E0,3.1836295E0,1.4967759E0,2.7189925E0,3.4459028E0,7.926499E-1,1.9507401E0,3.3284616E-1,2.558015E0,0E0,2.9094715E0,0E0,0E0,0E0,1.7243831E0,2.2604227E-2,0E0,0E0,2.0682325E0,2.179151E0,0E0,1.9234762E0,0E0,2.7604055E-1,0E0,0E0,0E0,0E0,0E0,0E0,0E0,0E0,0E0,0E0],"parents":[2147483647,0,0,1,1,2,2,4,4,5,5,6,6,7,7,8,8,9,9,10,10,11,11,13,13,17,17,18,18,21,21,22,22,24,24,26,26],"right_children":[2,4,6,-1,8,10,12,14,16,18,20,22,-1,24,-1,-1,-1,26,28,-1,-1,30,32,-1,34,-1,36,-1,-1,-1,-1,-1,-1,-1,-1,-1,-1],"split_conditions":[5.018175E-1,2.2546012E-2,9.8787196E-2,-2.2901494E-2,3.3194773E-2,3.3801086E-2,7.456062E-1,2.2852269E-1,3.8677987E-2,3.2609362E-2,3.262474E-2,3.860486E-2,-2.3247657E-2,2.1364091E-2,-1.7950332E-2,-2.0806491E-2,1.2495773E-2,-9.9328496E-2,1.038914E-1,-1.6018313E-3,-2.6299817E-2,2.712305E-2,1.0287744E-1,-5.3753373E-3,2.3286482E-2,1.7430795E-2,-6.065046E-3,2.907587E-2,8.4731765E-3,2.8749919E-2,-2.251498E-2,5.957182E-2,-8.927661E-4,1.3553361E-2,5.826064E-2,-1.4532729E-3,-2.5033334E-2],"split_indices":[36,9,11,0,8,13,36,31,8,13,8,3,0,13,0,0,0,30,28,0,0,8,1,0,8,0,17,0,0,0,0,0,0,0,0,0,0],"split_type":[0,0,0,0,0,0,0,0,0,0,0,0,0,0,0,0,0,0,0,0,0,0,0,0,0,0,0,0,0,0,0,0,0,0,0,0,0],"sum_hessian":[8.4621666E1,3.1289469E1,5.3332195E1,5.158697E0,2.6130772E1,3.5845573E1,1.7486622E1,2.082431E1,5.3064613E0,1.809652E1,1.7749054E1,1.181863E1,5.667991E0,1.865587E1,2.1684408E0,3.3024926E0,2.0039682E0,1.3746706E1,4.349815E0,2.1103983E0,1.5638657E1,6.5813246E0,5.2373056E0,2.5615392E0,1.6094332E1,2.7786877E0,1.0968018E1,2.0066519E0,2.3431628E0,2.0229208E0,4.558404E0,3.2274783E0,2.0098276E0,4.260765E0,1.1833566E1,2.0958688E0,8.8721485E0],"tree_param":{"num_deleted":"0","num_feature":"37","num_nodes":"37","size_leaf_vector":"1"}},{"base_weights":[-1.9633248E-1,3.8594987E-2,-2.3525184E-1,-2.7555948E-1,3.4043666E-2,3.5955656E-2,-3.503517E-1,5.7450574E-2,-2.2201242E-1,1.0038524E-2,-3.7528905E-1,2.8764965E-2,-2.3578485E-2,-4.1805547E-1,-1.1678252E-1,-1.9515013E-2,1.887816E-2,-1.0917781E-2,-2.7214918E-2,2.6340157E-2,-1.819679E-2],"categories":[],"categories_nodes":[],"categories_segments":[],"categories_sizes":[],"default_left":[0,0,0,0,0,0,0,0,0,0,0,0,0,0,0,0,0,0,0,0,0],"id":38,"left_children":[1,-1,3,5,-1,7,9,-1,11,-1,13,15,-1,17,19,-1,-1,-1,-1,-1,-1],"loss_changes":[3.2322176E0,0E0,3.1035085E0,1.8497906E0,0E0,4.842408E0,9.565878E-1,0E0,9.0104616E-1,0E0,5.6822205E-1,1.236927E0,0E0,1.0987616E0,1.8184451E0,0E0,0E0,0E0,0E0,0E0,0E0],"parents":[2147483647,0,0,2,2,3,3,5,5,6,6,8,8,10,10,11,11,13,13,14,14],"right_children":[2,-1,4,6,-1,8,10,-1,12,-1,14,16,-1,18,20,-1,-1,-1,-1,-1,-1],"split_conditions":[-2.5722656E-1,3.8594987E-2,3.2487664E-1,-5.013418E-1,3.4043666E-2,5.1173514E-1,-2.9245055E-1,5.7450574E-2,1.4707808E-3,1.0038524E-2,-2.324532E-2,3.8944263E-2,-2.3578485E-2,-3.6988165E-2,-3.5057021E-3,-1.9515013E-2,1.887816E-2,-1.0917781E-2,-2.7214918E-2,2.6340157E-2,-1.819679E-2],"split_indices":[16,0,6,27,0,21,21,0,0,0,10,18,0,5,0,0,0,0,0,0,0],"split_type":[0,0,0,0,0,0,0,0,0,0,0,0,0,0,0,0,0,0,0,0,0],"sum_hessian":[8.1379166E1,2.317669E0,7.906149E1,7.6503845E1,2.5576468E0,1.465343E1,6.1850418E1,2.1801763E0,1.2473253E1,2.1986525E0,5.9651764E1,6.4628415E0,6.0104117E0,5.032255E1,9.329214E0,2.7514338E0,3.7114077E0,2.0854778E1,2.9467772E1,2.1623576E0,7.166857E0],"tree_param":{"num_deleted":"0","num_feature":"37","num_nodes":"21","size_leaf_vector":"1"}},{"base_weights":[2.0007104E-1,5.463763E-1,-1.4994825E-1,1.8712246E-1,8.748741E-1,-4.4836652E-1,-0E0,5.5961275E-1,-3.0174273E-1,1.1542035E0,-0E0,-6.1793095E-3,-2.5422871E-2,4.0283766E-2,-9.983384E-2,1.0696677E0,-3.1078715E-2,-0E0,-2.3485491E-2,1.4122788E0,4.7649276E-1,2.6916001E-2,-2.0740502E-2,2.390721E-1,-3.9184567E-1,1.0181714E-2,7.023855E-2,-2.1258574E-2,2.648052E-2,1.6098689E0,2.9287789E-2,-6.3281693E-3,5.1295497E-2,6.6499305E-1,-1.9285907E-1,-2.589629E-2,1.2498573E-2,2.9681856E-2,9.9874966E-2,1.7042598E-4,6.255781E-2,1.2133449E-2,-2.1811234E-2],"categories":[],"categories_nodes":[],"categories_segments":[],"categories_sizes":[],"default_left":[0,0,0,0,0,0,0,0,0,0,0,0,0,0,0,0,0,0,0,0,0,0,0,0,0,0,0,0,0,0,0,0,0,0,0,0,0,0,0,0,0,0,0],"id":39,"left_children":[1,3,5,7,9,11,13,15,17,19,21,-1,-1,-1,23,25,27,-1,-1,29,31,-1,-1,33,35,-1,-1,-1,-1,37,-1,-1,-1,39,41,-1,-1,-1,-1,-1,-1,-1,-1],"loss_changes":[1.0202891E1,4.7062407E0,1.847759E0,4.120218E0,5.307329E0,1.4502549E-1,2.3721657E0,3.9638605E0,5.4267216E-1,2.0063477E0,1.6069838E0,0E0,0E0,0E0,2.7684362E0,1.565722E0,1.709862E0,0E0,0E0,6.763935E-1,2.2536778E0,0E0,0E0,2.548732E0,1.3678546E0,0E0,0E0,0E0,0E0,1.8711853E0,0E0,0E0,0E0,2.521558E0,8.739054E-1,0E0,0E0,0E0,0E0,0E0,0E0,0E0,0E0],"parents":[2147483647,0,0,1,1,2,2,3,3,4,4,5,5,6,6,7,7,8,8,9,9,10,10,14,14,15,15,16,16,19,19,20,20,23,23,24,24,29,29,33,33,34,34],"right_children":[2,4,6,8,10,12,14,16,18,20,22,-1,-1,-1,24,26,28,-1,-1,30,32,-1,-1,34,36,-1,-1,-1,-1,38,-1,-1,-1,40,42,-1,-1,-1,-1,-1,-1,-1,-1],"split_conditions":[-5.122183E-2,-2.6032645E-1,-1.485572E-2,3.4418203E-2,-1.944487E-2,-7.536646E-3,-4.1831087E-2,-6.75316E-2,-7.2275174E-1,6.13E-1,-2.2126018E-1,-6.1793095E-3,-2.5422871E-2,4.0283766E-2,4.908965E-1,3.504772E-2,6.479623E-2,-0E0,-2.3485491E-2,5.8417562E-2,-8.279494E-2,2.6916001E-2,-2.0740502E-2,4.5682937E-3,3.5357863E-2,1.0181714E-2,7.023855E-2,-2.1258574E-2,2.648052E-2,-2.7348753E-2,2.9287789E-2,-6.3281693E-3,5.1295497E-2,9.91912E-2,1.3338083E-1,-2.589629E-2,1.2498573E-2,2.9681856E-2,9.9874966E-2,1.7042598E-4,6.255781E-2,1.2133449E-2,-2.1811234E-2],"split_indices":[27,31,26,3,31,7,28,28,27,33,28,0,0,0,33,18,26,0,0,1,10,0,0,2,18,0,0,0,0,1,0,0,0,26,27,0,0,0,0,0,0,0,0],"split_type":[0,0,0,0,0,0,0,0,0,0,0,0,0,0,0,0,0,0,0,0,0,0,0,0,0,0,0,0,0,0,0,0,0,0,0,0,0,0,0,0,0,0,0],"sum_hessian":[8.216993E1,4.116572E1,4.1004208E1,2.055752E1,2.0608202E1,1.2889301E1,2.8114906E1,1.170145E1,8.85607E0,1.5398873E1,5.2093277E0,2.749508E0,1.0139793E1,2.2418528E0,2.5873053E1,5.935037E0,5.7664137E0,3.3289785E0,5.527091E0,1.0260266E1,5.138607E0,2.1132374E0,3.0960906E0,1.1900406E1,1.3972648E1,2.1875846E0,3.7474523E0,3.632959E0,2.133455E0,7.418126E0,2.8421397E0,2.7298615E0,2.4087458E0,5.83678E0,6.0636253E0,1.1970059E1,2.0025883E0,2.8184814E0,4.5996447E0,3.294638E0,2.5421424E0,2.0273786E0,4.036247E0],"tree_param":{"num_deleted":"0","num_feature":"37","num_nodes":"43","size_leaf_vector":"1"}},{"base_weights":[1.7356835E-1,9.19374E-2,9.724378E-1,4.6625072E-1,-9.151414E-2,9.137374E-2,-2.3468878E-4,7.33869E-1,5.0984856E-2,-1.7676523E-1,5.4206693E-1,-3.264955E-3,8.725123E-1,-2.822832E-1,4.3804E-2,-2.5509238E-1,3.3003666E-2,-5.473173E-3,5.0653994E-2,2.6012942E-1,1.1089463E0,1.0494299E-2,-2.384996E-2,-3.2155383E-1,1.966177E-2,4.0506896E-2,-1.7774124E-2,7.6556735E-2,2.691083E-2,1.16116395E-2,-1.789037E-2],"categories":[],"categories_nodes":[],"categories_segments":[],"categories_sizes":[],"default_left":[0,0,0,0,0,0,0,0,0,0,0,0,0,0,0,0,0,0,0,0,0,0,0,0,0,0,0,0,0,0,0],"id":40,"left_children":[1,3,5,7,9,-1,-1,11,13,15,17,-1,19,21,-1,23,-1,-1,-1,25,27,-1,-1,29,-1,-1,-1,-1,-1,-1,-1],"loss_changes":[5.5847816E0,5.686422E0,6.8747864E0,2.9064732E0,3.0541608E0,0E0,0E0,1.9456062E0,3.573167E0,3.3897815E0,2.252006E0,0E0,1.6133852E0,1.0019164E0,0E0,2.115819E0,0E0,0E0,0E0,2.1437266E0,1.3145695E0,0E0,0E0,9.5327425E-1,0E0,0E0,0E0,0E0,0E0,0E0,0E0],"parents":[2147483647,0,0,1,1,2,2,3,3,4,4,7,7,8,8,9,9,10,10,