{"learner":{"attributes":{"scikit_learn":"{\"_estimator_type\": \"classifier\"}"},"feature_names":["return_5d","return_mean_5d","return_std_5d","return_max_5d","return_min_5d","return_10d","return_mean_10d","return_std_10d","return_max_10d","return_min_10d","return_20d","return_mean_20d","return_std_20d","return_max_20d","return_min_20d","return_30d","return_mean_30d","return_std_30d","return_max_30d","return_min_30d","return_60d","return_mean_60d","return_std_60d","return_max_60d","return_min_60d","momentum_5_30","momentum_5_60","momentum_10_30","momentum_10_60","momentum_20_30","momentum_20_60","volatility_5d","volatility_10d","volatility_20d","volatility_30d","volatility_60d","volume_change","volume_mean_5d","volume_std_5d","volume_change_mean_5d","volume_mean_10d","volume_std_10d","volume_change_mean_10d","volume_mean_20d","volume_std_20d","volume_change_mean_20d","volume_mean_30d","volume_std_30d","volume_change_mean_30d","volume_mean_60d","volume_std_60d","volume_change_mean_60d","close_to_high_ratio","close_to_low_ratio","sma_5","sma_10","sma_20","sma_50","sma_100","sma_200","sma_5_cross_10","sma_10_cross_20","sma_20_cross_50","sma_50_cross_200"],"feature_types":["float","float","float","float","float","float","float","float","float","float","float","float","float","float","float","float","float","float","float","float","float","float","float","float","float","float","float","float","float","float","float","float","float","float","float","float","float","float","float","float","float","float","float","float","float","float","float","float","float","float","float","float","float","float","float","float","float","float","float","float","float","float","float","float"],"gradient_booster":{"model":{"gbtree_model_param":{"num_parallel_tree":"1","num_trees":"1600"},"iteration_indptr":[0,8,16,24,32,40,48,56,64,72,80,88,96,104,112,120,128,136,144,152,160,168,176,184,192,200,208,216,224,232,240,248,256,264,272,280,288,296,304,312,320,328,336,344,352,360,368,376,384,392,400,408,416,424,432,440,448,456,464,472,480,488,496,504,512,520,528,536,544,552,560,568,576,584,592,600,608,616,624,632,640,648,656,664,672,680,688,696,704,712,720,728,736,744,752,760,768,776,784,792,800,808,816,824,832,840,848,856,864,872,880,888,896,904,912,920,928,936,944,952,960,968,976,984,992,1000,1008,1016,1024,1032,1040,1048,1056,1064,1072,1080,1088,1096,1104,1112,1120,1128,1136,1144,1152,1160,1168,1176,1184,1192,1200,1208,1216,1224,1232,1240,1248,1256,1264,1272,1280,1288,1296,1304,1312,1320,1328,1336,1344,1352,1360,1368,1376,1384,1392,1400,1408,1416,1424,1432,1440,1448,1456,1464,1472,1480,1488,1496,1504,1512,1520,1528,1536,1544,1552,1560,1568,1576,1584,1592,1600],"tree_info":[0,1,2,3,4,5,6,7,0,1,2,3,4,5,6,7,0,1,2,3,4,5,6,7,0,1,2,3,4,5,6,7,0,1,2,3,4,5,6,7,0,1,2,3,4,5,6,7,0,1,2,3,4,5,6,7,0,1,2,3,4,5,6,7,0,1,2,3,4,5,6,7,0,1,2,3,4,5,6,7,0,1,2,3,4,5,6,7,0,1,2,3,4,5,6,7,0,1,2,3,4,5,6,7,0,1,2,3,4,5,6,7,0,1,2,3,4,5,6,7,0,1,2,3,4,5,6,7,0,1,2,3,4,5,6,7,0,1,2,3,4,5,6,7,0,1,2,3,4,5,6,7,0,1,2,3,4,5,6,7,0,1,2,3,4,5,6,7,0,1,2,3,4,5,6,7,0,1,2,3,4,5,6,7,0,1,2,3,4,5,6,7,0,1,2,3,4,5,6,7,0,1,2,3,4,5,6,7,0,1,2,3,4,5,6,7,0,1,2,3,4,5,6,7,0,1,2,3,4,5,6,7,0,1,2,3,4,5,6,7,0,1,2,3,4,5,6,7,0,1,2,3,4,5,6,7,0,1,2,3,4,5,6,7,0,1,2,3,4,5,6,7,0,1,2,3,4,5,6,7,0,1,2,3,4,5,6,7,0,1,2,3,4,5,6,7,0,1,2,3,4,5,6,7,0,1,2,3,4,5,6,7,0,1,2,3,4,5,6,7,0,1,2,3,4,5,6,7,0,1,2,3,4,5,6,7,0,1,2,3,4,5,6,7,0,1,2,3,4,5,6,7,0,1,2,3,4,5,6,7,0,1,2,3,4,5,6,7,0,1,2,3,4,5,6,7,0,1,2,3,4,5,6,7,0,1,2,3,4,5,6,7,0,1,2,3,4,5,6,7,0,1,2,3,4,5,6,7,0,1,2,3,4,5,6,7,0,1,2,3,4,5,6,7,0,1,2,3,4,5,6,7,0,1,2,3,4,5,6,7,0,1,2,3,4,5,6,7,0,1,2,3,4,5,6,7,0,1,2,3,4,5,6,7,0,1,2,3,4,5,6,7,0,1,2,3,4,5,6,7,0,1,2,3,4,5,6,7,0,1,2,3,4,5,6,7,0,1,2,3,4,5,6,7,0,1,2,3,4,5,6,7,0,1,2,3,4,5,6,7,0,1,2,3,4,5,6,7,0,1,2,3,4,5,6,7,0,1,2,3,4,5,6,7,0,1,2,3,4,5,6,7,0,1,2,3,4,5,6,7,0,1,2,3,4,5,6,7,0,1,2,3,4,5,6,7,0,1,2,3,4,5,6,7,0,1,2,3,4,5,6,7,0,1,2,3,4,5,6,7,0,1,2,3,4,5,6,7,0,1,2,3,4,5,6,7,0,1,2,3,4,5,6,7,0,1,2,3,4,5,6,7,0,1,2,3,4,5,6,7,0,1,2,3,4,5,6,7,0,1,2,3,4,5,6,7,0,1,2,3,4,5,6,7,0,1,2,3,4,5,6,7,0,1,2,3,4,5,6,7,0,1,2,3,4,5,6,7,0,1,2,3,4,5,6,7,0,1,2,3,4,5,6,7,0,1,2,3,4,5,6,7,0,1,2,3,4,5,6,7,0,1,2,3,4,5,6,7,0,1,2,3,4,5,6,7,0,1,2,3,4,5,6,7,0,1,2,3,4,5,6,7,0,1,2,3,4,5,6,7,0,1,2,3,4,5,6,7,0,1,2,3,4,5,6,7,0,1,2,3,4,5,6,7,0,1,2,3,4,5,6,7,0,1,2,3,4,5,6,7,0,1,2,3,4,5,6,7,0,1,2,3,4,5,6,7,0,1,2,3,4,5,6,7,0,1,2,3,4,5,6,7,0,1,2,3,4,5,6,7,0,1,2,3,4,5,6,7,0,1,2,3,4,5,6,7,0,1,2,3,4,5,6,7,0,1,2,3,4,5,6,7,0,1,2,3,4,5,6,7,0,1,2,3,4,5,6,7,0,1,2,3,4,5,6,7,0,1,2,3,4,5,6,7,0,1,2,3,4,5,6,7,0,1,2,3,4,5,6,7,0,1,2,3,4,5,6,7,0,1,2,3,4,5,6,7,0,1,2,3,4,5,6,7,0,1,2,3,4,5,6,7,0,1,2,3,4,5,6,7,0,1,2,3,4,5,6,7,0,1,2,3,4,5,6,7,0,1,2,3,4,5,6,7,0,1,2,3,4,5,6,7,0,1,2,3,4,5,6,7,0,1,2,3,4,5,6,7,0,1,2,3,4,5,6,7,0,1,2,3,4,5,6,7,0,1,2,3,4,5,6,7,0,1,2,3,4,5,6,7,0,1,2,3,4,5,6,7,0,1,2,3,4,5,6,7,0,1,2,3,4,5,6,7,0,1,2,3,4,5,6,7,0,1,2,3,4,5,6,7,0,1,2,3,4,5,6,7,0,1,2,3,4,5,6,7,0,1,2,3,4,5,6,7,0,1,2,3,4,5,6,7,0,1,2,3,4,5,6,7,0,1,2,3,4,5,6,7,0,1,2,3,4,5,6,7,0,1,2,3,4,5,6,7,0,1,2,3,4,5,6,7,0,1,2,3,4,5,6,7,0,1,2,3,4,5,6,7,0,1,2,3,4,5,6,7,0,1,2,3,4,5,6,7,0,1,2,3,4,5,6,7,0,1,2,3,4,5,6,7,0,1,2,3,4,5,6,7,0,1,2,3,4,5,6,7,0,1,2,3,4,5,6,7,0,1,2,3,4,5,6,7,0,1,2,3,4,5,6,7,0,1,2,3,4,5,6,7,0,1,2,3,4,5,6,7,0,1,2,3,4,5,6,7,0,1,2,3,4,5,6,7,0,1,2,3,4,5,6,7,0,1,2,3,4,5,6,7,0,1,2,3,4,5,6,7,0,1,2,3,4,5,6,7,0,1,2,3,4,5,6,7,0,1,2,3,4,5,6,7,0,1,2,3,4,5,6,7,0,1,2,3,4,5,6,7,0,1,2,3,4,5,6,7,0,1,2,3,4,5,6,7,0,1,2,3,4,5,6,7,0,1,2,3,4,5,6,7,0,1,2,3,4,5,6,7,0,1,2,3,4,5,6,7,0,1,2,3,4,5,6,7,0,1,2,3,4,5,6,7,0,1,2,3,4,5,6,7,0,1,2,3,4,5,6,7,0,1,2,3,4,5,6,7,0,1,2,3,4,5,6,7,0,1,2,3,4,5,6,7,0,1,2,3,4,5,6,7,0,1,2,3,4,5,6,7,0,1,2,3,4,5,6,7,0,1,2,3,4,5,6,7,0,1,2,3,4,5,6,7,0,1,2,3,4,5,6,7,0,1,2,3,4,5,6,7,0,1,2,3,4,5,6,7,0,1,2,3,4,5,6,7,0,1,2,3,4,5,6,7,0,1,2,3,4,5,6,7,0,1,2,3,4,5,6,7,0,1,2,3,4,5,6,7,0,1,2,3,4,5,6,7,0,1,2,3,4,5,6,7,0,1,2,3,4,5,6,7,0,1,2,3,4,5,6,7,0,1,2,3,4,5,6,7,0,1,2,3,4,5,6,7,0,1,2,3,4,5,6,7],"trees":[{"base_weights":[1.7956749E-1,-1.3023256E-1,5.75626E-1,-3.2756934E-1,5.015544E-1,1.4021505E0,1.8157303E-1,-2.595122E-2,3.7446808E-2,-1.98374E-2,7.294118E-2,2.2385322E-2,9.577982E-2,-1.948718E-1,4.387879E-2,4.156863E-2,-2.2060607E-2,-2.3710407E-2,1.6585367E-2],"categories":[],"categories_nodes":[],"categories_segments":[],"categories_sizes":[],"default_left":[0,0,0,0,0,0,0,0,0,0,0,0,0,0,0,0,0,0,0],"id":0,"left_children":[1,3,5,7,9,11,13,-1,15,-1,-1,-1,-1,17,-1,-1,-1,-1,-1],"loss_changes":[5.261358E0,3.1624672E0,5.683629E0,1.4063122E0,5.8713675E0,1.7544918E0,3.8828146E0,0E0,3.196597E0,0E0,0E0,0E0,0E0,1.6057022E0,0E0,0E0,0E0,0E0,0E0],"parents":[2147483647,0,0,1,1,2,2,3,3,4,4,5,5,6,6,8,8,13,13],"right_children":[2,4,6,8,10,12,14,-1,16,-1,-1,-1,-1,18,-1,-1,-1,-1,-1],"split_conditions":[2.3423877E-2,3.8642876E7,1.8734548E-2,2.5249373E-2,-1.4409479E-2,1.2779523E-2,1.1829368E0,-2.595122E-2,7.359155E-2,-1.98374E-2,7.294118E-2,2.2385322E-2,9.577982E-2,9.435076E7,4.387879E-2,4.156863E-2,-2.2060607E-2,-2.3710407E-2,1.6585367E-2],"split_indices":[36,50,51,45,42,42,53,0,23,0,0,0,0,37,0,0,0,0,0],"split_type":[0,0,0,0,0,0,0,0,0,0,0,0,0,0,0,0,0,0,0],"sum_hessian":[4.090625E1,2.31875E1,1.771875E1,1.815625E1,5.03125E0,4.8125E0,1.290625E1,1.18125E1,6.34375E0,2.84375E0,2.1875E0,2.40625E0,2.40625E0,8.75E0,4.15625E0,2.1875E0,4.15625E0,5.90625E0,2.84375E0],"tree_param":{"num_deleted":"0","num_feature":"64","num_nodes":"19","size_leaf_vector":"1"}},{"base_weights":[-2.100077E-1,-2.887417E-1,2.9593496E-2,-9.716599E-3,-4.5683646E-1,-3.6806083E-1,3.3764258E-1,-2.6818922E-2,-2.6666669E-3,-2.3529413E-3,-2.3005182E-2,4.387879E-2,-2.0307694E-2],"categories":[],"categories_nodes":[],"categories_segments":[],"categories_sizes":[],"default_left":[0,0,0,0,0,0,0,0,0,0,0,0,0],"id":1,"left_children":[1,3,-1,5,7,9,11,-1,-1,-1,-1,-1,-1],"loss_changes":[2.703473E0,1.7194812E0,0E0,2.0488846E0,6.606469E-1,1.7046237E-1,3.7042255E0,0E0,0E0,0E0,0E0,0E0,0E0],"parents":[2147483647,0,0,1,1,3,3,4,4,5,5,6,6],"right_children":[2,4,-1,6,8,10,12,-1,-1,-1,-1,-1,-1],"split_conditions":[2.2509305E-1,1.3118273E-2,2.9593496E-2,1.6801621E-4,4.325781E-2,1.35544455E-2,6.136819E-2,-2.6818922E-2,-2.6666669E-3,-2.3529413E-3,-2.3005182E-2,4.387879E-2,-2.0307694E-2],"split_indices":[30,42,0,6,51,3,5,0,0,0,0,0,0],"split_type":[0,0,0,0,0,0,0,0,0,0,0,0,0],"sum_hessian":[3.959375E1,3.675E1,2.84375E0,1.44375E1,2.23125E1,7.21875E0,7.21875E0,1.815625E1,4.15625E0,2.1875E0,5.03125E0,4.15625E0,3.0625E0],"tree_param":{"num_deleted":"0","num_feature":"64","num_nodes":"13","size_leaf_vector":"1"}},{"base_weights":[7.070854E-2,6.1192054E-2,-6.784E-2,4.7329843E-1,-2.9866666E-1,-1.125E-1,6.7341775E-2,2.5882354E-2,-3.913253E-1,-2.27957E-2,2.5882354E-2,-4.9693593E-1,1.0000001E-2,-2.6913581E-2,-2.3529413E-3],"categories":[],"categories_nodes":[],"categories_segments":[],"categories_sizes":[],"default_left":[0,0,0,0,0,0,0,0,0,0,0,0,0,0,0],"id":2,"left_children":[1,-1,3,5,7,9,-1,-1,11,-1,-1,13,-1,-1,-1],"loss_changes":[7.0335646E0,0E0,5.00316E0,6.383569E0,2.3172693E0,1.9610397E0,0E0,0E0,1.748884E0,0E0,0E0,3.3338308E-1,0E0,0E0,0E0],"parents":[2147483647,0,0,2,2,3,3,4,4,5,5,8,8,11,11],"right_children":[2,-1,4,6,8,10,-1,-1,12,-1,-1,14,-1,-1,-1],"split_conditions":[1.3973111E7,6.1192054E-2,1.79607E2,3.1802844E-2,1.5744383E7,2.4141317E-2,6.7341775E-2,2.5882354E-2,2.53926E2,-2.27957E-2,2.5882354E-2,4.8365723E-2,1.0000001E-2,-2.6913581E-2,-2.3529413E-3],"split_indices":[44,0,55,7,47,0,0,0,55,0,0,17,0,0,0],"split_type":[0,0,0,0,0,0,0,0,0,0,0,0,0,0,0],"sum_hessian":[4.178125E1,3.71875E0,3.80625E1,1.09375E1,2.7125E1,7E0,3.9375E0,2.1875E0,2.49375E1,4.8125E0,2.1875E0,2.14375E1,3.5E0,1.925E1,2.1875E0],"tree_param":{"num_deleted":"0","num_feature":"64","num_nodes":"15","size_leaf_vector":"1"}},{"base_weights":[-6.2315788E-2,5.1076926E-2,-1.6940467E-1,-2.6225165E-1,2.9403973E-2,-3.2455516E-1,1.9310346E-2,1.125E-1,-4.4088888E-1,-2.1772152E-2,3.876923E-2,1.0196079E-2,-5.069879E-1,-2.3529413E-3,-2.7157893E-2],"categories":[],"categories_nodes":[],"categories_segments":[],"categories_sizes":[],"default_left":[0,0,0,0,0,0,0,0,0,0,0,0,0,0,0],"id":3,"left_children":[1,-1,3,5,-1,7,-1,9,11,-1,-1,-1,13,-1,-1],"loss_changes":[5.256526E0,0E0,3.0381446E0,1.6443272E0,0E0,1.8683431E0,0E0,3.277414E0,1.3324184E0,0E0,0E0,0E0,3.4690428E-1,0E0,0E0],"parents":[2147483647,0,0,2,2,3,3,5,5,7,7,8,8,12,12],"right_children":[2,-1,4,6,-1,8,-1,10,12,-1,-1,-1,14,-1,-1],"split_conditions":[2.023109E2,5.1076926E-2,2.47074E2,2.1681137E-1,2.9403973E-2,1.5283336E7,1.9310346E-2,-1.6344441E-2,-2.3198463E-2,-2.1772152E-2,3.876923E-2,1.0196079E-2,-7.845122E-2,-2.3529413E-3,-2.7157893E-2],"split_indices":[59,0,56,25,0,44,0,30,42,0,0,0,39,0,0],"split_type":[0,0,0,0,0,0,0,0,0,0,0,0,0,0,0],"sum_hessian":[4.353125E1,3.0625E0,4.046875E1,3.675E1,3.71875E0,3.4125E1,2.625E0,7E0,2.7125E1,3.9375E0,3.0625E0,2.1875E0,2.49375E1,2.1875E0,2.275E1],"tree_param":{"num_deleted":"0","num_feature":"64","num_nodes":"15","size_leaf_vector":"1"}},{"base_weights":[7.1086034E-2,7.742972E-1,-7.3938385E-2,-8E-3,7.178808E-2,-3.691475E-1,3.659919E-1,1.6585367E-2,-4.888889E-1,-1.6521738E-1,7.746836E-2,-2.3529413E-3,-2.6712803E-2,-3.625E-1,1.0000001E-2,-2.3529413E-3,-2.27957E-2],"categories":[],"categories_nodes":[],"categories_segments":[],"categories_sizes":[],"default_left":[0,0,0,0,0,0,0,0,0,0,0,0,0,0,0,0,0],"id":4,"left_children":[1,3,5,-1,-1,7,9,-1,11,13,-1,-1,-1,15,-1,-1,-1],"loss_changes":[4.646399E0,5.166144E0,5.009658E0,0E0,0E0,2.1159444E0,1.0098717E1,0E0,3.2262945E-1,9.17337E-1,0E0,0E0,0E0,1.6398096E-1,0E0,0E0,0E0],"parents":[2147483647,0,0,1,1,2,2,5,5,6,6,8,8,9,9,13,13],"right_children":[2,4,6,-1,-1,8,10,-1,12,14,-1,-1,-1,16,-1,-1,-1],"split_conditions":[-1.5435078E-2,-9.619635E-2,3.8805734E-3,-8E-3,7.178808E-2,-1.686443E-1,-1.1306768E-3,1.6585367E-2,1.1378701E-2,-8.132824E-2,7.746836E-2,-2.3529413E-3,-2.6712803E-2,-3.4497534E-3,1.0000001E-2,-2.3529413E-3,-2.27957E-2],"split_indices":[1,36,11,0,0,28,27,0,2,28,0,0,0,1,0,0,0],"split_type":[0,0,0,0,0,0,0,0,0,0,0,0,0,0,0,0,0],"sum_hessian":[4.33125E1,6.78125E0,3.653125E1,3.0625E0,3.71875E0,2.209375E1,1.44375E1,2.84375E0,1.925E1,1.05E1,3.9375E0,2.1875E0,1.70625E1,7E0,3.5E0,2.1875E0,4.8125E0],"tree_param":{"num_deleted":"0","num_feature":"64","num_nodes":"17","size_leaf_vector":"1"}},{"base_weights":[-6.9992766E-2,-2.2367068E-1,6.457831E-1,1.7950138E-1,-3.9283153E-1,-9.051095E-3,6.555556E-2,6.24E-1,-2.9430053E-1,3.2128512E-3,-2.683871E-2,6.3384615E-2,-1.8039217E-2,-2.3529413E-3,-1.98374E-2,3.3103447E-2,-2.2060607E-2],"categories":[],"categories_nodes":[],"categories_segments":[],"categories_sizes":[],"default_left":[0,0,0,0,0,0,0,0,0,0,0,0,0,0,0,0,0],"id":5,"left_children":[1,3,5,7,9,-1,-1,11,13,15,-1,-1,-1,-1,-1,-1,-1],"loss_changes":[4.856248E0,2.5769181E0,4.630788E0,2.592493E0,1.5461879E0,0E0,0E0,4.509917E0,8.971602E-2,2.5926428E0,0E0,0E0,0E0,0E0,0E0,0E0,0E0],"parents":[2147483647,0,0,1,1,2,2,3,3,4,4,7,7,8,8,9,9],"right_children":[2,4,6,8,10,-1,-1,12,14,16,-1,-1,-1,-1,-1,-1,-1],"split_conditions":[1.7882244E-1,-1.4455576E-1,-1.0261497E-2,3.968465E-2,-1.1045067E-3,-9.051095E-3,6.555556E-2,-3.237359E-2,-3.693359E-2,1.20594375E-1,-2.683871E-2,6.3384615E-2,-1.8039217E-2,-2.3529413E-3,-1.98374E-2,3.3103447E-2,-2.2060607E-2],"split_indices":[28,25,61,12,21,0,0,36,0,26,0,0,0,0,0,0,0],"split_type":[0,0,0,0,0,0,0,0,0,0,0,0,0,0,0,0,0],"sum_hessian":[4.221875E1,3.54375E1,6.78125E0,1.028125E1,2.515625E1,3.28125E0,3.5E0,5.25E0,5.03125E0,6.78125E0,1.8375E1,3.0625E0,2.1875E0,2.1875E0,2.84375E0,2.625E0,4.15625E0],"tree_param":{"num_deleted":"0","num_feature":"64","num_nodes":"17","size_leaf_vector":"1"}},{"base_weights":[-2.3536149E-1,2.5882354E-2,-2.899774E-1,-4.0149814E-1,1.4020619E-1,-4.5370743E-1,1.0196079E-2,-2.7262568E-1,3.2222223E-2,-2.6982248E-2,-2.3954803E-1,-1.8715596E-2,-2.3529413E-3,5.090909E-3,-2.3710407E-2],"categories":[],"categories_nodes":[],"categories_segments":[],"categories_sizes":[],"default_left":[0,0,0,0,0,0,0,0,0,0,0,0,0,0,0],"id":6,"left_children":[1,-1,3,5,7,9,-1,11,-1,-1,13,-1,-1,-1,-1],"loss_changes":[1.9227567E0,0E0,2.0718596E0,1.1724339E0,2.10588E0,3.6679506E-1,0E0,6.8552375E-2,0E0,0E0,9.716839E-1,0E0,0E0,0E0,0E0],"parents":[2147483647,0,0,2,2,3,3,4,4,5,5,7,7,10,10],"right_children":[2,-1,4,6,8,10,-1,12,-1,-1,14,-1,-1,-1,-1],"split_conditions":[-2.2682585E-1,2.5882354E-2,-2.9897038E-2,2.7316523E-1,-2.1544928E-2,3.1037677E-2,1.0196079E-2,1.1868772E-1,3.2222223E-2,-2.6982248E-2,3.7252076E-3,-1.8715596E-2,-2.3529413E-3,5.090909E-3,-2.3710407E-2],"split_indices":[15,0,9,28,30,45,0,0,0,0,11,0,0,0,0],"split_type":[0,0,0,0,0,0,0,0,0,0,0,0,0,0,0],"sum_hessian":[4.265625E1,2.1875E0,4.046875E1,3.2375E1,8.09375E0,3.01875E1,2.1875E0,4.59375E0,3.5E0,2.0125E1,1.00625E1,2.40625E0,2.1875E0,4.15625E0,5.90625E0],"tree_param":{"num_deleted":"0","num_feature":"64","num_nodes":"15","size_leaf_vector":"1"}},{"base_weights":[2.4E-1,6.044888E-1,-2.9963636E-1,1.4743801E0,2.1081081E-1,1.4153846E-2,-4.5309734E-1,1.1708029E-1,1.1970803E-2,-7.449393E-2,6.3384615E-2,-2.3529413E-3,-2.5759164E-2,-2.4375001E-2,3.1407407E-1,4.708861E-2,-2.1111112E-2],"categories":[],"categories_nodes":[],"categories_segments":[],"categories_sizes":[],"default_left":[0,0,0,0,0,0,0,0,0,0,0,0,0,0,0,0,0],"id":7,"left_children":[1,3,5,7,9,-1,11,-1,-1,13,-1,-1,-1,-1,15,-1,-1],"loss_changes":[8.325132E0,8.103496E0,1.6822342E0,7.2806606E0,5.792121E0,0E0,2.7561283E-1,0E0,0E0,2.6478782E0,0E0,0E0,0E0,0E0,4.3491664E0,0E0,0E0],"parents":[2147483647,0,0,1,1,2,2,3,3,4,4,6,6,9,9,14,14],"right_children":[2,4,6,8,10,-1,12,-1,-1,14,-1,-1,-1,-1,16,-1,-1],"split_conditions":[1.0033095E8,1.1929541E-2,-1.4913563E-1,3.4384076E-2,6.167127E-2,1.4153846E-2,-2.9100174E-1,1.1708029E-1,1.1970803E-2,2.5464332E-2,6.3384615E-2,-2.3529413E-3,-2.5759164E-2,-2.4375001E-2,1.4780709E-2,4.708861E-2,-2.1111112E-2],"split_indices":[49,15,36,2,2,0,20,0,0,61,0,0,0,0,11,0,0],"split_type":[0,0,0,0,0,0,0,0,0,0,0,0,0,0,0,0,0],"sum_hessian":[4.025E1,2.40625E1,1.61875E1,6.5625E0,1.75E1,3.0625E0,1.3125E1,3.28125E0,3.28125E0,1.44375E1,3.0625E0,2.1875E0,1.09375E1,7E0,7.4375E0,3.9375E0,3.5E0],"tree_param":{"num_deleted":"0","num_feature":"64","num_nodes":"17","size_leaf_vector":"1"}},{"base_weights":[2.6518494E-1,-5.260524E-2,7.1622103E-1,-2.903456E-1,6.185461E-1,-2.3903789E-1,1.0097619E0,1.6796954E-2,-4.678219E-1,5.84234E-2,-1.8302737E-2,-1.7464845E-2,-7.816299E-4,-6.681641E-4,1.3915658E0,-2.6140103E-2,-2.0998942E-3,-2.3153105E-3,1.790632E0,1.2286065E-1,2.5471494E-2],"categories":[],"categories_nodes":[],"categories_segments":[],"categories_sizes":[],"default_left":[0,0,0,0,0,0,0,0,0,0,0,0,0,0,0,0,0,0,0,0,0],"id":8,"left_children":[1,3,5,7,9,11,13,-1,15,-1,-1,-1,-1,-1,17,-1,-1,-1,19,-1,-1],"loss_changes":[6.3461103E0,4.351124E0,5.4216337E0,2.42092E0,4.353238E0,8.1366E-2,5.700596E0,0E0,3.0363202E-1,0E0,0E0,0E0,0E0,0E0,6.234379E0,0E0,0E0,0E0,5.482893E0,0E0,0E0],"parents":[2147483647,0,0,1,1,2,2,3,3,4,4,5,5,6,6,8,8,14,14,18,18],"right_children":[2,4,6,8,10,12,14,-1,16,-1,-1,-1,-1,-1,18,-1,-1,-1,20,-1,-1],"split_conditions":[2.3423877E-2,3.858184E7,-1.2586679E-1,-4.5831343E-3,1.0290265E-2,-4.89746E-2,-1.2800175E-2,1.6796954E-2,9.826848E-1,5.84234E-2,-1.8302737E-2,-1.7464845E-2,-7.816299E-4,-6.681641E-4,7.714746E7,-2.6140103E-2,-2.0998942E-3,-2.3153105E-3,4.397135E-2,1.2286065E-1,2.5471494E-2],"split_indices":[36,50,15,16,39,0,39,0,52,0,0,0,0,0,43,0,0,0,42,0,0],"split_type":[0,0,0,0,0,0,0,0,0,0,0,0,0,0,0,0,0,0,0,0,0],"sum_hessian":[4.254888E1,2.5349697E1,1.7199186E1,1.9247936E1,6.1017613E0,4.0063806E0,1.3192805E1,3.9285178E0,1.5319418E1,3.8604398E0,2.2413218E0,2.0054736E0,2.000907E0,3.7763503E0,9.416455E0,1.3157951E1,2.1614666E0,2.1832793E0,7.2331758E0,4.1026897E0,3.1304858E0],"tree_param":{"num_deleted":"0","num_feature":"64","num_nodes":"21","size_leaf_vector":"1"}},{"base_weights":[-1.9923772E-1,4.2844635E-1,-3.071529E-1,-1.800292E-2,4.6801727E-2,-4.021759E-1,2.6905036E-2,-5.018396E-1,-1.18504316E-1,-2.7013097E-2,-2.019621E-3,2.5781741E-2,-3.6507186E-1,-2.294036E-2,-1.9199977E-3],"categories":[],"categories_nodes":[],"categories_segments":[],"categories_sizes":[],"default_left":[0,0,0,0,0,0,0,0,0,0,0,0,0,0,0],"id":9,"left_children":[1,3,5,-1,-1,7,-1,9,11,-1,-1,-1,13,-1,-1],"loss_changes":[2.9775367E0,2.9847908E0,3.152293E0,0E0,0E0,8.309636E-1,0E0,3.5202408E-1,1.7882167E0,0E0,0E0,0E0,1.8180001E-1,0E0,0E0],"parents":[2147483647,0,0,1,1,2,2,5,5,7,7,8,8,12,12],"right_children":[2,4,6,-1,-1,8,-1,10,12,-1,-1,-1,14,-1,-1],"split_conditions":[2.2629991E-2,2.0802468E7,5.2209812E7,-1.800292E-2,4.6801727E-2,1.0649036E8,2.6905036E-2,9.8346305E-1,1.1117548E8,-2.7013097E-2,-2.019621E-3,2.5781741E-2,7.926417E-2,-2.294036E-2,-1.9199977E-3],"split_indices":[7,50,41,0,0,37,0,52,37,0,0,0,27,0,0],"split_type":[0,0,0,0,0,0,0,0,0,0,0,0,0,0,0],"sum_hessian":[4.1193817E1,5.471603E0,3.5722214E1,2.1795127E0,3.2920904E0,3.268975E1,3.0324628E0,2.3360712E1,9.32904E0,2.1207375E1,2.1533365E0,2.1927514E0,7.1362877E0,4.9929905E0,2.1432972E0],"tree_param":{"num_deleted":"0","num_feature":"64","num_nodes":"15","size_leaf_vector":"1"}},{"base_weights":[-1.8945022E-2,1.0472476E0,-1.5894105E-1,9.652212E-3,7.917603E-2,2.2806932E-1,-3.614473E-1,-1.7669386E-1,8.321846E-1,-4.9640122E-1,2.2733566E-1,-2.3523882E-2,1.9148864E-2,7.850919E-2,2.1128245E-3,-2.3457964E-3,-2.6879355E-2,4.5647874E-2,-1.916532E-2],"categories":[],"categories_nodes":[],"categories_segments":[],"categories_sizes":[],"default_left":[0,0,0,0,0,0,0,0,0,0,0,0,0,0,0,0,0,0,0],"id":10,"left_children":[1,3,5,-1,-1,7,9,11,13,15,17,-1,-1,-1,-1,-1,-1,-1,-1],"loss_changes":[6.739194E0,1.9119039E0,3.2620835E0,0E0,0E0,3.7145977E0,2.2914371E0,1.718321E0,3.2819557E0,3.325281E-1,2.7462597E0,0E0,0E0,0E0,0E0,0E0,0E0,0E0,0E0],"parents":[2147483647,0,0,1,1,2,2,5,5,6,6,7,7,8,8,9,9,10,10],"right_children":[2,4,6,-1,-1,8,10,12,14,16,18,-1,-1,-1,-1,-1,-1,-1,-1],"split_conditions":[-3.7729717E-3,2.15213E2,1.86044E2,9.652212E-3,7.917603E-2,4.9374953E-1,2.406235E2,3.101075E-2,3.503675E-2,1.2037769E-2,1.0327226E-2,-2.3523882E-2,1.9148864E-2,7.850919E-2,2.1128245E-3,-2.3457964E-3,-2.6879355E-2,4.5647874E-2,-1.916532E-2],"split_indices":[45,55,54,0,0,32,58,10,42,51,30,0,0,0,0,0,0,0,0],"split_type":[0,0,0,0,0,0,0,0,0,0,0,0,0,0,0,0,0,0,0],"sum_hessian":[4.3629856E1,4.22882E0,3.9401035E1,2.2273798E0,2.00144E0,1.332175E1,2.6079285E1,8.301589E0,5.0201607E0,2.1482145E1,4.597141E0,5.665622E0,2.6359665E0,2.0192785E0,3.0008821E0,2.1865213E0,1.9295624E1,2.0095384E0,2.5876024E0],"tree_param":{"num_deleted":"0","num_feature":"64","num_nodes":"19","size_leaf_vector":"1"}},{"base_weights":[-8.552931E-2,2.8187197E-1,-3.2821414E-1,6.694927E-2,-1.5594073E-3,2.1882053E-2,-4.2415014E-1,-2.7919424E-1,4.6424177E-2,1.0331066E-2,-4.9757156E-1,-2.5235942E-2,2.1918336E-2,-2.690935E-2,-2.1861999E-3],"categories":[],"categories_nodes":[],"categories_segments":[],"categories_sizes":[],"default_left":[0,0,0,0,0,0,0,0,0,0,0,0,0,0,0],"id":11,"left_children":[1,3,5,-1,7,-1,9,11,-1,-1,13,-1,-1,-1,-1],"loss_changes":[4.075514E0,5.565836E0,2.2045026E0,0E0,4.1231318E0,0E0,1.2924433E0,2.2619343E0,0E0,0E0,3.4006166E-1,0E0,0E0,0E0,0E0],"parents":[2147483647,0,0,1,1,2,2,4,4,6,6,7,7,10,10],"right_children":[2,4,6,-1,8,-1,10,12,-1,-1,14,-1,-1,-1,-1],"split_conditions":[-4.4989906E-4,1.0490313E0,-1.3010156E-1,6.694927E-2,1.2767945E-1,2.1882053E-2,1.2299101E-2,2.43649E2,4.6424177E-2,1.0331066E-2,1.8373406E-1,-2.5235942E-2,2.1918336E-2,-2.690935E-2,-2.1861999E-3],"split_indices":[39,53,29,0,36,0,51,56,0,0,27,0,0,0,0],"split_type":[0,0,0,0,0,0,0,0,0,0,0,0,0,0,0],"sum_hessian":[4.3619164E1,1.7123028E1,2.6496136E1,2.9075117E0,1.4215515E1,2.43705E0,2.4059084E1,1.1569219E1,2.6462965E0,2.1773186E0,2.1881765E1,9.134337E0,2.4348812E0,1.971158E1,2.1701856E0],"tree_param":{"num_deleted":"0","num_feature":"64","num_nodes":"15","size_leaf_vector":"1"}},{"base_weights":[7.269082E-2,6.9244266E-2,-7.809953E-2,5.9771925E-1,-1.7854033E-1,-4.684937E-3,6.1302077E-2,-2.6753044E-1,4.1036844E-2,-3.738637E-1,1.7086345E-1,1.0376231E-2,-4.328943E-1,3.834833E-2,-2.0734174E-2,3.8231218E-3,-2.503053E-2],"categories":[],"categories_nodes":[],"categories_segments":[],"categories_sizes":[],"default_left":[0,0,0,0,0,0,0,0,0,0,0,0,0,0,0,0,0],"id":12,"left_children":[1,-1,3,5,7,-1,-1,9,-1,11,13,-1,15,-1,-1,-1,-1],"loss_changes":[9.287475E0,0E0,2.9086785E0,2.6271014E0,3.487738E0,0E0,0E0,1.7233622E0,0E0,1.1006703E0,2.9246514E0,0E0,9.9895287E-1,0E0,0E0,0E0,0E0],"parents":[2147483647,0,0,2,2,3,3,4,4,7,7,9,9,10,10,12,12],"right_children":[2,-1,4,6,8,-1,-1,10,-1,12,14,-1,16,-1,-1,-1,-1],"split_conditions":[-8.4441274E-2,6.9244266E-2,-7.717383E-2,1.2157391E-2,-3.5367247E-2,-4.684937E-3,6.1302077E-2,2.4233062E-2,4.1036844E-2,2.6881695E-2,3.9837764E7,1.0376231E-2,-2.298446E-1,3.834833E-2,-2.0734174E-2,3.8231218E-3,-2.503053E-2],"split_indices":[4,0,0,3,19,0,0,60,0,22,44,0,25,0,0,0,0],"split_type":[0,0,0,0,0,0,0,0,0,0,0,0,0,0,0,0,0],"sum_hessian":[4.4731075E1,3.8352547E0,4.089582E1,4.5221095E0,3.637371E1,2.4822805E0,2.0398288E0,3.4163635E1,2.2100763E0,2.7796778E1,6.366858E0,2.17415E0,2.5622627E1,3.0860868E0,3.2807713E0,2.8182268E0,2.2804401E1],"tree_param":{"num_deleted":"0","num_feature":"64","num_nodes":"17","size_leaf_vector":"1"}},{"base_weights":[-1.5372631E-1,4.0989116E-2,-2.3038308E-1,2.0731582E-1,-3.371721E-1,-3.063747E-1,6.2259823E-2,-4.40647E-1,2.3545218E-1,-7.7273796E-4,-2.0756483E-2,-5.006521E-1,-7.0301175E-2,-1.8380985E-2,3.979845E-2,-1.9608545E-3,-2.6987059E-2,-1.7918121E-2,1.0361548E-2],"categories":[],"categories_nodes":[],"categories_segments":[],"categories_sizes":[],"default_left":[0,0,0,0,0,0,0,0,0,0,0,0,0,0,0,0,0,0,0],"id":13,"left_children":[1,-1,3,5,7,9,-1,11,13,-1,-1,15,17,-1,-1,-1,-1,-1,-1],"loss_changes":[3.286941E0,0E0,1.9568589E0,4.8998747E0,2.067361E0,1.4951402E-1,0E0,5.359583E-1,2.2023287E0,0E0,0E0,3.5262108E-1,5.1609796E-1,0E0,0E0,0E0,0E0,0E0,0E0],"parents":[2147483647,0,0,2,2,3,3,4,4,5,5,7,7,8,8,11,11,12,12],"right_children":[2,-1,4,6,8,10,-1,12,14,-1,-1,16,18,-1,-1,-1,-1,-1,-1],"split_conditions":[-1.9789262E-2,4.0989116E-2,-1.22557E-1,-1.6700684E-1,2.206379E-1,3.6477496E7,6.2259823E-2,1.1128317E8,-3.731492E-2,-7.7273796E-4,-2.0756483E-2,1.5739325E7,2.5029754E-2,-1.8380985E-2,3.979845E-2,-1.9608545E-3,-2.6987059E-2,-1.7918121E-2,1.0361548E-2],"split_indices":[1,0,27,27,28,44,0,43,36,0,0,47,26,0,0,0,0,0,0],"split_type":[0,0,0,0,0,0,0,0,0,0,0,0,0,0,0,0,0,0,0],"sum_hessian":[4.1304497E1,2.21217E0,3.9092327E1,7.298791E0,3.1793535E1,5.2893353E0,2.009456E0,2.7270744E1,4.5227923E0,2.0002537E0,3.2890816E0,2.2933146E1,4.3375993E0,2.2585285E0,2.2642639E0,2.1472337E0,2.0785912E1,2.1623182E0,2.175281E0],"tree_param":{"num_deleted":"0","num_feature":"64","num_nodes":"19","size_leaf_vector":"1"}},{"base_weights":[-1.727425E-1,-2.7363113E-1,2.1730252E-1,-3.7643853E-1,1.3726845E-1,-1.9250399E-1,5.1544707E-2,1.2404116E-2,-4.3543214E-1,3.7171993E-2,-2.5678265E-1,-2.1666387E-2,1.0401039E-2,3.8017833E-3,-5.0185966E-1,-1.9754164E-3,-1.7991086E-2,-2.7009314E-2,-2.1818888E-3],"categories":[],"categories_nodes":[],"categories_segments":[],"categories_sizes":[],"default_left":[0,0,0,0,0,0,0,0,0,0,0,0,0,0,0,0,0,0,0],"id":14,"left_children":[1,3,5,7,9,11,-1,-1,13,-1,15,-1,-1,-1,17,-1,-1,-1,-1],"loss_changes":[1.8123351E0,1.5931044E0,3.4425013E0,1.2024059E0,2.0853405E0,7.940582E-1,0E0,0E0,1.0043697E0,0E0,6.509593E-2,0E0,0E0,0E0,3.4594154E-1,0E0,0E0,0E0,0E0],"parents":[2147483647,0,0,1,1,2,2,3,3,4,4,5,5,8,8,10,10,14,14],"right_children":[2,4,6,8,10,12,-1,-1,14,-1,16,-1,-1,-1,18,-1,-1,-1,-1],"split_conditions":[1.1130215E8,4.023735E-2,2.7767422E-2,7.4090776E7,3.901753E-2,6.8338555E-3,5.1544707E-2,1.2404116E-2,1.13857975E-2,3.7171993E-2,1.2775327E-1,-2.1666387E-2,1.0401039E-2,3.8017833E-3,5.1929764E-2,-1.9754164E-3,-1.7991086E-2,-2.7009314E-2,-2.1818888E-3],"split_indices":[43,2,29,46,12,60,0,0,51,0,0,0,0,0,12,0,0,0,0],"split_type":[0,0,0,0,0,0,0,0,0,0,0,0,0,0,0,0,0,0,0],"sum_hessian":[4.3401318E1,3.4923008E1,8.478306E0,2.819567E1,6.727341E0,6.064229E0,2.4140768E0,2.0106022E0,2.6185066E1,2.4009933E0,4.326348E0,3.8919106E0,2.1723185E0,2.8202357E0,2.336483E1,2.1489277E0,2.1774204E0,2.1194935E1,2.1698966E0],"tree_param":{"num_deleted":"0","num_feature":"64","num_nodes":"19","size_leaf_vector":"1"}},{"base_weights":[3.1054977E-1,9.707466E-1,-1.357097E-1,1.7371799E0,4.107332E-1,-2.6177102E-1,4.5857597E-2,2.524442E-2,1.08610325E-1,-2.2105286E-2,9.588183E-1,2.905852E-2,-3.6599115E-1,1.4966941E0,-4.240504E-3,1.1928813E-2,-4.8523894E-1,1.2242897E-2,1.1082249E-1,-2.07425E-3,-2.6617398E-2],"categories":[],"categories_nodes":[],"categories_segments":[],"categories_sizes":[],"default_left":[0,0,0,0,0,0,0,0,0,0,0,0,0,0,0,0,0,0,0,0,0],"id":15,"left_children":[1,3,5,7,9,11,-1,-1,-1,-1,13,-1,15,17,-1,-1,19,-1,-1,-1,-1],"loss_changes":[1.3052751E1,6.7061577E0,3.7297366E0,2.4548798E0,5.927005E0,2.3685553E0,0E0,0E0,0E0,0E0,4.470778E0,0E0,1.7824798E0,3.7679205E0,0E0,0E0,3.2800865E-1,0E0,0E0,0E0,0E0],"parents":[2147483647,0,0,1,1,2,2,3,3,4,4,5,5,10,10,12,12,13,13,16,16],"right_children":[2,4,6,8,10,12,-1,-1,-1,-1,14,-1,16,18,-1,-1,20,-1,-1,-1,-1],"split_conditions":[-6.4575486E-2,3.4384076E-2,8.3186746E-2,2.9944204E-2,2.0905678E7,1.7198E2,4.5857597E-2,2.524442E-2,1.08610325E-1,-2.2105286E-2,3.8966548E7,2.905852E-2,-5.8616693E-3,5.471166E-3,-4.240504E-3,1.1928813E-2,8.2745606E-1,1.2242897E-2,1.1082249E-1,-2.07425E-3,-2.6617398E-2],"split_indices":[26,2,42,51,38,57,0,0,0,0,50,0,16,16,0,0,52,0,0,0,0],"split_type":[0,0,0,0,0,0,0,0,0,0,0,0,0,0,0,0,0,0,0,0,0],"sum_hessian":[4.2573242E1,1.678713E1,2.5786114E1,6.1245213E0,1.0662609E1,2.3784676E1,2.0014381E0,2.221678E0,3.9028432E0,4.175813E0,6.486796E0,2.0079908E0,2.1776684E1,4.057365E0,2.4294314E0,3.2846684E0,1.8492016E1,2.0211716E0,2.0361934E0,2.1589224E0,1.6333094E1],"tree_param":{"num_deleted":"0","num_feature":"64","num_nodes":"21","size_leaf_vector":"1"}},{"base_weights":[1.5508164E-1,-1.6635321E-1,3.8043952E-1,4.071888E-2,-3.5211444E-1,7.080986E-2,1.7211644E-1,-4.5736492E-1,1.1558389E-2,-2.016723E-1,7.906044E-1,-2.233603E-3,-2.5898999E-2,-4.3749386E-1,2.8966293E-2,7.797087E-2,3.570019E-2,-2.5365531E-2,-8.155478E-4,-1.9531189E-2,2.8816102E-2],"categories":[],"categories_nodes":[],"categories_segments":[],"categories_sizes":[],"default_left":[0,0,0,0,0,0,0,0,0,0,0,0,0,0,0,0,0,0,0,0,0],"id":16,"left_children":[1,3,5,-1,7,-1,9,11,-1,13,15,-1,-1,17,-1,-1,19,-1,-1,-1,-1],"loss_changes":[3.313702E0,3.6809838E0,5.3566957E0,0E0,1.1511946E0,0E0,5.6374416E0,2.8570437E-1,0E0,3.0583792E0,5.086053E0,0E0,0E0,3.0472136E-1,0E0,0E0,1.5569209E0,0E0,0E0,0E0,0E0],"parents":[2147483647,0,0,1,1,2,2,4,4,6,6,7,7,9,9,10,10,13,13,16,16],"right_children":[2,4,6,-1,8,-1,10,12,-1,14,16,-1,-1,18,-1,-1,20,-1,-1,-1,-1],"split_conditions":[4.989717E-3,-1.0696409E-1,1.8587843E-2,4.071888E-2,2.4892222E-2,7.080986E-2,7.668093E-2,1.6179434E7,1.1558389E-2,-1.7026203E-2,9.7127896E7,-2.233603E-3,-2.5898999E-2,6.7401946E-2,2.8966293E-2,7.797087E-2,3.280541E-2,-2.5365531E-2,-8.155478E-4,-1.9531189E-2,2.8816102E-2],"split_indices":[39,39,39,0,60,0,30,47,0,4,46,0,0,2,0,0,0,0,0,0,0],"split_type":[0,0,0,0,0,0,0,0,0,0,0,0,0,0,0,0,0,0,0,0,0],"sum_hessian":[4.357621E1,1.7884743E1,2.5691467E1,2.2234836E0,1.5661259E1,3.250795E0,2.2440674E1,1.3595362E1,2.0658965E0,1.4306596E1,8.134077E0,2.1748438E0,1.1420518E1,1.14247675E1,2.881828E0,3.4362912E0,4.697786E0,9.421165E0,2.003602E0,2.6782513E0,2.0195348E0],"tree_param":{"num_deleted":"0","num_feature":"64","num_nodes":"21","size_leaf_vector":"1"}},{"base_weights":[-1.6844527E-1,4.4653332E-1,-2.6763123E-1,-1.7865298E-2,4.8377648E-2,-3.5021985E-1,1.9374428E-2,2.0636981E-2,-4.691277E-1,3.6491927E-2,-3.2502317E-1,-1.3008787E-1,-2.6905686E-2,-1.864071E-3,-2.1356853E-2,-1.9962758E-2,1.0985334E-2],"categories":[],"categories_nodes":[],"categories_segments":[],"categories_sizes":[],"default_left":[0,0,0,0,0,0,0,0,0,0,0,0,0,0,0,0,0],"id":17,"left_children":[1,3,5,-1,-1,7,-1,9,11,-1,13,15,-1,-1,-1,-1,-1],"loss_changes":[2.786033E0,3.0648956E0,2.2238028E0,0E0,0E0,1.5977101E0,0E0,2.5452273E0,4.8870754E-1,0E0,1.3790178E-1,6.7866135E-1,0E0,0E0,0E0,0E0,0E0],"parents":[2147483647,0,0,1,1,2,2,5,5,7,7,8,8,10,10,11,11],"right_children":[2,4,6,-1,-1,8,-1,10,12,-1,14,16,-1,-1,-1,-1,-1],"split_conditions":[2.2629991E-2,2.0439362E7,1.5306917E-1,-1.7865298E-2,4.8377648E-2,-5.541384E-2,1.9374428E-2,-1.0567899E-1,-2.0543697E-1,3.6491927E-2,2.320446E2,-1.4181179E-2,-2.6905686E-2,-1.864071E-3,-2.1356853E-2,-1.9962758E-2,1.0985334E-2],"split_indices":[7,50,8,0,0,62,0,36,27,0,59,0,0,0,0,0,0],"split_type":[0,0,0,0,0,0,0,0,0,0,0,0,0,0,0,0,0],"sum_hessian":[4.3008823E1,5.3468404E0,3.7661983E1,2.150812E0,3.1960282E0,3.3994476E1,3.667508E0,8.249843E0,2.5744633E1,2.433934E0,5.815909E0,5.0856895E0,2.0658943E1,2.1374078E0,3.6785014E0,2.9557328E0,2.1299567E0],"tree_param":{"num_deleted":"0","num_feature":"64","num_nodes":"17","size_leaf_vector":"1"}},{"base_weights":[-4.0668774E-2,8.576427E-1,-1.6412686E-1,-2.4680367E-3,7.831358E-2,3.9693195E-2,-2.701752E-1,2.2397468E-2,-3.627272E-1,1.7601047E-1,-4.713336E-1,4.4156533E-2,-2.0020677E-2,-5.0312835E-1,-1.5601533E-3,-9.908051E-4,-2.701659E-2],"categories":[],"categories_nodes":[],"categories_segments":[],"categories_sizes":[],"default_left":[0,0,0,0,0,0,0,0,0,0,0,0,0,0,0,0,0],"id":18,"left_children":[1,3,5,-1,-1,-1,7,-1,9,11,13,-1,-1,15,-1,-1,-1],"loss_changes":[4.807739E0,3.5859149E0,4.071802E0,0E0,0E0,0E0,2.512649E0,0E0,1.9914131E0,2.8316946E0,3.1082058E-1,0E0,0E0,3.8359213E-1,0E0,0E0,0E0],"parents":[2147483647,0,0,1,1,2,2,6,6,8,8,9,9,10,10,13,13],"right_children":[2,4,6,-1,-1,-1,8,-1,10,12,14,-1,-1,16,-1,-1,-1],"split_conditions":[-2.6443243E-1,9.150778E-1,-3.533703E-3,-2.4680367E-3,7.831358E-2,3.9693195E-2,-2.580551E-1,2.2397468E-2,1.736202E2,2.423242E-2,9.8780495E-1,4.4156533E-2,-2.0020677E-2,2.1364091E-2,-1.5601533E-3,-9.908051E-4,-2.701659E-2],"split_indices":[36,52,45,0,0,0,20,0,57,29,52,0,0,12,0,0,0],"split_type":[0,0,0,0,0,0,0,0,0,0,0,0,0,0,0,0,0],"sum_hessian":[4.1706627E1,4.2229047E0,3.7483723E1,2.1983593E0,2.0245457E0,2.9954453E0,3.4488277E1,3.3756511E0,3.1112625E1,4.9612355E0,2.615139E1,2.0669866E0,2.894249E0,2.4044117E1,2.1072736E0,2.020193E0,2.2023924E1],"tree_param":{"num_deleted":"0","num_feature":"64","num_nodes":"17","size_leaf_vector":"1"}},{"base_weights":[-7.475496E-2,6.766975E-1,-2.174633E-1,7.6188885E-2,-1.091759E-4,1.56371E-1,-3.8485226E-1,4.0857337E-2,-1.4930294E-1,2.9591162E-2,-2.6982611E-2,-3.2145256E-1,1.2516073E-2,-7.795407E-4,-2.137276E-2],"categories":[],"categories_nodes":[],"categories_segments":[],"categories_sizes":[],"default_left":[0,0,0,0,0,0,0,0,0,0,0,0,0,0,0],"id":19,"left_children":[1,3,5,-1,-1,7,9,-1,11,-1,-1,13,-1,-1,-1],"loss_changes":[4.5676503E0,4.0536437E0,2.327666E0,0E0,0E0,2.5358934E0,4.1317472E0,0E0,6.8520784E-1,0E0,0E0,1.6574907E-1,0E0,0E0,0E0],"parents":[2147483647,0,0,1,1,2,2,5,5,6,6,8,8,11,11],"right_children":[2,4,6,-1,-1,8,10,-1,12,-1,-1,14,-1,-1,-1],"split_conditions":[-6.528641E-2,4.7968173E-1,-5.2228943E-2,7.6188885E-2,-1.091759E-4,-4.10041E-3,2.0014344E7,4.0857337E-2,3.7693644E7,2.9591162E-2,-2.6982611E-2,1.9427212E7,1.2516073E-2,-7.795407E-4,-2.137276E-2],"split_indices":[39,34,29,0,0,39,50,0,44,0,0,47,0,0,0],"split_type":[0,0,0,0,0,0,0,0,0,0,0,0,0,0,0],"sum_hessian":[4.0649364E1,5.7786183E0,3.4870747E1,2.082686E0,3.6959326E0,1.0620379E1,2.4250368E1,2.9333143E0,7.687065E0,2.8431308E0,2.1407238E1,5.6842575E0,2.0028076E0,2.0009978E0,3.6832597E0],"tree_param":{"num_deleted":"0","num_feature":"64","num_nodes":"15","size_leaf_vector":"1"}},{"base_weights":[-4.705167E-2,7.5744486E-1,-1.833467E-1,-6.4244666E-3,7.477858E-2,-2.9673696E-1,4.8836935E-2,-4.9100924E-1,-0E0,-1.7772727E-3,-2.6725074E-2,7.737687E-1,-4.1098905E-1,7.686313E-2,-1.7463882E-2,-2.450959E-2,-1.8582691E-3],"categories":[],"categories_nodes":[],"categories_segments":[],"categories_sizes":[],"default_left":[0,0,0,0,0,0,0,0,0,0,0,0,0,0,0,0,0],"id":20,"left_children":[1,3,5,-1,-1,7,-1,9,11,-1,-1,13,15,-1,-1,-1,-1],"loss_changes":[4.8198047E0,4.4807405E0,5.202642E0,0E0,0E0,2.0253348E0,0E0,3.460784E-1,5.089351E0,0E0,0E0,5.4066396E0,2.396462E-1,0E0,0E0,0E0,0E0],"parents":[2147483647,0,0,1,1,2,2,5,5,7,7,8,8,11,11,12,12],"right_children":[2,4,6,-1,-1,8,-1,10,12,-1,-1,14,16,-1,-1,-1,-1],"split_conditions":[-8.260982E-2,2.100712E2,-3.5367247E-2,-6.4244666E-3,7.477858E-2,3.0191948E-3,4.8836935E-2,-1.167436E-1,-1.1460575E-3,-1.7772727E-3,-2.6725074E-2,2.8847473E-2,8.5270695E-2,7.686313E-2,-1.7463882E-2,-2.450959E-2,-1.8582691E-3],"split_indices":[0,57,19,0,0,11,0,62,62,0,0,51,0,0,0,0,0],"split_type":[0,0,0,0,0,0,0,0,0,0,0,0,0,0,0,0,0],"sum_hessian":[4.221375E1,5.3490853E0,3.6864662E1,2.744934E0,2.6041515E0,3.4338703E1,2.5259573E0,2.0307423E1,1.4031282E1,2.1289513E0,1.817847E1,4.5408144E0,9.490468E0,2.5365634E0,2.004251E0,7.353641E0,2.1368272E0],"tree_param":{"num_deleted":"0","num_feature":"64","num_nodes":"17","size_leaf_vector":"1"}},{"base_weights":[-5.3182505E-2,-4.067253E-1,3.3785108E-1,8.238564E-3,-2.6668135E-2,7.8530386E-2,1.1012505E-1,-2.3638634E-2,4.3104875E-1,9.392263E-1,-2.855796E-1,-2.5917406E-3,1.3760749E0,-1.9806858E-2,-8.0127706E-4,2.3928126E-2,9.292885E-2],"categories":[],"categories_nodes":[],"categories_segments":[],"categories_sizes":[],"default_left":[0,0,0,0,0,0,0,0,0,0,0,0,0,0,0,0,0],"id":21,"left_children":[1,3,5,-1,-1,-1,7,-1,9,11,13,-1,15,-1,-1,-1,-1],"loss_changes":[5.9295607E0,1.7578509E0,5.3527517E0,0E0,0E0,0E0,3.6160753E0,0E0,4.853822E0,3.4842415E0,1.2632862E-1,0E0,1.2003269E0,0E0,0E0,0E0,0E0],"parents":[2147483647,0,0,1,1,2,2,6,6,8,8,9,9,10,10,12,12],"right_children":[2,4,6,-1,-1,-1,8,-1,10,12,14,-1,16,-1,-1,-1,-1],"split_conditions":[9.800858E7,-1.5441102E-2,9.8868E7,8.238564E-3,-2.6668135E-2,7.8530386E-2,4.339113E-2,-2.3638634E-2,2.7272617E-2,-2.0570508E-3,7.670499E-2,-2.5917406E-3,4.7821155E-1,-1.9806858E-2,-8.0127706E-4,2.3928126E-2,9.292885E-2],"split_indices":[49,20,49,0,0,0,28,0,45,42,25,0,33,0,0,0,0],"split_type":[0,0,0,0,0,0,0,0,0,0,0,0,0,0,0,0,0],"sum_hessian":[4.0847248E1,2.156522E1,1.9282026E1,3.713942E0,1.7851278E1,2.0186052E0,1.7263422E1,5.851147E0,1.1412274E1,6.5771737E0,4.8351007E0,2.2117944E0,4.3653793E0,2.832689E0,2.0024118E0,2.2951708E0,2.0702085E0],"tree_param":{"num_deleted":"0","num_feature":"64","num_nodes":"17","size_leaf_vector":"1"}},{"base_weights":[-2.013602E-1,2.818997E-2,-2.6053587E-1,-3.2525456E-1,2.4851685E-2,-3.6897716E-1,9.94667E-3,-4.1688517E-1,5.530553E-3,-2.6621027E-2,-2.1723522E-1,7.5305946E-4,-2.3426658E-2],"categories":[],"categories_nodes":[],"categories_segments":[],"categories_sizes":[],"default_left":[0,0,0,0,0,0,0,0,0,0,0,0,0],"id":22,"left_children":[1,-1,3,5,-1,7,-1,9,-1,-1,11,-1,-1],"loss_changes":[1.9177977E0,0E0,1.9943686E0,9.0372634E-1,0E0,8.4141254E-1,0E0,5.165467E-1,0E0,0E0,8.2556194E-1,0E0,0E0],"parents":[2147483647,0,0,2,2,3,3,5,5,7,7,10,10],"right_children":[2,-1,4,6,-1,8,-1,10,-1,-1,12,-1,-1],"split_conditions":[-2.382164E-1,2.818997E-2,-2.898006E-2,2.7316523E-1,2.4851685E-2,-2.324532E-2,9.94667E-3,3.128444E-2,5.530553E-3,-2.6621027E-2,2.521363E7,7.5305946E-4,-2.3426658E-2],"split_indices":[15,0,14,28,0,9,0,45,0,0,38,0,0],"split_type":[0,0,0,0,0,0,0,0,0,0,0,0,0],"sum_hessian":[3.8780926E1,2.050457E0,3.673047E1,3.4486935E1,2.2435355E0,3.228122E1,2.2057128E0,2.9657837E1,2.623384E0,1.7413296E1,1.224454E1,6.644545E0,5.5999956E0],"tree_param":{"num_deleted":"0","num_feature":"64","num_nodes":"13","size_leaf_vector":"1"}},{"base_weights":[1.6505866E-1,-3.5000047E-1,4.8023948E-1,1.2076914E-2,-4.5573467E-1,8.044469E-1,-5.7458367E-2,-2.013074E-3,-2.5817875E-2,1.0333065E0,-7.917846E-3,4.5056242E-1,-2.363512E-2,1.8460742E-1,1.4612691E0,-1.748024E-2,5.338588E-2,-1.9215817E-2,3.894129E-2,9.9102154E-2,6.7133623E-1,5.9475023E-2,-1.704162E-3],"categories":[],"categories_nodes":[],"categories_segments":[],"categories_sizes":[],"default_left":[0,0,0,0,0,0,0,0,0,0,0,0,0,0,0,0,0,0,0,0,0,0,0],"id":23,"left_children":[1,3,5,-1,7,9,11,-1,-1,13,-1,15,-1,17,19,-1,-1,-1,-1,-1,21,-1,-1],"loss_changes":[7.0940566E0,1.1712589E0,4.8207407E0,0E0,2.911036E-1,3.997383E0,2.5268936E0,0E0,0E0,4.6336393E0,0E0,3.0783134E0,0E0,2.3334663E0,2.1282024E0,0E0,0E0,0E0,0E0,0E0,2.051475E0,0E0,0E0],"parents":[2147483647,0,0,1,1,2,2,4,4,5,5,6,6,9,9,11,11,13,13,14,14,20,20],"right_children":[2,4,6,-1,8,10,12,-1,-1,14,-1,16,-1,18,20,-1,-1,-1,-1,-1,22,-1,-1],"split_conditions":[2.269364E-2,1.8727826E7,1.5354651E-2,1.2076914E-2,2.6874308E-2,1.1280969E8,-2.2112909E-3,-2.013074E-3,-2.5817875E-2,1.8738956E7,-7.917846E-3,1.08065285E-1,-2.363512E-2,3.2371582E7,-2.4380645E-2,-1.748024E-2,5.338588E-2,-1.9215817E-2,3.894129E-2,9.9102154E-2,2.520606E-3,5.9475023E-2,-1.704162E-3],"split_indices":[51,50,27,0,22,43,1,0,0,44,0,27,0,50,30,0,0,0,0,0,16,0,0],"split_type":[0,0,0,0,0,0,0,0,0,0,0,0,0,0,0,0,0,0,0,0,0,0,0],"sum_hessian":[4.1584E1,1.5623988E1,2.596001E1,2.031035E0,1.3592954E1,1.6001635E1,9.958376E0,2.1527736E0,1.144018E1,1.2953266E1,3.0483694E0,4.3322754E0,5.6261E0,4.900346E0,8.052919E0,2.0046508E0,2.3276246E0,2.5979435E0,2.3024025E0,3.8674982E0,4.1854215E0,2.0990772E0,2.0863442E0],"tree_param":{"num_deleted":"0","num_feature":"64","num_nodes":"23","size_leaf_vector":"1"}},{"base_weights":[1.4274494E-1,-1.118037E-2,9.0255153E-1,4.3349218E-2,-8.8273525E-2,1.4116198E0,-4.748664E-3,-3.273468E-1,2.9898384E-1,1.2149816E-2,1.0186469E-1,-4.8083958E-1,2.0727687E-1,6.0561147E-2,3.7416086E-2,-2.6515493E-2,-8.966595E-4,-1.7897725E-2,3.3879768E-2,-2.6109436E-1,3.053121E-2,-2.3428163E-2,1.2291608E-2],"categories":[],"categories_nodes":[],"categories_segments":[],"categories_sizes":[],"default_left":[0,0,0,0,0,0,0,0,0,0,0,0,0,0,0,0,0,0,0,0,0,0,0],"id":24,"left_children":[1,3,5,-1,7,9,-1,11,13,-1,-1,15,17,-1,19,-1,-1,-1,-1,21,-1,-1,-1],"loss_changes":[5.3958297E0,2.6076546E0,4.2016587E0,0E0,3.474378E0,3.1238413E0,0E0,2.0281577E0,3.235314E0,0E0,0E0,3.5808516E-1,1.7954336E0,0E0,2.2834158E0,0E0,0E0,0E0,0E0,1.0433874E0,0E0,0E0,0E0],"parents":[2147483647,0,0,1,1,2,2,4,4,5,5,7,7,8,8,11,11,12,12,14,14,19,19],"right_children":[2,4,6,-1,8,10,-1,12,14,-1,-1,16,18,-1,20,-1,-1,-1,-1,22,-1,-1,-1],"split_conditions":[4.1641456E7,1.0118042E0,3.25874E2,4.3349218E-2,3.3705257E-2,5.2357063E-2,-4.748664E-3,1.5255468E-1,-1.541563E-3,1.2149816E-2,1.0186469E-1,8.934722E-2,7.5164563E-3,6.0561147E-2,7.239016E-2,-2.6515493E-2,-8.966595E-4,-1.7897725E-2,3.3879768E-2,9.8346305E-1,3.053121E-2,-2.3428163E-2,1.2291608E-2],"split_indices":[47,53,54,0,10,3,0,27,61,0,0,29,0,0,36,0,0,0,0,52,0,0,0],"split_type":[0,0,0,0,0,0,0,0,0,0,0,0,0,0,0,0,0,0,0,0,0,0,0],"sum_hessian":[4.4288116E1,3.75373E1,6.750816E0,2.0978396E0,3.543946E1,4.2612777E0,2.4895382E0,2.216737E1,1.3272093E1,2.0257735E0,2.2355042E0,1.7446154E1,4.7212167E0,2.0632834E0,1.1208809E1,1.5434997E1,2.0111563E0,2.1561873E0,2.5650294E0,7.613804E0,3.5950053E0,5.596344E0,2.0174599E0],"tree_param":{"num_deleted":"0","num_feature":"64","num_nodes":"23","size_leaf_vector":"1"}},{"base_weights":[-1.7143047E-1,5.7850823E-2,-4.34026E-1,-3.454582E-1,4.5754796E-1,1.2160214E-2,-2.6517196E-2,1.0049848E-2,-2.5004769E-2,-1.1892323E-2,8.4714574E-1,1.4997042E0,-7.7996473E-3,2.893765E-2,9.4340816E-2],"categories":[],"categories_nodes":[],"categories_segments":[],"categories_sizes":[],"default_left":[0,0,0,0,0,0,0,0,0,0,0,0,0,0,0],"id":25,"left_children":[1,3,5,7,9,-1,-1,-1,-1,-1,11,13,-1,-1,-1],"loss_changes":[2.5831847E0,3.8814044E0,1.4514852E0,1.1366317E0,3.5461514E0,0E0,0E0,0E0,0E0,0E0,5.657309E0,4.617672E-1,0E0,0E0,0E0],"parents":[2147483647,0,0,1,1,2,2,3,3,4,4,10,10,11,11],"right_children":[2,4,6,8,10,-1,-1,-1,-1,-1,12,14,-1,-1,-1],"split_conditions":[2.5973246E-2,1.7957695E-2,2.1950603E-2,3.486369E-1,-1.925746E-3,1.2160214E-2,-2.6517196E-2,1.0049848E-2,-2.5004769E-2,-1.1892323E-2,4.1756894E-2,4.8742294E-1,-7.7996473E-3,2.893765E-2,9.4340816E-2],"split_indices":[62,48,17,32,11,0,0,0,0,0,48,32,0,0,0],"split_type":[0,0,0,0,0,0,0,0,0,0,0,0,0,0,0],"sum_hessian":[4.086235E1,2.2027905E1,1.8834446E1,1.0907424E1,1.1120481E1,2.0259988E0,1.6808447E1,2.1970472E0,8.710377E0,4.040827E0,7.0796533E0,4.0498395E0,3.0298135E0,2.0133631E0,2.0364764E0],"tree_param":{"num_deleted":"0","num_feature":"64","num_nodes":"15","size_leaf_vector":"1"}},{"base_weights":[4.118118E-3,4.305472E-2,-7.234177E-2,-2.6172712E-1,2.9617515E-1,7.721069E-2,-4.2958105E-1,5.98643E-2,3.6904585E-2,-2.2305496E-1,3.8945284E-2,-1.0864461E-1,-2.6099006E-2,4.6849E-1,-2.2960166E-2,1.2434261E-2,-2.2653691E-2,-1.9329866E-2,1.0711475E-2,-3.615749E-5,4.9303185E-2],"categories":[],"categories_nodes":[],"categories_segments":[],"categories_sizes":[],"default_left":[0,0,0,0,0,0,0,0,0,0,0,0,0,0,0,0,0,0,0,0,0],"id":26,"left_children":[1,-1,3,5,7,9,11,-1,13,15,-1,17,-1,19,-1,-1,-1,-1,-1,-1,-1],"loss_changes":[3.0371792E0,0E0,2.9629292E0,1.6643163E0,3.1829023E0,2.323896E0,4.4692802E-1,0E0,2.8399472E0,9.620842E-1,0E0,6.1848855E-1,0E0,1.8371708E0,0E0,0E0,0E0,0E0,0E0,0E0,0E0],"parents":[2147483647,0,0,2,2,3,3,4,4,5,5,6,6,8,8,9,9,11,11,13,13],"right_children":[2,-1,4,6,8,10,12,-1,14,16,-1,18,-1,20,-1,-1,-1,-1,-1,-1,-1],"split_conditions":[1.70172E2,4.305472E-2,4.311389E-2,1.7298076E7,-2.700497E-1,4.6102468E-2,2.0229276E7,5.98643E-2,3.3575814E-2,-5.008096E-2,3.8945284E-2,2.1027198E7,-2.6099006E-2,1.78169E2,-2.2960166E-2,1.2434261E-2,-2.2653691E-2,-1.9329866E-2,1.0711475E-2,-3.615749E-5,4.9303185E-2],"split_indices":[54,0,17,47,36,0,50,0,51,29,0,47,0,55,0,0,0,0,0,0,0],"split_type":[0,0,0,0,0,0,0,0,0,0,0,0,0,0,0,0,0,0,0,0,0],"sum_hessian":[4.3197506E1,2.8049502E0,4.0392555E1,2.7051565E1,1.3340989E1,8.9412565E0,1.8110308E1,2.0863056E0,1.12546835E1,6.639657E0,2.3015995E0,4.776796E0,1.3333513E1,6.1562967E0,5.0983872E0,2.007213E0,4.632444E0,2.6273468E0,2.149449E0,3.6514347E0,2.5048618E0],"tree_param":{"num_deleted":"0","num_feature":"64","num_nodes":"21","size_leaf_vector":"1"}},{"base_weights":[-1.2705478E-2,6.0485065E-2,-1.2126709E-1,1.5121302E-1,-3.3220762E-1,-2.320206E-2,4.417879E-1,1.1515965E-2,-4.3889272E-1,6.0699385E-2,6.83891E-2,-6.6590786E-2,-2.6342863E-2,5.097056E-1,-2.1990236E-2,-1.7839883E-2,1.0586264E-2,-1.8791463E-2,6.240634E-2],"categories":[],"categories_nodes":[],"categories_segments":[],"categories_sizes":[],"default_left":[0,0,0,0,0,0,0,0,0,0,0,0,0,0,0,0,0,0,0],"id":27,"left_children":[1,-1,3,5,7,-1,9,-1,11,-1,13,15,-1,17,-1,-1,-1,-1,-1],"loss_changes":[5.9010143E0,0E0,2.457183E0,3.5308688E0,1.5590162E0,0E0,3.6140814E0,0E0,5.809326E-1,0E0,2.4940019E0,5.183832E-1,0E0,4.4591904E0,0E0,0E0,0E0,0E0,0E0],"parents":[2147483647,0,0,2,2,3,3,4,4,6,6,8,8,10,10,11,11,13,13],"right_children":[2,-1,4,6,8,-1,10,-1,12,-1,14,16,-1,18,-1,-1,-1,-1,-1],"split_conditions":[1.1347016E-2,6.0485065E-2,1.9917473E-2,-1.1428489E-1,-2.3137026E-1,-2.320206E-2,7.878498E7,1.1515965E-2,-8.445933E-2,6.0699385E-2,2.4066497E-2,-6.130736E-2,-2.6342863E-2,1.9899687E-2,-2.1990236E-2,-1.7839883E-2,1.0586264E-2,-1.8791463E-2,6.240634E-2],"split_indices":[2,0,45,26,27,0,40,0,14,0,2,36,0,2,0,0,0,0,0],"split_type":[0,0,0,0,0,0,0,0,0,0,0,0,0,0,0,0,0,0,0],"sum_hessian":[4.318143E1,2.6196759E0,4.0561752E1,1.7615808E1,2.2945944E1,5.348962E0,1.2266848E1,3.3238437E0,1.96221E1,3.177236E0,9.089612E0,4.303169E0,1.5318932E1,4.9686375E0,4.120974E0,2.144433E0,2.1587358E0,2.4209638E0,2.5476735E0],"tree_param":{"num_deleted":"0","num_feature":"64","num_nodes":"19","size_leaf_vector":"1"}},{"base_weights":[2.276537E-2,-1.1536847E-1,8.2878375E-1,6.29584E-1,-2.5255245E-1,6.742758E-2,-3.533943E-3,-5.120517E-3,6.0197502E-2,2.0335635E-2,-3.477206E-1,-4.5824313E-1,6.1428484E-2,-8.330129E-4,-4.9329036E-1,2.6562268E-2,-2.0166356E-2,-1.80451E-3,-2.6781384E-2],"categories":[],"categories_nodes":[],"categories_segments":[],"categories_sizes":[],"default_left":[0,0,0,0,0,0,0,0,0,0,0,0,0,0,0,0,0,0,0],"id":28,"left_children":[1,3,5,7,9,-1,-1,-1,-1,-1,11,13,15,-1,17,-1,-1,-1,-1],"loss_changes":[5.122568E0,4.0833597E0,3.3741522E0,2.8410137E0,2.2415712E0,0E0,0E0,0E0,0E0,0E0,1.4246447E0,3.1119347E-1,1.7709386E0,0E0,3.479743E-1,0E0,0E0,0E0,0E0],"parents":[2147483647,0,0,1,1,2,2,3,3,4,4,10,10,11,11,12,12,14,14],"right_children":[2,4,6,8,10,-1,-1,-1,-1,-1,12,14,16,-1,18,-1,-1,-1,-1],"split_conditions":[1.2872736E8,7.719254E7,2.49994E2,7.802513E7,-1.2657719E-2,6.742758E-2,-3.533943E-3,-5.120517E-3,6.0197502E-2,2.0335635E-2,1.5024948E-1,-7.430846E-3,1.0018254E8,-8.330129E-4,-2.0383058E-1,2.6562268E-2,-2.0166356E-2,-1.80451E-3,-2.6781384E-2],"split_indices":[37,46,54,40,6,0,0,0,0,0,27,11,40,0,63,0,0,0,0],"split_type":[0,0,0,0,0,0,0,0,0,0,0,0,0,0,0,0,0,0,0],"sum_hessian":[4.350945E1,3.77694E1,5.740046E0,5.202094E0,3.2567307E1,3.3918858E0,2.34816E0,2.5719256E0,2.6301682E0,3.5627086E0,2.9004599E1,2.2933928E1,6.0706716E0,2.0046527E0,2.0929276E1,3.0547538E0,3.0159178E0,2.1310055E0,1.879827E1],"tree_param":{"num_deleted":"0","num_feature":"64","num_nodes":"19","size_leaf_vector":"1"}},{"base_weights":[-1.8841445E-2,-2.5664198E-1,3.8593888E-1,-4.8171487E-1,2.2096388E-1,7.594294E-2,1.0151992E-1,-1.4493078E-3,-2.6465658E-2,4.9537186E-2,-1.8438661E-1,-2.318062E-2,5.1384574E-1,-2.1547802E-2,1.2306269E-2,-1.9542146E-2,1.0004939E0,8.5420184E-2,-3.3879199E-3],"categories":[],"categories_nodes":[],"categories_segments":[],"categories_sizes":[],"default_left":[0,0,0,0,0,0,0,0,0,0,0,0,0,0,0,0,0,0,0],"id":29,"left_children":[1,3,5,7,9,-1,11,-1,-1,-1,13,-1,15,-1,-1,-1,17,-1,-1],"loss_changes":[4.211577E0,3.1159887E0,4.873045E0,3.451805E-1,3.2067323E0,0E0,3.5090122E0,0E0,0E0,0E0,8.609473E-1,0E0,4.2733307E0,0E0,0E0,0E0,4.8145556E0,0E0,0E0],"parents":[2147483647,0,0,1,1,2,2,3,3,4,4,6,6,10,10,12,12,16,16],"right_children":[2,4,6,8,10,-1,12,-1,-1,-1,14,-1,16,-1,-1,-1,18,-1,-1],"split_conditions":[4.339113E-2,2.0268597E-1,7.3904164E-2,2.8031379E-2,2.895161E-1,7.594294E-2,1.7882244E-1,-1.4493078E-3,-2.6465658E-2,4.9537186E-2,1.12898216E-1,-2.318062E-2,1.498608E-2,-2.1547802E-2,1.2306269E-2,-1.9542146E-2,2.269364E-2,8.5420184E-2,-3.3879199E-3],"split_indices":[28,15,28,22,20,0,28,0,0,0,61,0,51,0,0,0,51,0,0],"split_type":[0,0,0,0,0,0,0,0,0,0,0,0,0,0,0,0,0,0,0],"sum_hessian":[4.1858803E1,2.6754232E1,1.5104569E1,1.832113E1,8.433102E0,2.0895398E0,1.301503E1,2.095907E0,1.6225224E1,2.4958668E0,5.937235E0,5.3354163E0,7.679613E0,3.922138E0,2.015097E0,2.6830845E0,4.9965286E0,2.700993E0,2.2955353E0],"tree_param":{"num_deleted":"0","num_feature":"64","num_nodes":"19","size_leaf_vector":"1"}},{"base_weights":[-2.6136816E-1,-3.2148448E-1,2.6804442E-2,2.6911187E-1,-4.059111E-1,4.0942263E-2,-1.7666586E-2,5.5387057E-2,-4.8075175E-1,-1.899749E-2,2.9209062E-2,-1.893843E-1,-2.7077792E-2,-2.1583298E-2,1.05460975E-2],"categories":[],"categories_nodes":[],"categories_segments":[],"categories_sizes":[],"default_left":[0,0,0,0,0,0,0,0,0,0,0,0,0,0,0],"id":30,"left_children":[1,3,-1,5,7,-1,-1,9,11,-1,-1,13,-1,-1,-1],"loss_changes":[2.120442E0,2.0648127E0,0E0,2.1576898E0,1.2644219E0,0E0,0E0,1.5184053E0,3.5721922E-1,0E0,0E0,7.934716E-1,0E0,0E0,0E0],"parents":[2147483647,0,0,1,1,3,3,4,4,7,7,8,8,11,11],"right_children":[2,4,-1,6,8,-1,-1,10,12,-1,-1,14,-1,-1,-1],"split_conditions":[5.0793547E-2,1.13857975E-2,2.6804442E-2,2.33171E2,2.5423348E-2,4.0942263E-2,-1.7666586E-2,2.1856593E-2,-1.8190384E-1,-1.899749E-2,2.9209062E-2,1.7945036E-2,-2.7077792E-2,-2.1583298E-2,1.05460975E-2],"split_indices":[51,51,0,56,17,0,0,2,20,0,0,51,0,0,0],"split_type":[0,0,0,0,0,0,0,0,0,0,0,0,0,0,0],"sum_hessian":[4.008365E1,3.7945393E1,2.1382544E0,4.324172E0,3.362122E1,2.213959E0,2.110213E0,4.5430174E0,2.9078203E1,2.5423572E0,2.00066E0,6.01486E0,2.3063343E1,3.853833E0,2.1610274E0],"tree_param":{"num_deleted":"0","num_feature":"64","num_nodes":"15","size_leaf_vector":"1"}},{"base_weights":[2.8465053E-1,-2.3461913E-1,6.7685544E-1,2.5568021E-2,-3.6209434E-1,8.1496245E-1,-1.939644E-2,-4.6249288E-1,1.1209055E-2,1.6920477E0,5.1102835E-1,-2.6002472E-2,-1.7285029E-3,2.7432779E-2,1.10209264E-1,1.1661828E0,-0E0,1.8989833E-2,8.4459834E-2,-2.1490507E-2,2.5376585E-1,-2.0312937E-2,3.9288428E-2],"categories":[],"categories_nodes":[],"categories_segments":[],"categories_sizes":[],"default_left":[0,0,0,0,0,0,0,0,0,0,0,0,0,0,0,0,0,0,0,0,0,0,0],"id":31,"left_children":[1,3,5,-1,7,9,-1,11,-1,13,15,-1,-1,-1,-1,17,19,-1,-1,-1,21,-1,-1],"loss_changes":[9.3195715E0,2.0620801E0,4.162999E0,0E0,1.1688242E0,5.12745E0,0E0,3.1020498E-1,0E0,1.7243443E0,6.360853E0,0E0,0E0,0E0,0E0,2.561944E0,1.3757541E0,0E0,0E0,0E0,3.098449E0,0E0,0E0],"parents":[2147483647,0,0,1,1,2,2,4,4,5,5,7,7,9,9,10,10,15,15,16,16,20,20],"right_children":[2,4,6,-1,8,10,-1,12,-1,14,16,-1,-1,-1,-1,18,20,-1,-1,-1,22,-1,-1],"split_conditions":[2.4372553E-2,-6.0527425E-2,5.309453E7,2.5568021E-2,1.1480181E-1,8.939651E7,-1.939644E-2,2.52888E2,1.1209055E-2,1.1820083E0,-1.4664997E-2,-2.6002472E-2,-1.7285029E-3,2.7432779E-2,1.10209264E-1,-5.0182478E-3,-3.6988165E-2,1.8989833E-2,8.4459834E-2,-2.1490507E-2,3.2716647E-2,-2.0312937E-2,3.9288428E-2],"split_indices":[51,61,41,0,29,49,0,54,0,53,5,0,0,0,0,25,4,0,0,0,7,0,0],"split_type":[0,0,0,0,0,0,0,0,0,0,0,0,0,0,0,0,0,0,0,0,0,0,0],"sum_hessian":[4.376353E1,1.88945E1,2.486903E1,2.2035434E0,1.6690958E1,2.2304571E1,2.5644593E0,1.45764675E1,2.11449E0,4.4800334E0,1.7824537E1,1.2452591E1,2.1238766E0,2.087058E0,2.3929753E0,7.2919316E0,1.0532606E1,3.678472E0,3.6134593E0,3.7257123E0,6.806894E0,3.0595188E0,3.747375E0],"tree_param":{"num_deleted":"0","num_feature":"64","num_nodes":"23","size_leaf_vector":"1"}},{"base_weights":[2.1097007E-1,-2.0855205E-1,4.1255927E-1,-4.400215E-1,3.0921409E-2,1.2793717E-1,1.0693835E0,-2.5337696E-2,-1.4550792E-3,-1.7628424E-1,7.915041E-1,1.0024647E-1,-5.99682E-2,1.2691355E-1,-2.4631431E-2,1.1820837E0,-3.1687699E-3,1.10194525E-2,-1.7808873E-2,6.0451007E-1,-2.1523682E-2,1.015612E-2,8.788476E-2,-2.729574E-3,5.5204105E-2],"categories":[],"categories_nodes":[],"categories_segments":[],"categories_sizes":[],"default_left":[0,0,0,0,0,0,0,0,0,0,0,0,0,0,0,0,0,0,0,0,0,0,0,0,0],"id":32,"left_children":[1,3,5,7,-1,9,11,-1,-1,13,15,-1,17,19,-1,21,-1,-1,-1,23,-1,-1,-1,-1,-1],"loss_changes":[4.0277157E0,3.2312675E0,5.6910734E0,2.8348112E-1,0E0,4.932577E0,1.0221239E1,0E0,0E0,1.7090325E0,2.7421951E0,0E0,5.214669E-1,2.7278895E0,0E0,2.480977E0,0E0,0E0,0E0,1.9661666E0,0E0,0E0,0E0,0E0,0E0],"parents":[2147483647,0,0,1,1,2,2,3,3,5,5,6,6,9,9,10,10,12,12,13,13,15,15,19,19],"right_children":[2,4,6,8,-1,10,12,-1,-1,14,16,-1,18,20,-1,22,-1,-1,-1,24,-1,-1,-1,-1,-1],"split_conditions":[9.1890504E7,7.668093E-2,3.3575814E-2,5.298531E-3,3.0921409E-2,-2.9897038E-2,3.9733484E-2,-2.5337696E-2,-1.4550792E-3,1.0306158E8,2.3432972E7,1.0024647E-1,1.1126979E8,-1.4690162E-3,-2.4631431E-2,-2.4748567E-2,-3.1687699E-3,1.10194525E-2,-1.7808873E-2,-9.44162E-2,-2.1523682E-2,1.015612E-2,8.788476E-2,-2.729574E-3,5.5204105E-2],"split_indices":[46,30,51,21,0,4,22,0,0,37,44,0,43,6,0,29,0,0,0,10,0,0,0,0,0],"split_type":[0,0,0,0,0,0,0,0,0,0,0,0,0,0,0,0,0,0,0,0,0,0,0,0,0],"sum_hessian":[4.536659E1,1.4552064E1,3.0814524E1,1.1829782E1,2.7222831E0,2.2438334E1,8.37619E0,9.76706E0,2.0627213E0,1.5785082E1,6.653251E0,4.205578E0,4.170613E0,8.20437E0,7.5807123E0,4.384346E0,2.2689052E0,2.1007018E0,2.069911E0,4.469527E0,3.7348428E0,2.1886487E0,2.1956973E0,2.2248123E0,2.2447147E0],"tree_param":{"num_deleted":"0","num_feature":"64","num_nodes":"25","size_leaf_vector":"1"}},{"base_weights":[-2.4830149E-1,-3.325181E-1,3.0863328E-2,1.6387103E-2,-4.0075E-1,-2.7028779E-2,-7.042424E-3,2.52613E-1,-2.076951E-2,-1.0370641E-2,4.515412E-2],"categories":[],"categories_nodes":[],"categories_segments":[],"categories_sizes":[],"default_left":[0,0,0,0,0,0,0,0,0,0,0],"id":33,"left_children":[1,3,-1,-1,5,-1,7,9,-1,-1,-1],"loss_changes":[3.058191E0,1.7955418E0,0E0,0E0,1.8087873E0,0E0,1.1910956E0,2.243896E0,0E0,0E0,0E0],"parents":[2147483647,0,0,1,1,4,4,6,6,7,7],"right_children":[2,4,-1,-1,6,-1,8,10,-1,-1,-1],"split_conditions":[5.2209812E7,-2.0209788E-1,3.0863328E-2,1.6387103E-2,-2.283215E-2,-2.7028779E-2,6.136819E-2,-5.653546E-3,-2.076951E-2,-1.0370641E-2,4.515412E-2],"split_indices":[41,15,0,0,4,0,5,5,0,0,0],"split_type":[0,0,0,0,0,0,0,0,0,0,0],"sum_hessian":[3.8528168E1,3.5778427E1,2.7497408E0,2.8575752E0,3.2920853E1,2.3830425E1,9.090426E0,5.6403775E0,3.450049E0,3.6127572E0,2.0276203E0],"tree_param":{"num_deleted":"0","num_feature":"64","num_nodes":"11","size_leaf_vector":"1"}},{"base_weights":[1.16544485E-1,3.1745052E-1,-3.6196476E-1,7.2814626E-1,-5.858369E-2,-2.4641579E-2,-1.2892996E-3,1.0326749E-2,1.0728059E0,-3.794792E-1,2.4505842E-1,2.432467E-2,-1.9488804E-2,3.3533004E-1,8.647815E-2,-7.9726253E-4,-2.3506133E-2,-1.6798046E-1,4.873987E-2,-2.0101909E-2,5.9634417E-2,1.2036656E-2,-2.1271562E-2],"categories":[],"categories_nodes":[],"categories_segments":[],"categories_sizes":[],"default_left":[0,0,0,0,0,0,0,0,0,0,0,0,0,0,0,0,0,0,0,0,0,0,0],"id":34,"left_children":[1,3,5,7,9,-1,-1,11,13,15,17,-1,-1,19,-1,-1,-1,21,-1,-1,-1,-1,-1],"loss_changes":[4.2183795E0,4.862361E0,5.054109E-1,3.5696654E0,1.7496043E0,0E0,0E0,1.3311257E0,4.0425406E0,2.3227549E-1,2.9909883E0,0E0,0E0,4.357227E0,0E0,0E0,0E0,8.137132E-1,0E0,0E0,0E0,0E0,0E0],"parents":[2147483647,0,0,1,1,2,2,3,3,4,4,7,7,8,8,9,9,10,10,13,13,17,17],"right_children":[2,4,6,8,10,-1,-1,12,14,16,18,-1,-1,20,-1,-1,-1,22,-1,-1,-1,-1,-1],"split_conditions":[1.0737037E8,2.3496628E-2,9.208119E-1,9.600742E7,-6.0535334E-3,-2.4641579E-2,-1.2892996E-3,-9.151024E-2,5.048545E-1,-3.899321E-3,5.224848E-3,2.432467E-2,-1.9488804E-2,-1.6170211E-2,8.647815E-2,-7.9726253E-4,-2.3506133E-2,-6.30779E-2,4.873987E-2,-2.0101909E-2,5.9634417E-2,1.2036656E-2,-2.1271562E-2],"split_indices":[43,42,52,49,26,0,0,36,32,61,6,0,0,62,0,0,0,62,0,0,0,0,0],"split_type":[0,0,0,0,0,0,0,0,0,0,0,0,0,0,0,0,0,0,0,0,0,0,0],"sum_hessian":[4.173062E1,2.9774937E1,1.1955685E1,1.3911105E1,1.58638315E1,8.056161E0,3.8995237E0,4.9408803E0,8.970224E0,7.751479E0,8.112352E0,2.2715268E0,2.6693535E0,5.0087366E0,3.9614875E0,2.0018818E0,5.749597E0,5.584338E0,2.5280142E0,2.915611E0,2.0931258E0,2.0331469E0,3.5511916E0],"tree_param":{"num_deleted":"0","num_feature":"64","num_nodes":"23","size_leaf_vector":"1"}},{"base_weights":[2.12774E-2,2.9924846E-1,-3.2702866E-1,5.512662E-1,-3.447698E-1,9.525074E-3,-4.6115166E-1,-3.222559E-1,9.835338E-1,-2.2242835E-2,-8.014827E-4,-1.2640393E-3,-2.5889024E-2,-2.1411812E-2,-7.983773E-4,6.916883E-3,1.3351257E0,1.8170342E0,-2.0712665E-3,1.1402372E-1,3.61568E-2],"categories":[],"categories_nodes":[],"categories_segments":[],"categories_sizes":[],"default_left":[0,0,0,0,0,0,0,0,0,0,0,0,0,0,0,0,0,0,0,0,0],"id":35,"left_children":[1,3,5,7,9,-1,11,13,15,-1,-1,-1,-1,-1,-1,-1,17,19,-1,-1,-1],"loss_changes":[4.257288E0,4.201866E0,1.4614458E0,7.2442384E0,1.9091564E-1,0E0,3.2387733E-1,1.6596222E-1,3.3762188E0,0E0,0E0,0E0,0E0,0E0,0E0,0E0,5.966894E0,1.3235531E0,0E0,0E0,0E0],"parents":[2147483647,0,0,1,1,2,2,3,3,4,4,6,6,7,7,8,8,16,16,17,17],"right_children":[2,4,6,8,10,-1,12,14,16,-1,-1,-1,-1,-1,-1,-1,18,20,-1,-1,-1],"split_conditions":[1.5108242E-2,2.7495062E-2,4.4253495E-1,-4.6672016E-2,1.20611094E-1,9.525074E-3,-8.120209E-3,2.282864E2,2.0520417E-2,-2.2242835E-2,-8.014827E-4,-1.2640393E-3,-2.5889024E-2,-2.1411812E-2,-7.983773E-4,6.916883E-3,1.5755363E-1,1.9917473E-2,-2.0712665E-3,1.1402372E-1,3.61568E-2],"split_indices":[29,61,35,61,13,0,42,57,2,0,0,0,0,0,0,0,15,45,0,0,0],"split_type":[0,0,0,0,0,0,0,0,0,0,0,0,0,0,0,0,0,0,0,0,0],"sum_hessian":[4.198953E1,2.359062E1,1.839891E1,1.7170673E1,6.4199457E0,3.5468848E0,1.4852025E1,5.6918335E0,1.147884E1,4.4175797E0,2.002366E0,2.0770822E0,1.2774943E1,3.6902988E0,2.0015347E0,3.865176E0,7.613664E0,5.456193E0,2.1574714E0,3.0063753E0,2.4498177E0],"tree_param":{"num_deleted":"0","num_feature":"64","num_nodes":"21","size_leaf_vector":"1"}},{"base_weights":[1.3692632E-1,5.3546734E-2,3.9552692E-2,-1.01210736E-1,4.951819E-1,2.128104E-1,-4.0617257E-1,1.023218E0,-1.1366047E-2,7.978907E-1,-2.0242189E-1,9.010395E-4,-2.5923217E-2,4.175415E-3,8.906927E-2,7.39224E-3,7.601203E-2,-2.4153132E-2,2.5639564E-2],"categories":[],"categories_nodes":[],"categories_segments":[],"categories_sizes":[],"default_left":[0,0,0,0,0,0,0,0,0,0,0,0,0,0,0,0,0,0,0],"id":36,"left_children":[1,-1,3,5,7,9,11,13,-1,15,17,-1,-1,-1,-1,-1,-1,-1,-1],"loss_changes":[3.751868E0,0E0,2.656304E0,3.097239E0,4.0446095E0,4.0802054E0,8.383279E-1,3.8782969E0,0E0,2.846612E0,2.2496521E0,0E0,0E0,0E0,0E0,0E0,0E0,0E0,0E0],"parents":[2147483647,0,0,2,2,3,3,4,4,5,5,6,6,7,7,9,9,10,10],"right_children":[2,-1,4,6,8,10,12,14,-1,16,18,-1,-1,-1,-1,-1,-1,-1,-1],"split_conditions":[-1.3942556E-2,5.3546734E-2,1.2393709E-2,2.040196E-2,9.060364E-2,-5.050105E-2,-4.7755735E-3,-8.2930736E-2,-1.1366047E-2,-1.10909045E-1,3.4210084E-3,9.010395E-4,-2.5923217E-2,4.175415E-3,8.906927E-2,7.39224E-3,7.601203E-2,-2.4153132E-2,2.5639564E-2],"split_indices":[6,0,1,45,39,30,42,36,0,28,6,0,0,0,0,0,0,0,0],"split_type":[0,0,0,0,0,0,0,0,0,0,0,0,0,0,0,0,0,0,0],"sum_hessian":[4.193975E1,2.9186711E0,3.902108E1,3.0237734E1,8.783346E0,1.4884911E1,1.5352823E1,4.914103E0,3.8692431E0,5.896194E0,8.988717E0,3.2028215E0,1.21500025E1,2.7489555E0,2.1651475E0,3.8103507E0,2.0858433E0,6.789148E0,2.1995692E0],"tree_param":{"num_deleted":"0","num_feature":"64","num_nodes":"19","size_leaf_vector":"1"}},{"base_weights":[-1.0761426E-1,-4.4387603E-1,2.2630127E-1,1.658393E-3,-2.6517773E-2,8.091851E-1,-3.004929E-2,-3.6271529E-3,6.512782E-2,-2.8998947E-1,4.0369414E-2,-4.1965425E-1,1.2357615E-2,-2.4800137E-2,-1.0034398E-3],"categories":[],"categories_nodes":[],"categories_segments":[],"categories_sizes":[],"default_left":[0,0,0,0,0,0,0,0,0,0,0,0,0,0,0],"id":37,"left_children":[1,3,5,-1,-1,7,9,-1,-1,11,-1,13,-1,-1,-1],"loss_changes":[4.88346E0,9.5901203E-1,3.358051E0,0E0,0E0,3.180274E0,3.6606889E0,0E0,0E0,1.0278329E0,0E0,2.7430725E-1,0E0,0E0,0E0],"parents":[2147483647,0,0,1,1,2,2,5,5,6,6,9,9,11,11],"right_children":[2,4,6,-1,-1,8,10,-1,-1,12,-1,14,-1,-1,-1],"split_conditions":[9.819818E7,-5.5186555E-2,1.0050266E8,1.658393E-3,-2.6517773E-2,2.1705339E-2,1.2144908E8,-3.6271529E-3,6.512782E-2,2.47484E2,4.0369414E-2,3.4565143E-2,1.2357615E-2,-2.4800137E-2,-1.0034398E-3],"split_indices":[49,0,43,0,0,42,40,0,0,55,0,0,0,0,0],"split_type":[0,0,0,0,0,0,0,0,0,0,0,0,0,0,0],"sum_hessian":[4.1404034E1,2.0614677E1,2.0789356E1,3.0807185E0,1.7533958E1,5.810687E0,1.4978668E1,2.318127E0,3.4925604E0,1.2020608E1,2.9580603E0,1.0009287E1,2.0113213E0,7.990916E0,2.0183709E0],"tree_param":{"num_deleted":"0","num_feature":"64","num_nodes":"15","size_leaf_vector":"1"}},{"base_weights":[-2.2783244E-1,3.0333516E-1,-3.1953323E-1,4.9182836E-2,-1.9478116E-2,-4.100845E-1,1.3724072E-1,-5.031807E-1,8.266544E-3,4.152957E-2,-2.0307537E-2,-3.1664183E-3,-2.6971871E-2],"categories":[],"categories_nodes":[],"categories_segments":[],"categories_sizes":[],"default_left":[0,0,0,0,0,0,0,0,0,0,0,0,0],"id":38,"left_children":[1,3,5,-1,-1,7,9,11,-1,-1,-1,-1,-1],"loss_changes":[2.0501666E0,3.389429E0,1.5236073E0,0E0,0E0,1.6966968E0,2.7634153E0,3.1668568E-1,0E0,0E0,0E0,0E0,0E0],"parents":[2147483647,0,0,1,1,2,2,5,5,6,6,7,7],"right_children":[2,4,6,-1,-1,8,10,12,-1,-1,-1,-1,-1],"split_conditions":[1.2453969E-2,2.31138E2,5.8904476E-2,4.9182836E-2,-1.9478116E-2,1.1944518E8,7.583317E-3,-8.4441274E-2,8.266544E-3,4.152957E-2,-2.0307537E-2,-3.1664183E-3,-2.6971871E-2],"split_indices":[51,56,61,0,0,40,21,4,0,0,0,0,0],"split_type":[0,0,0,0,0,0,0,0,0,0,0,0,0],"sum_hessian":[3.906738E1,5.25131E0,3.381607E1,2.5107868E0,2.740523E0,2.8489443E1,5.326629E0,2.477967E1,3.7097704E0,2.1890132E0,3.137616E0,2.3062258E0,2.2473446E1],"tree_param":{"num_deleted":"0","num_feature":"64","num_nodes":"13","size_leaf_vector":"1"}},{"base_weights":[2.257531E-1,5.5602276E-1,-3.9528456E-1,1.2918597E0,2.6647678E-1,1.0839331E-2,-2.5900055E-2,1.8202329E-2,8.4611416E-2,6.2397283E-1,-2.827272E-1,2.1812579E-2,9.3711555E-1,-2.3836944E-2,1.1003563E-2,2.7401257E-2,-1.970488E-2,4.3066585E-1,7.892589E-2,4.4982743E-2,-1.7654115E-2],"categories":[],"categories_nodes":[],"categories_segments":[],"categories_sizes":[],"default_left":[0,0,0,0,0,0,0,0,0,0,0,0,0,0,0,0,0,0,0,0,0],"id":39,"left_children":[1,3,5,7,9,-1,-1,-1,-1,11,13,15,17,-1,-1,-1,-1,19,-1,-1,-1],"loss_changes":[9.050177E0,5.588048E0,1.2990339E0,2.042904E0,4.5031567E0,0E0,0E0,0E0,0E0,2.460393E0,1.0278603E0,1.5025322E0,1.9963422E0,0E0,0E0,0E0,0E0,2.7289584E0,0E0,0E0,0E0],"parents":[2147483647,0,0,1,1,2,2,3,3,4,4,9,9,10,10,11,11,12,12,17,17],"right_children":[2,4,6,8,10,-1,-1,-1,-1,12,14,16,18,-1,-1,-1,-1,20,-1,-1,-1],"split_conditions":[1.0051633E8,5.412757E-4,1.13982735E-2,7.58134E-3,-6.489349E-2,1.0839331E-2,-2.5900055E-2,1.8202329E-2,8.4611416E-2,1.6547793E7,-2.3101352E-3,1.1671633E7,2.056969E2,-2.3836944E-2,1.1003563E-2,2.7401257E-2,-1.970488E-2,1.7989766E-2,7.892589E-2,4.4982743E-2,-1.7654115E-2],"split_indices":[49,15,51,42,26,0,0,0,0,38,25,38,59,0,0,0,0,36,0,0,0],"split_type":[0,0,0,0,0,0,0,0,0,0,0,0,0,0,0,0,0,0,0,0,0],"sum_hessian":[4.1973625E1,2.7574913E1,1.4398711E1,6.711533E0,2.086338E1,2.1406045E0,1.2258107E1,2.673958E0,4.0375752E0,1.2665139E1,8.198241E0,4.808191E0,7.856949E0,6.096528E0,2.1017127E0,2.0885394E0,2.7196512E0,5.411441E0,2.445508E0,3.3728542E0,2.0385866E0],"tree_param":{"num_deleted":"0","num_feature":"64","num_nodes":"21","size_leaf_vector":"1"}},{"base_weights":[1.9861932E-1,1.1239469E0,3.598309E-2,7.732884E-2,1.7532365E-2,-2.7925697E-1,4.3304032E-1,2.7398406E-2,-3.9399576E-1,3.809228E-2,1.0347528E0,-2.638331E-2,5.8080416E-2,4.2488985E-2,-2.0909569E-1,-8.270768E-4,7.357484E-2,1.1043969E-2,-3.9769574E-3,1.3627082E-2,-2.379721E-2],"categories":[],"categories_nodes":[],"categories_segments":[],"categories_sizes":[],"default_left":[0,0,0,0,0,0,0,0,0,0,0,0,0,0,0,0,0,0,0,0,0],"id":40,"left_children":[1,3,5,-1,-1,7,9,-1,11,13,15,-1,17,-1,19,-1,-1,-1,-1,-1,-1],"loss_changes":[6.727202E0,1.4618092E0,5.1465797E0,0E0,0E0,2.3627152E0,4.1897717E0,0E0,1.328105E0,2.680565E0,3.4263225E0,0E0,1.5386245E-1,0E0,1.4386041E0,0E0,0E0,0E0,0E0,0E0,0E0],"parents":[2147483647,0,0,1,1,2,2,5,5,6,6,8,8,9,9,10,10,12,12,14,14],"right_children":[2,4,6,-1,-1,8,10,-1,12,14,16,-1,18,-1,20,-1,-1,-1,-1,-1,-1],"split_conditions":[-2.8418198E-1,3.9733484E-2,6.384497E-2,7.732884E-2,1.7532365E-2,2.12322E-2,9.150778E-1,2.7398406E-2,3.8659044E7,3.145231E-1,-7.9930946E-2,-2.638331E-2,7.58134E-3,4.2488985E-2,9.403414E7,-8.270768E-4,7.357484E-2,1.1043969E-2,-3.9769574E-3,1.3627082E-2,-2.379721E-2],"split_indices":[28,22,30,0,0,12,52,0,50,31,36,0,42,0,43,0,0,0,0,0,0],"split_type":[0,0,0,0,0,0,0,0,0,0,0,0,0,0,0,0,0,0,0,0,0],"sum_hessian":[4.4740948E1,5.7126794E0,3.9028267E1,2.9636664E0,2.749013E0,2.1780592E1,1.7247677E1,2.0869691E0,1.9693623E1,1.11552E1,6.092477E0,1.5241109E1,4.452514E0,2.1294663E0,9.025733E0,2.0033457E0,4.0891314E0,2.0953877E0,2.3571265E0,3.076625E0,5.949108E0],"tree_param":{"num_deleted":"0","num_feature":"64","num_nodes":"21","size_leaf_vector":"1"}},{"base_weights":[-2.1508163E-1,-2.884848E-1,2.2898097E-2,1.7352581E-2,-3.72761E-1,-4.2191342E-1,1.1147941E-2,-5.027738E-1,-3.1997044E-2,-2.693039E-2,-7.587432E-4,2.9073456E-2,-2.148608E-2],"categories":[],"categories_nodes":[],"categories_segments":[],"categories_sizes":[],"default_left":[0,0,0,0,0,0,0,0,0,0,0,0,0],"id":41,"left_children":[1,3,-1,-1,5,7,-1,9,11,-1,-1,-1,-1],"loss_changes":[2.1669006E0,2.1776135E0,0E0,0E0,1.1195631E0,9.464879E-1,0E0,3.979106E-1,1.89762E0,0E0,0E0,0E0,0E0],"parents":[2147483647,0,0,1,1,4,4,5,5,7,7,8,8],"right_children":[2,4,-1,-1,6,8,-1,10,12,-1,-1,-1,-1],"split_conditions":[2.2509305E-1,1.991136E-2,2.2898097E-2,1.7352581E-2,9.886465E-1,2.320446E2,1.1147941E-2,1.5237413E-1,-9.025016E-2,-2.693039E-2,-7.587432E-4,2.9073456E-2,-2.148608E-2],"split_indices":[30,7,0,0,52,59,0,62,36,0,0,0,0],"split_type":[0,0,0,0,0,0,0,0,0,0,0,0,0],"sum_hessian":[4.05301E1,3.7193657E1,3.3364465E0,3.850675E0,3.334298E1,3.1226156E1,2.1168242E0,2.5410625E1,5.815531E0,2.338253E1,2.0280952E0,2.0067773E0,3.8087535E0],"tree_param":{"num_deleted":"0","num_feature":"64","num_nodes":"13","size_leaf_vector":"1"}},{"base_weights":[8.4373E-2,-3.3856848E-1,3.215685E-1,-4.4635245E-1,9.3989065E-3,-4.9788193E-3,7.5373805E-1,-1.0641456E-3,-2.5564233E-2,3.9032303E-2,-2.9389173E-1,1.2835038E0,-0E0,-2.4737326E-2,9.094083E-2,2.8761715E-2,7.983351E-2,2.9164517E-2,-2.0349761E-2,-1.7972765E-2,2.8069807E-2],"categories":[],"categories_nodes":[],"categories_segments":[],"categories_sizes":[],"default_left":[0,0,0,0,0,0,0,0,0,0,0,0,0,0,0,0,0,0,0,0,0],"id":42,"left_children":[1,3,5,7,-1,9,11,-1,-1,-1,13,15,17,-1,19,-1,-1,-1,-1,-1,-1],"loss_changes":[4.4495363E0,1.01147E0,4.086072E0,3.1241274E-1,0E0,4.047653E0,4.8562593E0,0E0,0E0,0E0,1.1115048E0,4.6366405E-1,1.7081912E0,0E0,1.3294727E0,0E0,0E0,0E0,0E0,0E0,0E0],"parents":[2147483647,0,0,1,1,2,2,3,3,5,5,6,6,10,10,11,11,12,12,14,14],"right_children":[2,4,6,8,-1,10,12,-1,-1,-1,14,16,18,-1,20,-1,-1,-1,-1,-1,-1],"split_conditions":[-7.1555465E-2,-2.4815159E-2,3.1103296E-2,7.7816236E-1,9.3989065E-3,-2.520742E-2,6.8100356E-2,-1.0641456E-3,-2.5564233E-2,3.9032303E-2,6.565115E-2,8.030924E7,-1.8500003E-1,-2.4737326E-2,-7.908483E-2,2.8761715E-2,7.983351E-2,2.9164517E-2,-2.0349761E-2,-1.7972765E-2,2.8069807E-2],"split_indices":[14,9,7,52,0,30,10,0,0,0,15,37,36,0,29,0,0,0,0,0,0],"split_type":[0,0,0,0,0,0,0,0,0,0,0,0,0,0,0,0,0,0,0,0,0],"sum_hessian":[4.2285206E1,1.4888557E1,2.7396646E1,1.2642797E1,2.2457595E0,1.6036531E1,1.1360115E1,2.0553799E0,1.0587418E1,3.7610848E0,1.2275447E1,6.210411E0,5.149704E0,8.048796E0,4.226651E0,2.8717344E0,3.3386767E0,2.0007453E0,3.148959E0,2.1713064E0,2.055345E0],"tree_param":{"num_deleted":"0","num_feature":"64","num_nodes":"21","size_leaf_vector":"1"}},{"base_weights":[2.8681476E-3,2.8371364E-1,-3.6953518E-1,1.08327E0,4.1136812E-2,-2.5998985E-2,6.6965395E-3,2.1974184E-2,6.9591835E-2,-2.6360428E-1,4.404E-1,1.14309415E-2,-2.4505602E-2,-6.807538E-2,9.06484E-1,-1.8254617E-2,1.1800549E-2,7.838872E-2,-9.96048E-4],"categories":[],"categories_nodes":[],"categories_segments":[],"categories_sizes":[],"default_left":[0,0,0,0,0,0,0,0,0,0,0,0,0,0,0,0,0,0,0],"id":43,"left_children":[1,3,5,7,9,-1,-1,-1,-1,11,13,-1,-1,15,17,-1,-1,-1,-1],"loss_changes":[4.550096E0,4.6909475E0,1.5162668E0,3.3405876E-1,2.60525E0,0E0,0E0,0E0,0E0,1.4764934E0,2.351754E0,0E0,0E0,5.759267E-1,3.2672148E0,0E0,0E0,0E0,0E0],"parents":[2147483647,0,0,1,1,2,2,3,3,4,4,9,9,10,10,13,13,14,14],"right_children":[2,4,6,8,10,-1,-1,-1,-1,12,14,-1,-1,16,18,-1,-1,-1,-1],"split_conditions":[1.5108242E-2,7.658882E7,1.1049455E8,-2.3230128E-2,2.263636E2,-2.5998985E-2,6.6965395E-3,2.1974184E-2,6.9591835E-2,-6.0541756E-3,-6.2019046E-2,1.14309415E-2,-2.4505602E-2,3.5591066E-2,2.3033415E2,-1.8254617E-2,1.1800549E-2,7.838872E-2,-9.96048E-4],"split_indices":[29,40,43,36,57,0,0,0,0,42,29,0,0,7,59,0,0,0,0],"split_type":[0,0,0,0,0,0,0,0,0,0,0,0,0,0,0,0,0,0,0],"sum_hessian":[4.158466E1,2.3995382E1,1.7589277E1,4.6827326E0,1.931265E1,1.3670203E1,3.9190748E0,2.4077058E0,2.275027E0,1.1003469E1,8.309181E0,3.3256676E0,7.6778016E0,4.279662E0,4.029519E0,2.229868E0,2.0497944E0,2.0102074E0,2.0193114E0],"tree_param":{"num_deleted":"0","num_feature":"64","num_nodes":"19","size_leaf_vector":"1"}},{"base_weights":[1.2425879E-1,1.1402365E0,-1.8747577E-2,8.024503E-2,1.125689E-2,3.862088E-1,-3.5627824E-1,-6.0227897E-2,9.674331E-1,7.74551E-2,-4.729797E-1,1.8496908E-2,-3.4250796E-1,7.4679635E-2,9.783179E-3,-1.8290231E-2,2.8335497E-2,-2.6246374E-2,-8.2514214E-4,-2.2137575E-2,-1.4165937E-3],"categories":[],"categories_nodes":[],"categories_segments":[],"categories_sizes":[],"default_left":[0,0,0,0,0,0,0,0,0,0,0,0,0,0,0,0,0,0,0,0,0],"id":44,"left_children":[1,3,5,-1,-1,7,9,11,13,15,17,-1,19,-1,-1,-1,-1,-1,-1,-1,-1],"loss_changes":[6.4792814E0,1.7907848E0,5.4905415E0,0E0,0E0,4.860678E0,1.1910975E0,1.4735072E0,2.8053756E0,1.3871018E0,3.5640883E-1,0E0,1.7246282E-1,0E0,0E0,0E0,0E0,0E0,0E0,0E0,0E0],"parents":[2147483647,0,0,1,1,2,2,5,5,6,6,7,7,8,8,9,9,10,10,12,12],"right_children":[2,4,6,-1,-1,8,10,12,14,16,18,-1,20,-1,-1,-1,-1,-1,-1,-1,-1],"split_conditions":[-1.2657719E-2,-8.542314E-2,2.040057E2,8.024503E-2,1.125689E-2,6.496368E-3,1.6087572E7,1.1300859E-2,1.6364698E-1,1.0096799E8,1.3506304E-1,1.8496908E-2,3.6077987E-2,7.4679635E-2,9.783179E-3,-1.8290231E-2,2.8335497E-2,-2.6246374E-2,-8.2514214E-4,-2.2137575E-2,-1.4165937E-3],"split_indices":[6,0,58,0,0,6,44,45,5,43,0,0,28,0,0,0,0,0,0,0,0],"split_type":[0,0,0,0,0,0,0,0,0,0,0,0,0,0,0,0,0,0,0,0,0],"sum_hessian":[4.2676094E1,4.491626E0,3.8184467E1,2.406558E0,2.085068E0,1.7158213E1,2.1026257E1,1.0114003E1,7.04421E0,4.3475466E0,1.6678709E1,3.7438948E0,6.370108E0,3.5554204E0,3.4887896E0,2.3061392E0,2.0414076E0,1.4643259E1,2.03545E0,4.2776937E0,2.0924144E0],"tree_param":{"num_deleted":"0","num_feature":"64","num_nodes":"21","size_leaf_vector":"1"}},{"base_weights":[-8.337675E-2,-4.2125383E-1,1.673245E-1,1.0729637E-2,-2.6196634E-2,4.7034595E-2,-1.766708E-2,-3.608142E-1,4.510564E-1,1.0205766E-2,-2.5301833E-2,-1.9116485E-2,8.3476967E-1,-1.0594787E-3,6.16935E-2],"categories":[],"categories_nodes":[],"categories_segments":[],"categories_sizes":[],"default_left":[0,0,0,0,0,0,0,0,0,0,0,0,0,0,0],"id":45,"left_children":[1,3,5,-1,-1,-1,7,9,11,-1,-1,-1,13,-1,-1],"loss_changes":[3.6839597E0,1.3509848E0,3.665888E0,0E0,0E0,0E0,3.5217993E0,1.181009E0,3.2974243E0,0E0,0E0,0E0,2.4282403E0,0E0,0E0],"parents":[2147483647,0,0,1,1,2,2,6,6,7,7,8,8,12,12],"right_children":[2,4,6,-1,-1,-1,8,10,12,-1,-1,-1,14,-1,-1],"split_conditions":[9.741904E7,1.7756801E2,9.8868E7,1.0729637E-2,-2.6196634E-2,4.7034595E-2,1.7882244E-1,1.4392599E-2,1.3142174E-1,1.0205766E-2,-2.5301833E-2,-1.9116485E-2,1.498608E-2,-1.0594787E-3,6.16935E-2],"split_indices":[49,54,49,0,0,0,28,51,30,0,0,0,51,0,0],"split_type":[0,0,0,0,0,0,0,0,0,0,0,0,0,0,0],"sum_hessian":[4.1359127E1,1.7496792E1,2.3862335E1,2.1456764E0,1.5351115E1,3.9219444E0,1.9940392E1,1.1768425E1,8.171966E0,2.1828372E0,9.5855875E0,2.495339E0,5.676627E0,2.0265613E0,3.6500661E0],"tree_param":{"num_deleted":"0","num_feature":"64","num_nodes":"15","size_leaf_vector":"1"}},{"base_weights":[-1.8958029E-1,-2.6504982E-1,2.9367128E-2,-2.2811083E-2,-4.8322222E-1,-1.8203686E-1,3.9744284E-2,-8.430009E-4,-2.6479816E-2,-3.2413563E-1,2.5526209E-2,1.1814198E-2,-2.5489647E-2],"categories":[],"categories_nodes":[],"categories_segments":[],"categories_sizes":[],"default_left":[0,0,0,0,0,0,0,0,0,0,0,0,0],"id":46,"left_children":[1,3,-1,5,7,9,-1,-1,-1,11,-1,-1,-1],"loss_changes":[2.549237E0,1.9738908E0,0E0,2.624585E0,3.689127E-1,1.8447026E0,0E0,0E0,0E0,1.7133694E0,0E0,0E0,0E0],"parents":[2147483647,0,0,1,1,3,3,4,4,5,5,9,9],"right_children":[2,4,-1,6,8,10,-1,-1,-1,12,-1,-1,-1],"split_conditions":[8.952334E-2,2.0680936E7,2.9367128E-2,1.099693E8,1.76444E2,3.0170493E-2,3.9744284E-2,-8.430009E-4,-2.6479816E-2,1.13857975E-2,2.5526209E-2,1.1814198E-2,-2.5489647E-2],"split_indices":[45,47,0,37,54,51,0,0,0,51,0,0,0],"split_type":[0,0,0,0,0,0,0,0,0,0,0,0,0],"sum_hessian":[4.037175E1,3.751513E1,2.8566234E0,1.8517685E1,1.8997442E1,1.625258E1,2.2651057E0,2.0365698E0,1.6960873E1,1.4046835E1,2.2057445E0,3.293589E0,1.0753246E1],"tree_param":{"num_deleted":"0","num_feature":"64","num_nodes":"13","size_leaf_vector":"1"}},{"base_weights":[2.3566823E-1,7.532564E-1,-1.4379472E-1,8.447824E-2,3.2443777E-1,-2.6463404E-1,4.1133653E-2,-1.1038293E-1,5.1486492E-2,-4.7273207E-1,1.7199802E-1,-2.3312429E-2,1.7538548E-2,-2.625584E-2,-1.2253126E-3,4.2967524E-2,-2.1937896E-2],"categories":[],"categories_nodes":[],"categories_segments":[],"categories_sizes":[],"default_left":[0,0,0,0,0,0,0,0,0,0,0,0,0,0,0,0,0],"id":47,"left_children":[1,3,5,-1,7,9,-1,11,-1,13,15,-1,-1,-1,-1,-1,-1],"loss_changes":[9.218794E0,7.185153E0,3.3517628E0,0E0,4.764468E0,2.3944309E0,0E0,1.8180653E0,0E0,3.4162474E-1,4.0664263E0,0E0,0E0,0E0,0E0,0E0,0E0],"parents":[2147483647,0,0,1,1,2,2,4,4,5,5,7,7,9,9,10,10],"right_children":[2,4,6,-1,8,10,-1,12,-1,14,16,-1,-1,-1,-1,-1,-1],"split_conditions":[-6.4575486E-2,2.1151201E2,1.3973477E-1,8.447824E-2,5.0881673E-2,3.3185784E-2,4.1133653E-2,6.3498497E-1,5.1486492E-2,2.3413495E2,1.05183255E-2,-2.3312429E-2,1.7538548E-2,-2.625584E-2,-1.2253126E-3,4.2967524E-2,-2.1937896E-2],"split_indices":[26,54,39,0,12,12,0,35,0,59,5,0,0,0,0,0,0],"split_type":[0,0,0,0,0,0,0,0,0,0,0,0,0,0,0,0,0],"sum_hessian":[4.5075756E1,1.876235E1,2.6313406E1,4.896906E0,1.3865444E1,2.412648E1,2.1869261E0,9.011475E0,4.8539696E0,1.6438345E1,7.688136E0,5.202546E0,3.8089285E0,1.4364857E1,2.073487E0,3.5027738E0,4.1853623E0],"tree_param":{"num_deleted":"0","num_feature":"64","num_nodes":"17","size_leaf_vector":"1"}},{"base_weights":[1.795627E-1,9.3378234E-1,4.16464E-2,7.511836E-2,3.2738228E-3,-3.1569576E-1,2.3907314E-1,-2.5294734E-2,1.0251175E-2,-1.3073696E-1,8.6455244E-1,4.404451E-2,-3.313763E-1,-2.6061302E-3,1.1440295E0,8.551918E-3,-4.4200355E-1,9.083929E-2,1.8839323E-3,-8.927613E-4,-2.5456643E-2],"categories":[],"categories_nodes":[],"categories_segments":[],"categories_sizes":[],"default_left":[0,0,0,0,0,0,0,0,0,0,0,0,0,0,0,0,0,0,0,0,0],"id":48,"left_children":[1,3,5,-1,-1,7,9,-1,-1,11,13,-1,15,-1,17,-1,19,-1,-1,-1,-1],"loss_changes":[4.595383E0,3.1383576E0,2.8626966E0,0E0,0E0,1.5549371E0,6.2622533E0,0E0,0E0,3.7434137E0,2.728592E0,0E0,9.489385E-1,0E0,5.5400267E0,0E0,3.0608058E-1,0E0,0E0,0E0,0E0],"parents":[2147483647,0,0,1,1,2,2,5,5,6,6,9,9,10,10,12,12,14,14,16,16],"right_children":[2,4,6,-1,-1,8,10,-1,-1,12,14,-1,16,-1,18,-1,20,-1,-1,-1,-1],"split_conditions":[-2.1432674E-1,4.7790807E-2,9.223846E7,7.511836E-2,3.2738228E-3,1.8673187E-1,9.150778E-1,-2.5294734E-2,1.0251175E-2,1.0139138E0,-5.0064656E-3,4.404451E-2,2.7398432E-2,-2.6061302E-3,1.1401641E8,8.551918E-3,-5.008096E-2,9.083929E-2,1.8839323E-3,-8.927613E-4,-2.5456643E-2],"split_indices":[27,12,46,0,0,10,52,0,0,53,10,0,17,0,43,0,29,0,0,0,0],"split_type":[0,0,0,0,0,0,0,0,0,0,0,0,0,0,0,0,0,0,0,0,0],"sum_hessian":[4.4489826E1,5.873552E0,3.8616276E1,3.03849E0,2.8350618E0,1.3349011E1,2.5267263E1,9.939135E0,3.4098763E0,1.627556E1,8.991703E0,2.0500996E0,1.422546E1,2.207353E0,6.7843504E0,2.3054087E0,1.1920052E1,3.7633693E0,3.020981E0,2.0053208E0,9.91473E0],"tree_param":{"num_deleted":"0","num_feature":"64","num_nodes":"21","size_leaf_vector":"1"}},{"base_weights":[-1.1608582E-1,4.4702896E-1,-2.329243E-1,-8.82339E-3,5.0006296E-2,-4.3648437E-1,5.6542654E-2,-5.1723637E-2,-2.6214043E-2,6.701129E-1,-3.03645E-1,-1.7647924E-2,1.2316837E-2,-1.7527454E-2,6.6206686E-2,-2.4194036E-2,1.16316E-2],"categories":[],"categories_nodes":[],"categories_segments":[],"categories_sizes":[],"default_left":[0,0,0,0,0,0,0,0,0,0,0,0,0,0,0,0,0],"id":49,"left_children":[1,3,5,-1,-1,7,9,11,-1,13,15,-1,-1,-1,-1,-1,-1],"loss_changes":[2.800076E0,2.773683E0,2.1255388E0,0E0,0E0,6.2035275E-1,3.5853896E0,5.643971E-1,0E0,4.5758076E0,1.1161746E0,0E0,0E0,0E0,0E0,0E0,0E0],"parents":[2147483647,0,0,1,1,2,2,5,5,6,6,7,7,9,9,10,10],"right_children":[2,4,6,-1,-1,8,10,12,-1,14,16,-1,-1,-1,-1,-1,-1],"split_conditions":[2.2629991E-2,1.8595458E7,3.006427E-2,-8.82339E-3,5.0006296E-2,-1.7590667E-1,-1.0567899E-1,-6.8176016E-2,-2.6214043E-2,1.7893399E2,9.3883306E-1,-1.7647924E-2,1.2316837E-2,-1.7527454E-2,6.6206686E-2,-2.4194036E-2,1.16316E-2],"split_indices":[7,44,27,0,0,30,36,36,0,55,52,0,0,0,0,0,0],"split_type":[0,0,0,0,0,0,0,0,0,0,0,0,0,0,0,0,0],"sum_hessian":[4.0301403E1,6.2924385E0,3.4008965E1,3.1930795E0,3.0993588E0,1.9872042E1,1.4136922E1,4.198889E0,1.5673153E1,5.0135865E0,9.123335E0,2.1635818E0,2.035307E0,2.0794756E0,2.934111E0,7.0410914E0,2.0822437E0],"tree_param":{"num_deleted":"0","num_feature":"64","num_nodes":"17","size_leaf_vector":"1"}},{"base_weights":[1.896451E-3,4.7859892E-1,-1.9161175E-1,-8.3896415E-3,1.1438822E0,5.174746E-2,-3.648478E-1,-2.3136701E-2,4.2062003E-2,7.8003995E-2,2.112452E-2,1.3959842E-2,-4.603435E-1,-9.1022253E-4,-4.9427596E-1,-1.3170886E-3,-2.6764749E-2],"categories":[],"categories_nodes":[],"categories_segments":[],"categories_sizes":[],"default_left":[0,0,0,0,0,0,0,0,0,0,0,0,0,0,0,0,0],"id":50,"left_children":[1,3,5,7,9,-1,11,-1,-1,-1,-1,-1,13,-1,15,-1,-1],"loss_changes":[4.038909E0,4.237739E0,6.850651E0,3.531664E0,7.8238916E-1,0E0,1.855248E0,0E0,0E0,0E0,0E0,0E0,3.1041622E-1,0E0,3.6538363E-1,0E0,0E0],"parents":[2147483647,0,0,1,1,2,2,3,3,4,4,6,6,12,12,14,14],"right_children":[2,4,6,8,10,-1,12,-1,-1,-1,-1,-1,14,-1,16,-1,-1],"split_conditions":[1.79607E2,3.1802844E-2,-4.984937E-3,2.6943037E-2,1.8367674E-3,5.174746E-2,1.1649264E-2,-2.3136701E-2,4.2062003E-2,7.8003995E-2,2.112452E-2,1.3959842E-2,-2.6072365E-1,-9.1022253E-4,-9.495807E-2,-1.3170886E-3,-2.6764749E-2],"split_indices":[55,7,45,62,60,0,51,0,0,0,0,0,36,0,0,0,0],"split_type":[0,0,0,0,0,0,0,0,0,0,0,0,0,0,0,0,0],"sum_hessian":[4.147893E1,1.1699937E1,2.9778996E1,7.238453E0,4.461484E0,2.998351E0,2.6780645E1,5.089749E0,2.1487043E0,2.0040529E0,2.4574313E0,3.0745254E0,2.370612E1,2.0092437E0,2.1696877E1,2.0774894E0,1.9619387E1],"tree_param":{"num_deleted":"0","num_feature":"64","num_nodes":"17","size_leaf_vector":"1"}},{"base_weights":[-1.9315844E-2,3.3246225E-1,-2.4504426E-1,1.0449163E0,-8.179727E-2,-3.654796E-1,1.8871939E-2,1.2745424E-2,8.507669E-2,-3.873596E-1,3.7386365E-2,1.735852E-2,-4.84043E-1,-2.3757374E-2,-1.2256699E-3,-2.6426941E-2,-2.0589905E-3],"categories":[],"categories_nodes":[],"categories_segments":[],"categories_sizes":[],"default_left":[0,0,0,0,0,0,0,0,0,0,0,0,0,0,0,0,0],"id":51,"left_children":[1,3,5,7,9,11,-1,-1,-1,13,-1,-1,15,-1,-1,-1,-1],"loss_changes":[3.4741838E0,5.197522E0,2.149046E0,2.6955385E0,3.189993E0,2.13634E0,0E0,0E0,0E0,2.318517E-1,0E0,0E0,3.2269144E-1,0E0,0E0,0E0,0E0],"parents":[2147483647,0,0,1,1,2,2,3,3,4,4,5,5,9,9,12,12],"right_children":[2,4,6,8,10,12,-1,-1,-1,14,-1,-1,16,-1,-1,-1,-1],"split_conditions":[-4.4989906E-4,1.0660396E0,1.5024948E-1,-5.2096453E-2,2.328132E2,-1.3010156E-1,1.8871939E-2,1.2745424E-2,8.507669E-2,8.089175E-2,3.7386365E-2,1.735852E-2,2.44294E2,-2.3757374E-2,-1.2256699E-3,-2.6426941E-2,-2.0589905E-3],"split_indices":[39,53,27,36,57,29,0,0,0,63,0,0,56,0,0,0,0],"split_type":[0,0,0,0,0,0,0,0,0,0,0,0,0,0,0,0,0],"sum_hessian":[4.183611E1,1.59943905E1,2.5841719E1,5.4096913E0,1.05847E1,2.213303E1,3.708688E0,3.1546693E0,2.255022E0,8.212969E0,2.3717308E0,2.7616987E0,1.9371332E1,6.141886E0,2.0710824E0,1.7221748E1,2.1495826E0],"tree_param":{"num_deleted":"0","num_feature":"64","num_nodes":"17","size_leaf_vector":"1"}},{"base_weights":[4.2465456E-2,8.446246E-1,-1.3501263E-1,-6.588681E-3,1.4012316E0,-4.0290952E-1,2.7948868E-1,2.685884E-2,8.849886E-2,9.864281E-3,-4.8353273E-1,8.3817935E-1,-3.4506378E-1,-1.2902028E-3,-2.646305E-2,1.0897186E0,7.3037557E-3,-8.6556206E-4,-2.218782E-2,7.271467E-2,2.0779138E-2],"categories":[],"categories_nodes":[],"categories_segments":[],"categories_sizes":[],"default_left":[0,0,0,0,0,0,0,0,0,0,0,0,0,0,0,0,0,0,0,0,0],"id":52,"left_children":[1,3,5,-1,7,9,11,-1,-1,-1,13,15,17,-1,-1,19,-1,-1,-1,-1,-1],"loss_changes":[6.2943997E0,4.667182E0,4.111311E0,0E0,4.9304867E-1,1.2061012E0,5.411023E0,0E0,0E0,0E0,3.5260773E-1,1.118557E0,1.8841964E-1,0E0,0E0,5.9550667E-1,0E0,0E0,0E0,0E0,0E0],"parents":[2147483647,0,0,1,1,2,2,4,4,5,5,6,6,10,10,11,11,12,12,15,15],"right_children":[2,4,6,-1,8,10,12,-1,-1,-1,14,16,18,-1,-1,20,-1,-1,-1,-1,-1],"split_conditions":[-1.5435078E-2,-5.8606155E-3,6.496368E-3,-6.588681E-3,1.7711103E-2,1.3714875E7,2.2360901E2,2.685884E-2,8.849886E-2,9.864281E-3,1.0737878E7,1.3452439E-1,4.114054E-2,-1.2902028E-3,-2.646305E-2,4.1193053E-2,7.3037557E-3,-8.6556206E-4,-2.218782E-2,7.271467E-2,2.0779138E-2],"split_indices":[1,63,6,0,51,44,55,0,0,0,41,27,7,0,0,48,0,0,0,0,0],"split_type":[0,0,0,0,0,0,0,0,0,0,0,0,0,0,0,0,0,0,0,0,0],"sum_hessian":[4.191346E1,7.0144067E0,3.4899055E1,2.7587E0,4.255707E0,2.136186E1,1.3537192E1,2.0888991E0,2.166808E0,2.2114556E0,1.9150406E1,7.04932E0,6.487872E0,2.0801125E0,1.7070293E1,4.642908E0,2.4064124E0,2.008017E0,4.479855E0,2.1659484E0,2.4769597E0],"tree_param":{"num_deleted":"0","num_feature":"64","num_nodes":"21","size_leaf_vector":"1"}},{"base_weights":[-6.243895E-2,-4.2094603E-1,2.039187E-1,8.494158E-3,-2.612081E-2,-0E0,5.925825E-2,4.3932846E-1,-3.5499316E-1,-2.0106336E-2,8.273579E-1,-1.5476563E-3,-2.4463499E-2,-2.63522E-3,6.1583843E-2],"categories":[],"categories_nodes":[],"categories_segments":[],"categories_sizes":[],"default_left":[0,0,0,0,0,0,0,0,0,0,0,0,0,0,0],"id":53,"left_children":[1,3,5,-1,-1,7,-1,9,11,-1,13,-1,-1,-1,-1],"loss_changes":[4.1692624E0,1.2401545E0,4.8987827E0,0E0,0E0,3.5452404E0,0E0,3.7167048E0,4.7490537E-1,0E0,2.8203645E0,0E0,0E0,0E0,0E0],"parents":[2147483647,0,0,1,1,2,2,5,5,7,7,8,8,10,10],"right_children":[2,4,6,-1,-1,8,-1,10,12,-1,14,-1,-1,-1,-1],"split_conditions":[9.741904E7,1.4097346E7,1.8712616E-1,8.494158E-3,-2.612081E-2,-1.6156293E-1,5.925825E-2,1.71526E2,-3.9624464E-2,-2.0106336E-2,1.498608E-2,-1.5476563E-3,-2.4463499E-2,-2.63522E-3,6.1583843E-2],"split_indices":[49,44,15,0,0,20,0,54,4,0,51,0,0,0,0],"split_type":[0,0,0,0,0,0,0,0,0,0,0,0,0,0,0],"sum_hessian":[4.153507E1,1.7617565E1,2.3917505E1,2.3389356E0,1.5278629E1,2.0692205E1,3.2253003E0,9.233947E0,1.1458258E1,2.8214633E0,6.412483E0,3.935723E0,7.522535E0,2.2145317E0,4.197952E0],"tree_param":{"num_deleted":"0","num_feature":"64","num_nodes":"15","size_leaf_vector":"1"}},{"base_weights":[-2.4272807E-1,-3.6221674E-1,1.4583486E-1,-4.4317803E-1,1.7508298E-2,6.521121E-1,-2.2075078E-2,-7.021956E-2,-5.001074E-1,-4.883073E-3,6.2172975E-2,1.24908155E-2,-1.8260496E-2,-2.682566E-2,-1.5907439E-3],"categories":[],"categories_nodes":[],"categories_segments":[],"categories_sizes":[],"default_left":[0,0,0,0,0,0,0,0,0,0,0,0,0,0,0],"id":54,"left_children":[1,3,5,7,-1,9,-1,11,13,-1,-1,-1,-1,-1,-1],"loss_changes":[2.0316517E0,2.051865E0,3.4105194E0,5.437999E-1,0E0,2.9392562E0,0E0,6.0903144E-1,3.6236382E-1,0E0,0E0,0E0,0E0,0E0,0E0],"parents":[2147483647,0,0,1,1,2,2,3,3,5,5,7,7,8,8],"right_children":[2,4,6,8,-1,10,-1,12,14,-1,-1,-1,-1,-1,-1],"split_conditions":[1.0987218E8,4.3915693E-2,5.2858654E-2,7.097242E6,1.7508298E-2,2.096517E2,-2.2075078E-2,1.89316E2,3.6377165E-2,-4.883073E-3,6.2172975E-2,1.24908155E-2,-1.8260496E-2,-2.682566E-2,-1.5907439E-3],"split_indices":[37,2,2,38,0,58,0,54,60,0,0,0,0,0,0],"split_type":[0,0,0,0,0,0,0,0,0,0,0,0,0,0,0],"sum_hessian":[4.1154587E1,3.1724127E1,9.43046E0,2.8952036E1,2.772091E0,5.0969343E0,4.333526E0,4.3624635E0,2.4589573E1,2.5409675E0,2.5559669E0,2.003262E0,2.3592014E0,2.2482523E1,2.1070497E0],"tree_param":{"num_deleted":"0","num_feature":"64","num_nodes":"15","size_leaf_vector":"1"}},{"base_weights":[2.0346707E-1,7.21111E-1,-2.210609E-1,1.1983861E0,2.4226454E-1,-3.619629E-1,4.0214714E-2,1.5542254E-2,8.713975E-2,4.7239985E-2,-2.2616698E-1,-4.8355985E-1,1.9646628E-2,1.0846263E-2,-2.2769544E-2,-2.6490016E-2,-9.380788E-4],"categories":[],"categories_nodes":[],"categories_segments":[],"categories_sizes":[],"default_left":[0,0,0,0,0,0,0,0,0,0,0,0,0,0,0,0,0],"id":55,"left_children":[1,3,5,7,9,11,-1,-1,-1,-1,13,15,-1,-1,-1,-1,-1],"loss_changes":[9.8794565E0,4.1748867E0,3.835011E0,3.9604301E0,4.045563E0,2.274554E0,0E0,0E0,0E0,0E0,8.921394E-1,3.6582947E-1,0E0,0E0,0E0,0E0,0E0],"parents":[2147483647,0,0,1,1,2,2,3,3,4,4,5,5,10,10,11,11],"right_children":[2,4,6,8,10,12,-1,-1,-1,-1,14,16,-1,-1,-1,-1,-1],"split_conditions":[-6.4575486E-2,4.3989727E-3,8.3186746E-2,4.987546E-3,8.9976504E7,3.9425537E-2,4.0214714E-2,1.5542254E-2,8.713975E-2,4.7239985E-2,1.987104E2,2.83992E-1,1.9646628E-2,1.0846263E-2,-2.2769544E-2,-2.6490016E-2,-9.380788E-4],"split_indices":[26,21,42,42,49,48,0,0,0,0,57,26,0,0,0,0,0],"split_type":[0,0,0,0,0,0,0,0,0,0,0,0,0,0,0,0,0],"sum_hessian":[4.3003872E1,1.9168226E1,2.3835646E1,8.742714E0,1.0425511E1,2.1610495E1,2.225151E0,3.9909673E0,4.7517467E0,3.8491871E0,6.5763245E0,1.9036104E1,2.5743916E0,2.1117287E0,4.464596E0,1.699078E1,2.0453246E0],"tree_param":{"num_deleted":"0","num_feature":"64","num_nodes":"17","size_leaf_vector":"1"}},{"base_weights":[1.6458234E-1,9.180797E-1,-0E0,-1.4856373E-3,6.275657E-2,-2.5009593E-1,3.7041497E-1,-4.6331307E-1,1.4491124E-1,1.0425693E0,-0E0,-2.014917E-3,-2.5958193E-2,-1.9905359E-2,4.9056536E-1,8.925023E-3,7.5588025E-2,-3.5138977E-1,2.7477294E-2,4.6903014E-2,-4.4541904E-3,-2.246188E-2,-9.3744445E-4],"categories":[],"categories_nodes":[],"categories_segments":[],"categories_sizes":[],"default_left":[0,0,0,0,0,0,0,0,0,0,0,0,0,0,0,0,0,0,0,0,0,0,0],"id":56,"left_children":[1,3,5,-1,-1,7,9,11,13,15,17,-1,-1,-1,19,-1,-1,21,-1,-1,-1,-1,-1],"loss_changes":[5.7061396E0,2.7981339E0,3.7171636E0,0E0,0E0,2.1077607E0,4.0700817E0,2.9860377E-1,1.8860122E0,1.909203E0,2.3936274E0,0E0,0E0,0E0,1.7337563E0,0E0,0E0,1.9260627E-1,0E0,0E0,0E0,0E0,0E0],"parents":[2147483647,0,0,1,1,2,2,5,5,6,6,7,7,8,8,9,9,10,10,14,14,17,17],"right_children":[2,4,6,-1,-1,8,10,12,14,16,18,-1,-1,-1,20,-1,-1,22,-1,-1,-1,-1,-1],"split_conditions":[-2.5399405E-1,-2.2799868E-2,2.3423877E-2,-1.4856373E-3,6.275657E-2,7.0507303E-3,1.8734548E-2,-1.9915175E-1,-2.4265321E-2,5.7366337E-3,6.384497E-2,-2.014917E-3,-2.5958193E-2,-1.9905359E-2,2.2810106E7,8.925023E-3,7.5588025E-2,3.498296E-2,2.7477294E-2,4.6903014E-2,-4.4541904E-3,-2.246188E-2,-9.3744445E-4],"split_indices":[28,42,36,0,0,1,51,63,30,39,30,0,0,0,38,0,0,12,0,0,0,0,0],"split_type":[0,0,0,0,0,0,0,0,0,0,0,0,0,0,0,0,0,0,0,0,0,0,0],"sum_hessian":[4.532848E1,7.2587495E0,3.806973E1,2.0655522E0,5.1931973E0,2.285094E1,1.5218788E1,1.4892498E1,7.958442E0,4.7918143E0,1.0426974E1,2.1465464E0,1.2745952E1,2.923929E0,5.034513E0,2.2471E0,2.5447142E0,6.614171E0,3.812803E0,2.5895493E0,2.444964E0,4.6076627E0,2.006508E0],"tree_param":{"num_deleted":"0","num_feature":"64","num_nodes":"23","size_leaf_vector":"1"}},{"base_weights":[-1.0034451E-1,5.2537936E-1,-2.2413704E-1,6.1014205E-2,-5.630407E-4,2.683256E-1,-3.5782713E-1,-1.1655162E-2,4.4644598E-2,-4.474935E-1,7.041861E-2,-2.629721E-2,-1.2239291E-1,2.8516596E-2,-1.8399607E-2,1.2379522E-2,-1.9877221E-2],"categories":[],"categories_nodes":[],"categories_segments":[],"categories_sizes":[],"default_left":[0,0,0,0,0,0,0,0,0,0,0,0,0,0,0,0,0],"id":57,"left_children":[1,3,5,-1,-1,7,9,-1,-1,11,13,-1,15,-1,-1,-1,-1],"loss_changes":[3.1788695E0,2.6543784E0,2.3533552E0,0E0,0E0,2.6865964E0,1.1231785E0,0E0,0E0,4.580183E-1,1.4186409E0,0E0,7.2698736E-1,0E0,0E0,0E0,0E0],"parents":[2147483647,0,0,1,1,2,2,5,5,6,6,9,9,10,10,12,12],"right_children":[2,4,6,-1,-1,8,10,-1,-1,12,14,-1,16,-1,-1,-1,-1],"split_conditions":[2.2629991E-2,-2.4718547E-2,-5.541384E-2,6.1014205E-2,-5.630407E-4,3.0774107E-2,4.2312656E-2,-1.1655162E-2,4.4644598E-2,1.5725209E-1,2.56328E2,-2.629721E-2,3.7695497E-2,2.8516596E-2,-1.8399607E-2,1.2379522E-2,-1.9877221E-2],"split_indices":[7,39,62,0,0,2,22,0,0,36,54,0,22,0,0,0,0],"split_type":[0,0,0,0,0,0,0,0,0,0,0,0,0,0,0,0,0],"sum_hessian":[3.8907555E1,5.756882E0,3.3150673E1,2.0346236E0,3.7222588E0,6.7032866E0,2.6447386E1,3.9770246E0,2.726262E0,2.2024456E1,4.4229293E0,1.6997395E1,5.0270615E0,2.0324945E0,2.3904347E0,2.0317683E0,2.9952931E0],"tree_param":{"num_deleted":"0","num_feature":"64","num_nodes":"17","size_leaf_vector":"1"}},{"base_weights":[2.4763336E-2,1.0627279E0,-1.311633E-1,7.41276E-2,1.0396827E-2,2.5295666E-1,-3.4121117E-1,-2.452545E-1,8.5018134E-1,-2.60668E-2,-6.4864755E-2,-2.3025334E-2,1.1764455E-2,7.42849E-2,1.9137248E-3,-3.4675795E-1,1.8859359E-2,-9.3547266E-4,-2.2249E-2],"categories":[],"categories_nodes":[],"categories_segments":[],"categories_sizes":[],"default_left":[0,0,0,0,0,0,0,0,0,0,0,0,0,0,0,0,0,0,0],"id":58,"left_children":[1,3,5,-1,-1,7,9,11,13,-1,15,-1,-1,-1,-1,17,-1,-1,-1],"loss_changes":[7.106155E0,1.5826697E0,3.1392963E0,0E0,0E0,4.358444E0,1.1512694E0,9.767859E-1,3.1786795E0,0E0,1.5259608E0,0E0,0E0,0E0,0E0,1.873092E-1,0E0,0E0,0E0],"parents":[2147483647,0,0,1,1,2,2,5,5,6,6,7,7,8,8,10,10,15,15],"right_children":[2,4,6,-1,-1,8,10,12,14,-1,16,-1,-1,-1,-1,18,-1,-1,-1],"split_conditions":[7.2168144E-3,-5.961667E-2,1.86044E2,7.41276E-2,1.0396827E-2,3.1031957E-2,2.4476001E2,4.2747803E-2,1.8367674E-3,-2.60668E-2,9.5492774E-1,-2.3025334E-2,1.1764455E-2,7.42849E-2,1.9137248E-3,2.0283585E2,1.8859359E-2,-9.3547266E-4,-2.2249E-2],"split_indices":[48,36,54,0,0,7,54,45,60,0,52,0,0,0,0,59,0,0,0],"split_type":[0,0,0,0,0,0,0,0,0,0,0,0,0,0,0,0,0,0,0],"sum_hessian":[4.146996E1,4.740356E0,3.6729603E1,2.6080456E0,2.1323104E0,1.2743985E1,2.3985619E1,7.177958E0,5.566027E0,1.3765049E1,1.0220569E1,5.1298943E0,2.0480638E0,2.5875661E0,2.978461E0,6.5105987E0,3.7099702E0,2.00909E0,4.5015087E0],"tree_param":{"num_deleted":"0","num_feature":"64","num_nodes":"19","size_leaf_vector":"1"}},{"base_weights":[-9.968221E-2,2.1595578E-1,-3.6467654E-1,4.782803E-1,-2.2632645E-2,-2.619552E-2,3.692087E-2,7.020768E-1,-1.9102192E-2,2.8049557E-2,-2.5409496E-1,-4.513523E-3,9.2571884E-1,-1.8019876E-2,-1.5570957E-3,1.2074649E0,-1.5742294E-3,1.5203501E-2,8.474375E-2],"categories":[],"categories_nodes":[],"categories_segments":[],"categories_sizes":[],"default_left":[0,0,0,0,0,0,0,0,0,0,0,0,0,0,0,0,0,0,0],"id":59,"left_children":[1,3,5,7,-1,-1,9,11,-1,-1,13,-1,15,-1,-1,17,-1,-1,-1],"loss_changes":[3.5783877E0,3.633991E0,1.5511503E0,3.1069314E0,0E0,0E0,1.2927953E0,2.2958117E0,0E0,0E0,7.488945E-2,0E0,2.732708E0,0E0,0E0,2.5822792E0,0E0,0E0,0E0],"parents":[2147483647,0,0,1,1,2,2,3,3,6,6,7,7,10,10,12,12,15,15],"right_children":[2,4,6,8,-1,-1,10,12,-1,-1,14,-1,16,-1,-1,18,-1,-1,-1],"split_conditions":[1.9917473E-2,4.4256005E-2,2.228975E2,3.928555E7,-2.2632645E-2,-2.619552E-2,-5.8870416E-2,1.9867051E-2,-1.9102192E-2,2.8049557E-2,3.935331E-2,-4.513523E-3,3.7027907E-2,-1.8019876E-2,-1.5570957E-3,2.0289484E7,-1.5742294E-3,1.5203501E-2,8.474375E-2],"split_indices":[45,29,58,47,0,0,29,7,0,0,39,0,10,0,0,50,0,0,0],"split_type":[0,0,0,0,0,0,0,0,0,0,0,0,0,0,0,0,0,0,0],"sum_hessian":[4.066268E1,1.847024E1,2.2192442E1,1.3577442E1,4.892799E0,1.5851673E1,6.3407683E0,1.1012841E1,2.5646007E0,2.0553522E0,4.285416E0,2.4570198E0,8.555821E0,2.1806834E0,2.104733E0,6.4888844E0,2.0669367E0,2.9150229E0,3.5738616E0],"tree_param":{"num_deleted":"0","num_feature":"64","num_nodes":"19","size_leaf_vector":"1"}},{"base_weights":[1.6878982E-1,8.4054714E-1,1.4534735E-2,2.3419256E-3,1.2684771E0,-2.6877227E-1,4.3467155E-1,2.7001375E-2,7.8006275E-2,-4.4613606E-1,1.0513537E-2,1.0485401E0,-1.4363837E-1,-7.7405217E-4,-2.5495714E-2,3.7321903E-2,-2.2981586E-2,7.7504285E-2,4.3131155E-3,-2.1158913E-2,6.352082E-3],"categories":[],"categories_nodes":[],"categories_segments":[],"categories_sizes":[],"default_left":[0,0,0,0,0,0,0,0,0,0,0,0,0,0,0,0,0,0,0,0,0],"id":60,"left_children":[1,3,5,-1,7,9,11,-1,-1,13,15,17,19,-1,-1,-1,-1,-1,-1,-1,-1],"loss_changes":[4.4241447E0,2.5298743E0,4.4931064E0,0E0,2.7653694E-2,1.1554534E0,5.664074E0,0E0,0E0,3.2168794E-1,3.6377473E0,3.3775635E0,7.387397E-1,0E0,0E0,0E0,0E0,0E0,0E0,0E0,0E0],"parents":[2147483647,0,0,1,1,2,2,4,4,5,5,6,6,9,9,10,10,11,11,12,12],"right_children":[2,4,6,-1,8,10,12,-1,-1,14,16,18,20,-1,-1,-1,-1,-1,-1,-1,-1],"split_conditions":[-1.5435078E-2,-9.9873036E-2,6.496368E-3,2.3419256E-3,-1.947481E-2,1.9718016E-2,2.2360901E2,2.7001375E-2,7.8006275E-2,1.73922E2,1.808472E-2,1.3452439E-1,4.6603534E-2,-7.7405217E-4,-2.5495714E-2,3.7321903E-2,-2.2981586E-2,7.7504285E-2,4.3131155E-3,-2.1158913E-2,6.352082E-3],"split_indices":[1,36,6,0,1,42,55,0,0,54,45,27,62,0,0,0,0,0,0,0,0],"split_type":[0,0,0,0,0,0,0,0,0,0,0,0,0,0,0,0,0,0,0,0,0],"sum_hessian":[4.263813E1,7.010617E0,3.5627514E1,2.926251E0,4.084366E0,2.1351805E1,1.427571E1,2.0810502E0,2.003316E0,1.2912321E1,8.439484E0,6.614408E0,7.661302E0,2.028149E0,1.0884172E1,3.1436741E0,5.2958093E0,3.8782618E0,2.7361465E0,3.673555E0,3.987747E0],"tree_param":{"num_deleted":"0","num_feature":"64","num_nodes":"21","size_leaf_vector":"1"}},{"base_weights":[-4.174176E-2,-3.7522084E-1,2.2365649E-1,1.4860797E-2,-2.606824E-2,-5.1754806E-3,8.564834E-1,4.126681E-1,-4.0599856E-1,6.746875E-2,-2.5683271E-3,8.514706E-1,-1.056722E-2,-8.122205E-4,-2.44462E-2,-1.4626657E-3,6.7776695E-2],"categories":[],"categories_nodes":[],"categories_segments":[],"categories_sizes":[],"default_left":[0,0,0,0,0,0,0,0,0,0,0,0,0,0,0,0,0],"id":61,"left_children":[1,3,5,-1,-1,7,9,11,13,-1,-1,15,-1,-1,-1,-1,-1],"loss_changes":[3.8889287E0,2.0953512E0,3.6090446E0,0E0,0E0,3.3033757E0,3.1419082E0,2.8569663E0,2.7071345E-1,0E0,0E0,2.7896852E0,0E0,0E0,0E0,0E0,0E0],"parents":[2147483647,0,0,1,1,2,2,5,5,6,6,7,7,8,8,11,11],"right_children":[2,4,6,-1,-1,8,10,12,14,-1,-1,16,-1,-1,-1,-1,-1],"split_conditions":[9.741904E7,-1.5441102E-2,1.3526099E-2,1.4860797E-2,-2.606824E-2,1.86176E2,3.6548853E-2,1.0749673E0,2.687656E-2,6.746875E-2,-2.5683271E-3,5.6864187E-2,-1.056722E-2,-8.122205E-4,-2.44462E-2,-1.4626657E-3,6.7776695E-2],"split_indices":[49,20,60,0,0,54,17,53,22,0,0,25,0,0,0,0,0],"split_type":[0,0,0,0,0,0,0,0,0,0,0,0,0,0,0,0,0],"sum_hessian":[4.1820877E1,1.8516922E1,2.3303955E1,2.9991722E0,1.551775E1,1.7727457E1,5.576497E0,8.542829E0,9.1846285E0,3.3704278E0,2.2060695E0,4.8958416E0,3.646987E0,2.0326865E0,7.1519423E0,2.0527515E0,2.84309E0],"tree_param":{"num_deleted":"0","num_feature":"64","num_nodes":"17","size_leaf_vector":"1"}},{"base_weights":[-2.8519297E-1,-4.214455E-1,1.7449158E-1,1.107858E-2,-4.7703376E-1,7.58034E-1,-2.2083612E-2,-2.690186E-2,-1.24657676E-1,7.1606035E-3,5.790322E-2,1.121934E-2,-1.9816887E-2],"categories":[],"categories_nodes":[],"categories_segments":[],"categories_sizes":[],"default_left":[0,0,0,0,0,0,0,0,0,0,0,0,0],"id":62,"left_children":[1,3,5,-1,7,9,-1,-1,11,-1,-1,-1,-1],"loss_changes":[2.694855E0,1.2907681E0,3.9685183E0,0E0,5.1839304E-1,1.0805297E0,0E0,0E0,6.7677283E-1,0E0,0E0,0E0,0E0],"parents":[2147483647,0,0,1,1,2,2,4,4,5,5,8,8],"right_children":[2,4,6,-1,8,10,-1,-1,12,-1,-1,-1,-1],"split_conditions":[1.1240894E8,-2.9817846E-1,8.391051E-1,1.107858E-2,7.359155E-2,-3.3975087E-2,-2.2083612E-2,-2.690186E-2,1.2663825E-1,7.1606035E-3,5.790322E-2,1.121934E-2,-1.9816887E-2],"split_indices":[37,20,31,0,8,30,0,0,5,0,0,0,0],"split_type":[0,0,0,0,0,0,0,0,0,0,0,0,0],"sum_hessian":[4.04576E1,3.1439514E1,9.018084E0,2.1209178E0,2.9318596E1,4.5967474E0,4.421336E0,2.4300941E1,5.017656E0,2.445756E0,2.1509914E0,2.1112266E0,2.906429E0],"tree_param":{"num_deleted":"0","num_feature":"64","num_nodes":"13","size_leaf_vector":"1"}},{"base_weights":[2.555974E-1,6.8285716E-1,-8.80568E-2,1.1589283E0,2.5800014E-1,-2.621891E-1,6.108632E-1,3.4073014E-3,1.5929142E0,9.8398787E-1,-2.4527471E-1,2.8316012E-2,-3.804048E-1,4.508873E-2,7.252417E-3,2.417477E-2,1.0175222E-1,7.279628E-2,9.021537E-3,7.761548E-3,-2.2932071E-2,1.1016249E-2,-4.708679E-1,-7.911079E-4,-2.6129846E-2],"categories":[],"categories_nodes":[],"categories_segments":[],"categories_sizes":[],"default_left":[0,0,0,0,0,0,0,0,0,0,0,0,0,0,0,0,0,0,0,0,0,0,0,0,0],"id":63,"left_children":[1,3,5,7,9,11,13,-1,15,17,19,-1,21,-1,-1,-1,-1,-1,-1,-1,-1,-1,23,-1,-1],"loss_changes":[6.8674793E0,3.7522974E0,3.3171968E0,4.1650486E0,4.8282256E0,2.3329644E0,4.985435E-1,0E0,2.0010643E0,1.5979452E0,7.8636646E-1,0E0,1.2042835E0,0E0,0E0,0E0,0E0,0E0,0E0,0E0,0E0,0E0,3.5367537E-1,0E0,0E0],"parents":[2147483647,0,0,1,1,2,2,3,3,4,4,5,5,6,6,8,8,9,9,10,10,12,12,22,22],"right_children":[2,4,6,8,10,12,14,-1,16,18,20,-1,22,-1,-1,-1,-1,-1,-1,-1,-1,-1,24,-1,-1],"split_conditions":[-6.4575486E-2,2.4512322E-1,1.08074285E-1,4.192784E-3,8.9976504E7,-2.07796E-1,-8.021507E-5,3.4073014E-3,-5.9942465E-2,-2.6182657E-2,1.987104E2,2.8316012E-2,-3.5945731E-3,4.508873E-2,7.252417E-3,2.417477E-2,1.0175222E-1,7.279628E-2,9.021537E-3,7.761548E-3,-2.2932071E-2,1.1016249E-2,2.6983676E-2,-7.911079E-4,-2.6129846E-2],"split_indices":[26,20,39,45,49,63,16,0,36,27,57,0,45,0,0,0,0,0,0,0,0,0,22,0,0],"split_type":[0,0,0,0,0,0,0,0,0,0,0,0,0,0,0,0,0,0,0,0,0,0,0,0,0],"sum_hessian":[4.495714E1,1.9730488E1,2.5226654E1,8.378654E0,1.1351834E1,2.0809916E1,4.416739E0,2.7796686E0,5.598985E0,4.3378687E0,7.0139656E0,2.0195458E0,1.8790369E1,2.0105329E0,2.4062061E0,2.2565227E0,3.3424628E0,2.1429775E0,2.1948915E0,2.3696823E0,4.6442833E0,2.1267192E0,1.666365E1,2.0315635E0,1.4632087E1],"tree_param":{"num_deleted":"0","num_feature":"64","num_nodes":"25","size_leaf_vector":"1"}},{"base_weights":[1.2030407E-1,8.183494E-1,-9.723867E-3,6.365954E-2,-3.98715E-3,2.9350796E-1,-2.7092308E-1,-3.686062E-1,7.463783E-1,2.4777068E-1,-4.1938213E-1,-2.3147704E-2,-9.2908664E-4,-1.3310057E-3,1.155134E0,-1.8484721E-2,4.372005E-2,-2.5865067E-2,-8.60549E-2,7.788216E-2,7.3080393E-3,1.1739628E-2,-1.8790027E-2],"categories":[],"categories_nodes":[],"categories_segments":[],"categories_sizes":[],"default_left":[0,0,0,0,0,0,0,0,0,0,0,0,0,0,0,0,0,0,0,0,0,0,0],"id":64,"left_children":[1,3,5,-1,-1,7,9,11,13,15,17,-1,-1,-1,19,-1,-1,-1,21,-1,-1,-1,-1],"loss_changes":[4.2906704E0,3.244403E0,3.236846E0,0E0,0E0,5.939129E0,1.8250663E0,2.1406758E-1,3.797001E0,2.4642272E0,4.736948E-1,0E0,0E0,0E0,2.7170467E0,0E0,0E0,0E0,6.095682E-1,0E0,0E0,0E0,0E0],"parents":[2147483647,0,0,1,1,2,2,5,5,6,6,7,7,8,8,9,9,10,10,14,14,18,18],"right_children":[2,4,6,-1,-1,8,10,12,14,16,18,-1,-1,-1,20,-1,-1,-1,22,-1,-1,-1,-1],"split_conditions":[-2.8418198E-1,6.420911E-2,2.0755105E-2,6.365954E-2,-3.98715E-3,3.922855E-3,1.75899E2,2.1388097E-2,-2.8764017E-2,2.8847473E-2,2.671594E-2,-2.3147704E-2,-9.2908664E-4,-1.3310057E-3,1.0302045E-1,-1.8484721E-2,4.372005E-2,-2.5865067E-2,5.260325E-2,7.788216E-2,7.3080393E-3,1.1739628E-2,-1.8790027E-2],"split_indices":[28,48,51,0,0,39,55,29,61,51,60,0,0,0,29,0,0,0,48,0,0,0,0],"split_type":[0,0,0,0,0,0,0,0,0,0,0,0,0,0,0,0,0,0,0,0,0,0,0],"sum_hessian":[4.529353E1,6.4017315E0,3.8891796E1,4.0462055E0,2.3555257E0,1.776337E1,2.1128426E1,7.200789E0,1.0562582E1,4.402881E0,1.6725546E1,5.1927686E0,2.0080204E0,3.8922234E0,6.670359E0,2.3438032E0,2.059078E0,1.2269332E1,4.456213E0,4.308621E0,2.3617377E0,2.0408375E0,2.4153757E0],"tree_param":{"num_deleted":"0","num_feature":"64","num_nodes":"23","size_leaf_vector":"1"}},{"base_weights":[-9.187814E-2,2.8608263E-1,-3.334782E-1,-1.4445399E-1,7.281879E-1,2.5380632E-2,-4.4395703E-1,-2.1849645E-2,1.101177E-2,7.127234E-2,7.3197E-2,-1.5657085E-1,-2.613175E-2,-3.965635E-3,1.2448999E-2,-2.070283E-2,1.2299651E-2],"categories":[],"categories_nodes":[],"categories_segments":[],"categories_sizes":[],"default_left":[0,0,0,0,0,0,0,0,0,0,0,0,0,0,0,0,0],"id":65,"left_children":[1,3,5,7,9,-1,11,-1,-1,13,-1,15,-1,-1,-1,-1,-1],"loss_changes":[3.6802835E0,3.1453757E0,2.4993944E0,1.041439E0,3.6131277E0,0E0,3.5515642E-1,0E0,0E0,1.7999281E-1,0E0,7.92446E-1,0E0,0E0,0E0,0E0,0E0],"parents":[2147483647,0,0,1,1,2,2,3,3,4,4,6,6,9,9,11,11],"right_children":[2,4,6,8,10,-1,12,-1,-1,14,-1,16,-1,-1,-1,-1,-1],"split_conditions":[-6.419252E-2,1.9982252E7,2.0227095E2,8.6643714E-1,-5.7983737E-2,2.5380632E-2,1.865184E2,-2.1849645E-2,1.101177E-2,-5.013712E-2,7.3197E-2,3.630908E-2,