{"learner":{"attributes":{"scikit_learn":"{\"_estimator_type\": \"classifier\"}"},"feature_names":["return_5d","return_mean_5d","return_std_5d","return_max_5d","return_min_5d","return_10d","return_mean_10d","return_std_10d","return_max_10d","return_min_10d","return_20d","return_mean_20d","return_std_20d","return_max_20d","return_min_20d","return_30d","return_mean_30d","return_std_30d","return_max_30d","return_min_30d","return_60d","return_mean_60d","return_std_60d","return_max_60d","return_min_60d","momentum_5_30","momentum_5_60","momentum_10_30","momentum_10_60","momentum_20_30","momentum_20_60","volatility_5d","volatility_10d","volatility_20d","volatility_30d","volatility_60d","volume_change","volume_mean_5d","volume_std_5d","volume_change_mean_5d","volume_mean_10d","volume_std_10d","volume_change_mean_10d","volume_mean_20d","volume_std_20d","volume_change_mean_20d","volume_mean_30d","volume_std_30d","volume_change_mean_30d","volume_mean_60d","volume_std_60d","volume_change_mean_60d","close_to_high_ratio","close_to_low_ratio","sma_5","sma_10","sma_20","sma_50","sma_100","sma_200","sma_5_cross_10","sma_10_cross_20","sma_20_cross_50","sma_50_cross_200"],"feature_types":["float","float","float","float","float","float","float","float","float","float","float","float","float","float","float","float","float","float","float","float","float","float","float","float","float","float","float","float","float","float","float","float","float","float","float","float","float","float","float","float","float","float","float","float","float","float","float","float","float","float","float","float","float","float","float","float","float","float","float","float","float","float","float","float"],"gradient_booster":{"model":{"gbtree_model_param":{"num_parallel_tree":"1","num_trees":"1600"},"iteration_indptr":[0,8,16,24,32,40,48,56,64,72,80,88,96,104,112,120,128,136,144,152,160,168,176,184,192,200,208,216,224,232,240,248,256,264,272,280,288,296,304,312,320,328,336,344,352,360,368,376,384,392,400,408,416,424,432,440,448,456,464,472,480,488,496,504,512,520,528,536,544,552,560,568,576,584,592,600,608,616,624,632,640,648,656,664,672,680,688,696,704,712,720,728,736,744,752,760,768,776,784,792,800,808,816,824,832,840,848,856,864,872,880,888,896,904,912,920,928,936,944,952,960,968,976,984,992,1000,1008,1016,1024,1032,1040,1048,1056,1064,1072,1080,1088,1096,1104,1112,1120,1128,1136,1144,1152,1160,1168,1176,1184,1192,1200,1208,1216,1224,1232,1240,1248,1256,1264,1272,1280,1288,1296,1304,1312,1320,1328,1336,1344,1352,1360,1368,1376,1384,1392,1400,1408,1416,1424,1432,1440,1448,1456,1464,1472,1480,1488,1496,1504,1512,1520,1528,1536,1544,1552,1560,1568,1576,1584,1592,1600],"tree_info":[0,1,2,3,4,5,6,7,0,1,2,3,4,5,6,7,0,1,2,3,4,5,6,7,0,1,2,3,4,5,6,7,0,1,2,3,4,5,6,7,0,1,2,3,4,5,6,7,0,1,2,3,4,5,6,7,0,1,2,3,4,5,6,7,0,1,2,3,4,5,6,7,0,1,2,3,4,5,6,7,0,1,2,3,4,5,6,7,0,1,2,3,4,5,6,7,0,1,2,3,4,5,6,7,0,1,2,3,4,5,6,7,0,1,2,3,4,5,6,7,0,1,2,3,4,5,6,7,0,1,2,3,4,5,6,7,0,1,2,3,4,5,6,7,0,1,2,3,4,5,6,7,0,1,2,3,4,5,6,7,0,1,2,3,4,5,6,7,0,1,2,3,4,5,6,7,0,1,2,3,4,5,6,7,0,1,2,3,4,5,6,7,0,1,2,3,4,5,6,7,0,1,2,3,4,5,6,7,0,1,2,3,4,5,6,7,0,1,2,3,4,5,6,7,0,1,2,3,4,5,6,7,0,1,2,3,4,5,6,7,0,1,2,3,4,5,6,7,0,1,2,3,4,5,6,7,0,1,2,3,4,5,6,7,0,1,2,3,4,5,6,7,0,1,2,3,4,5,6,7,0,1,2,3,4,5,6,7,0,1,2,3,4,5,6,7,0,1,2,3,4,5,6,7,0,1,2,3,4,5,6,7,0,1,2,3,4,5,6,7,0,1,2,3,4,5,6,7,0,1,2,3,4,5,6,7,0,1,2,3,4,5,6,7,0,1,2,3,4,5,6,7,0,1,2,3,4,5,6,7,0,1,2,3,4,5,6,7,0,1,2,3,4,5,6,7,0,1,2,3,4,5,6,7,0,1,2,3,4,5,6,7,0,1,2,3,4,5,6,7,0,1,2,3,4,5,6,7,0,1,2,3,4,5,6,7,0,1,2,3,4,5,6,7,0,1,2,3,4,5,6,7,0,1,2,3,4,5,6,7,0,1,2,3,4,5,6,7,0,1,2,3,4,5,6,7,0,1,2,3,4,5,6,7,0,1,2,3,4,5,6,7,0,1,2,3,4,5,6,7,0,1,2,3,4,5,6,7,0,1,2,3,4,5,6,7,0,1,2,3,4,5,6,7,0,1,2,3,4,5,6,7,0,1,2,3,4,5,6,7,0,1,2,3,4,5,6,7,0,1,2,3,4,5,6,7,0,1,2,3,4,5,6,7,0,1,2,3,4,5,6,7,0,1,2,3,4,5,6,7,0,1,2,3,4,5,6,7,0,1,2,3,4,5,6,7,0,1,2,3,4,5,6,7,0,1,2,3,4,5,6,7,0,1,2,3,4,5,6,7,0,1,2,3,4,5,6,7,0,1,2,3,4,5,6,7,0,1,2,3,4,5,6,7,0,1,2,3,4,5,6,7,0,1,2,3,4,5,6,7,0,1,2,3,4,5,6,7,0,1,2,3,4,5,6,7,0,1,2,3,4,5,6,7,0,1,2,3,4,5,6,7,0,1,2,3,4,5,6,7,0,1,2,3,4,5,6,7,0,1,2,3,4,5,6,7,0,1,2,3,4,5,6,7,0,1,2,3,4,5,6,7,0,1,2,3,4,5,6,7,0,1,2,3,4,5,6,7,0,1,2,3,4,5,6,7,0,1,2,3,4,5,6,7,0,1,2,3,4,5,6,7,0,1,2,3,4,5,6,7,0,1,2,3,4,5,6,7,0,1,2,3,4,5,6,7,0,1,2,3,4,5,6,7,0,1,2,3,4,5,6,7,0,1,2,3,4,5,6,7,0,1,2,3,4,5,6,7,0,1,2,3,4,5,6,7,0,1,2,3,4,5,6,7,0,1,2,3,4,5,6,7,0,1,2,3,4,5,6,7,0,1,2,3,4,5,6,7,0,1,2,3,4,5,6,7,0,1,2,3,4,5,6,7,0,1,2,3,4,5,6,7,0,1,2,3,4,5,6,7,0,1,2,3,4,5,6,7,0,1,2,3,4,5,6,7,0,1,2,3,4,5,6,7,0,1,2,3,4,5,6,7,0,1,2,3,4,5,6,7,0,1,2,3,4,5,6,7,0,1,2,3,4,5,6,7,0,1,2,3,4,5,6,7,0,1,2,3,4,5,6,7,0,1,2,3,4,5,6,7,0,1,2,3,4,5,6,7,0,1,2,3,4,5,6,7,0,1,2,3,4,5,6,7,0,1,2,3,4,5,6,7,0,1,2,3,4,5,6,7,0,1,2,3,4,5,6,7,0,1,2,3,4,5,6,7,0,1,2,3,4,5,6,7,0,1,2,3,4,5,6,7,0,1,2,3,4,5,6,7,0,1,2,3,4,5,6,7,0,1,2,3,4,5,6,7,0,1,2,3,4,5,6,7,0,1,2,3,4,5,6,7,0,1,2,3,4,5,6,7,0,1,2,3,4,5,6,7,0,1,2,3,4,5,6,7,0,1,2,3,4,5,6,7,0,1,2,3,4,5,6,7,0,1,2,3,4,5,6,7,0,1,2,3,4,5,6,7,0,1,2,3,4,5,6,7,0,1,2,3,4,5,6,7,0,1,2,3,4,5,6,7,0,1,2,3,4,5,6,7,0,1,2,3,4,5,6,7,0,1,2,3,4,5,6,7,0,1,2,3,4,5,6,7,0,1,2,3,4,5,6,7,0,1,2,3,4,5,6,7,0,1,2,3,4,5,6,7,0,1,2,3,4,5,6,7,0,1,2,3,4,5,6,7,0,1,2,3,4,5,6,7,0,1,2,3,4,5,6,7,0,1,2,3,4,5,6,7,0,1,2,3,4,5,6,7,0,1,2,3,4,5,6,7,0,1,2,3,4,5,6,7,0,1,2,3,4,5,6,7,0,1,2,3,4,5,6,7,0,1,2,3,4,5,6,7,0,1,2,3,4,5,6,7,0,1,2,3,4,5,6,7,0,1,2,3,4,5,6,7,0,1,2,3,4,5,6,7,0,1,2,3,4,5,6,7,0,1,2,3,4,5,6,7,0,1,2,3,4,5,6,7,0,1,2,3,4,5,6,7,0,1,2,3,4,5,6,7,0,1,2,3,4,5,6,7,0,1,2,3,4,5,6,7,0,1,2,3,4,5,6,7,0,1,2,3,4,5,6,7,0,1,2,3,4,5,6,7,0,1,2,3,4,5,6,7,0,1,2,3,4,5,6,7,0,1,2,3,4,5,6,7,0,1,2,3,4,5,6,7,0,1,2,3,4,5,6,7,0,1,2,3,4,5,6,7,0,1,2,3,4,5,6,7,0,1,2,3,4,5,6,7,0,1,2,3,4,5,6,7,0,1,2,3,4,5,6,7,0,1,2,3,4,5,6,7,0,1,2,3,4,5,6,7,0,1,2,3,4,5,6,7,0,1,2,3,4,5,6,7,0,1,2,3,4,5,6,7,0,1,2,3,4,5,6,7,0,1,2,3,4,5,6,7,0,1,2,3,4,5,6,7,0,1,2,3,4,5,6,7,0,1,2,3,4,5,6,7,0,1,2,3,4,5,6,7,0,1,2,3,4,5,6,7,0,1,2,3,4,5,6,7,0,1,2,3,4,5,6,7],"trees":[{"base_weights":[8.8070326E-2,2.9719748E-2,1.3565217E0,3.0395585E-1,-2.116213E-1,9.3722634E-2,1.0196079E-2,-1.2509091E-1,4.4251207E-1,-2.8138855E-1,7.294118E-2,3.3103447E-2,-3.1931332E-1,-2.2325581E-2,5.361478E-1,-3.3877018E-1,3.876923E-2,-4.3636364E-1,1.0196079E-2,1.3181818E-1,8.492891E-1,-3.927273E-1,1.7361702E-1,-2.5276074E-2,-2.3529413E-3,4.9719628E-2,-1.118774E-2,5.716012E-2,-8.598131E-3,-2.1456411E-2,3.7209303E-3,4.156863E-2,-1.2363637E-2],"categories":[],"categories_nodes":[],"categories_segments":[],"categories_sizes":[],"default_left":[0,0,0,0,0,0,0,0,0,0,0,0,0,0,0,0,0,0,0,0,0,0,0,0,0,0,0,0,0,0,0,0,0],"id":0,"left_children":[1,3,5,7,9,-1,-1,11,13,15,-1,-1,17,-1,19,21,-1,23,-1,25,27,29,31,-1,-1,-1,-1,-1,-1,-1,-1,-1,-1],"loss_changes":[1.0872406E1,9.593772E0,3.271553E0,4.1257834E0,9.255587E0,0E0,0E0,2.804827E0,4.5562544E0,4.749913E0,0E0,0E0,1.0041058E0,0E0,5.7881966E0,2.0711699E0,0E0,2.5413084E-1,0E0,7.047143E0,8.210419E0,1.1780157E0,2.2970483E0,0E0,0E0,0E0,0E0,0E0,0E0,0E0,0E0,0E0,0E0],"parents":[2147483647,0,0,1,1,2,2,3,3,4,4,7,7,8,8,9,9,12,12,14,14,15,15,17,17,19,19,20,20,21,21,22,22],"right_children":[2,4,6,8,10,-1,-1,12,14,16,-1,-1,18,-1,20,22,-1,24,-1,26,28,30,32,-1,-1,-1,-1,-1,-1,-1,-1,-1,-1],"split_conditions":[1.6347609E0,9.1911435E-1,2.787283E8,2.01684E1,1.7417176E-1,9.3722634E-2,1.0196079E-2,4.4243014E-1,5.5349994E-1,2.388494E2,7.294118E-2,3.3103447E-2,8.714535E7,-2.2325581E-2,6.441687E-2,1.4657034E-1,3.876923E-2,2.7076188E-2,1.0196079E-2,8.01609E7,2.686653E8,-2.462704E-2,1.7453006E-1,-2.5276074E-2,-2.3529413E-3,4.9719628E-2,-1.118774E-2,5.716012E-2,-8.598131E-3,-2.1456411E-2,3.7209303E-3,4.156863E-2,-1.2363637E-2],"split_indices":[53,52,43,54,27,0,0,35,35,58,0,0,38,0,51,0,0,0,0,37,37,14,0,0,0,0,0,0,0,0,0,0,0],"split_type":[0,0,0,0,0,0,0,0,0,0,0,0,0,0,0,0,0,0,0,0,0,0,0,0,0,0,0,0,0,0,0,0,0],"sum_hessian":[1.483125E2,1.4284375E2,5.46875E0,6.69375E1,7.590625E1,3.28125E0,2.1875E0,1.61875E1,5.075E1,7.371875E1,2.1875E0,2.625E0,1.35625E1,4.375E0,4.6375E1,7.065625E1,3.0625E0,1.1375E1,2.1875E0,2.1E1,2.5375E1,6.43125E1,6.34375E0,9.1875E0,2.1875E0,5.6875E0,1.53125E1,1.96875E1,5.6875E0,5.99375E1,4.375E0,2.1875E0,4.15625E0],"tree_param":{"num_deleted":"0","num_feature":"64","num_nodes":"33","size_leaf_vector":"1"}},{"base_weights":[-2.3840624E-1,6.6611153E-4,-3.148108E-1,-3.6642686E-1,1.9215687E-1,1.948718E-1,-3.5929826E-1,-2.5475506E-2,1.0196079E-2,-2.3005182E-2,3.7984732E-1,-2.0729927E-2,5.835749E-1,-1.5639713E-1,-4.3345454E-1,-2.0729927E-2,5.6145453E-1,-8E-3,6.6422015E-2,-2.8056872E-1,2.4484849E-2,-1.1330472E-1,-4.9818715E-1,8.921466E-1,-1.44E-1,1.9784947E-1,-4.011594E-1,2.3649635E-2,-3.3462605E-1,-5.2678853E-1,-1.5189874E-3,5.9903385E-3,7.5555556E-2,-2.0307694E-2,1.0196079E-2,-1.9310346E-2,4.156863E-2,1.0196079E-2,-2.4258066E-2,7.7064224E-3,-2.4788734E-2,-2.7121952E-2,-2.3529413E-3],"categories":[],"categories_nodes":[],"categories_segments":[],"categories_sizes":[],"default_left":[0,0,0,0,0,0,0,0,0,0,0,0,0,0,0,0,0,0,0,0,0,0,0,0,0,0,0,0,0,0,0,0,0,0,0,0,0,0,0,0,0,0,0],"id":1,"left_children":[1,3,5,7,9,11,13,-1,-1,-1,15,-1,17,19,21,-1,23,-1,-1,25,-1,27,29,31,33,35,37,-1,39,41,-1,-1,-1,-1,-1,-1,-1,-1,-1,-1,-1,-1,-1],"loss_changes":[2.8109426E0,2.6912403E0,2.7081966E0,1.197904E0,3.288532E0,2.568651E0,1.481307E0,0E0,0E0,0E0,3.2006352E0,0E0,3.9121974E0,2.5658967E0,1.4852858E0,0E0,4.2129245E0,0E0,0E0,1.6213477E0,0E0,2.0340707E0,7.816677E-1,5.3626013E0,6.731029E-1,2.5163E0,1.223036E0,0E0,9.991125E-1,3.6483192E-1,0E0,0E0,0E0,0E0,0E0,0E0,0E0,0E0,0E0,0E0,0E0,0E0,0E0],"parents":[2147483647,0,0,1,1,2,2,3,3,4,4,5,5,6,6,10,10,12,12,13,13,14,14,16,16,19,19,21,21,22,22,23,23,24,24,25,25,26,26,28,28,29,29],"right_children":[2,4,6,8,10,12,14,-1,-1,-1,16,-1,18,20,22,-1,24,-1,-1,26,-1,28,30,32,34,36,38,-1,40,42,-1,-1,-1,-1,-1,-1,-1,-1,-1,-1,-1,-1,-1],"split_conditions":[4.344598E-2,2.1403624E-2,-1.9439243E-1,-6.7118607E-3,-3.91589E-2,-1.3691985E-2,-2.8935894E-1,-2.5475506E-2,1.0196079E-2,-2.3005182E-2,2.1482244E-2,-2.0729927E-2,4.3666016E-2,-3.2429966E-1,-5.2402608E-2,-2.0729927E-2,9.7165465E-2,-8E-3,6.6422015E-2,7.76794E7,2.4484849E-2,5.769739E-2,9.658778E-1,2.1840096E-3,-3.165375E-2,2.5425934E7,-1.3135194E-2,2.3649635E-2,-4.4248212E-2,1.1652156E0,-1.5189874E-3,5.9903385E-3,7.5555556E-2,-2.0307694E-2,1.0196079E-2,-1.9310346E-2,4.156863E-2,1.0196079E-2,-2.4258066E-2,7.7064224E-3,-2.4788734E-2,-2.7121952E-2,-2.3529413E-3],"split_indices":[51,7,10,4,39,11,27,0,0,0,51,0,22,27,39,0,5,0,0,50,0,18,36,11,27,38,10,0,4,31,0,0,0,0,0,0,0,0,0,0,0,0,0],"split_type":[0,0,0,0,0,0,0,0,0,0,0,0,0,0,0,0,0,0,0,0,0,0,0,0,0,0,0,0,0,0,0,0,0,0,0,0,0,0,0,0,0,0,0],"sum_hessian":[1.5115625E2,3.653125E1,1.14625E2,1.203125E1,2.45E1,8.75E0,1.05875E2,9.84375E0,2.1875E0,5.03125E0,1.946875E1,3.28125E0,5.46875E0,2.953125E1,7.634375E1,3.28125E0,1.61875E1,3.0625E0,2.40625E0,2.5375E1,4.15625E0,1.35625E1,6.278125E1,1.09375E1,5.25E0,4.8125E0,2.05625E1,3.28125E0,1.028125E1,5.884375E1,3.9375E0,5.46875E0,5.46875E0,3.0625E0,2.1875E0,2.625E0,2.1875E0,2.1875E0,1.8375E1,2.40625E0,7.875E0,5.665625E1,2.1875E0],"tree_param":{"num_deleted":"0","num_feature":"64","num_nodes":"43","size_leaf_vector":"1"}},{"base_weights":[-2.074074E-1,-3.3198935E-1,-5.4685377E-2,-3.6180747E-1,1.9310346E-2,3.8230088E-1,-1.6590273E-1,1.44E-1,-4.008414E-1,-1.584541E-1,7.537906E-1,4.593156E-1,-2.7008986E-1,-2.0307694E-2,4.156863E-2,7.4418604E-2,-4.3308002E-1,1.0196079E-2,-2.0729927E-2,6.7341775E-2,-2.6490065E-4,-7.4418604E-2,5.560976E-2,-3.3975577E-1,3.3103447E-2,2.5882354E-2,-1.8039217E-2,5.5172415E-3,-4.5740828E-1,1.0196079E-2,-1.8039217E-2,-4.2863888E-1,1.7361702E-1,-2.4738463E-2,-3.5744682E-3,3.7209303E-3,-2.479222E-2,4.6896555E-2,-2.1456955E-2],"categories":[],"categories_nodes":[],"categories_segments":[],"categories_sizes":[],"default_left":[0,0,0,0,0,0,0,0,0,0,0,0,0,0,0,0,0,0,0,0,0,0,0,0,0,0,0,0,0,0,0,0,0,0,0,0,0,0,0],"id":2,"left_children":[1,3,5,7,-1,9,11,13,15,17,19,21,23,-1,-1,25,27,-1,-1,-1,-1,29,-1,31,-1,-1,-1,-1,33,-1,-1,35,37,-1,-1,-1,-1,-1,-1],"loss_changes":[2.800705E0,1.8966904E0,3.3967354E0,1.6536417E0,0E0,3.0164745E0,3.74685E0,2.743691E0,1.206213E0,7.060459E-1,4.038104E0,3.0504856E0,3.3544614E0,0E0,0E0,1.2392522E0,1.0093794E0,0E0,0E0,0E0,0E0,5.1768357E-1,0E0,2.2017603E0,0E0,0E0,0E0,0E0,8.7808514E-1,0E0,0E0,1.4218631E0,3.8366103E0,0E0,0E0,0E0,0E0,0E0,0E0],"parents":[2147483647,0,0,1,1,2,2,3,3,5,5,6,6,7,7,8,8,9,9,10,10,11,11,12,12,15,15,16,16,21,21,23,23,28,28,31,31,32,32],"right_children":[2,4,6,8,-1,10,12,14,16,18,20,22,24,-1,-1,26,28,-1,-1,-1,-1,30,-1,32,-1,-1,-1,-1,34,-1,-1,36,38,-1,-1,-1,-1,-1,-1],"split_conditions":[-6.0782764E-2,2.3726417E-1,-3.3456072E-2,-1.285965E-1,1.9310346E-2,-1.4188358E-1,1.892037E-2,1.0469824E-1,3.9632763E-3,1.8093785E-2,5.095933E-2,2.09066E-2,1.5433629E-1,-2.0307694E-2,4.156863E-2,4.2963767E-1,1.712636E-1,1.0196079E-2,-2.0729927E-2,6.7341775E-2,-2.6490065E-4,1.2083227E-2,5.560976E-2,1.9590106E-2,3.3103447E-2,2.5882354E-2,-1.8039217E-2,5.5172415E-3,6.2110413E-2,1.0196079E-2,-1.8039217E-2,3.346315E-3,1.7316265E-1,-2.4738463E-2,-3.5744682E-3,3.7209303E-3,-2.479222E-2,4.6896555E-2,-2.1456955E-2],"split_indices":[30,0,61,0,0,15,7,48,48,3,42,3,62,0,0,20,31,0,0,0,0,5,0,1,0,0,0,0,60,0,0,30,10,0,0,0,0,0,0],"split_type":[0,0,0,0,0,0,0,0,0,0,0,0,0,0,0,0,0,0,0,0,0,0,0,0,0,0,0,0,0,0,0,0,0,0,0,0,0,0,0],"sum_hessian":[1.491875E2,8.115625E1,6.803125E1,7.853125E1,2.625E0,1.3125E1,5.490625E1,5.25E0,7.328125E1,5.46875E0,7.65625E0,7.21875E0,4.76875E1,3.0625E0,2.1875E0,4.375E0,6.890625E1,2.1875E0,3.28125E0,3.9375E0,3.71875E0,4.375E0,2.84375E0,4.50625E1,2.625E0,2.1875E0,2.1875E0,2.625E0,6.628125E1,2.1875E0,2.1875E0,3.871875E1,6.34375E0,5.99375E1,6.34375E0,4.375E0,3.434375E1,2.625E0,3.71875E0],"tree_param":{"num_deleted":"0","num_feature":"64","num_nodes":"39","size_leaf_vector":"1"}},{"base_weights":[9.546108E-2,3.6931765E-1,-1.14121035E-1,2.0342076E-1,1.0540943E0,-2.3386809E-1,3.6312056E-1,1.1985384E-1,5.4444443E-2,-1.98374E-2,1.5282052E0,1.6708862E-2,-2.7422097E-1,-3.4382978E-1,8E-1,2.4966078E-2,7.84E-1,1.0196079E-2,1.8710744E0,1.9649123E-1,-3.271592E-1,-2.2060607E-2,-2.3529413E-3,1.293458E0,4.916201E-2,-1.0133753E-1,7.182979E-1,-5.5172415E-3,7.448276E-2,1.1708029E-1,4.70073E-2,3.5328466E-2,-1.98374E-2,-2.100077E-1,-2.6931299E-2,2.2385322E-2,8.20438E-2,2.5882354E-2,-1.8715596E-2,1.4498715E-2,-1.3391686E-2,6.555556E-2,-6.8292688E-3,-1.4437086E-2,2.9593496E-2],"categories":[],"categories_nodes":[],"categories_segments":[],"categories_sizes":[],"default_left":[0,0,0,0,0,0,0,0,0,0,0,0,0,0,0,0,0,0,0,0,0,0,0,0,0,0,0,0,0,0,0,0,0,0,0,0,0,0,0,0,0,0,0,0,0],"id":3,"left_children":[1,3,5,7,9,11,13,15,-1,-1,17,-1,19,21,23,25,27,-1,29,31,33,-1,-1,35,37,39,41,-1,-1,-1,-1,-1,-1,43,-1,-1,-1,-1,-1,-1,-1,-1,-1,-1,-1],"loss_changes":[8.800742E0,7.2037277E0,5.0296097E0,3.8045151E0,9.382195E0,1.6930664E0,5.7641983E0,3.13321E0,0E0,0E0,3.8379955E0,0E0,1.726656E0,1.4264625E-1,3.9819312E0,4.168194E0,4.246676E0,0E0,7.829838E-1,2.4673252E0,1.2999883E0,0E0,0E0,1.0214939E0,1.3178458E0,2.6632035E0,4.018242E0,0E0,0E0,0E0,0E0,0E0,0E0,2.703473E0,0E0,0E0,0E0,0E0,0E0,0E0,0E0,0E0,0E0,0E0,0E0],"parents":[2147483647,0,0,1,1,2,2,3,3,4,4,5,5,6,6,7,7,10,10,12,12,13,13,14,14,15,15,16,16,18,18,19,19,20,20,23,23,24,24,25,25,26,26,33,33],"right_children":[2,4,6,8,10,12,14,16,-1,-1,18,-1,20,22,24,26,28,-1,30,32,34,-1,-1,36,38,40,42,-1,-1,-1,-1,-1,-1,44,-1,-1,-1,-1,-1,-1,-1,-1,-1,-1,-1],"split_conditions":[6.190348E-2,4.3429453E-2,9.049095E7,1.712369E-1,-1.8525329E-1,7.485243E7,1.3531668E-1,-2.8957302E-2,5.4444443E-2,-1.98374E-2,-4.4331245E-2,1.6708862E-2,-4.771319E-1,9.2482105E-2,3.0166117E-2,1.320845E-1,1.9765684E7,1.0196079E-2,2.2404157E-3,8.454055E7,6.7070024E7,-2.2060607E-2,-2.3529413E-3,1.57925E-2,9.5860064E-1,-6.9116235E-2,1.09505415E-1,-5.5172415E-3,7.448276E-2,1.1708029E-1,4.70073E-2,3.5328466E-2,-1.98374E-2,7.0688516E-2,-2.6931299E-2,2.2385322E-2,8.20438E-2,2.5882354E-2,-1.8715596E-2,1.4498715E-2,-1.3391686E-2,6.555556E-2,-6.8292688E-3,-1.4437086E-2,2.9593496E-2],"split_indices":[13,3,41,48,36,43,23,14,0,0,29,0,25,0,36,42,44,0,60,50,44,0,0,11,52,29,48,0,0,0,0,0,0,2,0,0,0,0,0,0,0,0,0,0,0],"split_type":[0,0,0,0,0,0,0,0,0,0,0,0,0,0,0,0,0,0,0,0,0,0,0,0,0,0,0,0,0,0,0,0,0,0,0,0,0,0,0,0,0,0,0,0,0],"sum_hessian":[1.5115625E2,6.540625E1,8.575E1,5.38125E1,1.159375E1,6.9125E1,1.6625E1,5.03125E1,3.5E0,2.84375E0,8.75E0,3.9375E0,6.51875E1,6.34375E0,1.028125E1,4.50625E1,5.25E0,2.1875E0,6.5625E0,6.125E0,5.90625E1,4.15625E0,2.1875E0,5.6875E0,4.59375E0,3.871875E1,6.34375E0,2.625E0,2.625E0,3.28125E0,3.28125E0,3.28125E0,2.84375E0,3.959375E1,1.946875E1,2.40625E0,3.28125E0,2.1875E0,2.40625E0,1.115625E1,2.75625E1,3.5E0,2.84375E0,3.675E1,2.84375E0],"tree_param":{"num_deleted":"0","num_feature":"64","num_nodes":"45","size_leaf_vector":"1"}},{"base_weights":[8.4228046E-2,3.4923133E-1,-2.786869E-1,6.683046E-2,7.200666E-1,-3.8842443E-1,7.3816425E-1,-3.6567426E-1,2.945822E-1,9.506276E-1,-1.4729242E-1,2.2385322E-2,-4.3420905E-1,6.861789E-2,-5.5172415E-3,1.0196079E-2,-4.6467066E-1,-1.4320987E-1,8.811839E-1,-1.11827955E-1,1.1630923E0,-2.3381643E-2,2.5882354E-2,3.5772359E-3,-4.6454653E-1,-2.6078885E-2,-2.3529413E-3,3.418182E-2,-4.054369E-1,3.2128512E-3,1.6125E0,-1.9310346E-2,1.0196079E-2,1.4725044E0,3.3764258E-1,-4.98E-1,1.8461539E-3,-4.6927375E-3,-2.5652174E-2,-2.2060607E-2,3.3103447E-2,1.0078212E-1,2.2385322E-2,1.1970803E-2,8.635193E-2,-1.3023256E-2,5.560976E-2,-2.3529413E-3,-2.5777778E-2],"categories":[],"categories_nodes":[],"categories_segments":[],"categories_sizes":[],"default_left":[0,0,0,0,0,0,0,0,0,0,0,0,0,0,0,0,0,0,0,0,0,0,0,0,0,0,0,0,0,0,0,0,0,0,0,0,0,0,0,0,0,0,0,0,0,0,0,0,0],"id":4,"left_children":[1,3,5,7,9,11,13,15,17,19,21,-1,23,-1,-1,-1,25,27,29,31,33,-1,-1,-1,35,-1,-1,-1,37,39,41,-1,-1,43,45,47,-1,-1,-1,-1,-1,-1,-1,-1,-1,-1,-1,-1,-1],"loss_changes":[1.4548461E1,9.026739E0,7.368888E0,5.111988E0,7.7258205E0,2.4253645E0,3.7585905E0,1.1270034E0,8.939543E0,6.979006E0,2.0809093E0,0E0,9.303217E-1,0E0,0E0,0E0,2.9066324E-1,4.6399856E0,9.32391E0,6.005505E-1,5.72287E0,0E0,0E0,0E0,9.5466614E-1,0E0,0E0,0E0,4.3075442E-1,2.5926428E0,2.60787E0,0E0,0E0,4.9903755E0,4.1823273E0,3.153038E-1,0E0,0E0,0E0,0E0,0E0,0E0,0E0,0E0,0E0,0E0,0E0,0E0,0E0],"parents":[2147483647,0,0,1,1,2,2,3,3,4,4,5,5,6,6,7,7,8,8,9,9,10,10,12,12,16,16,17,17,18,18,19,19,20,20,24,24,28,28,29,29,30,30,33,33,34,34,35,35],"right_children":[2,4,6,8,10,12,14,16,18,20,22,-1,24,-1,-1,-1,26,28,30,32,34,-1,-1,-1,36,-1,-1,-1,38,40,42,-1,-1,44,46,48,-1,-1,-1,-1,-1,-1,-1,-1,-1,-1,-1,-1,-1],"split_conditions":[3.4591146E-2,1.2890092E-1,1.1450745E8,-4.2557335E-3,1.4277329E-2,1.1298121E-2,1.626173E-2,-1.555539E-1,5.932864E-2,-8.0591954E-2,-3.821232E-2,2.2385322E-2,2.795231E-2,6.861789E-2,-5.5172415E-3,1.0196079E-2,-2.9857429E-2,7.105277E7,1.242342E8,1.9430906E-2,7.283816E-2,-2.3381643E-2,2.5882354E-2,3.5772359E-3,3.5361835E2,-2.6078885E-2,-2.3529413E-3,3.418182E-2,2.028478E-2,5.134307E-2,8.436035E7,-1.9310346E-2,1.0196079E-2,-5.211573E-3,3.7771933E-2,-1.2164067E0,1.8461539E-3,-4.6927375E-3,-2.5652174E-2,-2.2060607E-2,3.3103447E-2,1.0078212E-1,2.2385322E-2,1.1970803E-2,8.635193E-2,-1.3023256E-2,5.560976E-2,-2.3529413E-3,-2.5777778E-2],"split_indices":[2,20,44,1,1,48,1,5,48,39,27,0,12,0,0,0,4,43,40,2,45,0,0,0,56,0,0,0,2,39,41,0,0,45,17,26,0,0,0,0,0,0,0,0,0,0,0,0,0],"split_type":[0,0,0,0,0,0,0,0,0,0,0,0,0,0,0,0,0,0,0,0,0,0,0,0,0,0,0,0,0,0,0,0,0,0,0,0,0,0,0,0,0,0,0,0,0,0,0,0,0],"sum_hessian":[1.491875E2,8.640625E1,6.278125E1,4.9875E1,3.653125E1,5.73125E1,5.46875E0,1.684375E1,3.303125E1,2.8875E1,7.65625E0,2.40625E0,5.490625E1,2.84375E0,2.625E0,2.1875E0,1.465625E1,1.925E1,1.378125E1,4.8125E0,2.40625E1,5.46875E0,2.1875E0,2.84375E0,5.20625E1,1.246875E1,2.1875E0,4.15625E0,1.509375E1,6.78125E0,7E0,2.625E0,2.1875E0,1.684375E1,7.21875E0,4.9E1,3.0625E0,4.59375E0,1.05E1,4.15625E0,2.625E0,4.59375E0,2.40625E0,3.28125E0,1.35625E1,4.375E0,2.84375E0,2.1875E0,4.68125E1],"tree_param":{"num_deleted":"0","num_feature":"64","num_nodes":"49","size_leaf_vector":"1"}},{"base_weights":[3.4504004E-3,4.119403E-1,-4.600229E-2,-4.8414987E-2,1.0895928E0,-1.1675209E-1,3.315942E-1,2.9403973E-2,-2.3859648E-2,7.178808E-2,1.0196079E-2,5.1717174E-1,-1.9168411E-1,6.6422015E-2,1.3181077E-1,-1.284974E-1,9.906383E-1,-2.4952443E-1,3.582822E-1,4.6896555E-2,-4.688091E-2,-1.98374E-2,1.0196079E-2,7.29697E-2,-2.3529413E-3,4.8557214E-2,-3.9152217E-1,-2.1111112E-2,8.4485984E-1,-2.4375001E-2,3.1737706E-1,2.1818181E-2,-9.422777E-3,1.1396648E-2,-2.2208398E-2,3.5772359E-3,6.861789E-2,7.294118E-2,-1.0382979E-2],"categories":[],"categories_nodes":[],"categories_segments":[],"categories_sizes":[],"default_left":[0,0,0,0,0,0,0,0,0,0,0,0,0,0,0,0,0,0,0,0,0,0,0,0,0,0,0,0,0,0,0,0,0,0,0,0,0,0,0],"id":5,"left_children":[1,3,5,7,9,11,13,-1,-1,-1,-1,15,17,-1,19,21,23,25,27,-1,29,-1,-1,-1,-1,31,33,-1,35,-1,37,-1,-1,-1,-1,-1,-1,-1,-1],"loss_changes":[3.129241E0,5.3822155E0,3.6613064E0,3.228959E0,1.6606483E0,5.569301E0,3.973116E0,0E0,0E0,0E0,0E0,3.9965801E0,3.401699E0,0E0,2.892476E0,6.380041E-1,3.782105E0,4.086269E0,4.26795E0,0E0,2.8249831E0,0E0,0E0,0E0,0E0,2.9937334E0,2.2385492E0,0E0,2.4854035E0,0E0,6.1401443E0,0E0,0E0,0E0,0E0,0E0,0E0,0E0,0E0],"parents":[2147483647,0,0,1,1,2,2,3,3,4,4,5,5,6,6,11,11,12,12,14,14,15,15,16,16,17,17,18,18,20,20,25,25,26,26,28,28,30,30],"right_children":[2,4,6,8,10,12,14,-1,-1,-1,-1,16,18,-1,20,22,24,26,28,-1,30,-1,-1,-1,-1,32,34,-1,36,-1,38,-1,-1,-1,-1,-1,-1,-1,-1],"split_conditions":[2.1187922E-2,2.0420908E7,9.214435E-2,1.5859215E-2,6.6110515E-3,1.60168E1,1.0051555E-1,2.9403973E-2,-2.3859648E-2,7.178808E-2,1.0196079E-2,7.0320725E-2,2.804958E8,6.6422015E-2,2.110471E-2,2.3918455E-2,2.4740428E-2,2.083843E7,-6.512232E-1,4.6896555E-2,8.6368136E-2,-1.98374E-2,1.0196079E-2,7.29697E-2,-2.3529413E-3,1.0961776E0,-3.660659E-1,-2.1111112E-2,1.8659405E-1,-2.4375001E-2,1.6162212E-1,2.1818181E-2,-9.422777E-3,1.1396648E-2,-2.2208398E-2,3.5772359E-3,6.861789E-2,7.294118E-2,-1.0382979E-2],"split_indices":[12,38,29,3,21,55,29,0,0,0,0,45,40,0,48,2,29,38,30,0,25,0,0,0,0,53,29,0,62,0,25,0,0,0,0,0,0,0,0],"split_type":[0,0,0,0,0,0,0,0,0,0,0,0,0,0,0,0,0,0,0,0,0,0,0,0,0,0,0,0,0,0,0,0,0,0,0,0,0,0,0],"sum_hessian":[1.5115625E2,1.575E1,1.3540625E2,9.84375E0,5.90625E0,1.1484375E2,2.05625E1,3.71875E0,6.125E0,3.71875E0,2.1875E0,1.1375E1,1.0346875E2,2.40625E0,1.815625E1,5.03125E0,6.34375E0,9.428125E1,9.1875E0,2.625E0,1.553125E1,2.84375E0,2.1875E0,4.15625E0,2.1875E0,3.040625E1,6.3875E1,3.5E0,5.6875E0,7E0,8.53125E0,1.1375E1,1.903125E1,4.59375E0,5.928125E1,2.84375E0,2.84375E0,2.1875E0,6.34375E0],"tree_param":{"num_deleted":"0","num_feature":"64","num_nodes":"39","size_leaf_vector":"1"}},{"base_weights":[-2.1128204E-1,-2.354185E-1,4.4651163E-1,-7.414634E-2,-3.4059405E-1,-2.3529413E-3,4.156863E-2,-4.6614173E-1,7.070854E-2,-3.7652546E-1,1.9784947E-1,-2.6118724E-2,-2.3529413E-3,5.1076926E-2,-2.5806451E-2,-4.0476778E-1,7.4418604E-2,-1.9310346E-2,4.156863E-2,4.072202E-1,-1.4502925E-1,-2.7615657E-2,-2.6905295E-1,2.5882354E-2,-1.8039217E-2,6.0689658E-2,-6.4248703E-3,1.8807948E-2,-1.1510475E-2,8.5436896E-4,-2.1724943E-2],"categories":[],"categories_nodes":[],"categories_segments":[],"categories_sizes":[],"default_left":[0,0,0,0,0,0,0,0,0,0,0,0,0,0,0,0,0,0,0,0,0,0,0,0,0,0,0,0,0,0,0],"id":6,"left_children":[1,3,5,7,9,-1,-1,11,13,15,17,-1,-1,-1,19,21,23,-1,-1,25,27,-1,29,-1,-1,-1,-1,-1,-1,-1,-1],"loss_changes":[2.405991E0,2.3397393E0,1.138568E0,3.3463666E0,1.7410927E0,0E0,0E0,2.9258728E-1,4.051943E0,1.0871878E0,2.5163E0,0E0,0E0,0E0,2.0833857E0,1.2917185E0,1.2392522E0,0E0,0E0,4.0048237E0,1.4954131E0,0E0,2.0330389E0,0E0,0E0,0E0,0E0,0E0,0E0,0E0,0E0],"parents":[2147483647,0,0,1,1,2,2,3,3,4,4,7,7,8,8,9,9,10,10,14,14,15,15,16,16,19,19,20,20,22,22],"right_children":[2,4,6,8,10,-1,-1,12,14,16,18,-1,-1,-1,20,22,24,-1,-1,26,28,-1,30,-1,-1,-1,-1,-1,-1,-1,-1],"split_conditions":[9.793738E-2,5.4364704E-2,5.373816E-2,1.5982634E1,3.676528E-1,-2.3529413E-3,4.156863E-2,-1.4782735E-2,-5.3615007E-3,3.4500168E2,1.9949103E-2,-2.6118724E-2,-2.3529413E-3,5.1076926E-2,-5.455729E-2,2.9444203E-3,-2.3020325E-2,-1.9310346E-2,4.156863E-2,-5.113703E-2,-1.5739787E-2,-2.7615657E-2,6.2815687E-3,2.5882354E-2,-1.8039217E-2,6.0689658E-2,-6.4248703E-3,1.8807948E-2,-1.1510475E-2,8.5436896E-4,-2.1724943E-2],"split_indices":[60,63,7,56,39,0,0,9,11,57,60,0,0,0,39,60,10,0,0,30,42,0,6,0,0,0,0,0,0,0,0],"split_type":[0,0,0,0,0,0,0,0,0,0,0,0,0,0,0,0,0,0,0,0,0,0,0,0,0,0,0,0,0,0,0],"sum_hessian":[1.4525E2,1.40875E2,4.375E0,5.665625E1,8.421875E1,2.1875E0,2.1875E0,1.4875E1,4.178125E1,7.940625E1,4.8125E0,1.26875E1,2.1875E0,3.0625E0,3.871875E1,7.503125E1,4.375E0,2.625E0,2.1875E0,7.65625E0,3.10625E1,3.4125E1,4.090625E1,2.1875E0,2.1875E0,2.625E0,5.03125E0,3.71875E0,2.734375E1,1.509375E1,2.58125E1],"tree_param":{"num_deleted":"0","num_feature":"64","num_nodes":"31","size_leaf_vector":"1"}},{"base_weights":[2.4544708E-1,-1.8696344E-1,5.1400197E-1,-2.4259768E-1,4.156863E-2,1.0206896E-1,4.4698673E-1,9.88875E-4,-4.276923E-1,3.2080537E-1,9.3128204E-1,-1.4455172E-1,4.6896555E-2,1.0196079E-2,-4.8329896E-1,8.2985073E-1,1.6851065E-1,1.3509434E0,-1.284974E-1,4.1652894E-1,-4.054369E-1,-2.3529413E-3,-5.12E-1,1.1043903E0,-1.5189874E-3,1.0872928E-1,5.7254907E-2,-0E0,1.8358974E0,-1.98374E-2,1.0196079E-2,5.1076926E-2,-1.0000001E-2,-7.2E-3,-2.5475506E-2,-2.727711E-2,-2.3529413E-3,1.3012049E-2,9.968912E-2,-2.5165563E-3,2.0567825E-2,1.17617026E-1,7.7064224E-3],"categories":[],"categories_nodes":[],"categories_segments":[],"categories_sizes":[],"default_left":[0,0,0,0,0,0,0,0,0,0,0,0,0,0,0,0,0,0,0,0,0,0,0,0,0,0,0,0,0,0,0,0,0,0,0,0,0,0,0,0,0,0,0],"id":7,"left_children":[1,3,5,7,-1,-1,9,11,13,15,17,19,-1,-1,21,23,25,27,29,31,33,-1,35,37,-1,39,-1,-1,41,-1,-1,-1,-1,-1,-1,-1,-1,-1,-1,-1,-1,-1,-1],"loss_changes":[1.7823498E1,3.4836485E0,8.501894E0,2.603165E0,0E0,0E0,5.1846943E0,3.6623478E0,1.2679553E0,5.5359316E0,8.426394E0,3.4841352E0,0E0,0E0,2.995286E-1,4.096753E0,3.1800375E0,8.680677E0,6.380041E-1,3.1073184E0,2.991674E-1,0E0,3.536806E-1,8.8751E0,0E0,2.7794995E0,0E0,0E0,7.855034E0,0E0,0E0,0E0,0E0,0E0,0E0,0E0,0E0,0E0,0E0,0E0,0E0,0E0,0E0],"parents":[2147483647,0,0,1,1,2,2,3,3,6,6,7,7,8,8,9,9,10,10,11,11,14,14,15,15,16,16,17,17,18,18,19,19,20,20,22,22,23,23,25,25,28,28],"right_children":[2,4,6,8,-1,-1,10,12,14,16,18,20,-1,-1,22,24,26,28,30,32,34,-1,36,38,-1,40,-1,-1,42,-1,-1,-1,-1,-1,-1,-1,-1,-1,-1,-1,-1,-1,-1],"split_conditions":[6.1392285E-2,9.9446326E-1,-4.3374914E-1,1.8372267E1,4.156863E-2,1.0206896E-1,9.744393E-1,3.808576E-2,1.8563041E-2,8.1530875E-1,1.803271E-2,2.9506272E-2,4.6896555E-2,1.0196079E-2,-5.5862043E-2,2.8822714E8,-3.506152E-2,2.87712E1,3.7606975E-1,2.4426902E-2,-2.715563E-2,-2.3529413E-3,2.7841038E-1,9.640451E7,-1.5189874E-3,-9.8280326E-2,5.7254907E-2,-0E0,2.1236584E-1,-1.98374E-2,1.0196079E-2,5.1076926E-2,-1.0000001E-2,-7.2E-3,-2.5475506E-2,-2.727711E-2,-2.3529413E-3,1.3012049E-2,9.968912E-2,-2.5165563E-3,2.0567825E-2,1.17617026E-1,7.7064224E-3],"split_indices":[63,52,36,55,0,0,52,2,48,52,11,8,0,0,0,46,14,54,5,7,39,0,39,46,0,30,0,0,39,0,0,0,0,0,0,0,0,0,0,0,0,0,0],"split_type":[0,0,0,0,0,0,0,0,0,0,0,0,0,0,0,0,0,0,0,0,0,0,0,0,0,0,0,0,0,0,0,0,0,0,0,0,0,0,0,0,0,0,0],"sum_hessian":[1.51375E2,5.796875E1,9.340625E1,5.578125E1,2.1875E0,2.625E0,9.078125E1,2.428125E1,3.15E1,7.35E1,1.728125E1,2.165625E1,2.625E0,2.1875E0,2.93125E1,1.575E1,5.775E1,1.225E1,5.03125E0,6.5625E0,1.509375E1,2.1875E0,2.7125E1,1.18125E1,3.9375E0,5.55625E1,2.1875E0,3.5E0,8.75E0,2.84375E0,2.1875E0,3.0625E0,3.5E0,5.25E0,9.84375E0,2.49375E1,2.1875E0,6.78125E0,5.03125E0,3.675E1,1.88125E1,6.34375E0,2.40625E0],"tree_param":{"num_deleted":"0","num_feature":"64","num_nodes":"43","size_leaf_vector":"1"}},{"base_weights":[1.2661593E-1,-2.374671E-1,3.6953595E-1,-3.0480936E-1,3.84327E-2,7.0624936E-1,8.089101E-2,-4.5574406E-1,2.6856788E-2,1.0637879E0,3.9096245E-1,1.2756021E0,-1.1211988E-1,2.2319923E-3,-4.9958637E-1,4.1894555E-2,-1.20286144E-1,1.7914818E-1,1.4707007E0,1.4060475E-1,6.487491E-2,4.8174574E-3,9.618238E-2,-1.971908E-1,3.7804883E-2,-1.7887719E-1,-2.7468313E-2,2.638399E-2,-2.5696233E-1,-2.137137E-2,4.5809593E-2,1.37088625E-2,1.8095369E0,4.462235E-1,-3.651493E-1,2.6164725E-2,-2.5231132E-1,-2.133446E-2,1.0650366E-2,-2.4580775E-2,1.5418776E-3,2.8629733E-2,1.0223024E-1,-4.8104185E-3,7.8836404E-2,-2.3057608E-2,-8.5525506E-4,-2.0006413E-2,3.06789E-3],"categories":[],"categories_nodes":[],"categories_segments":[],"categories_sizes":[],"default_left":[0,0,0,0,0,0,0,0,0,0,0,0,0,0,0,0,0,0,0,0,0,0,0,0,0,0,0,0,0,0,0,0,0,0,0,0,0,0,0,0,0,0,0,0,0,0,0,0,0],"id":8,"left_children":[1,3,5,7,-1,9,11,13,15,17,19,21,23,-1,25,-1,27,29,31,33,-1,-1,-1,35,-1,37,-1,-1,39,-1,-1,-1,41,43,45,-1,47,-1,-1,-1,-1,-1,-1,-1,-1,-1,-1,-1,-1],"loss_changes":[1.3708426E1,4.3897996E0,8.887262E0,3.005416E0,0E0,4.236553E0,1.2083437E1,9.621172E-1,2.4601672E0,6.488405E0,5.199565E0,5.179693E0,3.4163365E0,0E0,4.3154144E-1,0E0,1.6136796E0,3.6906874E0,4.543762E0,3.3066657E0,0E0,0E0,0E0,1.7679476E0,0E0,7.750174E-1,0E0,0E0,1.0631005E0,0E0,0E0,0E0,1.4300003E0,8.405563E0,2.1386242E-1,0E0,1.8992755E0,0E0,0E0,0E0,0E0,0E0,0E0,0E0,0E0,0E0,0E0,0E0,0E0],"parents":[2147483647,0,0,1,1,2,2,3,3,5,5,6,6,7,7,8,8,9,9,10,10,11,11,12,12,14,14,16,16,17,17,18,18,19,19,23,23,25,25,28,28,32,32,33,33,34,34,36,36],"right_children":[2,4,6,8,-1,10,12,14,16,18,20,22,24,-1,26,-1,28,30,32,34,-1,-1,-1,36,-1,38,-1,-1,40,-1,-1,-1,42,44,46,-1,48,-1,-1,-1,-1,-1,-1,-1,-1,-1,-1,-1,-1],"split_conditions":[5.5349994E-1,3.5971466E2,-4.135293E-2,1.3954182E8,3.84327E-2,1.1370668E0,8.75892E7,-1.3998095E-2,1.453344E-2,1.649772E-2,4.4329148E-2,7.8402996E-2,-1.7453806E-2,2.2319923E-3,-1.01504646E-1,4.1894555E-2,1.9074015E-3,7.090644E-1,-1.8778242E-1,5.5788647E-2,6.487491E-2,4.8174574E-3,9.618238E-2,1.2658037E-2,3.7804883E-2,1.5806534E1,-2.7468313E-2,2.638399E-2,5.775853E7,-2.137137E-2,4.5809593E-2,1.37088625E-2,-8.924664E-2,1.3123639E-1,7.534177E-2,2.6164725E-2,9.2482105E-2,-2.133446E-2,1.0650366E-2,-2.4580775E-2,1.5418776E-3,2.8629733E-2,1.0223024E-1,-4.8104185E-3,7.8836404E-2,-2.3057608E-2,-8.5525506E-4,-2.0006413E-2,3.06789E-3],"split_indices":[35,54,4,49,0,53,40,42,2,3,60,18,9,0,63,0,42,35,20,7,0,0,0,3,0,55,0,0,38,0,0,0,27,13,39,0,0,0,0,0,0,0,0,0,0,0,0,0,0],"split_type":[0,0,0,0,0,0,0,0,0,0,0,0,0,0,0,0,0,0,0,0,0,0,0,0,0,0,0,0,0,0,0,0,0,0,0,0,0,0,0,0,0,0,0,0,0,0,0,0,0],"sum_hessian":[1.528557E2,6.1016434E1,9.1839264E1,5.7935123E1,3.0813098E0,4.1562305E1,5.027696E1,3.976587E1,1.8169254E1,1.821505E1,2.3347256E1,6.2846947E0,4.3992264E1,3.0182855E0,3.674758E1,2.1736367E0,1.5995619E1,6.269972E0,1.1945078E1,1.9286358E1,4.0608964E0,2.6909466E0,3.593748E0,4.0875225E1,3.1170375E0,5.8245907E0,3.092299E1,2.1604962E0,1.3835122E1,3.5954077E0,2.6745641E0,3.100536E0,8.844542E0,1.221841E1,7.06795E0,2.172353E0,3.8702873E1,3.6701186E0,2.1544724E0,7.4225445E0,6.4125776E0,2.0290143E0,6.815527E0,8.815197E0,3.4032123E0,5.059939E0,2.0080106E0,2.6335438E1,1.23674345E1],"tree_param":{"num_deleted":"0","num_feature":"64","num_nodes":"49","size_leaf_vector":"1"}},{"base_weights":[-2.5134367E-1,-1.2410533E-2,-3.313571E-1,4.4559446E-1,-2.4410427E-1,-4.59794E-1,-2.1653269E-1,1.1872662E0,-4.413233E-2,-3.337801E-1,1.9562423E-2,3.7925245E-4,-4.938353E-1,-2.726361E-1,3.0423832E-1,8.7588765E-2,1.0434761E-2,-3.2035422E-1,2.5718188E-2,-4.355875E-1,5.2009835E-3,-5.3185344E-1,-8.688045E-2,-3.5769308E-1,7.8502394E-2,-2.062915E-2,6.252345E-2,-2.1119302E-2,-2.1083641E-3,-2.1653304E-4,-2.642611E-2,-3.7945823E-3,-2.7696459E-2,1.0693616E-2,-1.8580087E-2,-5.3695355E-2,-4.6110627E-1,3.436184E-2,-2.430437E-1,-1.1409375E-2,2.6014565E-2,-2.5791174E-2,2.0970427E-3,-2.245202E-2,5.5627283E-3],"categories":[],"categories_nodes":[],"categories_segments":[],"categories_sizes":[],"default_left":[0,0,0,0,0,0,0,0,0,0,0,0,0,0,0,0,0,0,0,0,0,0,0,0,0,0,0,0,0,0,0,0,0,0,0,0,0,0,0,0,0,0,0,0,0],"id":9,"left_children":[1,3,5,7,9,11,13,15,17,19,-1,-1,21,23,25,-1,-1,27,-1,29,-1,31,33,35,37,-1,-1,-1,-1,-1,-1,-1,-1,-1,-1,39,41,-1,43,-1,-1,-1,-1,-1,-1],"loss_changes":[2.815774E0,4.206656E0,1.4770517E0,4.9776645E0,1.6381875E0,8.689661E-1,1.8668892E0,2.4129639E0,1.512303E0,1.1461031E0,0E0,0E0,6.354141E-1,1.7261066E0,4.8375626E0,0E0,0E0,1.24899626E-1,0E0,7.384763E-1,0E0,3.331337E-1,5.684254E-1,1.3517661E0,2.461387E0,0E0,0E0,0E0,0E0,0E0,0E0,0E0,0E0,0E0,0E0,1.3822476E0,9.9157906E-1,0E0,6.7877007E-1,0E0,0E0,0E0,0E0,0E0,0E0],"parents":[2147483647,0,0,1,1,2,2,3,3,4,4,5,5,6,6,7,7,8,8,9,9,12,12,13,13,14,14,17,17,19,19,21,21,22,22,23,23,24,24,35,35,36,36,38,38],"right_children":[2,4,6,8,10,12,14,16,18,20,-1,-1,22,24,26,-1,-1,28,-1,30,-1,32,34,36,38,-1,-1,-1,-1,-1,-1,-1,-1,-1,-1,40,42,-1,44,-1,-1,-1,-1,-1,-1],"split_conditions":[-1.9363893E-2,2.213266E-2,5.5517467E1,-1.7260242E-1,5.5191463E-1,1.1399736E-2,9.017611E-1,3.4961365E-2,8.213879E-2,2.261369E-1,1.9562423E-2,3.7925245E-4,9.924471E-1,7.6328285E-2,9.770729E-3,8.7588765E-2,1.0434761E-2,5.5796906E-2,2.5718188E-2,-1.9818824E-2,5.2009835E-3,3.435609E-2,5.1660584E7,-2.0045274E-1,6.543936E7,-2.062915E-2,6.252345E-2,-2.1119302E-2,-2.1083641E-3,-2.1653304E-4,-2.642611E-2,-3.7945823E-3,-2.7696459E-2,1.0693616E-2,-1.8580087E-2,4.901306E-2,1.0528125E8,3.436184E-2,2.4211384E-2,-1.1409375E-2,2.6014565E-2,-2.5791174E-2,2.0970427E-3,-2.245202E-2,5.5627283E-3],"split_indices":[61,42,55,36,36,2,34,45,8,26,0,0,52,30,39,0,0,39,0,39,0,18,41,36,37,0,0,0,0,0,0,0,0,0,0,7,47,0,62,0,0,0,0,0,0],"split_type":[0,0,0,0,0,0,0,0,0,0,0,0,0,0,0,0,0,0,0,0,0,0,0,0,0,0,0,0,0,0,0,0,0,0,0,0,0,0,0,0,0,0,0,0,0],"sum_hessian":[1.4829831E2,3.780658E1,1.1049174E2,1.2245415E1,2.5561165E1,5.0325214E1,6.0166523E1,4.3847446E0,7.86067E0,2.295348E1,2.6076849E0,3.2698948E0,4.705532E1,5.4918568E1,5.247954E0,2.214778E0,2.1699667E0,5.664542E0,2.1961277E0,1.8812279E1,4.141201E0,4.252953E1,4.5257883E0,4.4423817E1,1.0494754E1,3.246695E0,2.0012589E0,3.5022008E0,2.1623414E0,3.711579E0,1.5100699E1,2.3781345E0,4.0151398E1,2.151141E0,2.3746474E0,1.1907185E1,3.2516632E1,3.3418484E0,7.1529055E0,9.726881E0,2.1803036E0,2.94831E1,3.0335307E0,4.5324697E0,2.6204357E0],"tree_param":{"num_deleted":"0","num_feature":"64","num_nodes":"45","size_leaf_vector":"1"}},{"base_weights":[-1.7185242E-1,2.4320126E-2,-1.9437702E-1,-9.974981E-2,-4.0230352E-1,-1.4844622E-1,7.51861E-1,-4.5658532E-1,5.1079474E-2,5.2486086E-1,-2.0453501E-1,-2.3719945E-3,6.506618E-2,-2.3096532E-1,-2.733591E-2,2.6203427E-2,-1.8725649E-2,-7.641529E-3,5.0467946E-2,2.8447688E-2,-3.487863E-1,-4.1981864E-1,1.9111672E-2,-4.77118E-3,5.5232156E-2,1.4786554E-2,-2.0341357E-2,-2.0147772E-3,-2.4763947E-2],"categories":[],"categories_nodes":[],"categories_segments":[],"categories_sizes":[],"default_left":[0,0,0,0,0,0,0,0,0,0,0,0,0,0,0,0,0,0,0,0,0,0,0,0,0,0,0,0,0],"id":10,"left_children":[1,-1,3,5,7,9,11,13,15,17,19,-1,-1,21,-1,-1,-1,-1,-1,23,25,27,-1,-1,-1,-1,-1,-1,-1],"loss_changes":[2.320413E0,0E0,2.8201056E0,4.3359027E0,1.1862102E0,3.8018079E0,2.6650708E0,6.302452E-1,1.3342015E0,2.7783928E0,3.1320322E0,0E0,0E0,1.7575912E0,0E0,0E0,0E0,0E0,0E0,4.981265E0,2.268416E0,2.4496603E-1,0E0,0E0,0E0,0E0,0E0,0E0,0E0],"parents":[2147483647,0,0,2,2,3,3,4,4,5,5,6,6,7,7,8,8,9,9,10,10,13,13,19,19,20,20,21,21],"right_children":[2,-1,4,6,8,10,12,14,16,18,20,-1,-1,22,-1,-1,-1,-1,-1,24,26,28,-1,-1,-1,-1,-1,-1,-1],"split_conditions":[1.0788593E-2,2.4320126E-2,-7.624232E-2,1.4772065E-1,2.695662E8,2.2097626E7,2.077374E1,3.8635377E-2,4.758234E-2,8.394693E7,5.203589E-1,-2.3719945E-3,6.506618E-2,9.79911E-2,-2.733591E-2,2.6203427E-2,-1.8725649E-2,-7.641529E-3,5.0467946E-2,8.616213E7,3.308299E-2,-4.021974E-2,1.9111672E-2,-4.77118E-3,5.5232156E-2,1.4786554E-2,-2.0341357E-2,-2.0147772E-3,-2.4763947E-2],"split_indices":[2,0,24,51,37,47,59,45,2,40,32,0,0,10,0,0,0,0,0,41,51,5,0,0,0,0,0,0,0],"split_type":[0,0,0,0,0,0,0,0,0,0,0,0,0,0,0,0,0,0,0,0,0,0,0,0,0,0,0,0,0],"sum_hessian":[1.5109286E2,4.1708493E0,1.4692203E2,1.02317894E2,4.460413E1,9.767576E1,4.642137E0,4.0025528E1,4.578601E0,6.731247E0,9.094451E1,2.189193E0,2.452944E0,1.2759073E1,2.7266455E1,2.1702447E0,2.4083562E0,3.0054855E0,3.7257617E0,3.481835E1,5.612616E1,1.0120575E1,2.6384983E0,3.1958326E1,2.8600264E0,4.1561246E0,5.197003E1,2.1527321E0,7.9678426E0],"tree_param":{"num_deleted":"0","num_feature":"64","num_nodes":"29","size_leaf_vector":"1"}},{"base_weights":[1.1584779E-1,3.755438E-1,-1.21236764E-1,1.4529157E-1,9.763606E-1,-1.9523226E-1,3.3556876E-1,1.1280946E0,1.913495E-2,1.2383997E0,-9.959867E-3,-6.1685067E-2,-4.2678693E-1,-1.1739781E-2,6.774982E-1,1.2475677E-2,7.34314E-2,-1.722772E-1,4.1807213E-1,-8.656951E-3,1.5863448E0,1.8968333E-1,-2.7382243E-1,-4.9826962E-1,7.681542E-3,7.8927584E-2,5.1708326E-2,3.6206627E-1,-3.54827E-1,8.970205E-1,-1.3817002E-1,1.9544938E0,2.0286007E-2,-2.2454543E-2,7.2418466E-2,-4.1037488E-1,2.8534964E-2,-2.693208E-2,-1.9982825E-3,2.6379077E-2,-1.8744944E-2,5.3958077E-2,-1.3482179E-2,-2.439208E-2,2.6204775E-3,6.241089E-5,6.929425E-2,9.723679E-3,-2.177489E-2,1.14379756E-1,2.5254963E-2,2.1843428E-2,-1.44757945E-2,-2.6801676E-2,1.0155E-2],"categories":[],"categories_nodes":[],"categories_segments":[],"categories_sizes":[],"default_left":[0,0,0,0,0,0,0,0,0,0,0,0,0,0,0,0,0,0,0,0,0,0,0,0,0,0,0,0,0,0,0,0,0,0,0,0,0,0,0,0,0,0,0,0,0,0,0,0,0,0,0,0,0,0,0],"id":11,"left_children":[1,3,5,7,9,11,13,15,17,19,-1,21,23,-1,25,-1,-1,27,29,-1,31,33,35,37,-1,-1,39,41,43,45,47,49,-1,51,-1,53,-1,-1,-1,-1,-1,-1,-1,-1,-1,-1,-1,-1,-1,-1,-1,-1,-1,-1,-1],"loss_changes":[9.603896E0,1.0029746E1,2.8060985E0,6.68755E0,6.603979E0,2.118968E0,2.4539127E0,1.3028245E0,3.9057572E0,8.6711445E0,0E0,2.5369189E0,1.1694489E0,0E0,4.0304604E0,0E0,0E0,3.4684534E0,4.631609E0,0E0,4.8993874E0,5.950951E0,3.1948528E0,3.4806776E-1,0E0,0E0,1.3445702E0,4.483515E0,1.4867895E0,3.8746228E0,9.46162E-1,3.427433E0,0E0,2.4949293E0,0E0,1.9077168E0,0E0,0E0,0E0,0E0,0E0,0E0,0E0,0E0,0E0,0E0,0E0,0E0,0E0,0E0,0E0,0E0,0E0,0E0,0E0],"parents":[2147483647,0,0,1,1,2,2,3,3,4,4,5,5,6,6,7,7,8,8,9,9,11,11,12,12,14,14,17,17,18,18,20,20,21,21,22,22,23,23,26,26,27,27,28,28,29,29,30,30,31,31,33,33,35,35],"right_children":[2,4,6,8,10,12,14,16,18,20,-1,22,24,-1,26,-1,-1,28,30,-1,32,34,36,38,-1,-1,40,42,44,46,48,50,-1,52,-1,54,-1,-1,-1,-1,-1,-1,-1,-1,-1,-1,-1,-1,-1,-1,-1,-1,-1,-1,-1],"split_conditions":[5.8704036E-1,1.320845E-1,1.7743173E-1,2.4190864E-2,3.451867E1,-1.330432E-2,2.5503328E-3,-3.3853517E-3,1.014467E-1,1.0472778E0,-9.959867E-3,5.405771E7,1.9641207E-1,-1.1739781E-2,2.9961046E-2,1.2475677E-2,7.34314E-2,-2.4046707E-3,8.831432E-2,-8.656951E-3,-9.202008E-3,4.334117E7,1.628175E-1,2.4965577E-1,7.681542E-3,7.8927584E-2,-7.843566E-2,1.208796E8,9.865532E-1,1.0664629E0,1.2788315E8,5.459955E-1,2.0286007E-2,2.1190666E7,7.2418466E-2,-6.932073E-2,2.8534964E-2,-2.693208E-2,-1.9982825E-3,2.6379077E-2,-1.8744944E-2,5.3958077E-2,-1.3482179E-2,-2.439208E-2,2.6204775E-3,6.241089E-5,6.929425E-2,9.723679E-3,-2.177489E-2,1.14379756E-1,2.5254963E-2,2.1843428E-2,-1.44757945E-2,-2.6801676E-2,1.0155E-2],"split_indices":[35,42,30,51,54,29,1,0,39,53,0,44,13,0,0,0,0,11,45,0,4,41,8,27,0,0,14,46,52,53,49,36,0,41,0,24,0,0,0,0,0,0,0,0,0,0,0,0,0,0,0,0,0,0,0],"split_type":[0,0,0,0,0,0,0,0,0,0,0,0,0,0,0,0,0,0,0,0,0,0,0,0,0,0,0,0,0,0,0,0,0,0,0,0,0,0,0,0,0,0,0,0,0,0,0,0,0,0,0,0,0,0,0],"sum_hessian":[1.5383107E2,7.333723E1,8.0493835E1,5.4036846E1,1.9300385E1,6.9953896E1,1.0539935E1,5.1536303E0,4.8883217E1,1.5808239E1,3.4921455E0,4.5443184E1,2.4510714E1,3.9582074E0,6.581728E0,2.0055797E0,3.1480508E0,3.3248096E1,1.5635118E1,3.1686594E0,1.263958E1,2.0631138E1,2.4812048E1,2.2102457E1,2.4082563E0,2.0080757E0,4.5736523E0,8.076401E0,2.5171698E1,8.1686735E0,7.466444E0,9.070874E0,3.568705E0,1.8428009E1,2.2031288E0,2.1902992E1,2.9090555E0,1.9951447E1,2.1510115E0,2.1609097E0,2.4127426E0,3.5249646E0,4.551436E0,1.9010103E1,6.1615944E0,3.310245E0,4.858428E0,3.5284705E0,3.9379737E0,6.849427E0,2.221447E0,6.403774E0,1.2024235E1,1.8419374E1,3.4836173E0],"tree_param":{"num_deleted":"0","num_feature":"64","num_nodes":"55","size_leaf_vector":"1"}},{"base_weights":[6.312528E-2,1.1423092E0,-1.1055693E-2,1.8815663E0,8.322402E-2,1.5665184E-1,-2.3270573E-1,3.8971987E-2,1.1718052E-1,2.8754655E-2,-1.8388221E-2,7.746641E-2,9.2626196E-1,-2.9949173E-1,3.1870168E-1,-3.4678325E-1,1.890253E-1,-2.5229992E-3,1.3491378E0,-4.514283E-2,-4.6440932E-1,-1.9745259E-3,4.019137E-2,7.280485E-3,-4.5103705E-1,6.163782E-1,1.2296459E-2,2.2105318E-2,9.482593E-2,4.3070126E-1,-3.3588812E-1,5.951968E-3,-5.180434E-1,-2.1723965E-3,-2.5711525E-2,1.2913676E-2,6.023561E-2,4.5533046E-2,-2.414277E-3,-2.2456126E-2,6.762338E-2,-0E0,-2.522249E-2,-2.0921496E-3,-2.737864E-2],"categories":[],"categories_nodes":[],"categories_segments":[],"categories_sizes":[],"default_left":[0,0,0,0,0,0,0,0,0,0,0,0,0,0,0,0,0,0,0,0,0,0,0,0,0,0,0,0,0,0,0,0,0,0,0,0,0,0,0,0,0,0,0,0,0],"id":12,"left_children":[1,3,5,7,9,11,13,-1,-1,-1,-1,15,17,19,21,23,25,-1,27,29,31,-1,-1,-1,33,35,37,-1,-1,39,41,-1,43,-1,-1,-1,-1,-1,-1,-1,-1,-1,-1,-1,-1],"loss_changes":[1.2663289E1,7.608672E0,5.524852E0,8.5879517E-1,1.4039588E0,4.963792E0,2.4565582E0,0E0,0E0,0E0,0E0,3.7235572E0,3.358932E0,2.3572927E0,1.3688525E0,9.343804E-1,4.6344085E0,0E0,1.6327114E0,3.4729705E0,1.1901255E0,0E0,0E0,0E0,2.7955985E-1,3.3430953E0,2.5932488E0,0E0,0E0,8.368052E0,8.395318E-1,0E0,3.7096214E-1,0E0,0E0,0E0,0E0,0E0,0E0,0E0,0E0,0E0,0E0,0E0,0E0],"parents":[2147483647,0,0,1,1,2,2,3,3,4,4,5,5,6,6,11,11,12,12,13,13,14,14,15,15,16,16,18,18,19,19,20,20,24,24,25,25,26,26,29,29,30,30,32,32],"right_children":[2,4,6,8,10,12,14,-1,-1,-1,-1,16,18,20,22,24,26,-1,28,30,32,-1,-1,-1,34,36,38,-1,-1,40,42,-1,44,-1,-1,-1,-1,-1,-1,-1,-1,-1,-1,-1,-1],"split_conditions":[5.888583E7,4.7607332E-2,3.4591146E-2,2.5944782E-2,-1.5880437E-1,1.9338548E-1,1.15035336E8,3.8971987E-2,1.1718052E-1,2.8754655E-2,-1.8388221E-2,8.6725295E-1,1.2243953E8,4.9515367E-2,-6.038722E-1,-2.758291E-1,-7.379069E-2,-2.5229992E-3,-5.610968E-2,1.26390024E8,-4.0368912E-1,-1.9745259E-3,4.019137E-2,7.280485E-3,2.0635422E7,2.452319E-2,-2.6369098E-1,2.2105318E-2,9.482593E-2,-9.360025E-3,5.008985E7,5.951968E-3,4.8677316E-1,-2.1723965E-3,-2.5711525E-2,1.2913676E-2,6.023561E-2,4.5533046E-2,-2.414277E-3,-2.2456126E-2,6.762338E-2,-0E0,-2.522249E-2,-2.0921496E-3,-2.737864E-2],"split_indices":[46,48,2,5,28,42,44,0,0,0,0,52,43,42,30,36,14,0,27,49,36,0,0,0,44,2,29,0,0,60,41,0,32,0,0,0,0,0,0,0,0,0,0,0,0],"split_type":[0,0,0,0,0,0,0,0,0,0,0,0,0,0,0,0,0,0,0,0,0,0,0,0,0,0,0,0,0,0,0,0,0,0,0,0,0,0,0,0,0,0,0,0,0],"sum_hessian":[1.5561168E2,9.169083E0,1.464426E2,4.8869224E0,4.2821603E0,8.327566E1,6.3166946E1,2.3011923E0,2.5857298E0,2.022681E0,2.2594793E0,7.662253E1,6.653123E0,5.6912025E1,6.254923E0,1.5327676E1,6.1294853E1,2.20482E0,4.448303E0,2.3125757E1,3.378627E1,4.0080485E0,2.2468743E0,2.4413316E0,1.2886344E1,1.703895E1,4.4255905E1,2.4232488E0,2.0250545E0,8.457916E0,1.466784E1,2.5847342E0,3.1201534E1,2.1686738E0,1.071767E1,1.1592088E1,5.446862E0,2.013702E0,4.2242203E1,4.5342536E0,3.923663E0,5.4222527E0,9.245587E0,2.1607106E0,2.9040825E1],"tree_param":{"num_deleted":"0","num_feature":"64","num_nodes":"45","size_leaf_vector":"1"}},{"base_weights":[-2.4019228E-2,-1.02083184E-1,4.171583E-1,2.4744436E-1,-2.1161327E-1,7.7364874E-1,-2.578569E-1,5.0683886E-2,8.764902E-1,3.9076188E-1,-2.6102254E-1,1.1384181E0,-2.062547E-2,-2.3283266E-2,1.00345975E-2,-1.2345034E-1,5.763949E-1,6.955697E-2,-4.022202E-3,5.852909E-2,-2.105218E-2,2.4829672E-1,-3.3089137E-1,-3.7711558E-3,1.4576211E0,3.6427876E-1,-3.1822085E-1,6.5232255E-2,-7.976843E-3,-1.598681E-1,6.6050786E-1,1.923506E-2,-3.6075726E-1,1.6149323E-2,1.8813912E0,4.609807E-2,-1.8016819E-2,9.752636E-3,-2.1745697E-2,1.2496532E-2,-2.1061955E-2,3.3586011E-3,5.7018705E-2,-6.530449E-3,-2.4014873E-2,2.4159309E-2,1.2355347E-1],"categories":[],"categories_nodes":[],"categories_segments":[],"categories_sizes":[],"default_left":[0,0,0,0,0,0,0,0,0,0,0,0,0,0,0,0,0,0,0,0,0,0,0,0,0,0,0,0,0,0,0,0,0,0,0,0,0,0,0,0,0,0,0,0,0,0,0],"id":13,"left_children":[1,3,5,7,9,11,13,15,17,19,21,23,-1,-1,-1,25,27,-1,-1,-1,-1,29,31,-1,33,35,37,-1,-1,39,41,-1,43,-1,45,-1,-1,-1,-1,-1,-1,-1,-1,-1,-1,-1,-1],"loss_changes":[5.2107377E0,4.9979086E0,5.71406E0,3.7106388E0,3.0411181E0,7.120245E0,9.298264E-1,2.39253E0,3.8010163E0,5.484203E0,3.3792696E0,4.881418E0,0E0,0E0,0E0,1.9501822E0,3.809325E0,0E0,0E0,0E0,0E0,2.098544E0,1.8861723E0,0E0,3.7794285E0,2.7499433E0,9.7811186E-1,0E0,0E0,8.170717E-1,1.5286541E0,0E0,2.0563202E0,0E0,4.039131E0,0E0,0E0,0E0,0E0,0E0,0E0,0E0,0E0,0E0,0E0,0E0,0E0],"parents":[2147483647,0,0,1,1,2,2,3,3,4,4,5,5,6,6,7,7,8,8,9,9,10,10,11,11,15,15,16,16,21,21,22,22,24,24,25,25,26,26,29,29,30,30,32,32,34,34],"right_children":[2,4,6,8,10,12,14,16,18,20,22,24,-1,-1,-1,26,28,-1,-1,-1,-1,30,32,-1,34,36,38,-1,-1,40,42,-1,44,-1,46,-1,-1,-1,-1,-1,-1,-1,-1,-1,-1,-1,-1],"split_conditions":[9.597383E-2,4.6941187E-2,1.5775754E-1,6.145119E-2,-1.0766721E-1,1.4624434E-2,4.684596E-2,3.0992758E-2,1.4653088E-1,6.5368935E1,-5.191284E-1,2.0601304E7,-2.062547E-2,-2.3283266E-2,1.00345975E-2,1.5859215E-2,8.722225E-1,6.955697E-2,-4.022202E-3,5.852909E-2,-2.105218E-2,2.9066107E1,-3.4063984E-2,-3.7711558E-3,3.0781914E-2,3.789672E-2,1.53596E1,6.5232255E-2,-7.976843E-3,2.2973315E8,3.6232013E-2,1.923506E-2,1.0783733E8,1.6149323E-2,-1.1948303E-3,4.609807E-2,-1.8016819E-2,9.752636E-3,-2.1745697E-2,1.2496532E-2,-2.1061955E-2,3.3586011E-3,5.7018705E-2,-6.530449E-3,-2.4014873E-2,2.4159309E-2,1.2355347E-1],"split_indices":[29,13,25,62,39,11,2,22,39,54,25,47,0,0,0,3,52,0,0,0,0,59,1,0,22,29,55,0,0,49,39,0,49,0,61,0,0,0,0,0,0,0,0,0,0,0,0],"split_type":[0,0,0,0,0,0,0,0,0,0,0,0,0,0,0,0,0,0,0,0,0,0,0,0,0,0,0,0,0,0,0,0,0,0,0,0,0,0,0,0,0,0,0,0,0,0,0],"sum_hessian":[1.4997708E2,1.2827483E2,2.1702251E1,3.0087809E1,9.818702E1,1.4203235E1,7.4990172E0,2.3863152E1,6.224658E0,6.7660356E0,9.142098E1,1.0957974E1,3.245261E0,5.2997837E0,2.1992335E0,1.8357462E1,5.505689E0,3.8206356E0,2.4040227E0,3.2884169E0,3.4776185E0,1.0547606E1,8.0873375E1,2.375404E0,8.58257E0,4.843935E0,1.3513526E1,2.4471676E0,3.0585215E0,5.485514E0,5.062093E0,2.6299531E0,7.824342E1,2.877168E0,5.7054024E0,2.6613495E0,2.1825855E0,2.2200787E0,1.12934475E1,2.004254E0,3.48126E0,2.8663433E0,2.1957495E0,2.7748648E1,5.0494774E1,2.282436E0,3.4229665E0],"tree_param":{"num_deleted":"0","num_feature":"64","num_nodes":"47","size_leaf_vector":"1"}},{"base_weights":[-2.2815369E-1,-3.194513E-1,-2.1506386E-2,-3.4926894E-1,1.8603312E-2,-1.6055055E-1,6.036182E-1,-3.742949E-1,2.5656357E-2,3.3816954E-1,-3.2501432E-1,1.090735E0,-1.9259628E-2,-1.1007895E-1,-4.2065206E-1,5.8454033E-2,-1.9618417E-1,-4.6583837E-1,2.4331959E-1,8.0273785E-2,1.6295351E-2,3.1367508E-1,-4.0905246E-1,-0E0,-4.3888828E-1,1.0354717E-2,-2.1789407E-2,5.8005247E-3,-2.7066087E-2,-1.875681E-2,3.507779E-2,4.3513607E-2,-1.9773236E-2,-2.0410684E-3,-2.4444776E-2,-2.4739493E-2,-1.2087526E-2],"categories":[],"categories_nodes":[],"categories_segments":[],"categories_sizes":[],"default_left":[0,0,0,0,0,0,0,0,0,0,0,0,0,0,0,0,0,0,0,0,0,0,0,0,0,0,0,0,0,0,0,0,0,0,0,0,0],"id":14,"left_children":[1,3,5,7,-1,9,11,13,-1,15,17,19,-1,21,23,-1,25,27,29,-1,-1,31,33,-1,35,-1,-1,-1,-1,-1,-1,-1,-1,-1,-1,-1,-1],"loss_changes":[2.8599215E0,2.3181953E0,4.2702594E0,2.390339E0,0E0,3.4399047E0,4.7815304E0,1.1291189E0,0E0,4.949351E0,2.6329858E0,1.7626557E0,0E0,2.2469304E0,6.592026E-1,0E0,8.010626E-1,1.2249093E0,2.1980717E0,0E0,0E0,3.2786043E0,2.3087418E-1,0E0,7.0141983E-1,0E0,0E0,0E0,0E0,0E0,0E0,0E0,0E0,0E0,0E0,0E0,0E0],"parents":[2147483647,0,0,1,1,2,2,3,3,5,5,6,6,7,7,9,9,10,10,11,11,13,13,14,14,16,16,17,17,18,18,21,21,22,22,24,24],"right_children":[2,4,6,8,-1,10,12,14,-1,16,18,20,-1,22,24,-1,26,28,30,-1,-1,32,34,-1,36,-1,-1,-1,-1,-1,-1,-1,-1,-1,-1,-1,-1],"split_conditions":[9.3543276E-2,-2.9675083E-2,1.526238E-1,9.793738E-2,1.8603312E-2,3.3213887E-2,1.3426287E-1,-1.4370733E-2,2.5656357E-2,1.3991699E-2,-6.022036E-2,4.230857E-2,-1.9259628E-2,1.6065036E-3,1.3424572E7,5.8454033E-2,-1.0886661E-1,9.7321406E-2,-2.1731524E-2,8.0273785E-2,1.6295351E-2,1.9611267E2,-1.9539456E-1,-0E0,1.592358E8,1.0354717E-2,-2.1789407E-2,5.8005247E-3,-2.7066087E-2,-1.875681E-2,3.507779E-2,4.3513607E-2,-1.9773236E-2,-2.0410684E-3,-2.4444776E-2,-2.4739493E-2,-1.2087526E-2],"split_indices":[51,19,28,60,0,22,27,42,0,0,19,25,0,5,44,0,29,51,4,0,0,55,29,0,40,0,0,0,0,0,0,0,0,0,0,0,0],"split_type":[0,0,0,0,0,0,0,0,0,0,0,0,0,0,0,0,0,0,0,0,0,0,0,0,0,0,0,0,0,0,0,0,0,0,0,0,0],"sum_hessian":[1.5275941E2,1.05235954E2,4.7523457E1,1.0149894E2,3.7370152E0,3.9615143E1,7.908313E0,9.92993E1,2.199636E0,9.411492E0,3.0203651E1,5.296941E0,2.611372E0,1.5647428E1,8.365187E1,3.2919176E0,6.1195745E0,2.4491377E1,5.712275E0,2.430976E0,2.865965E0,6.314225E0,9.333202E0,3.4663317E0,8.018554E1,2.1758003E0,3.9437742E0,2.5986333E0,2.1892744E1,2.4154272E0,3.2968478E0,3.4893005E0,2.8249247E0,2.1555712E0,7.177631E0,6.0899418E1,1.9286123E1],"tree_param":{"num_deleted":"0","num_feature":"64","num_nodes":"37","size_leaf_vector":"1"}},{"base_weights":[3.1739798E-1,3.1875353E-2,7.4548787E-1,7.9536164E-1,-6.1631285E-2,9.4728506E-1,2.5813738E-1,1.3489249E0,-2.0265356E-2,-1.0759947E-1,5.4823067E-2,-0E0,1.1214542E0,1.1148069E0,-1.6811062E-1,1.6934683E0,1.2178633E-2,-2.005579E-1,4.3237206E-1,4.0452532E-2,-2.2616887E-2,1.3359139E0,-1.4186946E-1,7.43672E-2,1.0015707E-2,2.8792283E-2,-3.495874E-1,1.208458E-2,1.22252464E-1,-2.7533144E-1,1.4453301E-1,7.7561826E-2,5.1924694E-2,1.6190506E0,5.122732E-1,1.24684675E-2,-2.0674827E-2,-2.4863264E-2,1.874308E-3,9.121949E-3,-1.806226E-2,5.010587E-2,-1.911385E-2,-1.671139E-2,3.4235276E-2,9.401457E-2,3.7852142E-2,-1.8788101E-2,4.3783516E-2],"categories":[],"categories_nodes":[],"categories_segments":[],"categories_sizes":[],"default_left":[0,0,0,0,0,0,0,0,0,0,0,0,0,0,0,0,0,0,0,0,0,0,0,0,0,0,0,0,0,0,0,0,0,0,0,0,0,0,0,0,0,0,0,0,0,0,0,0,0],"id":15,"left_children":[1,3,5,7,9,11,13,15,-1,17,-1,19,21,23,25,27,-1,29,31,-1,-1,33,35,-1,-1,-1,37,-1,-1,39,41,-1,43,45,47,-1,-1,-1,-1,-1,-1,-1,-1,-1,-1,-1,-1,-1,-1],"loss_changes":[1.9052814E1,6.918287E0,5.7830696E0,7.669775E0,4.576975E0,7.1226997E0,7.52145E0,2.2600555E0,0E0,4.246903E0,0E0,3.2672582E0,1.0289112E1,1.8485775E0,2.072822E0,5.1423035E0,0E0,1.9092705E0,5.0371733E0,0E0,0E0,6.339363E0,7.7650815E-1,0E0,0E0,0E0,7.510601E-1,0E0,0E0,2.4322314E0,6.422136E0,0E0,2.7939918E0,3.4929543E0,3.4935193E0,0E0,0E0,0E0,0E0,0E0,0E0,0E0,0E0,0E0,0E0,0E0,0E0,0E0,0E0],"parents":[2147483647,0,0,1,1,2,2,3,3,4,4,5,5,6,6,7,7,9,9,11,11,12,12,13,13,14,14,15,15,17,17,18,18,21,21,22,22,26,26,29,29,30,30,32,32,33,33,34,34],"right_children":[2,4,6,8,10,12,14,16,-1,18,-1,20,22,24,26,28,-1,30,32,-1,-1,34,36,-1,-1,-1,38,-1,-1,40,42,-1,44,46,48,-1,-1,-1,-1,-1,-1,-1,-1,-1,-1,-1,-1,-1,-1],"split_conditions":[3.3664173E-1,-1.4576331E-1,1.4195925E-2,8.474507E7,9.972433E-1,-2.378948E-3,4.6713234E1,1.8472332E-1,-2.0265356E-2,4.5385376E-2,5.4823067E-2,-6.728861E-3,-1.4462615E-2,-5.817029E-1,4.1759465E-2,2.5768178E7,1.2178633E-2,1.2459137E-1,8.414649E7,4.0452532E-2,-2.2616887E-2,2.5065027E2,1.9420362E-1,7.43672E-2,1.0015707E-2,2.8792283E-2,1.2583177E-1,1.208458E-2,1.22252464E-1,1.6715143E-2,-1.516435E-1,7.7561826E-2,1.26390024E8,7.274084E-1,-1.330432E-2,1.24684675E-2,-2.0674827E-2,-2.4863264E-2,1.874308E-3,9.121949E-3,-1.806226E-2,5.010587E-2,-1.911385E-2,-1.671139E-2,3.4235276E-2,9.401457E-2,3.7852142E-2,-1.8788101E-2,4.3783516E-2],"split_indices":[63,10,16,44,52,45,56,36,0,2,0,10,4,25,17,44,0,45,46,0,0,57,10,0,0,0,8,0,0,7,36,0,49,63,29,0,0,0,0,0,0,0,0,0,0,0,0,0,0],"split_type":[0,0,0,0,0,0,0,0,0,0,0,0,0,0,0,0,0,0,0,0,0,0,0,0,0,0,0,0,0,0,0,0,0,0,0,0,0,0,0,0,0,0,0,0,0,0,0,0,0],"sum_hessian":[1.5570801E2,9.419256E1,6.1515453E1,9.575079E0,8.4617485E1,4.2689907E1,1.8825542E1,6.5260706E0,3.049008E0,8.23425E1,2.274984E0,6.8534017E0,3.5836506E1,5.796001E0,1.3029542E1,4.500662E0,2.0254085E0,7.094311E1,1.139939E1,2.2353764E0,4.6180253E0,3.0654371E1,5.1821365E0,3.595526E0,2.2004752E0,2.0208812E0,1.100866E1,2.0313926E0,2.4692693E0,5.871319E1,1.2229918E1,2.0449905E0,9.3544E0,2.200332E1,8.65105E0,2.0062375E0,3.1758993E0,7.9494314E0,3.059229E0,8.916473E0,4.979672E1,4.382808E0,7.8471093E0,6.0041595E0,3.3502405E0,1.5890294E1,6.1130266E0,2.4223456E0,6.2287045E0],"tree_param":{"num_deleted":"0","num_feature":"64","num_nodes":"49","size_leaf_vector":"1"}},{"base_weights":[1.3494179E-1,7.538656E-2,1.4466758E0,-5.6909855E-2,7.2186166E-1,9.358156E-2,3.0225074E-2,-1.3573523E-1,4.4355142E-1,1.0108189E-1,1.1075313E0,2.4582766E-1,-2.2044572E-1,7.735682E-2,1.8491371E-1,4.087537E-2,-3.4752494E-1,1.5094681E0,2.7516955E-1,7.124641E-2,1.3439426E-2,-3.992213E-1,-4.1435674E-2,-3.157052E-1,5.1557827E-1,-2.2430034E-2,-7.9772295E-4,5.765424E-1,1.0750588E-1,-2.0508764E-2,5.2114386E-2,2.53937E-2,-1.0466308E-2,-2.7465925E-2,1.1912091E-3,6.7139226E-3,-2.266401E-2,-2.116122E-2,-7.689552E-4,6.1256822E-2,-2.1639278E-2,7.477612E-2,-1.9091316E-2],"categories":[],"categories_nodes":[],"categories_segments":[],"categories_sizes":[],"default_left":[0,0,0,0,0,0,0,0,0,0,0,0,0,0,0,0,0,0,0,0,0,0,0,0,0,0,0,0,0,0,0,0,0,0,0,0,0,0,0,0,0,0,0],"id":16,"left_children":[1,3,5,7,9,-1,-1,11,13,15,17,19,21,-1,23,-1,25,27,29,-1,31,33,35,37,39,-1,-1,41,-1,-1,-1,-1,-1,-1,-1,-1,-1,-1,-1,-1,-1,-1,-1],"loss_changes":[1.1936125E1,1.2977773E1,1.0020275E0,4.9888434E0,5.9357786E0,0E0,0E0,3.592528E0,4.4410653E0,3.889878E0,4.656111E0,5.361212E0,2.8320465E0,0E0,2.685328E0,0E0,1.9522941E-1,4.630783E0,3.8628097E0,0E0,2.110122E0,2.9121437E0,3.4621484E0,1.599558E-1,7.072467E0,0E0,0E0,5.6272287E0,0E0,0E0,0E0,0E0,0E0,0E0,0E0,0E0,0E0,0E0,0E0,0E0,0E0,0E0,0E0],"parents":[2147483647,0,0,1,1,2,2,3,3,4,4,7,7,8,8,9,9,10,10,11,11,12,12,14,14,16,16,17,17,18,18,20,20,21,21,22,22,23,23,24,24,27,27],"right_children":[2,4,6,8,10,-1,-1,12,14,16,18,20,22,-1,24,-1,26,28,30,-1,32,34,36,38,40,-1,-1,42,-1,-1,-1,-1,-1,-1,-1,-1,-1,-1,-1,-1,-1,-1,-1],"split_conditions":[1.6231602E0,2.522216E2,2.778222E8,1.9641207E-1,-2.9368116E-2,9.358156E-2,3.0225074E-2,-1.4065282E-3,1.4822807E-2,-4.409886E-1,4.4683374E-2,1.0464171E0,-3.661508E-2,7.735682E-2,2.4774166E-2,4.087537E-2,-2.7258998E-2,4.2280745E-2,-4.8622184E-2,7.124641E-2,-1.0326079E-1,7.701216E-1,1.3126047E2,1.0829427E8,2.6969594E8,-2.2430034E-2,-7.9772295E-4,1.3880313E-2,1.0750588E-1,-2.0508764E-2,5.2114386E-2,2.53937E-2,-1.0466308E-2,-2.7465925E-2,1.1912091E-3,6.7139226E-3,-2.266401E-2,-2.116122E-2,-7.689552E-4,6.1256822E-2,-2.1639278E-2,7.477612E-2,-1.9091316E-2],"split_indices":[53,57,40,23,29,0,0,42,48,30,17,53,29,0,42,0,4,45,4,0,29,20,56,49,40,0,0,39,0,0,0,0,0,0,0,0,0,0,0,0,0,0,0],"split_type":[0,0,0,0,0,0,0,0,0,0,0,0,0,0,0,0,0,0,0,0,0,0,0,0,0,0,0,0,0,0,0,0,0,0,0,0,0,0,0,0,0,0,0],"sum_hessian":[1.5513535E2,1.4948227E2,5.6530747E0,1.2471711E2,2.4765163E1,2.8658614E0,2.7872136E0,1.0854869E2,1.6168413E1,1.0072959E1,1.46922035E1,1.916064E1,8.9388054E1,2.0505185E0,1.4117895E1,3.6478796E0,6.4250793E0,9.278244E0,5.4139595E0,2.2388897E0,1.6921751E1,4.382834E1,4.5559715E1,5.5134583E0,8.604437E0,4.4224043E0,2.002675E0,4.6145205E0,4.663724E0,3.0362833E0,2.377676E0,4.997873E0,1.1923878E1,3.2304535E1,1.1523803E1,3.2236927E1,1.3322787E1,3.5134332E0,2.000025E0,4.8152833E0,3.7891533E0,2.1228123E0,2.4917085E0],"tree_param":{"num_deleted":"0","num_feature":"64","num_nodes":"43","size_leaf_vector":"1"}},{"base_weights":[-2.436183E-1,4.728378E-1,-2.777023E-1,-1.1902436E-3,5.5093646E-2,3.745185E-2,-3.7549093E-1,-1.3623251E-1,5.9152897E-2,1.0038975E-2,-3.9685977E-1,-2.2686672E-1,2.3069173E-2,-4.1083223E-1,2.043545E-3,3.3546057E-1,-3.682857E-1,-2.9839745E-1,-4.9054277E-1,5.5161573E-2,-1.9575642E-2,-1.2153666E-4,-2.6398366E-2,-1.9554347E-2,2.7495122E-3,-2.7645482E-2,-1.6190369E-2],"categories":[],"categories_nodes":[],"categories_segments":[],"categories_sizes":[],"default_left":[0,0,0,0,0,0,0,0,0,0,0,0,0,0,0,0,0,0,0,0,0,0,0,0,0,0,0],"id":17,"left_children":[1,3,5,-1,-1,7,9,11,-1,-1,13,15,-1,17,-1,19,21,23,25,-1,-1,-1,-1,-1,-1,-1,-1],"loss_changes":[3.8295288E0,2.3679047E0,4.5502253E0,0E0,0E0,7.282315E0,1.4763832E0,1.7842474E0,0E0,0E0,7.1637726E-1,2.3627927E0,0E0,7.184086E-1,0E0,3.8695052E0,1.2943432E0,1.586575E0,3.5243988E-1,0E0,0E0,0E0,0E0,0E0,0E0,0E0,0E0],"parents":[2147483647,0,0,1,1,2,2,5,5,6,6,7,7,10,10,11,11,13,13,15,15,16,16,17,17,18,18],"right_children":[2,4,6,-1,-1,8,10,12,-1,-1,14,16,-1,18,-1,20,22,24,26,-1,-1,-1,-1,-1,-1,-1,-1],"split_conditions":[-2.1053976E-1,-9.008262E-3,4.344598E-2,-1.1902436E-3,5.5093646E-2,6.624307E-1,-1.695407E-2,4.5319006E-2,5.9152897E-2,1.0038975E-2,3.6933267E2,1.3776208E-2,2.3069173E-2,2.7459262E-2,2.043545E-3,3.6436886E-2,-1.3960277E-1,3.9210457E-2,1.027944E-1,5.5161573E-2,-1.9575642E-2,-1.2153666E-4,-2.6398366E-2,-1.9554347E-2,2.7495122E-3,-2.7645482E-2,-1.6190369E-2],"split_indices":[10,16,51,0,0,63,6,12,0,0,54,2,0,2,0,62,36,22,48,0,0,0,0,0,0,0,0],"split_type":[0,0,0,0,0,0,0,0,0,0,0,0,0,0,0,0,0,0,0,0,0,0,0,0,0,0,0],"sum_hessian":[1.5124326E2,6.150535E0,1.4509273E2,3.8857768E0,2.2647583E0,3.4263237E1,1.1082949E2,3.0441776E1,3.8214598E0,3.4952278E0,1.0733426E2,2.7116943E1,3.324833E0,1.0429504E2,3.0392222E0,5.031371E0,2.2085573E1,4.5754536E1,5.85405E1,2.262203E0,2.7691681E0,7.209342E0,1.4876231E1,3.6386955E1,9.36758E0,4.048236E1,1.805814E1],"tree_param":{"num_deleted":"0","num_feature":"64","num_nodes":"27","size_leaf_vector":"1"}},{"base_weights":[-1.04237504E-1,3.7883136E-2,-2.547683E-1,-6.422944E-2,6.710493E-1,-3.0117542E-1,3.6715996E-2,-3.680452E-1,9.4100386E-2,1.0691487E0,-8.809683E-3,-3.370941E-1,2.6650611E-2,-4.8325858E-1,7.561687E-3,3.2630908E-1,-2.9439706E-1,7.701696E-2,2.012053E-2,-2.1333827E-1,-2.7090017E-2,-1.8794144E-3,-2.6527314E-2,8.2904893E-1,-5.801088E-2,-2.5502924E-2,9.918441E-2,3.3278003E-1,-3.3335346E-1,-0E0,5.7559323E-2,-2.1158343E-2,2.8481258E-2,-2.0218853E-2,3.2907818E-2,-1.244277E-2,5.123595E-2,-2.4871774E-2,-2.03144E-3],"categories":[],"categories_nodes":[],"categories_segments":[],"categories_sizes":[],"default_left":[0,0,0,0,0,0,0,0,0,0,0,0,0,0,0,0,0,0,0,0,0,0,0,0,0,0,0,0,0,0,0,0,0,0,0,0,0,0,0],"id":18,"left_children":[1,3,5,7,9,11,-1,13,15,17,-1,19,-1,21,-1,23,25,-1,-1,27,-1,-1,-1,29,31,-1,33,35,37,-1,-1,-1,-1,-1,-1,-1,-1,-1,-1],"loss_changes":[3.1843233E0,5.03927E0,3.4846969E0,3.2614589E0,3.9286976E0,2.246118E0,0E0,1.4947016E0,4.0961323E0,1.5691395E0,0E0,1.5182605E0,0E0,3.3185768E-1,0E0,5.6058397E0,1.5294932E0,0E0,0E0,2.995226E0,0E0,0E0,0E0,3.324562E0,4.099205E0,0E0,2.1687717E0,3.66439E0,1.6900082E0,0E0,0E0,0E0,0E0,0E0,0E0,0E0,0E0,0E0,0E0],"parents":[2147483647,0,0,1,1,2,2,3,3,4,4,5,5,7,7,8,8,9,9,11,11,13,13,15,15,16,16,19,19,23,23,24,24,26,26,27,27,28,28],"right_children":[2,4,6,8,10,12,-1,14,16,18,-1,20,-1,22,-1,24,26,-1,-1,28,-1,-1,-1,30,32,-1,34,36,38,-1,-1,-1,-1,-1,-1,-1,-1,-1,-1],"split_conditions":[1.6790138E-1,8.578128E7,1.4122155E0,-3.6725716E-3,3.9179593E-2,3.4941486E2,3.6715996E-2,6.477139E-4,3.6774544E7,1.8707986E8,-8.809683E-3,-9.858837E-2,2.6650611E-2,1.0112548E0,7.561687E-3,1.338675E-2,1.4899753E-2,7.701696E-2,2.012053E-2,3.892054E7,-2.7090017E-2,-1.8794144E-3,-2.6527314E-2,7.713288E7,4.986911E-3,-2.5502924E-2,3.7969545E-2,9.988678E7,1.2459137E-1,-0E0,5.7559323E-2,-2.1158343E-2,2.8481258E-2,-2.0218853E-2,3.2907818E-2,-1.244277E-2,5.123595E-2,-2.4871774E-2,-2.03144E-3],"split_indices":[20,44,20,16,61,57,0,61,41,43,0,27,0,53,0,10,60,0,0,44,0,0,0,37,11,0,25,46,45,0,0,0,0,0,0,0,0,0,0],"split_type":[0,0,0,0,0,0,0,0,0,0,0,0,0,0,0,0,0,0,0,0,0,0,0,0,0,0,0,0,0,0,0,0,0,0,0,0,0,0,0],"sum_hessian":[1.463802E2,7.533664E1,7.104356E1,6.5511955E1,9.824685E0,6.8620544E1,2.4230075E0,2.2206814E1,4.330514E1,6.5861325E0,3.238553E0,6.647407E1,2.1464803E0,1.83888E1,3.8180153E0,2.7365808E1,1.5939333E1,3.0033736E0,3.582759E0,4.3005577E1,2.346849E1,2.1390042E0,1.6249794E1,1.1467656E1,1.5898152E1,1.0270041E1,5.669292E0,7.2786574E0,3.5726917E1,3.4927201E0,7.9749365E0,1.0357378E1,5.5407743E0,3.0338528E0,2.6354392E0,4.223915E0,3.0547423E0,2.2226994E1,1.3499925E1],"tree_param":{"num_deleted":"0","num_feature":"64","num_nodes":"39","size_leaf_vector":"1"}},{"base_weights":[6.637965E-2,5.5749404E-1,-3.8915373E-2,1.20537885E-1,1.4770792E0,7.5218284E-1,-1.0311686E-1,-2.3847193E-2,4.3112653E-1,1.0165381E-1,1.5072211E-2,-1.1001934E-2,1.4537153E0,-2.6518807E-1,9.1714464E-2,-2.0372046E-2,7.3064834E-1,1.0259136E-1,1.1836429E-2,-5.6923803E-2,-4.5911905E-1,5.166908E-1,-1.3169202E-1,-1.8337818E-2,1.094052E0,2.751478E-1,-4.0661883E-1,-5.1286423E-1,-2.232134E-3,7.959352E-2,2.5168285E-1,3.379365E-2,-2.4012896E-1,4.5089624E-3,7.8447156E-2,4.3121155E-2,-1.2209251E-3,1.0628302E-2,-2.6146043E-2,-2.7289292E-2,-1.9964832E-3,2.4385845E-2,-1.3601585E-2,-1.731772E-2,3.545409E-2],"categories":[],"categories_nodes":[],"categories_segments":[],"categories_sizes":[],"default_left":[0,0,0,0,0,0,0,0,0,0,0,0,0,0,0,0,0,0,0,0,0,0,0,0,0,0,0,0,0,0,0,0,0,0,0,0,0,0,0,0,0,0,0,0,0],"id":19,"left_children":[1,3,5,7,9,11,13,-1,15,-1,-1,-1,17,19,21,-1,23,-1,-1,25,27,29,31,-1,33,35,37,39,-1,-1,41,-1,43,-1,-1,-1,-1,-1,-1,-1,-1,-1,-1,-1,-1],"loss_changes":[7.883315E0,1.0469508E1,6.36789E0,3.800211E0,4.71031E0,6.8518586E0,3.7276707E0,0E0,3.6948595E0,0E0,0E0,0E0,3.3973656E0,2.5176806E0,5.183263E0,0E0,4.588347E0,0E0,0E0,3.8845909E0,6.539092E-1,4.766422E0,3.2440975E0,0E0,3.5397472E0,3.105473E0,1.3174012E0,3.6806917E-1,0E0,0E0,2.1728725E0,0E0,3.467358E0,0E0,0E0,0E0,0E0,0E0,0E0,0E0,0E0,0E0,0E0,0E0,0E0],"parents":[2147483647,0,0,1,1,2,2,3,3,4,4,5,5,6,6,8,8,12,12,13,13,14,14,16,16,19,19,20,20,21,21,22,22,24,24,25,25,26,26,27,27,30,30,32,32],"right_children":[2,4,6,8,10,12,14,-1,16,-1,-1,-1,18,20,22,-1,24,-1,-1,26,28,30,32,-1,34,36,38,40,-1,-1,42,-1,44,-1,-1,-1,-1,-1,-1,-1,-1,-1,-1,-1,-1],"split_conditions":[1.8997627E1,4.0347807E-2,2.6228052E-2,1.2186825E8,6.0444736E-1,-1.139787E-1,4.4097628E7,-2.3847193E-2,-1.6527334E-2,1.0165381E-1,1.5072211E-2,-1.1001934E-2,1.4412859E-1,2.1487754E7,8.140346E7,-2.0372046E-2,-4.5100042E-1,1.0259136E-1,1.1836429E-2,-1.7110882E-2,8.7395624E7,3.539969E-2,5.405771E7,-1.8337818E-2,-4.8569307E-2,-1.516435E-1,-3.670974E-1,3.262871E2,-2.232134E-3,7.959352E-2,1.3793495E-2,3.379365E-2,1.9641207E-1,4.5089624E-3,7.8447156E-2,4.3121155E-2,-1.2209251E-3,1.0628302E-2,-2.6146043E-2,-2.7289292E-2,-1.9964832E-3,2.4385845E-2,-1.3601585E-2,-1.731772E-2,3.545409E-2],"split_indices":[59,3,51,49,20,36,41,0,39,0,0,0,36,41,50,0,30,0,0,29,50,45,44,0,5,36,28,58,0,0,60,0,8,0,0,0,0,0,0,0,0,0,0,0,0],"split_type":[0,0,0,0,0,0,0,0,0,0,0,0,0,0,0,0,0,0,0,0,0,0,0,0,0,0,0,0,0,0,0,0,0,0,0,0,0,0,0,0,0,0,0,0,0],"sum_hessian":[1.5002446E2,2.5896019E1,1.2412844E2,1.8395103E1,7.500916E0,8.396179E0,1.1573226E2,5.9983845E0,1.2396718E1,4.53959E0,2.9613264E0,3.7470775E0,4.6491013E0,6.3260727E1,5.247154E1,3.079871E0,9.316848E0,2.6020923E0,2.047009E0,3.137548E1,3.1885244E1,1.7781467E1,3.469007E1,2.2469912E0,7.069856E0,1.605593E1,1.5319551E1,2.7801567E1,4.083678E0,2.451424E0,1.5330043E1,3.377994E0,3.1312077E1,2.720166E0,4.3496904E0,4.901618E0,1.1154311E1,2.1556199E0,1.3163932E1,2.5650513E1,2.1510541E0,1.0746402E1,4.583641E0,2.882658E1,2.4854963E0],"tree_param":{"num_deleted":"0","num_feature":"64","num_nodes":"45","size_leaf_vector":"1"}},{"base_weights":[4.816553E-2,1.0711643E0,-2.2729725E-2,1.6085672E0,-7.3249773E-3,1.5249762E-1,-2.4534354E-1,3.271234E-2,1.0017928E-1,5.8977134E-3,7.013606E-1,-3.1561998E-1,3.681199E-1,-2.5987193E-2,1.3562046E-1,9.131289E-1,-1.869406E-2,2.8177112E-2,-4.3705532E-1,-1.8396934E-2,4.156324E-2,-1.2795006E-1,4.3100512E-1,-6.37517E-2,1.3363262E0,-3.0763525E-1,5.5493295E-1,-1.462294E-1,-2.7332667E-2,2.6681373E-2,-1.1597448E-2,3.8305715E-2,-1.3546235E-2,1.2524401E-2,-1.8299779E-2,8.5745685E-2,2.1734735E-2,-2.4353173E-2,1.1347688E-2,7.2293155E-2,-9.635009E-3,-2.0544712E-2,2.9769246E-2],"categories":[],"categories_nodes":[],"categories_segments":[],"categories_sizes":[],"default_left":[0,0,0,0,0,0,0,0,0,0,0,0,0,0,0,0,0,0,0,0,0,0,0,0,0,0,0,0,0,0,0,0,0,0,0,0,0,0,0,0,0,0,0],"id":20,"left_children":[1,3,5,7,-1,9,11,-1,-1,13,15,17,19,-1,21,23,-1,25,27,-1,-1,29,31,33,35,37,39,41,-1,-1,-1,-1,-1,-1,-1,-1,-1,-1,-1,-1,-1,-1,-1],"loss_changes":[1.1173019E1,6.9132633E0,5.636295E0,1.0868263E0,0E0,6.406118E0,2.8592265E0,0E0,0E0,4.445146E0,4.2267284E0,2.469647E0,2.6933274E0,0E0,4.200428E0,6.1763144E0,0E0,2.996059E0,1.2228775E0,0E0,0E0,2.0561273E0,6.215498E0,6.01242E-1,2.5152988E0,1.1145556E0,4.8243713E0,2.8558033E0,0E0,0E0,0E0,0E0,0E0,0E0,0E0,0E0,0E0,0E0,0E0,0E0,0E0,0E0,0E0],"parents":[2147483647,0,0,1,1,2,2,3,3,5,5,6,6,9,9,10,10,11,11,12,12,14,14,15,15,17,17,18,18,21,21,22,22,23,23,24,24,25,25,26,26,27,27],"right_children":[2,4,6,8,-1,10,12,-1,-1,14,16,18,20,-1,22,24,-1,26,28,-1,-1,30,32,34,36,38,40,42,-1,-1,-1,-1,-1,-1,-1,-1,-1,-1,-1,-1,-1,-1,-1],"split_conditions":[1.6378684E7,-3.2615893E-2,3.4591146E-2,3.6642984E-2,-7.3249773E-3,8.420912E7,1.15035336E8,3.271234E-2,1.0017928E-1,2.0126108E-2,9.1165144E7,4.3201596E-2,9.047945E-2,-2.5987193E-2,5.7494547E-2,1.453344E-2,-1.869406E-2,4.5633186E-2,6.400069E7,-1.8396934E-2,4.156324E-2,-7.5729646E-2,1.1512024E-1,1.5634168E-2,1.0319699E8,2.1264505E-1,8.072002E7,4.819371E7,-2.7332667E-2,2.6681373E-2,-1.1597448E-2,3.8305715E-2,-1.3546235E-2,1.2524401E-2,-1.8299779E-2,8.5745685E-2,2.1734735E-2,-2.4353173E-2,1.1347688E-2,7.2293155E-2,-9.635009E-3,-2.0544712E-2,2.9769246E-2],"split_indices":[44,27,2,51,0,47,44,0,0,7,50,48,39,0,48,2,0,10,50,0,0,0,51,42,47,27,50,50,0,0,0,0,0,0,0,0,0,0,0,0,0,0,0],"split_type":[0,0,0,0,0,0,0,0,0,0,0,0,0,0,0,0,0,0,0,0,0,0,0,0,0,0,0,0,0,0,0,0,0,0,0,0,0,0,0,0,0,0,0],"sum_hessian":[1.512746E2,8.98111E0,1.4229349E2,6.0653353E0,2.9157746E0,7.9545845E1,6.274764E1,2.6273491E0,3.4379861E0,6.3719475E1,1.582637E1,5.6880146E1,5.8674917E0,1.1864919E1,5.1854557E1,1.3425914E1,2.4004564E0,1.4832408E1,4.204774E1,2.262089E0,3.6054025E0,2.752363E1,2.4330927E1,4.243518E0,9.182396E0,9.196001E0,5.6364074E0,1.2397304E1,2.9650436E1,3.0471141E0,2.4476515E1,1.6503159E1,7.827769E0,2.0022156E0,2.2413025E0,5.753591E0,3.4288049E0,7.0917153E0,2.1042855E0,2.2066493E0,3.429758E0,9.56468E0,2.8326235E0],"tree_param":{"num_deleted":"0","num_feature":"64","num_nodes":"43","size_leaf_vector":"1"}},{"base_weights":[1.536906E-2,1.5813224E-1,-2.1190332E-1,5.299745E-2,6.589747E-1,-3.27509E-1,3.2374734E-1,4.7823933E-1,-7.715576E-2,9.4283587E-1,-1.0574202E-2,2.9092416E-2,-3.8192663E-1,-2.1554122E-2,8.331751E-1,7.121528E-2,1.77923E-1,1.4820029E-1,-2.92999E-1,-4.036779E-3,1.2137202E0,-4.3957627E-1,1.942399E-2,6.1720427E-2,5.7214703E-3,8.662726E-1,-2.9577246E-1,-4.3740913E-2,5.7353105E-2,2.5932938E-2,-3.7526885E-1,6.7252265E-3,1.5507358E0,7.0532137E-3,-5.0260305E-1,6.988171E-2,-3.1904832E-3,-2.4133122E-2,1.07841045E-2,4.6233434E-2,-9.9192625E-3,-2.678802E-2,-1.649458E-3,2.5669312E-2,9.396772E-2,-2.751121E-2,-8.425905E-3],"categories":[],"categories_nodes":[],"categories_segments":[],"categories_sizes":[],"default_left":[0,0,0,0,0,0,0,0,0,0,0,0,0,0,0,0,0,0,0,0,0,0,0,0,0,0,0,0,0,0,0,0,0,0,0,0,0,0,0,0,0,0,0,0,0,0,0],"id":21,"left_children":[1,3,5,7,9,11,13,15,17,19,-1,-1,21,-1,23,-1,25,27,29,-1,31,33,-1,-1,-1,35,37,39,-1,-1,41,-1,43,-1,45,-1,-1,-1,-1,-1,-1,-1,-1,-1,-1,-1,-1],"loss_changes":[4.863229E0,4.757664E0,3.6763458E0,4.371676E0,4.1699247E0,2.5808396E0,4.4688377E0,4.8434353E0,2.9809132E0,3.5840616E0,0E0,0E0,2.2215996E0,0E0,1.6671853E0,0E0,5.291589E0,5.880749E0,2.2674694E0,0E0,3.1721153E0,1.6969194E0,0E0,0E0,0E0,3.4667134E0,1.0583076E0,3.9904938E0,0E0,0E0,1.5224771E0,0E0,1.2743721E0,0E0,4.6485138E-1,0E0,0E0,0E0,0E0,0E0,0E0,0E0,0E0,0E0,0E0,0E0,0E0],"parents":[2147483647,0,0,1,1,2,2,3,3,4,4,5,5,6,6,7,7,8,8,9,9,12,12,14,14,16,16,17,17,18,18,20,20,21,21,25,25,26,26,27,27,30,30,32,32,34,34],"right_children":[2,4,6,8,10,12,14,16,18,20,-1,-1,22,-1,24,-1,26,28,30,-1,32,34,-1,-1,-1,36,38,40,-1,-1,42,-1,44,-1,46,-1,-1,-1,-1,-1,-1,-1,-1,-1,-1,-1,-1],"split_conditions":[4.7152948E-2,9.597383E-2,2.0416213E-2,1.8843836E1,1.2860574E-2,-2.4248184E-1,-6.932073E-2,3.246466E-1,9.263358E7,3.0369343E-2,-1.0574202E-2,2.9092416E-2,9.46682E-2,-2.1554122E-2,-3.0609662E-2,7.121528E-2,1.60168E1,3.6984704E-2,3.2298002E-2,-4.036779E-3,-1.2831299E-3,1.0189884E-2,1.942399E-2,6.1720427E-2,5.7214703E-3,5.1557764E7,2.5974473E-2,2.01834E2,5.7353105E-2,2.5932938E-2,1.5828429E-1,6.7252265E-3,2.1887444E7,7.0532137E-3,-5.0934106E-2,6.988171E-2,-3.1904832E-3,-2.4133122E-2,1.07841045E-2,4.6233434E-2,-9.9192625E-3,-2.678802E-2,-1.649458E-3,2.5669312E-2,9.396772E-2,-2.751121E-2,-8.425905E-3],"split_indices":[3,29,11,59,60,20,9,33,37,22,0,0,7,0,9,0,55,7,51,0,11,45,0,0,0,47,60,54,0,0,26,0,47,0,19,0,0,0,0,0,0,0,0,0,0,0,0],"split_type":[0,0,0,0,0,0,0,0,0,0,0,0,0,0,0,0,0,0,0,0,0,0,0,0,0,0,0,0,0,0,0,0,0,0,0,0,0,0,0,0,0,0,0,0,0,0,0],"sum_hessian":[1.4801924E2,9.1369125E1,5.6650116E1,7.65959E1,1.4773218E1,4.7067204E1,9.582913E0,1.7503067E1,5.909284E1,1.1164236E1,3.608982E0,2.006542E0,4.506066E1,3.8442702E0,5.7386427E0,3.2353368E0,1.426773E1,2.8836023E1,3.0256815E1,2.4059267E0,8.758308E0,4.2443806E1,2.6168532E0,3.1330605E0,2.6055825E0,5.5643125E0,8.703418E0,2.4906155E1,3.9298694E0,2.1845548E0,2.807226E1,2.4877343E0,6.2705746E0,3.8794243E0,3.856438E1,3.2897031E0,2.274609E0,6.5586467E0,2.144771E0,2.654878E0,2.2251276E1,1.8527477E1,9.544783E0,2.198171E0,4.072404E0,3.2924915E1,5.6394687E0],"tree_param":{"num_deleted":"0","num_feature":"64","num_nodes":"47","size_leaf_vector":"1"}},{"base_weights":[-1.8052502E-1,2.424503E-2,-2.895992E-1,-2.3580818E-1,3.504338E-1,-3.5971218E-1,2.2183785E-1,1.8032463E-1,-4.8022228E-1,-3.891608E-2,1.1133866E0,-4.4612038E-1,-1.0394472E-1,-2.057082E-2,5.151143E-1,-1.4293627E-1,4.5551628E-2,-1.8563943E-3,-2.6466105E-2,4.4030777E-1,-2.6203954E-1,-2.3373014E-3,1.5758853E0,-1.9970998E-1,-4.967467E-1,1.9548866E-1,-4.2499027E-1,9.8117304E-1,-1.9277226E-2,-2.259909E-2,1.5156965E-2,4.542069E-2,-3.867276E-3,-2.405882E-2,7.348274E-2,1.196964E-2,1.1052256E-1,-4.09099E-1,2.6285103E-2,-5.1414764E-1,-1.7107141E-3,7.228577E-1,-2.1779816E-1,-1.8300355E-3,-2.4933325E-2,6.7866474E-2,9.700928E-3,1.0517749E-2,-2.6439608E-3,-1.5300292E-3,-2.4424661E-2,-2.6655003E-2,-1.8395802E-3,6.6252716E-2,-3.6664703E-3,-2.2307044E-2,1.0802508E-2],"categories":[],"categories_nodes":[],"categories_segments":[],"categories_sizes":[],"default_left":[0,0,0,0,0,0,0,0,0,0,0,0,0,0,0,0,0,0,0,0,0,0,0,0,0,0,0,0,0,0,0,0,0,0,0,0,0,0,0,0,0,0,0,0,0,0,0,0,0,0,0,0,0,0,0,0,0],"id":22,"left_children":[1,3,5,7,9,11,13,15,17,19,21,23,25,-1,27,29,-1,-1,-1,31,33,-1,35,37,39,41,43,45,-1,-1,-1,-1,-1,-1,47,-1,-1,49,-1,51,-1,53,55,-1,-1,-1,-1,-1,-1,-1,-1,-1,-1,-1,-1,-1,-1],"loss_changes":[3.2828293E0,4.434154E0,3.5113983E0,3.0554733E0,7.062909E0,1.7633715E0,2.4393828E0,2.868478E0,3.2896614E-1,1.8389491E0,4.509842E0,6.1049366E-1,2.307758E0,0E0,4.0944324E0,1.3348615E0,0E0,0E0,0E0,1.4629658E0,9.497189E-1,0E0,4.143018E0,2.125885E0,3.3656788E-1,2.9049711E0,2.581241E-1,1.3864574E0,0E0,0E0,0E0,0E0,0E0,0E0,1.19945005E-1,0E0,0E0,2.4840581E-1,0E0,3.6393642E-1,0E0,2.991038E0,8.72266E-1,0E0,0E0,0E0,0E0,0E0,0E0,0E0,0E0,0E0,0E0,0E0,0E0,0E0,0E0],"parents":[2147483647,0,0,1,1,2,2,3,3,4,4,5,5,6,6,7,7,8,8,9,9,10,10,11,11,12,12,14,14,15,15,19,19,20,20,22,22,23,23,24,24,25,25,26,26,27,27,34,34,37,37,39,39,41,41,42,42],"right_children":[2,4,6,8,10,12,14,16,18,20,22,24,26,-1,28,30,-1,-1,-1,32,34,-1,36,38,40,42,44,46,-1,-1,-1,-1,-1,-1,48,-1,-1,50,-1,52,-1,54,56,-1,-1,-1,-1,-1,-1,-1,-1,-1,-1,-1,-1,-1,-1],"split_conditions":[3.446944E-2,1.87807E1,3.1035738E-2,-3.610201E-2,3.0125652E7,1.0788266E-1,5.738602E7,1.1878345E-1,2.1338778E-2,2.0092057E-2,-1.19903035E-1,-4.88879E-3,3.7596665E-2,-2.057082E-2,2.8834134E8,3.220391E-2,4.5551628E-2,-1.8563943E-3,-2.6466105E-2,1.690023E-2,1.1289823E0,-2.3373014E-3,6.199888E7,8.4425557E-1,6.8875813E-1,3.6869716E7,1.2027799E0,1.104055E0,-1.9277226E-2,-2.259909E-2,1.5156965E-2,4.542069E-2,-3.867276E-3,-2.405882E-2,2.1135806E7,1.196964E-2,1.1052256E-1,8.75892E7,2.6285103E-2,1.8397447E-1,-1.7107141E-3,-2.2943266E-4,8.066578E7,-1.8300355E-3,-2.4933325E-2,6.7866474E-2,9.700928E-3,1.0517749E-2,-2.6439608E-3,-1.5300292E-3,-2.4424661E-2,-2.6655003E-2,-1.8395802E-3,6.6252716E-2,-3.6664703E-3,-2.2307044E-2,1.0802508E-2],"split_indices":[63,56,1,4,41,45,41,48,12,17,19,11,0,0,40,17,0,0,0,39,53,0,50,52,36,38,53,20,0,0,0,0,0,0,47,0,0,40,0,29,0,1,38,0,0,0,0,0,0,0,0,0,0,0,0,0,0],"split_type":[0,0,0,0,0,0,0,0,0,0,0,0,0,0,0,0,0,0,0,0,0,0,0,0,0,0,0,0,0,0,0,0,0,0,0,0,0,0,0,0,0,0,0,0,0,0,0,0,0,0,0,0,0,0,0,0,0],"sum_hessian":[1.4447816E2,5.0163956E1,9.431422E1,2.7895136E1,2.226882E1,8.3376335E1,1.0937882E1,1.0267332E1,1.7627804E1,1.5285997E1,6.9828224E0,6.147311E1,2.1903225E1,3.2267509E0,7.7111316E0,7.5810523E0,2.6862798E0,2.1368592E0,1.5490945E1,4.404488E0,1.0881509E1,2.184907E0,4.7979155E0,1.1656786E1,4.9816322E1,1.1374262E1,1.0528962E1,5.095848E0,2.6152837E0,4.6029916E0,2.9780607E0,2.0179744E0,2.3865137E0,6.5000906E0,4.3814187E0,2.0387785E0,2.759137E0,9.491095E0,2.1656907E0,4.769422E1,2.1221008E0,4.7746067E0,6.599655E0,2.133919E0,8.395043E0,2.8720133E0,2.2238345E0,2.1640484E0,2.2173703E0,2.1042764E0,7.3868184E0,4.5559128E1,2.135094E0,2.4117935E0,2.362813E0,4.4563527E0,2.1433024E0],"tree_param":{"num_deleted":"0","num_feature":"64","num_nodes":"57","size_leaf_vector":"1"}},{"base_weights":[2.824933E-1,3.3709887E-2,6.373341E-1,6.740999E-1,-1.1337741E-1,-2.2539033E-2,7.282108E-1,9.6010095E-1,-2.0951074E-2,-1.7451078E-1,5.077083E-2,9.454282E-1,2.3985052E-1,1.3500885E0,-1.9722683E-3,-2.1798687E-1,4.3818265E-2,-2.0923926E-2,1.0780594E0,-2.1395421E-1,9.41695E-1,1.2165371E-1,6.365545E-1,4.770506E-1,-2.7958846E-1,8.3794117E-1,1.7961816E0,2.083387E-2,-4.1339704E-1,8.520401E-2,2.3871644E-1,6.2187772E-2,4.308828E-3,6.0883503E-2,-8.2744155E-3,-1.7259903E-2,1.2432884E-2,5.2222174E-2,5.3940113E-3,2.6428575E-2,1.0587793E-1,-8.1367645E-4,-2.4665399E-2,-1.82673E-2,3.9708108E-2],"categories":[],"categories_nodes":[],"categories_segments":[],"categories_sizes":[],"default_left":[0,0,0,0,0,0,0,0,0,0,0,0,0,0,0,0,0,0,0,0,0,0,0,0,0,0,0,0,0,0,0,0,0,0,0,0,0,0,0,0,0,0,0,0,0],"id":23,"left_children":[1,3,5,7,9,-1,11,13,-1,15,-1,17,19,21,-1,23,-1,-1,25,27,29,-1,31,33,35,37,39,-1,41,-1,43,-1,-1,-1,-1,-1,-1,-1,-1,-1,-1,-1,-1,-1,-1],"loss_changes":[1.3973642E1,9.06791E0,6.826145E0,6.0805874E0,5.4668837E0,0E0,6.110241E0,5.889324E0,0E0,3.5430923E0,0E0,8.049412E0,6.713174E0,6.3571014E0,0E0,3.2275815E0,0E0,0E0,4.834854E0,1.8077614E0,3.7991652E0,0E0,2.3721466E0,3.2374725E0,2.4373698E0,4.397049E0,2.1265965E0,0E0,2.743379E-1,0E0,2.179322E0,0E0,0E0,0E0,0E0,0E0,0E0,0E0,0E0,0E0,0E0,0E0,0E0,0E0,0E0],"parents":[2147483647,0,0,1,1,2,2,3,3,4,4,6,6,7,7,9,9,11,11,12,12,13,13,15,15,18,18,19,19,20,20,22,22,23,23,24,24,25,25,26,26,28,28,30,30],"right_children":[2,4,6,8,10,-1,12,14,-1,16,-1,18,20,22,-1,24,-1,-1,26,28,30,-1,32,34,36,38,40,-1,42,-1,44,-1,-1,-1,-1,-1,-1,-1,-1,-1,-1,-1,-1,-1,-1],"split_conditions":[3.3664173E-1,8.488743E-1,-8.935918E-3,1.4447844E-1,9.972433E-1,-2.2539033E-2,4.7227833E-1,3.3240213E2,-2.0951074E-2,1.0677611E-1,5.077083E-2,7.713288E7,9.546731E-1,-6.0292934E-3,-1.9722683E-3,-5.6409612E-2,4.3818265E-2,-2.0923926E-2,3.0411464E-1,-3.4037894E-1,4.0427533E-1,1.2165371E-1,1.5634168E-2,-6.0383924E-3,2.74315E2,8.991115E-2,1.2606029E-2,2.083387E-2,-6.444373E-2,8.520401E-2,1.892246E8,6.2187772E-2,4.308828E-3,6.0883503E-2,-8.2744155E-3,-1.7259903E-2,1.2432884E-2,5.2222174E-2,5.3940113E-3,2.6428575E-2,1.0587793E-1,-8.1367645E-4,-2.4665399E-2,-1.82673E-2,3.9708108E-2],"split_indices":[63,52,45,39,52,0,15,57,0,3,0,37,52,30,0,0,0,0,36,36,10,0,42,6,55,51,42,0,4,0,49,0,0,0,0,0,0,0,0,0,0,0,0,0,0],"split_type":[0,0,0,0,0,0,0,0,0,0,0,0,0,0,0,0,0,0,0,0,0,0,0,0,0,0,0,0,0,0,0,0,0,0,0,0,0,0,0,0,0,0,0,0,0],"sum_hessian":[1.5829395E2,9.386254E1,6.4431404E1,1.6989662E1,7.687288E1,4.5762925E0,5.985511E1,1.3635326E1,3.3543363E0,7.380948E1,3.063393E0,4.0638744E1,1.9216366E1,9.628119E0,4.0072064E0,7.172966E1,2.0798223E0,3.3437977E0,3.729495E1,1.2006057E1,7.210309E0,2.8112411E0,6.816879E0,5.1586175E0,6.6571045E1,2.9677723E1,7.6172256E0,2.5025315E0,9.503526E0,2.7075808E0,4.502728E0,2.5557494E0,4.2611294E0,2.0528965E0,3.105721E0,5.9692852E1,6.8781905E0,2.2691647E1,6.9860754E0,2.1384375E0,5.4787884E0,2.003251E0,7.5002747E0,2.2346723E0,2.268056E0],"tree_param":{"num_deleted":"0","num_feature":"64","num_nodes":"45","size_leaf_vector":"1"}},{"base_weights":[9.922839E-2,-1.343917E-2,7.811921E-1,-7.528673E-2,9.428117E-1,-7.9946265E-2,1.137712E0,-1.3586085E-1,6.033137E-1,-1.787334E-2,1.4809141E0,-2.2214832E-2,2.4098508E-2,-2.3936033E-3,1.3330952E0,-3.2564223E-1,8.3472334E-2,-2.0096302E-2,1.0523107E0,2.602894E-2,9.272166E-2,1.5827748E0,1.4753671E-2,-3.6516875E-1,2.4941035E-2,6.221799E-1,-2.6234603E-2,7.471311E-2,5.51004E-3,1.0707915E-2,1.8804808E0,5.5231415E-3,-2.2227049E-2,6.679655E-2,-4.9336003E-3,-2.1279214E-2,4.9113207E-3,3.535785E-2,1.1076488E-1],"categories":[],"categories_nodes":[],"categories_segments":[],"categories_sizes":[],"default_left":[0,0,0,0,0,0,0,0,0,0,0,0,0,0,0,0,0,0,0,0,0,0,0,0,0,0,0,0,0,0,0,0,0,0,0,0,0,0,0],"id":24,"left_children":[1,3,5,7,9,11,13,15,17,-1,19,-1,-1,-1,21,23,25,-1,27,-1,-1,29,-1,31,-1,33,35,-1,-1,-1,37,-1,-1,-1,-1,-1,-1,-1,-1],"loss_changes":[1.2136623E1,7.994568E0,7.066987E0,5.3065796E0,6.3816648E0,1.7262709E0,3.8924923E0,4.991573E0,5.25312E0,0E0,9.677191E-1,0E0,0E0,0E0,2.9271088E0,2.2569008E0,3.3622324E0,0E0,2.8571863E0,0E0,0E0,3.8020954E0,0E0,2.416997E0,0E0,5.196277E0,2.4107633E0,0E0,0E0,0E0,1.5628662E0,0E0,0E0,0E0,0E0,0E0,0E0,0E0,0E0],"parents":[2147483647,0,0,1,1,2,2,3,3,4,4,5,5,6,6,7,7,8,8,10,10,14,14,15,15,16,16,18,18,21,21,23,23,25,25,26,26,30,30],"right_children":[2,4,6,8,10,12,14,16,18,-1,20,-1,-1,-1,22,24,26,-1,28,-1,-1,30,-1,32,-1,34,36,-1,-1,-1,38,-1,-1,-1,-1,-1,-1,-1,-1],"split_conditions":[2.5842374E2,7.812564E-1,-1.5407293E-1,1.5450923E0,7.075693E-2,3.572526E7,1.826374E7,-1.4372143E-2,-8.059082E-2,-1.787334E-2,2.5471374E8,-2.2214832E-2,2.4098508E-2,-2.3936033E-3,4.5590404E-2,2.8176132E2,1.4633482E-2,-2.0096302E-2,1.3724278E-1,2.602894E-2,9.272166E-2,1.3739906E-1,1.4753671E-2,-2.8923793E-2,2.4941035E-2,5.090023E-2,1.6935236E7,7.471311E-2,5.51004E-3,1.0707915E-2,-7.3662885E-2,5.5231415E-3,-2.2227049E-2,6.679655E-2,-4.9336003E-3,-2.1279214E-2,4.9113207E-3,3.535785E-2,1.1076488E-1],"split_indices":[57,63,36,53,51,50,44,29,9,0,37,0,0,0,17,54,2,0,61,0,0,63,0,61,0,18,41,0,0,0,0,0,0,0,0,0,0,0,0],"split_type":[0,0,0,0,0,0,0,0,0,0,0,0,0,0,0,0,0,0,0,0,0,0,0,0,0,0,0,0,0,0,0,0,0,0,0,0,0,0,0],"sum_hessian":[1.5582072E2,1.34443E2,2.1377733E1,1.2723936E2,7.2036324E0,6.4042277E0,1.4973506E1,1.1768184E2,9.557516E0,2.152398E0,5.0512342E0,4.1200447E0,2.284183E0,2.1528983E0,1.2820607E1,6.307579E1,5.4606052E1,2.9144962E0,6.64302E0,2.159779E0,2.8914552E0,9.834047E0,2.98656E0,6.0837482E1,2.2383053E0,8.602814E0,4.600324E1,4.0506167E0,2.5924034E0,2.1241503E0,7.709897E0,8.464296E0,5.2373188E1,3.9636583E0,4.6391554E0,1.0546723E1,3.5456516E1,2.4688532E0,5.241044E0],"tree_param":{"num_deleted":"0","num_feature":"64","num_nodes":"39","size_leaf_vector":"1"}},{"base_weights":[-2.3645009E-1,3.4864E-1,-2.74377E-1,-2.590327E-1,4.847674E-2,-3.3422288E-2,-3.5093772E-1,-8.581259E-4,-1.8457426E-2,3.9616123E-2,-1.1864032E-1,5.961999E-3,-3.9086905E-1,-3.805204E-1,7.287393E-2,3.668408E-2,-3.619514E-1,-4.20319E-1,-6.4562224E-2,-2.5606383E-2,7.5991685E-3,3.3227885E-1,-2.3391647E-2,-2.2861153E-2,-8.4122986E-4,-7.488906E-4,-4.377654E-1,2.7013822E-2,-3.346053E-1,4.8630755E-2,-3.4387906E-3,-2.2766283E-2,-5.8366335E-3,-2.1804826E-2,-1.4571584E-3],"categories":[],"categories_nodes":[],"categories_segments":[],"categories_sizes":[],"default_left":[0,0,0,0,0,0,0,0,0,0,0,0,0,0,0,0,0,0,0,0,0,0,0,0,0,0,0,0,0,0,0,0,0,0,0],"id":25,"left_children":[1,3,5,7,-1,9,11,-1,-1,-1,13,15,17,19,21,-1,23,25,27,-1,-1,29,-1,-1,-1,-1,31,-1,33,-1,-1,-1,-1,-1,-1],"loss_changes":[3.3372793E0,3.79075E0,2.49971E0,9.762433E-2,0E0,2.4718583E0,1.5297174E0,0E0,0E0,0E0,1.687379E0,3.3136141E0,8.2987595E-1,1.1019926E0,2.8598735E0,0E0,2.0951843E-1,5.5608845E-1,1.6731323E0,0E0,0E0,3.7025461E0,0E0,0E0,0E0,0E0,3.527298E-1,0E0,1.6198224E-1,0E0,0E0,0E0,0E0,0E0,0E0],"parents":[2147483647,0,0,1,1,2,2,3,3,5,5,6,6,10,10,11,11,12,12,13,13,14,14,16,16,17,17,18,18,21,21,26,26,28,28],"right_children":[2,4,6,8,-1,10,12,-1,-1,-1,14,16,18,20,22,-1,24,26,28,-1,-1,30,-1,-1,-1,-1,32,-1,34,-1,-1,-1,-1,-1,-1],"split_conditions":[-1.9439243E-1,-2.3668969E-1,4.37793E-2,-1.4011805E-1,4.847674E-2,-1.2971117E-1,-8.3923346E-1,-8.581259E-4,-1.8457426E-2,3.9616123E-2,2.5215434E-2,8.9702055E-2,7.3480135E-1,4.206792E-2,1.462077E8,3.668408E-2,2.6656125E8,-4.9274694E-2,-5.2184224E-1,-2.5606383E-2,7.5991685E-3,-1.3796712E-1,-2.3391647E-2,-2.2861153E-2,-8.4122986E-4,-7.488906E-4,2.261369E-1,2.7013822E-2,2.101128E1,4.8630755E-2,-3.4387906E-3,-2.2766283E-2,-5.8366335E-3,-2.1804826E-2,-1.4571584E-3],"split_indices":[10,10,51,26,0,19,30,0,0,0,45,8,36,12,37,0,46,42,28,0,0,36,0,0,0,0,26,0,59,0,0,0,0,0,0],"split_type":[0,0,0,0,0,0,0,0,0,0,0,0,0,0,0,0,0,0,0,0,0,0,0,0,0,0,0,0,0,0,0,0,0,0,0],"sum_hessian":[1.4541516E2,8.193085E0,1.3722208E2,4.3537745E0,3.83931E0,3.3748936E1,1.03473145E2,2.0077438E0,2.3460307E0,2.2711287E0,3.1477808E1,1.0245644E1,9.32275E1,1.3099949E1,1.837786E1,3.1979153E0,7.0477285E0,8.4964676E1,8.262824E0,1.06851845E1,2.414765E0,1.2805038E1,5.57282E0,5.041488E0,2.0062401E0,3.8193014E0,8.114538E1,2.1272423E0,6.135582E0,4.478587E0,8.326451E0,7.6245026E1,4.9003506E0,4.038678E0,2.0969036E0],"tree_param":{"num_deleted":"0","num_feature":"64","num_nodes":"35","size_leaf_vector":"1"}},{"base_weights":[-1.2629801E-1,-2.4973904E-1,6.1590787E-2,-3.1569383E-1,4.4356227E-2,-7.885855E-2,7.693108E-1,-9.757519E-2,-4.292215E-1,5.709893E-1,-3.9812186E-1,1.21557906E-1,-4.7212407E-1,6.486163E-2,1.7624663E-1,1.9592732E-1,-3.7977535E-1,-4.8527732E-1,8.566474E-3,-1.019338E-2,6.1161336E-2,-2.4066538E-2,-1.8750103E-3,-2.4215719E-2,3.0026746E-1,-1.5533424E-3,-2.6231645E-2,-1.821228E-2,3.108455E-2,-9.553325E-2,3.860899E-2,-2.547679E-2,4.8273704E-3,-8.7734556E-4,-5.0475085E-1,5.957143E-1,-2.1755505E-1,-1.6480168E-2,1.623593E-2,-2.6321566E-2,-1.3001162E-3,5.717334E-2,6.4050257E-3,1.8392682E-2,-2.4156334E-2],"categories":[],"categories_nodes":[],"categories_segments":[],"categories_sizes":[],"default_left":[0,0,0,0,0,0,0,0,0,0,0,0,0,0,0,0,0,0,0,0,0,0,0,0,0,0,0,0,0,0,0,0,0,0,0,0,0,0,0,0,0,0,0,0,0],"id":26,"left_children":[1,3,5,7,9,11,13,15,17,19,21,23,25,-1,27,29,31,33,-1,-1,-1,-1,-1,-1,35,-1,-1,-1,-1,37,-1,-1,-1,-1,39,41,43,-1,-1,-1,-1,-1,-1,-1,-1],"loss_changes":[3.4665005E0,1.7835717E0,6.0098915E0,1.7323132E0,4.2186785E0,4.045163E0,2.7570724E0,2.3167117E0,1.7279167E0,4.5464096E0,2.2274423E-1,3.7918596E0,3.288617E-1,0E0,1.6868985E0,2.4336104E0,9.6833587E-1,3.419323E-1,0E0,0E0,0E0,0E0,0E0,0E0,4.2801514E0,0E0,0E0,0E0,0E0,1.0752728E0,0E0,0E0,0E0,0E0,3.6947155E-1,4.2105613E0,1.8023053E0,0E0,0E0,0E0,0E0,0E0,0E0,0E0,0E0],"parents":[2147483647,0,0,1,1,2,2,3,3,4,4,5,5,6,6,7,7,8,8,9,9,10,10,11,11,12,12,14,14,15,15,16,16,17,17,24,24,29,29,34,34,35,35,36,36],"right_children":[2,4,6,8,10,12,14,16,18,20,22,24,26,-1,28,30,32,34,-1,-1,-1,-1,-1,-1,36,-1,-1,-1,-1,38,-1,-1,-1,-1,40,42,44,-1,-1,-1,-1,-1,-1,-1,-1],"split_conditions":[-3.407964E-2,9.882836E-2,8.554517E7,1.119848E0,9.890037E-2,1.3107975E8,1.7835765E8,-1.19903035E-1,3.53994E2,8.199295E7,9.493281E-2,2.3259154E7,5.4291956E7,6.486163E-2,1.8074774E8,1.0250648E-1,2.6859313E-1,1.6081614E1,8.566474E-3,-1.019338E-2,6.1161336E-2,-2.4066538E-2,-1.8750103E-3,-2.4215719E-2,1.3598263E-1,-1.5533424E-3,-2.6231645E-2,-1.821228E-2,3.108455E-2,-5.114209E-3,3.860899E-2,-2.547679E-2,4.8273704E-3,-8.7734556E-4,1.3966624E8,3.7137218E-2,-8.560511E-2,-1.6480168E-2,1.623593E-2,-2.6321566E-2,-1.3001162E-3,5.717334E-2,6.4050257E-3,1.8392682E-2,-2.4156334E-2],"split_indices":[26,0,44,53,42,40,43,24,54,47,60,50,44,0,46,51,36,58,0,0,0,0,0,0,28,0,0,0,0,60,0,0,0,0,38,42,27,0,0,0,0,0,0,0,0],"split_type":[0,0,0,0,0,0,0,0,0,0,0,0,0,0,0,0,0,0,0,0,0,0,0,0,0,0,0,0,0,0,0,0,0,0,0,0,0,0,0,0,0,0,0,0,0],"sum_hessian":[1.4698761E2,8.8830154E1,5.8157455E1,7.2775795E1,1.605436E1,4.9150627E1,9.006827E0,2.585034E1,4.6925453E1,7.3007007E0,8.753658E0,3.2847477E1,1.630315E1,4.047738E0,4.9590893E0,1.2647575E1,1.32027645E1,4.3247192E1,3.67826E0,3.5808144E0,3.7198865E0,6.6152496E0,2.1384091E0,6.964924E0,2.5882553E1,2.1063733E0,1.4196777E1,2.2214382E0,2.737651E0,8.8380785E0,3.809497E0,1.0486289E1,2.7164748E0,2.00983E0,4.1237366E1,1.6507048E1,9.375504E0,5.9678073E0,2.870271E0,3.9155693E1,2.0816705E0,6.837995E0,9.669054E0,2.688177E0,6.687327E0],"tree_param":{"num_deleted":"0","num_feature":"64","num_nodes":"45","size_leaf_vector":"1"}},{"base_weights":[8.567485E-2,3.3636695E-1,-1.5625282E-1,1.7928259E-1,1.188675E0,3.3349577E-2,-2.0357022E-1,-2.3249571E-1,3.492625E-1,1.4570568E0,-1.0240889E-3,4.7114596E-1,-2.6151967E-1,1.9991902E-1,-2.5874315E-2,-1.7141367E-1,5.587075E-1,2.4357323E-2,1.678706E0,6.2100977E-2,-1.9339954E-2,-2.608254E-2,-3.6784336E-1,-2.5975412E-1,3.955079E-2,-3.2506227E-1,1.1741298E-2,2.9886577E-1,1.3431109E0,9.908674E-2,2.8452376E-2,-2.8861627E-1,5.314558E-1,1.2115675E-2,-4.199921E-1,-2.105135E-3,-1.8116236E-2,-2.4737637E-2,1.2203055E-2,-2.1054095E-2,2.141519E-2,2.167913E-2,9.516766E-2,-2.2706367E-2,2.5833294E-2,4.731313E-2,-1.7622977E-2,-2.2955723E-2,1.0125383E-2],"categories":[],"categories_nodes":[],"categories_segments":[],"categories_sizes":[],"default_left":[0,0,0,0,0,0,0,0,0,0,0,0,0,0,0,0,0,0,0,0,0,0,0,0,0,0,0,0,0,0,0,0,0,0,0,0,0,0,0,0,0,0,0,0,0,0,0,0,0],"id":27,"left_children":[1,3,5,7,9,-1,11,13,15,17,-1,19,21,23,-1,25,27,-1,29,-1,-1,31,33,35,-1,37,-1,39,41,-1,-1,43,45,-1,47,-1,-1,-1,-1,-1,-1,-1,-1,-1,-1,-1,-1,-1,-1],"loss_changes":[9.414373E0,9.849538E0,3.1621761E0,4.6846433E0,3.9310074E0,0E0,3.0532906E0,2.5501475E0,5.2606335E0,1.0202389E0,0E0,4.659859E0,1.7104301E0,2.5318995E0,0E0,9.662347E-1,6.3425627E0,0E0,1.0674076E0,0E0,0E0,3.5300756E0,1.6484404E0,6.4055264E-2,0E0,1.1924669E0,0E0,2.6824021E0,3.0438852E0,0E0,0E0,2.4364376E0,3.2045298E0,0E0,1.2092805E0,0E0,0E0,0E0,0E0,0E0,0E0,0E0,0E0,0E0,0E0,0E0,0E0,0E0,0E0],"parents":[2147483647,0,0,1,1,2,2,3,3,4,4,6,6,7,7,8,8,9,9,11,11,12,12,13,13,15,15,16,16,18,18,21,21,22,22,23,23,25,25,27,27,28,28,31,31,32,32,34,34],"right_children":[2,4,6,8,10,-1,12,14,16,18,-1,20,22,24,-1,26,28,-1,30,-1,-1,32,34,36,-1,38,-1,40,42,-1,-1,44,46,-1,48,-1,-1,-1,-1,-1,-1,-1,-1,-1,-1,-1,-1,-1,-1],"split_conditions":[3.6980066E-2,4.0826716E-2,2.0745363E1,-1.1451758E-2,3.605264E-1,3.3349577E-2,-5.410433E-1,-1.2554225E-1,-2.0045274E-1,-7.3662885E-2,-1.0240889E-3,6.2432438E-2,9.1369174E-2,8.895616E-2,-2.5874315E-2,9.3732305E-2,1.02854945E-1,2.4357323E-2,1.0340674E-2,6.2100977E-2,-1.9339954E-2,3.829118E-2,-9.483306E-3,4.673219E-2,3.955079E-2,9.8770535E-1,1.1741298E-2,5.560581E7,-1.4019033E-1,9.908674E-2,2.8452376E-2,4.816727E-2,5.1466704E7,1.2115675E-2,3.125679E8,-2.105135E-3,-1.8116236E-2,-2.4737637E-2,1.2203055E-2,-2.1054095E-2,2.141519E-2,2.167913E-2,9.516766E-2,-2.2706367E-2,2.5833294E-2,4.731313E-2,-1.7622977E-2,-2.2955723E-2,1.0125383E-2],"split_indices":[22,2,59,61,10,0,27,15,36,0,0,17,18,45,0,39,28,0,27,0,0,12,45,39,0,52,0,40,20,0,0,27,44,0,37,0,0,0,0,0,0,0,0,0,0,0,0,0,0],"split_type":[0,0,0,0,0,0,0,0,0,0,0,0,0,0,0,0,0,0,0,0,0,0,0,0,0,0,0,0,0,0,0,0,0,0,0,0,0,0,0,0,0,0,0,0,0,0,0,0,0],"sum_hessian":[1.530627E2,7.518103E1,7.788167E1,6.460222E1,1.0578814E1,3.406402E0,7.4475266E1,1.8596323E1,4.6005894E1,8.557167E0,2.0216465E0,5.190094E0,6.928517E1,7.3666143E0,1.122971E1,1.3112528E1,3.2893364E1,2.270541E0,6.286626E0,2.5593648E0,2.6307294E0,2.223503E1,4.705014E1,4.3641567E0,3.0024576E0,9.837688E0,3.2748399E0,2.5841574E1,7.051791E0,4.250008E0,2.036618E0,1.5566685E1,6.668345E0,3.2665298E0,4.378361E1,2.1619608E0,2.202196E0,7.8141866E0,2.0235019E0,3.4769115E0,2.2364662E1,3.4321928E0,3.6195982E0,1.337744E1,2.1892445E0,4.5674934E0,2.1008513E0,4.159273E1,2.190878E0],"tree_param":{"num_deleted":"0","num_feature":"64","num_nodes":"49","size_leaf_vector":"1"}},{"base_weights":[8.4690765E-2,9.465328E-1,2.2845304E-2,1.5704647E0,-1.4754118E-3,6.0325587E-1,-6.0188446E-2,2.4969181E-2,1.0056492E-1,1.0529319E0,-2.0376797E-1,-3.0739635E-1,7.1400546E-2,8.032234E-3,1.4234345E0,-2.2081193E-2,1.2191225E-2,2.9004246E-2,-3.6558312E-1,1.8745835E-1,-4.5634532E-1,1.9185525E0,7.307563E-3,1.2341605E-2,-4.0474862E-1,-2.0034117E-1,3.483209E-1,-1.3785075E-3,-2.5767198E-2,3.8713906E-2,1.2138938E-1,-2.2399051E-2,1.1139553E-2,4.137571E-3,-2.5247205E-2,5.215615E-2,8.046553E-3],"categories":[],"categories_nodes":[],"categories_segments":[],"categories_sizes":[],"default_left":[0,0,0,0,0,0,0,0,0,0,0,0,0,0,0,0,0,0,0,0,0,0,0,0,0,0,0,0,0,0,0,0,0,0,0,0,0],"id":28,"left_children":[1,3,5,7,-1,9,11,-1,-1,13,15,17,19,-1,21,-1,-1,-1,23,25,27,29,-1,-1,31,33,35,-1,-1,-1,-1,-1,-1,-1,-1,-1,-1],"loss_changes":[8.022046E0,6.3468847E0,7.0129614E0,1.6899223E0,0E0,6.9108763E0,4.1578956E0,0E0,0E0,3.560587E0,9.02208E-1,2.4817839E0,5.145352E0,0E0,4.7185726E0,0E0,0E0,0E0,1.1316643E0,4.3853703E0,3.1366658E-1,1.1755714E0,0E0,0E0,1.2168527E0,1.8660359E0,6.127466E0,0E0,0E0,0E0,0E0,0E0,0E0,0E0,0E0,0E0,0E0],"parents":[2147483647,0,0,1,1,2,2,3,3,5,5,6,6,9,9,10,10,11,11,12,12,14,14,18,18,19,19,20,20,21,21,24,24,25,25,26,26],"right_children":[2,4,6,8,-1,10,12,-1,-1,14,16,18,20,-1,22,-1,-1,-1,24,26,28,30,-1,-1,32,34,36,-1,-1,-1,-1,-1,-1,-1,-1,-1,-1],"split_conditions":[5.888583E7,4.7607332E-2,-2.6369098E-1,2.5944782E-2,-1.4754118E-3,4.7886405E-2,-1.873434E-2,2.4969181E-2,1.0056492E-1,-1.5193046E-3,1.14150055E-1,7.093986E7,8.6520806E-2,8.032234E-3,1.1334179E-1,-2.2081193E-2,1.2191225E-2,2.9004246E-2,1.4622601E1,9.960078E7,2.3379074E-2,3.6963977E-2,7.307563E-3,1.2341605E-2,7.5091526E-2,4.4098622E-1,4.468968E7,-1.3785075E-3,-2.5767198E-2,3.8713906E-2,1.2138938E-1,-2.2399051E-2,1.1139553E-2,4.137571E-3,-2.5247205E-2,5.215615E-2,8.046553E-3],"split_indices":[46,48,29,5,0,7,0,0,0,60,51,43,3,0,5,0,0,0,55,43,0,45,0,0,7,34,47,0,0,0,0,0,0,0,0,0,0],"split_type":[0,0,0,0,0,0,0,0,0,0,0,0,0,0,0,0,0,0,0,0,0,0,0,0,0,0,0,0,0,0,0,0,0,0,0,0,0],"sum_hessian":[1.5172896E2,9.092968E0,1.42636E2,5.238017E0,3.8549507E0,1.7218294E1,1.254177E2,2.2152784E0,3.0227387E0,1.094109E1,6.277205E0,4.336831E1,8.204939E1,3.7099202E0,7.2311697E0,4.253564E0,2.0236409E0,2.0108147E0,4.1357494E1,6.794232E1,1.4107074E1,4.7929225E0,2.438247E0,2.0137494E0,3.9343746E1,1.9665833E1,4.8276485E1,2.0888102E0,1.2018263E1,2.3128002E0,2.4801226E0,3.7224747E1,2.1190004E0,1.040015E1,9.265682E0,9.171237E0,3.910525E1],"tree_param":{"num_deleted":"0","num_feature":"64","num_nodes":"37","size_leaf_vector":"1"}},{"base_weights":[1.3797221E-2,3.171462E-1,-5.6650944E-2,8.90862E-1,3.80667E-2,5.914034E-1,-9.270688E-2,1.16292E0,-9.384394E-4,-3.312802E-1,4.4246128E-1,6.2409937E-2,-6.969689E-3,-2.4081378E-1,7.675974E-2,7.88949E-2,2.3957022E-2,7.159794E-3,-2.4693107E-2,8.2852507E-1,-1.9848932E-2,-2.9145733E-1,2.8348377E-2,6.633257E-2,-3.9301156E-3,8.242221E-2,-4.19374E-6,-9.809875E-2,-4.7996265E-1,-2.1594922E-1,2.677787E-1,-2.5970085E-2,9.962955E-3,-2.7197918E-2,-0E0,-2.2819886E-2,4.713079E-4,-2.2767605E-2,2.4577467E-2],"categories":[],"categories_nodes":[],"categories_segments":[],"categories_sizes":[],"default_left":[0,0,0,0,0,0,0,0,0,0,0,0,0,0,0,0,0,0,0,0,0,0,0,0,0,0,0,0,0,0,0,0,0,0,0,0,0,0,0],"id":29,"left_children":[1,3,5,7,9,11,13,15,-1,17,19,-1,-1,21,23,-1,-1,-1,-1,25,-1,27,-1,-1,29,-1,-1,31,33,35,37,-1,-1,-1,-1,-1,-1,-1,-1],"loss_changes":[3.2361417E0,4.4476953E0,2.8509834E0,2.4099913E0,3.202092E0,3.3610137E0,2.9562352E0,1.0736504E0,0E0,9.617119E-1,3.7058785E0,0E0,0E0,2.7013288E0,5.656721E0,0E0,0E0,0E0,0E0,5.227767E0,0E0,2.072826E0,0E0,0E0,3.0671523E0,0E0,0E0,4.0206804E0,8.625002E-1,1.6830289E0,3.9775817E0,0E0,0E0,0E0,0E0,0E0,0E0,0E0,0E0],"parents":[2147483647,0,0,1,1,2,2,3,3,4,4,5,5,6,6,7,7,9,9,10,10,13,13,14,14,19,19,21,21,24,24,27,27,28,28,29,29,30,30],"right_children":[2,4,6,8,10,12,14,16,-1,18,20,-1,-1,22,24,-1,-1,-1,-1,26,-1,28,-1,-1,30,-1,-1,32,34,36,38,-1,-1,-1,-1,-1,-1,-1,-1],"split_conditions":[1.9762827E-2,4.7359563E-2,1.563722E1,2.1086846E-1,8.996337E-2,1.1034956E0,6.145119E-2,1.6281292E-2,-9.384394E-4,8.79542E7,2.1279627E1,6.2409937E-2,-6.969689E-3,2.5172132E-1,2.0183163E-2,7.88949E-2,2.3957022E-2,7.159794E-3,-2.4693107E-2,1.377107E-2,-1.9848932E-2,1.2083227E-2,2.8348377E-2,6.633257E-2,1.2583177E-1,8.242221E-2,-4.19374E-6,1.0737039E0,2.949368E-1,3.4826163E-2,-1.1638787E0,-2.5970085E-2,9.962955E-3,-2.7197918E-2,-0E0,-2.2819886E-2,4.713079E-4,-2.2767605E-2,2.4577467E-2],"split_indices":[3,51,58,36,51,53,62,3,0,46,58,0,0,26,12,0,0,0,0,3,0,5,0,0,13,0,0,53,30,7,26,0,0,0,0,0,0,0,0],"split_type":[0,0,0,0,0,0,0,0,0,0,0,0,0,0,0,0,0,0,0,0,0,0,0,0,0,0,0,0,0,0,0,0,0,0,0,0,0,0,0],"sum_hessian":[1.4837149E2,2.7570572E1,1.2080092E2,8.187896E0,1.9382675E1,5.40884E0,1.15392075E2,6.1730914E0,2.0148044E0,1.0095572E1,9.287103E0,2.5478399E0,2.8610005E0,6.166685E1,5.3725227E1,2.9368768E0,3.2362146E0,2.4499238E0,7.645649E0,6.451943E0,2.83516E0,5.874673E1,2.9201207E0,2.396786E0,5.132844E1,2.806323E0,3.64562E0,3.001246E1,2.873427E1,2.915306E1,2.217538E1,1.2248333E1,1.7764128E1,2.5064388E1,3.6698823E0,1.3823593E1,1.5329467E1,4.8902845E0,1.7285095E1],"tree_param":{"num_deleted":"0","num_feature":"64","num_nodes":"39","size_leaf_vector":"1"}},{"base_weights":[-2.0102999E-1,-2.9341874E-1,1.1150566E-1,-3.2169333E-1,2.7938044E-2,4.2534006E-1,-3.7667063E-1,1.4755601E-2,-3.42336E-1,6.300427E-1,-2.6610735E-1,-2.5371218E-2,2.1941434E-3,-4.671828E-1,-2.0300728E-1,2.3286793E-1,7.576183E-2,-1.859396E-2,-1.7254951E-3,1.2892981E-2,-5.174613E-1,5.976503E-1,-3.0689007E-1,6.889482E-1,-3.1214994E-1,-4.0706154E-3,-2.7688613E-2,6.4409146E-4,5.803309E-2,2.6062626E-2,-1.7972764E-2,7.476544E-2,3.5934632E-3,-1.4981977E-3,-2.0861616E-2],"categories":[],"categories_nodes":[],"categories_segments":[],"categories_sizes":[],"default_left":[0,0,0,0,0,0,0,0,0,0,0,0,0,0,0,0,0,0,0,0,0,0,0,0,0,0,0,0,0,0,0,0,0,0,0],"id":30,"left_children":[1,3,5,7,-1,9,11,-1,13,15,17,-1,-1,19,21,23,-1,-1,-1,-1,25,27,29,31,33,-1,-1,-1,-1,-1,-1,-1,-1,-1,-1],"loss_changes":[4.3351026E0,2.9279556E0,5.4247417E0,1.5329981E0,0E0,3.2459147E0,8.296418E-1,0E0,1.7356377E0,5.445794E0,8.127153E-2,0E0,0E0,2.2148628E0,4.6207523E0,3.4811282E0,0E0,0E0,0E0,0E0,7.335806E-1,1.9734161E0,2.2739062E0,3.4590166E0,1.356777E-1,0E0,0E0,0E0,0E0,0E0,0E0,0E0,0E0,0E0,0E0],"parents":[2147483647,0,0,1,1,2,2,3,3,5,5,6,6,8,8,9,9,10,10,13,13,14,14,15,15,20,20,21,21,22,22,23,23,24,24],"right_children":[2,4,6,8,-1,10,12,-1,14,16,18,-1,-1,20,22,24,-1,-1,-1,-1,26,28,30,32,34,-1,-1,-1,-1,-1,-1,-1,-1,-1,-1],"split_conditions":[1.05134845E-1,2.608093E-1,1.4959872E8,5.494901E-3,2.7938044E-2,2.9305631E-2,3.536962E-1,1.4755601E-2,6.1126174E-3,1.40153635E-2,2.2104565E-2,-2.5371218E-2,2.1941434E-3,1.529944E1,-3.3067455E-4,1.3329347E-2,7.576183E-2,-1.859396E-2,-1.7254951E-3,1.2892981E-2,1.7938196E7,4.688103E-2,-4.581672E-2,-8.717494E-3,1.0591455E0,-4.0706154E-3,-2.7688613E-2,6.4409146E-4,5.803309E-2,2.6062626E-2,-1.7972764E-2,7.476544E-2,3.5934632E-3,-1.4981977E-3,-2.0861616E-2],"split_indices":[51,0,49,3,0,60,36,0,60,60,7,0,0,57,6,63,0,0,0,0,47,36,0,27,53,0,0,0,0,0,0,0,0,0,0],"split_type":[0,0,0,0,0,0,0,0,0,0,0,0,0,0,0,0,0,0,0,0,0,0,0,0,0,0,0,0,0,0,0,0,0,0,0],"sum_hessian":[1.4737144E2,1.1404092E2,3.333054E1,1.1109474E2,2.946175E0,2.0491018E1,1.2839521E1,3.0101655E0,1.0808457E2,1.5990476E1,4.5005417E0,9.818182E0,3.0213397E0,5.538527E1,5.2699303E1,1.1987764E1,4.0027113E0,2.3773127E0,2.123229E0,3.194943E0,5.2190327E1,5.395872E0,4.7303432E1,6.4824967E0,5.5052676E0,4.472876E0,4.771745E1,3.235665E0,2.160207E0,2.177596E0,4.5125835E1,2.1230147E0,4.359482E0,2.1007473E0,3.4045205E0],"tree_param":{"num_deleted":"0","num_feature":"64","num_nodes":"35","size_leaf_vector":"1"}},{"base_weights":[2.7314144E-1,-1.10512465E-1,4.843683E-1,-2.403542E-1,3.5732436E-1,2.0394419E-1,8.337929E-1,4.307762E-2,-3.1818625E-1,8.133303E-1,-2.1867165E-2,-5.876632E-2,4.529009E-1,1.1584399E0,2.8839603E-1,1.5239604E-1,-4.343155E-1,1.2505233E0,1.6834725E-3,3.4730497E-1,-3.57029E-1,2.6856136E-1,7.752403E-2,8.274716E-2,1.4377458E0,1.1929482E0,-1.9705902E-1,-2.1520378E-2,6.9448394E-1,7.7473684E-3,-4.866928E-1,7.686245E-2,2.6797732E-2,-8.740213E-2,6.8386815E-2,1.1294034E-2,-4.5994884E-1,7.0954347E-1,-1.2384305E-1,-1.9398456E-2,2.4387637E-2,1.7098675E0,6.223868E-1,7.965275E-2,1.0866679E-2,2.8014654E-1,-2.4483396E-2,1.1094207E-2,4.5849197E-2,-1.8739378E-3,-2.5717786E-2,1.4765735E-2,-2.25018E-2,-6.0208747E-3,-2.5818149E-2,7.471263E-2,-0E0,3.4407906E-2,-1.777492E-2,3.649231E-2,9.8633684E-2,5.5956364E-2,-6.011416E-3,-2.8586069E-3,2.919854E-2],"categories":[],"categories_nodes":[],"categories_segments":[],"categories_sizes":[],"default_left":[0,0,0,0,0,0,0,0,0,0,0,0,0,0,0,0,0,0,0,0,0,0,0,0,0,0,0,0,0,0,0,0,0,0,0,0,0,0,0,0,0,0,0,0,0,0,0,0,0,0,0,0,0,0,0,0,0,0,0,0,0,0,0,0,0],"id":31,"left_children":[1,3,5,7,9,11,13,-1,15,17,-1,19,21,23,25,27,29,31,-1,33,35,37,-1,39,41,43,45,-1,47,-1,49,-1,-1,51,-1,-1,53,55,57,-1,-1,59,61,-1,-1,63,-1,-1,-1,-1,-1,-1,-1,-1,-1,-1,-1,-1,-1,-1,-1,-1,-1,-1,-1],"loss_changes":[1.2643879E1,3.4545043E0,9.549801E0,4.0211806E0,4.8591805E0,3.8006473E0,7.339037E0,0E0,2.4013467E0,2.6450644E0,0E0,3.5734842E0,5.3963165E0,7.910595E0,8.204409E0,3.145153E0,1.1668897E0,3.0623436E-2,0E0,5.757948E0,1.1502159E0,4.7589636E0,0E0,1.4856855E0,3.469242E0,1.9993849E0,1.8964221E0,0E0,2.1848893E-1,0E0,3.217926E-1,0E0,0E0,1.4782852E0,0E0,0E0,1.6082668E-1,7.0011644E0,3.0020738E0,0E0,0E0,2.2675056E0,2.8314364E0,0E0,0E0,6.2288964E-1,0E0,0E0,0E0,0E0,0E0,0E0,0E0,0E0,0E0,0E0,0E0,0E0,0E0,0E0,0E0,0E0,0E0,0E0,0E0],"parents":[2147483647,0,0,1,1,2,2,3,3,4,4,5,5,6,6,8,8,9,9,11,11,12,12,13,13,14,14,15,15,16,16,17,17,19,19,20,20,21,21,23,23,24,24,25,25,26,26,28,28,30,30,33,33,36,36,37,37,38,38,41,41,42,42,45,45],"right_children":[2,4,6,8,10,12,14,-1,16,18,-1,20,22,24,26,28,30,32,-1,34,36,38,-1,40,42,44,46,-1,48,-1,50,-1,-1,52,-1,-1,54,56,58,-1,-1,60,62,-1,-1,64,-1,-1,-1,-1,-1,-1,-1,-1,-1,-1,-1,-1,-1,-1,-1,-1,-1,-1,-1],"split_conditions":[2.1454273E1,1.6276138E8,1.2498552E8,-4.6963282E-2,3.8174972E-2,2.2535513E2,1.44536365E-2,4.307762E-2,2.6896452E7,1.79475E8,-2.1867165E-2,2.1951534E2,4.4311956E7,-4.584738E-2,4.6713234E1,2.5284522E7,1.0810471E8,8.765876E-2,1.6834725E-3,6.4933054E-2,-1.0078949E0,8.204114E7,7.752403E-2,1.2973299E0,8.682504E7,-7.5623447E-1,2.239745E-3,-2.1520378E-2,6.316092E-2,7.7473684E-3,-3.143893E-2,7.686245E-2,2.6797732E-2,1.8361695E-2,6.8386815E-2,1.1294034E-2,-2.5266537E-2,4.4970028E-2,4.1933574E-2,-1.9398456E-2,2.4387637E-2,1.222476E0,1.1921022E-2,7.965275E-2,1.0866679E-2,1.1921022E-2,-2.4483396E-2,1.1094207E-2,4.5849197E-2,-1.8739378E-3,-2.5717786E-2,1.4765735E-2,-2.25018E-2,-6.0208747E-3,-2.5818149E-2,7.471263E-2,-0E0,3.4407906E-2,-1.777492E-2,3.649231E-2,9.8633684E-2,5.5956364E-2,-6.011416E-3,-2.8586069E-3,2.919854E-2],"split_indices":[58,49,37,60,61,58,16,0,41,37,0,56,47,39,56,41,49,39,0,39,26,46,0,53,47,28,39,0,51,0,42,0,0,2,0,0,60,45,8,0,0,53,21,0,0,21,0,0,0,0,0,0,0,0,0,0,0,0,0,0,0,0,0,0,0],"split_type":[0,0,0,0,0,0,0,0,0,0,0,0,0,0,0,0,0,0,0,0,0,0,0,0,0,0,0,0,0,0,0,0,0,0,0,0,0,0,0,0,0,0,0,0,0,0,0,0,0,0,0,0,0,0,0,0,0,0,0,0,0,0,0,0,0],"sum_hessian":[1.5390216E2,5.46479E1,9.9254265E1,4.332393E1,1.1323972E1,5.6101173E1,4.315309E1,2.109171E0,4.1214756E1,7.260193E0,4.063779E0,2.7472843E1,2.862833E1,2.6231457E1,1.6921635E1,7.9254823E0,3.3289276E1,4.18261E0,3.0775828E0,1.1422254E1,1.6050589E1,2.5655294E1,2.973035E0,5.7480893E0,2.0483368E1,5.4727774E0,1.1448857E1,3.8296924E0,4.09579E0,2.4017065E0,3.088757E1,2.0634115E0,2.1191988E0,8.582451E0,2.8398023E0,2.0835545E0,1.3967034E1,1.181938E1,1.3835915E1,2.5636501E0,3.1844392E0,1.4443282E1,6.040086E0,3.3596058E0,2.1131718E0,4.238034E0,7.2108235E0,2.0942278E0,2.001562E0,2.1380417E0,2.8749527E1,4.1317554E0,4.450696E0,2.6891825E0,1.1277852E1,5.02614E0,6.79324E0,2.5378666E0,1.1298048E1,3.9333193E0,1.0509963E1,3.396077E0,2.6440086E0,2.2370512E0,2.0009828E0],"tree_param":{"num_deleted":"0","num_feature":"64","num_nodes":"65","size_leaf_vector":"1"}},{"base_weights":[9.283589E-2,2.9185068E-2,9.839905E-1,-1.7347002E-1,2.5608203E-1,-1.8340671E-2,1.4070392E0,4.0468237E-1,-3.0166933E-1,-3.2626915E-1,3.576689E-1,1.8795526E-2,9.023478E-2,-1.5458179E-1,1.0640345E0,-3.775052E-1,4.8681653E-1,-2.462746E-2,1.0290013E-2,8.150689E-1,8.8648334E-2,2.4084417E-2,-2.3419155E-2,-2.8904625E-3,8.1421986E-2,-4.2086592E-1,2.4976542E-2,-6.619771E-3,5.4312713E-2,7.082853E-2,1.065982E0,-4.2771183E-2,6.596213E-1,4.722773E-5,-2.476161E-2,2.5665177E-2,-1.9916752E-2,7.894492E-2,1.300169E-2,1.4442562E-2,-1.8148564E-2,5.545625E-2,-5.698984E-3],"categories":[],"categories_nodes":[],"categories_segments":[],"categories_sizes":[],"default_left":[0,0,0,0,0,0,0,0,0,0,0,0,0,0,0,0,0,0,0,0,0,0,0,0,0,0,0,0,0,0,0,0,0,0,0,0,0,0,0,0,0,0,0],"id":32,"left_children":[1,3,5,7,9,-1,11,13,15,17,19,-1,-1,21,23,25,27,-1,-1,29,31,-1,-1,-1,-1,33,-1,-1,-1,35,37,39,41,-1,-1,-1,-1,-1,-1,-1,