{"learner":{"attributes":{"scikit_learn":"{\"_estimator_type\": \"classifier\"}"},"feature_names":["return_5d","return_mean_5d","return_std_5d","return_max_5d","return_min_5d","return_10d","return_mean_10d","return_std_10d","return_max_10d","return_min_10d","return_20d","return_mean_20d","return_std_20d","return_max_20d","return_min_20d","return_30d","return_mean_30d","return_std_30d","return_max_30d","return_min_30d","return_60d","return_mean_60d","return_std_60d","return_max_60d","return_min_60d","momentum_5_30","momentum_5_60","momentum_10_30","momentum_10_60","momentum_20_30","momentum_20_60","volatility_5d","volatility_10d","volatility_20d","volatility_30d","volatility_60d","volume_change","volume_mean_5d","volume_std_5d","volume_change_mean_5d","volume_mean_10d","volume_std_10d","volume_change_mean_10d","volume_mean_20d","volume_std_20d","volume_change_mean_20d","volume_mean_30d","volume_std_30d","volume_change_mean_30d","volume_mean_60d","volume_std_60d","volume_change_mean_60d","close_to_high_ratio","close_to_low_ratio","sma_5","sma_10","sma_20","sma_50","sma_100","sma_200","sma_5_cross_10","sma_10_cross_20","sma_20_cross_50","sma_50_cross_200"],"feature_types":["float","float","float","float","float","float","float","float","float","float","float","float","float","float","float","float","float","float","float","float","float","float","float","float","float","float","float","float","float","float","float","float","float","float","float","float","float","float","float","float","float","float","float","float","float","float","float","float","float","float","float","float","float","float","float","float","float","float","float","float","float","float","float","float"],"gradient_booster":{"model":{"gbtree_model_param":{"num_parallel_tree":"1","num_trees":"1600"},"iteration_indptr":[0,8,16,24,32,40,48,56,64,72,80,88,96,104,112,120,128,136,144,152,160,168,176,184,192,200,208,216,224,232,240,248,256,264,272,280,288,296,304,312,320,328,336,344,352,360,368,376,384,392,400,408,416,424,432,440,448,456,464,472,480,488,496,504,512,520,528,536,544,552,560,568,576,584,592,600,608,616,624,632,640,648,656,664,672,680,688,696,704,712,720,728,736,744,752,760,768,776,784,792,800,808,816,824,832,840,848,856,864,872,880,888,896,904,912,920,928,936,944,952,960,968,976,984,992,1000,1008,1016,1024,1032,1040,1048,1056,1064,1072,1080,1088,1096,1104,1112,1120,1128,1136,1144,1152,1160,1168,1176,1184,1192,1200,1208,1216,1224,1232,1240,1248,1256,1264,1272,1280,1288,1296,1304,1312,1320,1328,1336,1344,1352,1360,1368,1376,1384,1392,1400,1408,1416,1424,1432,1440,1448,1456,1464,1472,1480,1488,1496,1504,1512,1520,1528,1536,1544,1552,1560,1568,1576,1584,1592,1600],"tree_info":[0,1,2,3,4,5,6,7,0,1,2,3,4,5,6,7,0,1,2,3,4,5,6,7,0,1,2,3,4,5,6,7,0,1,2,3,4,5,6,7,0,1,2,3,4,5,6,7,0,1,2,3,4,5,6,7,0,1,2,3,4,5,6,7,0,1,2,3,4,5,6,7,0,1,2,3,4,5,6,7,0,1,2,3,4,5,6,7,0,1,2,3,4,5,6,7,0,1,2,3,4,5,6,7,0,1,2,3,4,5,6,7,0,1,2,3,4,5,6,7,0,1,2,3,4,5,6,7,0,1,2,3,4,5,6,7,0,1,2,3,4,5,6,7,0,1,2,3,4,5,6,7,0,1,2,3,4,5,6,7,0,1,2,3,4,5,6,7,0,1,2,3,4,5,6,7,0,1,2,3,4,5,6,7,0,1,2,3,4,5,6,7,0,1,2,3,4,5,6,7,0,1,2,3,4,5,6,7,0,1,2,3,4,5,6,7,0,1,2,3,4,5,6,7,0,1,2,3,4,5,6,7,0,1,2,3,4,5,6,7,0,1,2,3,4,5,6,7,0,1,2,3,4,5,6,7,0,1,2,3,4,5,6,7,0,1,2,3,4,5,6,7,0,1,2,3,4,5,6,7,0,1,2,3,4,5,6,7,0,1,2,3,4,5,6,7,0,1,2,3,4,5,6,7,0,1,2,3,4,5,6,7,0,1,2,3,4,5,6,7,0,1,2,3,4,5,6,7,0,1,2,3,4,5,6,7,0,1,2,3,4,5,6,7,0,1,2,3,4,5,6,7,0,1,2,3,4,5,6,7,0,1,2,3,4,5,6,7,0,1,2,3,4,5,6,7,0,1,2,3,4,5,6,7,0,1,2,3,4,5,6,7,0,1,2,3,4,5,6,7,0,1,2,3,4,5,6,7,0,1,2,3,4,5,6,7,0,1,2,3,4,5,6,7,0,1,2,3,4,5,6,7,0,1,2,3,4,5,6,7,0,1,2,3,4,5,6,7,0,1,2,3,4,5,6,7,0,1,2,3,4,5,6,7,0,1,2,3,4,5,6,7,0,1,2,3,4,5,6,7,0,1,2,3,4,5,6,7,0,1,2,3,4,5,6,7,0,1,2,3,4,5,6,7,0,1,2,3,4,5,6,7,0,1,2,3,4,5,6,7,0,1,2,3,4,5,6,7,0,1,2,3,4,5,6,7,0,1,2,3,4,5,6,7,0,1,2,3,4,5,6,7,0,1,2,3,4,5,6,7,0,1,2,3,4,5,6,7,0,1,2,3,4,5,6,7,0,1,2,3,4,5,6,7,0,1,2,3,4,5,6,7,0,1,2,3,4,5,6,7,0,1,2,3,4,5,6,7,0,1,2,3,4,5,6,7,0,1,2,3,4,5,6,7,0,1,2,3,4,5,6,7,0,1,2,3,4,5,6,7,0,1,2,3,4,5,6,7,0,1,2,3,4,5,6,7,0,1,2,3,4,5,6,7,0,1,2,3,4,5,6,7,0,1,2,3,4,5,6,7,0,1,2,3,4,5,6,7,0,1,2,3,4,5,6,7,0,1,2,3,4,5,6,7,0,1,2,3,4,5,6,7,0,1,2,3,4,5,6,7,0,1,2,3,4,5,6,7,0,1,2,3,4,5,6,7,0,1,2,3,4,5,6,7,0,1,2,3,4,5,6,7,0,1,2,3,4,5,6,7,0,1,2,3,4,5,6,7,0,1,2,3,4,5,6,7,0,1,2,3,4,5,6,7,0,1,2,3,4,5,6,7,0,1,2,3,4,5,6,7,0,1,2,3,4,5,6,7,0,1,2,3,4,5,6,7,0,1,2,3,4,5,6,7,0,1,2,3,4,5,6,7,0,1,2,3,4,5,6,7,0,1,2,3,4,5,6,7,0,1,2,3,4,5,6,7,0,1,2,3,4,5,6,7,0,1,2,3,4,5,6,7,0,1,2,3,4,5,6,7,0,1,2,3,4,5,6,7,0,1,2,3,4,5,6,7,0,1,2,3,4,5,6,7,0,1,2,3,4,5,6,7,0,1,2,3,4,5,6,7,0,1,2,3,4,5,6,7,0,1,2,3,4,5,6,7,0,1,2,3,4,5,6,7,0,1,2,3,4,5,6,7,0,1,2,3,4,5,6,7,0,1,2,3,4,5,6,7,0,1,2,3,4,5,6,7,0,1,2,3,4,5,6,7,0,1,2,3,4,5,6,7,0,1,2,3,4,5,6,7,0,1,2,3,4,5,6,7,0,1,2,3,4,5,6,7,0,1,2,3,4,5,6,7,0,1,2,3,4,5,6,7,0,1,2,3,4,5,6,7,0,1,2,3,4,5,6,7,0,1,2,3,4,5,6,7,0,1,2,3,4,5,6,7,0,1,2,3,4,5,6,7,0,1,2,3,4,5,6,7,0,1,2,3,4,5,6,7,0,1,2,3,4,5,6,7,0,1,2,3,4,5,6,7,0,1,2,3,4,5,6,7,0,1,2,3,4,5,6,7,0,1,2,3,4,5,6,7,0,1,2,3,4,5,6,7,0,1,2,3,4,5,6,7,0,1,2,3,4,5,6,7,0,1,2,3,4,5,6,7,0,1,2,3,4,5,6,7,0,1,2,3,4,5,6,7,0,1,2,3,4,5,6,7,0,1,2,3,4,5,6,7,0,1,2,3,4,5,6,7,0,1,2,3,4,5,6,7,0,1,2,3,4,5,6,7,0,1,2,3,4,5,6,7,0,1,2,3,4,5,6,7,0,1,2,3,4,5,6,7,0,1,2,3,4,5,6,7,0,1,2,3,4,5,6,7,0,1,2,3,4,5,6,7,0,1,2,3,4,5,6,7,0,1,2,3,4,5,6,7,0,1,2,3,4,5,6,7,0,1,2,3,4,5,6,7,0,1,2,3,4,5,6,7,0,1,2,3,4,5,6,7,0,1,2,3,4,5,6,7,0,1,2,3,4,5,6,7,0,1,2,3,4,5,6,7,0,1,2,3,4,5,6,7,0,1,2,3,4,5,6,7,0,1,2,3,4,5,6,7,0,1,2,3,4,5,6,7,0,1,2,3,4,5,6,7,0,1,2,3,4,5,6,7,0,1,2,3,4,5,6,7,0,1,2,3,4,5,6,7,0,1,2,3,4,5,6,7,0,1,2,3,4,5,6,7,0,1,2,3,4,5,6,7,0,1,2,3,4,5,6,7,0,1,2,3,4,5,6,7,0,1,2,3,4,5,6,7,0,1,2,3,4,5,6,7,0,1,2,3,4,5,6,7,0,1,2,3,4,5,6,7,0,1,2,3,4,5,6,7,0,1,2,3,4,5,6,7,0,1,2,3,4,5,6,7,0,1,2,3,4,5,6,7,0,1,2,3,4,5,6,7,0,1,2,3,4,5,6,7,0,1,2,3,4,5,6,7,0,1,2,3,4,5,6,7,0,1,2,3,4,5,6,7,0,1,2,3,4,5,6,7,0,1,2,3,4,5,6,7,0,1,2,3,4,5,6,7,0,1,2,3,4,5,6,7,0,1,2,3,4,5,6,7,0,1,2,3,4,5,6,7,0,1,2,3,4,5,6,7],"trees":[{"base_weights":[5.2251108E-2,-3.7865054E-2,1.3565217E0,2.75E-1,-2.3281334E-1,9.3722634E-2,1.0196079E-2,8.847059E-1,1.5165877E-2,2.9403973E-2,-3.016092E-1,4.1450774E-3,8.290503E-2,-3.230444E-1,4.1885856E-1,-3.883905E-1,2.375E-1,-1.98374E-2,2.5882354E-2,4.916201E-2,-2.5276074E-2,-1.22522525E-1,1.0431373E-1,-4.627907E-1,2.6046512E-1,3.418182E-2,-1.98374E-2,2.5882354E-2,-1.8715596E-2,2.5882354E-2,-1.8403042E-2,1.8461539E-3,-2.5226919E-2,4.156863E-2,-1.8039217E-2],"categories":[],"categories_nodes":[],"categories_segments":[],"categories_sizes":[],"default_left":[0,0,0,0,0,0,0,0,0,0,0,0,0,0,0,0,0,0,0,0,0,0,0,0,0,0,0,0,0,0,0,0,0,0,0],"id":0,"left_children":[1,3,5,7,9,-1,-1,11,13,-1,15,17,-1,19,21,23,25,-1,-1,27,-1,29,-1,31,33,-1,-1,-1,-1,-1,-1,-1,-1,-1,-1],"loss_changes":[1.1767859E1,5.7378263E0,3.271553E0,5.599802E0,3.4295104E0,0E0,0E0,7.062752E0,3.7459495E0,0E0,2.6512446E0,1.4590547E0,0E0,1.0744181E0,1.1820463E1,2.4278002E0,2.5636086E0,0E0,0E0,1.3178458E0,0E0,1.8112854E0,0E0,9.62451E-1,2.253388E0,0E0,0E0,0E0,0E0,0E0,0E0,0E0,0E0,0E0,0E0],"parents":[2147483647,0,0,1,1,2,2,3,3,4,4,7,7,8,8,10,10,11,11,13,13,14,14,15,15,16,16,19,19,21,21,23,23,24,24],"right_children":[2,4,6,8,10,-1,-1,12,14,-1,16,18,-1,20,22,24,26,-1,-1,28,-1,30,-1,32,34,-1,-1,-1,-1,-1,-1,-1,-1,-1,-1],"split_conditions":[1.6347609E0,1.2879829E-3,2.7689763E8,4.023062E-2,2.8262956E7,9.3722634E-2,1.0196079E-2,1.4313565E8,-5.180452E-3,2.9403973E-2,9.119452E-1,-2.568926E-2,8.290503E-2,-3.5244174E-2,-3.316342E-2,1.4680423E-1,8.062546E-1,-1.98374E-2,2.5882354E-2,-8.996976E-2,-2.5276074E-2,8.582799E-2,1.0431373E-1,-4.0866783E-1,1.7951666E-1,3.418182E-2,-1.98374E-2,2.5882354E-2,-1.8715596E-2,2.5882354E-2,-1.8403042E-2,1.8461539E-3,-2.5226919E-2,4.156863E-2,-1.8039217E-2],"split_indices":[53,61,43,45,47,0,0,46,29,0,31,4,0,61,62,0,35,0,0,36,0,51,0,36,0,0,0,0,0,0,0,0,0,0,0],"split_type":[0,0,0,0,0,0,0,0,0,0,0,0,0,0,0,0,0,0,0,0,0,0,0,0,0,0,0,0,0,0,0,0,0,0,0],"sum_hessian":[9.75625E1,9.209375E1,5.46875E0,3.5E1,5.709375E1,3.28125E0,2.1875E0,9.625E0,2.5375E1,3.71875E0,5.3375E1,5.03125E0,4.59375E0,1.378125E1,1.159375E1,4.6375E1,7E0,2.84375E0,2.1875E0,4.59375E0,9.1875E0,9.40625E0,2.1875E0,4.2E1,4.375E0,4.15625E0,2.84375E0,2.1875E0,2.40625E0,2.1875E0,7.21875E0,3.0625E0,3.89375E1,2.1875E0,2.1875E0],"tree_param":{"num_deleted":"0","num_feature":"64","num_nodes":"35","size_leaf_vector":"1"}},{"base_weights":[-2.7369082E-1,1.8807948E-2,-3.0384365E-1,1.2480499E-3,-3.8065827E-1,-2.4375001E-2,3.088729E-1,-4.8414987E-2,-4.2721343E-1,5.1076926E-2,-2.5078368E-3,2.646154E-2,-3.566265E-1,-5.1343286E-1,-2.2272727E-1,3.04E-1,-2.1456955E-2,-2.2569833E-2,-2.3529413E-3,-2.7702266E-2,-2.548148E-1,1.9310346E-2,-3.303226E-1,3.876923E-2,-1.8039217E-2,1.0196079E-2,-2.32E-2,3.800905E-3,-2.6078885E-2],"categories":[],"categories_nodes":[],"categories_segments":[],"categories_sizes":[],"default_left":[0,0,0,0,0,0,0,0,0,0,0,0,0,0,0,0,0,0,0,0,0,0,0,0,0,0,0,0,0],"id":1,"left_children":[1,-1,3,5,7,-1,9,11,13,-1,15,-1,17,19,21,23,-1,-1,-1,-1,25,-1,27,-1,-1,-1,-1,-1,-1],"loss_changes":[2.0598073E0,0E0,2.2867603E0,3.1444323E0,1.1213121E0,0E0,2.9962337E0,2.102067E0,9.943857E-1,0E0,1.4465439E0,0E0,1.5719688E-1,2.61734E-1,1.5633905E0,2.2797635E0,0E0,0E0,0E0,0E0,9.302972E-1,0E0,1.5899286E0,0E0,0E0,0E0,0E0,0E0,0E0],"parents":[2147483647,0,0,2,2,3,3,4,4,6,6,7,7,8,8,10,10,12,12,13,13,14,14,15,15,20,20,22,22],"right_children":[2,-1,4,6,8,-1,10,12,14,-1,16,-1,18,20,22,24,-1,-1,-1,-1,26,-1,28,-1,-1,-1,-1,-1,-1],"split_conditions":[6.830479E-1,1.8807948E-2,4.8630595E-2,-8.976125E-3,-7.147446E-2,-2.4375001E-2,1.588677E-2,5.769739E-2,8.705442E7,5.1076926E-2,9.832635E-2,2.646154E-2,5.3205743E-2,1.2700622E-1,2.3817495E-1,7.935429E7,-2.1456955E-2,-2.2569833E-2,-2.3529413E-3,-2.7702266E-2,-1.749612E-2,1.9310346E-2,8.6421055E-1,3.876923E-2,-1.8039217E-2,1.0196079E-2,-2.32E-2,3.800905E-3,-2.6078885E-2],"split_indices":[52,0,51,39,39,0,39,18,44,0,5,0,0,51,31,47,0,0,0,0,0,0,52,0,0,0,0,0,0],"split_type":[0,0,0,0,0,0,0,0,0,0,0,0,0,0,0,0,0,0,0,0,0,0,0,0,0,0,0,0,0],"sum_hessian":[9.865625E1,3.71875E0,9.49375E1,1.903125E1,7.590625E1,7E0,1.203125E1,9.84375E0,6.60625E1,3.0625E0,8.96875E0,3.0625E0,6.78125E0,4.50625E1,2.1E1,5.25E0,3.71875E0,4.59375E0,2.1875E0,3.7625E1,7.4375E0,2.625E0,1.8375E1,3.0625E0,2.1875E0,2.1875E0,5.25E0,5.90625E0,1.246875E1],"tree_param":{"num_deleted":"0","num_feature":"64","num_nodes":"29","size_leaf_vector":"1"}},{"base_weights":[-1.816693E-1,6.673575E-1,-2.3516922E-1,-2.3529413E-3,5.560976E-2,-4.9765518E-1,-1.4855665E-1,-2.6931299E-2,-2.3529413E-3,3.1737706E-1,-2.171875E-1,4.70073E-2,-1.44E-1,-2.7721125E-1,2.6835442E-2,-2.0307694E-2,1.0196079E-2,1.8807948E-2,-3.2878536E-1,-2.5576709E-2,-7.0488327E-3],"categories":[],"categories_nodes":[],"categories_segments":[],"categories_sizes":[],"default_left":[0,0,0,0,0,0,0,0,0,0,0,0,0,0,0,0,0,0,0,0,0],"id":2,"left_children":[1,3,5,-1,-1,7,9,-1,-1,11,13,-1,15,17,-1,-1,-1,-1,19,-1,-1],"loss_changes":[4.620523E0,2.0755792E0,2.0027618E0,0E0,0E0,3.3434772E-1,2.378274E0,0E0,0E0,2.9536219E0,3.0189393E0,0E0,6.731029E-1,2.1428638E0,0E0,0E0,0E0,0E0,1.796454E0,0E0,0E0],"parents":[2147483647,0,0,1,1,2,2,5,5,6,6,9,9,10,10,12,12,13,13,18,18],"right_children":[2,4,6,-1,-1,8,10,-1,-1,12,14,-1,16,18,-1,-1,-1,-1,20,-1,-1],"split_conditions":[2.7901525E-2,3.0764014E-1,1.899565E1,-2.3529413E-3,5.560976E-2,-2.571736E-4,2.2031887E-2,-2.6931299E-2,-2.3529413E-3,7.643582E7,1.4697555E-1,4.70073E-2,1.864862E-2,1.0146502E8,2.6835442E-2,-2.0307694E-2,1.0196079E-2,1.8807948E-2,6.610514E-2,-2.5576709E-2,-7.0488327E-3],"split_indices":[22,31,59,0,0,4,7,0,0,50,51,0,7,43,0,0,0,0,48,0,0],"split_type":[0,0,0,0,0,0,0,0,0,0,0,0,0,0,0,0,0,0,0,0,0],"sum_hessian":[9.821875E1,5.03125E0,9.31875E1,2.1875E0,2.84375E0,2.165625E1,7.153125E1,1.946875E1,2.1875E0,8.53125E0,6.3E1,3.28125E0,5.25E0,5.90625E1,3.9375E0,3.0625E0,2.1875E0,3.71875E0,5.534375E1,2.690625E1,2.84375E1],"tree_param":{"num_deleted":"0","num_feature":"64","num_nodes":"21","size_leaf_vector":"1"}},{"base_weights":[8.124611E-2,2.9750746E-1,-2.6925567E-1,5.1594615E-2,8.30622E-1,2.1111112E-2,-3.530249E-1,7.076923E-1,-1.2802829E-1,1.279096E0,2.1245901E-1,-4.5287588E-1,1.4787878E-2,-9.051095E-3,1.2019323E0,2.4484849E-2,-2.2925852E-1,1.6225352E0,-2.3529413E-3,-2.0729927E-2,6.24E-1,-5.1106095E-1,2.919708E-4,1.4153846E-2,9.577982E-2,6.064982E-2,-3.3041167E-1,1.9748793E0,2.2385322E-2,-4.0366976E-3,5.560976E-2,-2.3529413E-3,-2.7254904E-2,-1.4715026E-2,3.3103447E-2,-2.167742E-2,5.090909E-3,3.706422E-2,1.2492307E-1],"categories":[],"categories_nodes":[],"categories_segments":[],"categories_sizes":[],"default_left":[0,0,0,0,0,0,0,0,0,0,0,0,0,0,0,0,0,0,0,0,0,0,0,0,0,0,0,0,0,0,0,0,0,0,0,0,0,0,0],"id":3,"left_children":[1,3,5,7,9,-1,11,13,15,17,19,21,-1,-1,23,-1,25,27,-1,-1,29,31,-1,-1,-1,33,35,37,-1,-1,-1,-1,-1,-1,-1,-1,-1,-1,-1],"loss_changes":[7.6866183E0,8.0872345E0,2.3794718E0,5.3450274E0,5.0110655E0,0E0,2.4251056E0,4.602239E0,2.2963552E0,5.272358E0,2.7392828E0,8.800745E-1,0E0,0E0,3.4797812E0,0E0,9.615935E-1,2.547327E0,0E0,0E0,2.3432364E0,3.524089E-1,0E0,0E0,0E0,2.0795078E0,1.1263101E0,2.0020466E0,0E0,0E0,0E0,0E0,0E0,0E0,0E0,0E0,0E0,0E0,0E0],"parents":[2147483647,0,0,1,1,2,2,3,3,4,4,6,6,7,7,8,8,9,9,10,10,11,11,14,14,16,16,17,17,20,20,21,21,25,25,26,26,27,27],"right_children":[2,4,6,8,10,-1,12,14,16,18,20,22,-1,-1,24,-1,26,28,-1,-1,30,32,-1,-1,-1,34,36,38,-1,-1,-1,-1,-1,-1,-1,-1,-1,-1,-1],"split_conditions":[4.352213E-1,1.3043499E-1,2.843023E-2,-1.1361928E-1,1.492549E-1,2.1111112E-2,2.591862E-1,-9.8280326E-2,1.000482E8,3.4181675E-1,-5.501808E-2,1.303121E0,1.4787878E-2,-9.051095E-3,-2.9226491E-2,2.4484849E-2,-4.4388277E-3,3.1185968E-2,-2.3529413E-3,-2.0729927E-2,1.0993314E0,3.327787E-2,2.919708E-4,1.4153846E-2,9.577982E-2,-5.3309463E-2,-1.916253E-2,-8.496569E-2,2.2385322E-2,-4.0366976E-3,5.560976E-2,-2.3529413E-3,-2.7254904E-2,-1.4715026E-2,3.3103447E-2,-2.167742E-2,5.090909E-3,3.706422E-2,1.2492307E-1],"split_indices":[63,42,12,29,45,0,62,30,43,39,29,20,0,0,36,0,11,12,0,0,53,17,0,0,0,62,9,36,0,0,0,0,0,0,0,0,0,0,0],"split_type":[0,0,0,0,0,0,0,0,0,0,0,0,0,0,0,0,0,0,0,0,0,0,0,0,0,0,0,0,0,0,0,0,0,0,0,0,0,0,0],"sum_hessian":[9.93125E1,6.16875E1,3.7625E1,4.309375E1,1.859375E1,3.5E0,3.4125E1,8.75E0,3.434375E1,1.00625E1,8.53125E0,2.996875E1,4.15625E0,3.28125E0,5.46875E0,4.15625E0,3.01875E1,7.875E0,2.1875E0,3.28125E0,5.25E0,2.66875E1,3.28125E0,3.0625E0,2.40625E0,7.65625E0,2.253125E1,5.46875E0,2.40625E0,2.40625E0,2.84375E0,2.1875E0,2.45E1,5.03125E0,2.625E0,1.8375E1,4.15625E0,2.40625E0,3.0625E0],"tree_param":{"num_deleted":"0","num_feature":"64","num_nodes":"39","size_leaf_vector":"1"}},{"base_weights":[1.2964728E-2,2.4643677E-1,-2.6740792E-1,-8.294062E-3,6.199719E-1,-4.3095976E-1,9.4301677E-1,-2.7978143E-1,5.3407204E-1,9.484919E-1,9.2307694E-2,5.090909E-3,-4.976704E-1,8.110092E-2,-2.3529413E-3,-4.4229606E-1,4.156863E-2,8.693141E-1,-1.9310346E-2,4.222951E-1,8.759494E-2,-2.2060607E-2,5.8547485E-1,-2.3529413E-3,-5.223141E-1,-2.669002E-2,3.5772359E-3,1.2019323E0,-2.3529413E-3,-1.98374E-2,8.4485984E-1,-4.0366976E-3,5.7254907E-2,-2.3529413E-3,-2.7517173E-2,1.9310346E-2,8.162602E-2,6.3384615E-2,5.5172415E-3],"categories":[],"categories_nodes":[],"categories_segments":[],"categories_sizes":[],"default_left":[0,0,0,0,0,0,0,0,0,0,0,0,0,0,0,0,0,0,0,0,0,0,0,0,0,0,0,0,0,0,0,0,0,0,0,0,0,0,0],"id":4,"left_children":[1,3,5,7,9,11,13,15,17,19,21,-1,23,-1,-1,25,-1,27,-1,29,-1,-1,31,-1,33,-1,-1,35,-1,-1,37,-1,-1,-1,-1,-1,-1,-1,-1],"loss_changes":[6.501303E0,5.240141E0,9.257534E0,5.006104E0,3.6599474E0,1.5252638E0,3.9942975E0,4.459546E0,3.8644938E0,4.736679E0,2.838111E0,0E0,3.2068157E-1,0E0,0E0,1.0571136E0,0E0,2.810495E0,0E0,3.678761E0,0E0,0E0,2.2843797E0,0E0,3.676958E-1,0E0,0E0,1.4397306E0,0E0,0E0,1.799295E0,0E0,0E0,0E0,0E0,0E0,0E0,0E0,0E0],"parents":[2147483647,0,0,1,1,2,2,3,3,4,4,5,5,6,6,7,7,8,8,9,9,10,10,12,12,15,15,17,17,19,19,22,22,24,24,27,27,30,30],"right_children":[2,4,6,8,10,12,14,16,18,20,22,-1,24,-1,-1,26,-1,28,-1,30,-1,-1,32,-1,34,-1,-1,36,-1,-1,38,-1,-1,-1,-1,-1,-1,-1,-1],"split_conditions":[3.4581285E-2,6.8799324E-2,1.1641878E8,1.7521525E8,1.4222706E8,1.2622585E8,1.6042909E-2,4.5070585E-2,-1.2897603E-2,1.1179103E0,2.3393873E-2,5.090909E-3,2.76466E-2,8.110092E-2,-2.3529413E-3,1.6258492E-1,4.156863E-2,9.755627E-2,-1.9310346E-2,1.845768E-2,8.759494E-2,-2.2060607E-2,2.9067913E-2,-2.3529413E-3,2.6782596E7,-2.669002E-2,3.5772359E-3,1.5667875E8,-2.3529413E-3,-1.98374E-2,3.2135826E-2,-4.0366976E-3,5.7254907E-2,-2.3529413E-3,-2.7517173E-2,1.9310346E-2,8.162602E-2,6.3384615E-2,5.5172415E-3],"split_indices":[2,42,44,46,46,49,1,12,4,53,2,0,12,0,0,26,0,36,0,2,0,0,17,0,38,0,0,40,0,0,8,0,0,0,0,0,0,0,0],"split_type":[0,0,0,0,0,0,0,0,0,0,0,0,0,0,0,0,0,0,0,0,0,0,0,0,0,0,0,0,0,0,0,0,0,0,0,0,0,0,0],"sum_hessian":[9.734375E1,5.3375E1,4.396875E1,3.215625E1,2.121875E1,3.9375E1,4.59375E0,2.1875E1,1.028125E1,1.246875E1,8.75E0,4.15625E0,3.521875E1,2.40625E0,2.1875E0,1.96875E1,2.1875E0,7.65625E0,2.625E0,8.53125E0,3.9375E0,4.15625E0,4.59375E0,2.1875E0,3.303125E1,1.684375E1,2.84375E0,5.46875E0,2.1875E0,2.84375E0,5.6875E0,2.40625E0,2.1875E0,2.1875E0,3.084375E1,2.625E0,2.84375E0,3.0625E0,2.625E0],"tree_param":{"num_deleted":"0","num_feature":"64","num_nodes":"39","size_leaf_vector":"1"}},{"base_weights":[3.537159E-2,8.860215E-1,-1.6079077E-2,-2.3529413E-3,7.448276E-2,4.387879E-2,-6.78153E-2,3.659919E-1,-1.5606557E-1,5.721519E-2,-0E0,-2.5386462E-1,3.722365E-1,-2.3551403E-2,5.419355E-1,-3.1888112E-1,2.375E-1,5.357576E-2,-1.125E-1,-4.0366976E-3,5.174312E-2,1.3023256E-2,-1.8638743E-2,4.3333333E-2,-2.1111112E-2,-2.1772152E-2,1.4153846E-2],"categories":[],"categories_nodes":[],"categories_segments":[],"categories_sizes":[],"default_left":[0,0,0,0,0,0,0,0,0,0,0,0,0,0,0,0,0,0,0,0,0,0,0,0,0,0,0],"id":5,"left_children":[1,3,5,-1,-1,-1,7,9,11,-1,13,15,17,-1,19,21,23,-1,25,-1,-1,-1,-1,-1,-1,-1,-1],"loss_changes":[4.4628463E0,3.4881864E0,4.363574E0,0E0,0E0,0E0,3.5079708E0,4.3974624E0,4.0223026E0,0E0,3.190835E0,2.1634102E0,4.3370013E0,0E0,1.9629949E0,1.922195E0,3.7309723E0,0E0,1.1604909E0,0E0,0E0,0E0,0E0,0E0,0E0,0E0,0E0],"parents":[2147483647,0,0,1,1,2,2,6,6,7,7,8,8,10,10,11,11,12,12,14,14,15,15,16,16,18,18],"right_children":[2,4,6,-1,-1,-1,8,10,12,-1,14,16,18,-1,20,22,24,-1,26,-1,-1,-1,-1,-1,-1,-1,-1],"split_conditions":[2.046181E-2,2.2131088E7,1.8958744E7,-2.3529413E-3,7.448276E-2,4.387879E-2,1.6053867E1,5.0024988E7,2.803857E8,5.721519E-2,2.5705855E-2,9.2436485E-2,1.08351976E8,-2.3551403E-2,-5.8267564E-2,-3.5736263E-1,1.3391535E0,5.357576E-2,3.328104E8,-4.0366976E-3,5.174312E-2,1.3023256E-2,-1.8638743E-2,4.3333333E-2,-2.1111112E-2,-2.1772152E-2,1.4153846E-2],"split_indices":[12,38,41,0,0,0,55,47,40,0,2,29,50,0,4,29,53,0,37,0,0,0,0,0,0,0,0],"split_type":[0,0,0,0,0,0,0,0,0,0,0,0,0,0,0,0,0,0,0,0,0,0,0,0,0,0,0],"sum_hessian":[9.865625E1,4.8125E0,9.384375E1,2.1875E0,2.625E0,4.15625E0,8.96875E1,1.44375E1,7.525E1,3.9375E0,1.05E1,6.409375E1,1.115625E1,5.6875E0,4.8125E0,5.709375E1,7E0,4.15625E0,7E0,2.40625E0,2.40625E0,4.375E0,5.271875E1,3.5E0,3.5E0,3.9375E0,3.0625E0],"tree_param":{"num_deleted":"0","num_feature":"64","num_nodes":"27","size_leaf_vector":"1"}},{"base_weights":[-1.6349614E-1,-2.0073505E-1,2.9403973E-2,-2.1147646E-2,-3.8317505E-1,-3.7529215E-1,1.9186991E-1,-2.7157893E-2,-1.994638E-1,1.0196079E-2,-4.7032136E-1,1.0046512E0,1.5165877E-2,4.7488585E-2,-2.5411764E-2,-2.3529413E-3,-2.6230937E-2,8.862745E-2,-2.3529413E-3,4.0000003E-2,-1.4455172E-1,-3.147147E-1,4.70073E-2,1.5199999E-2,-1.5152603E-2,-2.4486693E-2,1.0196079E-2],"categories":[],"categories_nodes":[],"categories_segments":[],"categories_sizes":[],"default_left":[0,0,0,0,0,0,0,0,0,0,0,0,0,0,0,0,0,0,0,0,0,0,0,0,0,0,0],"id":6,"left_children":[1,3,-1,5,7,9,11,-1,13,-1,15,17,19,21,-1,-1,-1,-1,-1,-1,23,25,-1,-1,-1,-1,-1],"loss_changes":[2.8011324E0,3.0159152E0,0E0,3.7467835E0,1.171205E0,1.1528704E0,4.29915E0,0E0,1.8478315E0,0E0,2.9806614E-1,4.596845E0,3.4873405E0,4.7839108E0,0E0,0E0,0E0,0E0,0E0,0E0,1.7027925E0,1.0730369E0,0E0,0E0,0E0,0E0,0E0],"parents":[2147483647,0,0,1,1,3,3,4,4,5,5,6,6,8,8,10,10,11,11,12,12,13,13,20,20,21,21],"right_children":[2,4,-1,6,8,10,12,-1,14,-1,16,18,20,22,-1,-1,-1,-1,-1,-1,24,26,-1,-1,-1,-1,-1],"split_conditions":[1.00800335E-1,1.6276138E8,2.9403973E-2,1.1962505E8,1.6421493E-2,-5.334122E-2,-9.575111E-2,-2.7157893E-2,3.4543702E-1,1.0196079E-2,-3.7366992E-1,2.734856E-2,-1.3998095E-2,2.1254294E8,-2.5411764E-2,-2.3529413E-3,-2.6230937E-2,8.862745E-2,-2.3529413E-3,4.0000003E-2,2.6372554E-2,2.3697565E-1,4.70073E-2,1.5199999E-2,-1.5152603E-2,-2.4486693E-2,1.0196079E-2],"split_indices":[60,49,0,46,60,39,10,0,15,0,36,2,42,46,0,0,0,0,0,0,17,30,0,0,0,0,0],"split_type":[0,0,0,0,0,0,0,0,0,0,0,0,0,0,0,0,0,0,0,0,0,0,0,0,0,0,0],"sum_hessian":[9.625E1,9.253125E1,3.71875E0,4.746875E1,4.50625E1,1.771875E1,2.975E1,2.275E1,2.23125E1,2.1875E0,1.553125E1,4.375E0,2.5375E1,1.26875E1,9.625E0,2.1875E0,1.334375E1,2.1875E0,2.1875E0,3.71875E0,2.165625E1,9.40625E0,3.28125E0,5.25E0,1.640625E1,7.21875E0,2.1875E0],"tree_param":{"num_deleted":"0","num_feature":"64","num_nodes":"27","size_leaf_vector":"1"}},{"base_weights":[2.588747E-1,-1.1404073E-1,7.583514E-1,3.3913043E-1,-2.2274509E-1,1.0871795E0,2.0251347E-1,7.026616E-1,-2.0729927E-2,-4.276923E-1,1.9310345E-1,1.1797469E-1,7.6065576E-1,5.059603E-2,-8.401827E-2,1.1647668E0,-1.8039217E-2,1.6585367E-2,-5.150685E-1,6.5520364E-1,-1.22522525E-1,1.3971831E0,3.2666665E-1,-3.9194632E-1,4.4651163E-1,8.8275865E-2,7.7064224E-3,-2.3529413E-3,-2.7349262E-2,6.1192054E-2,-1.8039217E-2,2.1111112E-2,-2.3710407E-2,2.1111112E-2,1.9348837E0,-2.27957E-2,7.5092024E-1,-2.3529413E-3,-2.3859648E-2,4.156863E-2,-2.3529413E-3,1.20000005E-1,4.156863E-2,-1.8039217E-2,5.5625E-2],"categories":[],"categories_nodes":[],"categories_segments":[],"categories_sizes":[],"default_left":[0,0,0,0,0,0,0,0,0,0,0,0,0,0,0,0,0,0,0,0,0,0,0,0,0,0,0,0,0,0,0,0,0,0,0,0,0,0,0,0,0,0,0,0,0],"id":7,"left_children":[1,3,5,7,9,11,13,15,-1,17,19,-1,21,-1,23,25,-1,-1,27,29,31,33,35,37,39,-1,-1,-1,-1,-1,-1,-1,-1,-1,41,-1,43,-1,-1,-1,-1,-1,-1,-1,-1],"loss_changes":[1.8876125E1,2.9364731E0,7.550171E0,3.471174E0,4.180964E0,9.03223E0,4.2146816E0,4.539518E0,0E0,2.3456745E0,2.5127366E0,0E0,5.690325E0,0E0,2.405611E0,3.1977406E0,0E0,0E0,3.5784054E-1,4.517788E0,2.1990378E0,3.5999432E0,5.3520455E0,1.9891095E-1,1.138568E0,0E0,0E0,0E0,0E0,0E0,0E0,0E0,0E0,0E0,4.4034576E-1,0E0,4.571612E0,0E0,0E0,0E0,0E0,0E0,0E0,0E0,0E0],"parents":[2147483647,0,0,1,1,2,2,3,3,4,4,5,5,6,6,7,7,9,9,10,10,12,12,14,14,15,15,18,18,19,19,20,20,21,21,22,22,23,23,24,24,34,34,36,36],"right_children":[2,4,6,8,10,12,14,16,-1,18,20,-1,22,-1,24,26,-1,-1,28,30,32,34,36,38,40,-1,-1,-1,-1,-1,-1,-1,-1,-1,42,-1,44,-1,-1,-1,-1,-1,-1,-1,-1],"split_conditions":[4.0612048E-1,2.8202326E7,1.4195925E-2,1.438785E-1,4.9165882E-2,4.5794055E-2,3.7150677E-2,2.0832493E1,-2.0729927E-2,-9.154919E-3,-1.1533196E-2,1.1797469E-1,6.899223E-3,5.059603E-2,1.2583177E-1,1.1787367E8,-1.8039217E-2,1.6585367E-2,5.6671042E-2,5.2780516E-2,2.5841009E-2,-6.8071107E-3,1.684632E-2,-1.4550501E-2,1.6922013E-1,8.8275865E-2,7.7064224E-3,-2.3529413E-3,-2.7349262E-2,6.1192054E-2,-1.8039217E-2,2.1111112E-2,-2.3710407E-2,2.1111112E-2,4.405672E-3,-2.27957E-2,8.702042E7,-2.3529413E-3,-2.3859648E-2,4.156863E-2,-2.3529413E-3,1.20000005E-1,4.156863E-2,-1.8039217E-2,5.5625E-2],"split_indices":[63,41,16,36,0,22,22,59,0,11,4,0,21,0,8,43,0,0,23,60,17,61,45,5,0,0,0,0,0,0,0,0,0,0,21,0,50,0,0,0,0,0,0,0,0],"split_type":[0,0,0,0,0,0,0,0,0,0,0,0,0,0,0,0,0,0,0,0,0,0,0,0,0,0,0,0,0,0,0,0,0,0,0,0,0,0,0,0,0,0,0,0,0],"sum_hessian":[9.953125E1,5.73125E1,4.221875E1,1.05E1,4.68125E1,2.58125E1,1.640625E1,7.21875E0,3.28125E0,3.15E1,1.53125E1,3.9375E0,2.1875E1,3.71875E0,1.26875E1,5.03125E0,2.1875E0,2.84375E0,2.865625E1,5.90625E0,9.40625E0,7.875E0,1.4E1,8.3125E0,4.375E0,2.625E0,2.40625E0,2.1875E0,2.646875E1,3.71875E0,2.1875E0,3.5E0,5.90625E0,3.5E0,4.375E0,4.8125E0,9.1875E0,2.1875E0,6.125E0,2.1875E0,2.1875E0,2.1875E0,2.1875E0,2.1875E0,7E0],"tree_param":{"num_deleted":"0","num_feature":"64","num_nodes":"45","size_leaf_vector":"1"}},{"base_weights":[6.673007E-2,-1.0543362E-2,1.2466356E0,-7.819468E-2,9.781607E-1,9.537294E-2,6.808118E-3,-3.0354324E-1,2.0575538E-1,9.2579395E-2,-5.438405E-3,2.823596E-1,-3.9869308E-1,4.8184273E-1,-3.170585E-1,-1.0769175E-2,4.192275E-2,1.8924274E-2,-4.5933342E-1,2.7730328E-1,7.9711944E-2,-4.3635002E-1,1.2494985E-2,1.0506263E-2,-2.5182232E-2,-5.180495E-3,3.0985951E-2,-2.5288234E-2,-1.8121743E-3],"categories":[],"categories_nodes":[],"categories_segments":[],"categories_sizes":[],"default_left":[0,0,0,0,0,0,0,0,0,0,0,0,0,0,0,0,0,0,0,0,0,0,0,0,0,0,0,0,0],"id":8,"left_children":[1,3,5,7,9,-1,-1,11,13,-1,-1,15,17,19,21,-1,-1,-1,23,25,-1,27,-1,-1,-1,-1,-1,-1,-1],"loss_changes":[9.343155E0,6.3862696E0,4.1549206E0,5.8678174E0,6.1733127E0,0E0,0E0,2.9728403E0,6.0115776E0,0E0,0E0,2.34028E0,2.28011E0,5.5162826E0,1.1060475E0,0E0,0E0,0E0,1.3772087E0,3.2593727E0,0E0,2.7354908E-1,0E0,0E0,0E0,0E0,0E0,0E0,0E0],"parents":[2147483647,0,0,1,1,2,2,3,3,4,4,7,7,8,8,11,11,12,12,13,13,14,14,18,18,19,19,21,21],"right_children":[2,4,6,8,10,-1,-1,12,14,-1,-1,16,18,20,22,-1,-1,-1,24,26,-1,28,-1,-1,-1,-1,-1,-1,-1],"split_conditions":[1.6231602E0,1.1130928E8,5.9515264E-2,-1.4768063E-2,1.09505415E-1,9.537294E-2,6.808118E-3,-6.503822E-2,1.0191062E-1,9.2579395E-2,-5.438405E-3,-6.7042425E-2,-4.3357438E-1,9.210843E-2,4.8301658E-1,-1.0769175E-2,4.192275E-2,1.8924274E-2,1.3464514E7,-4.974576E-2,7.9711944E-2,-6.5740924E-3,1.2494985E-2,1.0506263E-2,-2.5182232E-2,-5.180495E-3,3.0985951E-2,-2.5288234E-2,-1.8121743E-3],"split_indices":[53,47,12,29,48,0,0,39,45,0,0,25,29,45,39,0,0,0,38,63,0,4,0,0,0,0,0,0,0],"split_type":[0,0,0,0,0,0,0,0,0,0,0,0,0,0,0,0,0,0,0,0,0,0,0,0,0,0,0,0,0],"sum_hessian":[9.997469E1,9.468028E1,5.294414E0,8.957335E1,5.106933E0,2.8128095E0,2.4816043E0,5.0097847E1,3.9475502E1,2.4925132E0,2.6144197E0,6.5774536E0,4.3520393E1,2.6009863E1,1.3465638E1,3.699242E0,2.8782115E0,2.6512253E0,4.0869167E1,2.3101336E1,2.9085274E0,1.1460933E1,2.0047047E0,2.1647696E0,3.87044E1,1.112781E1,1.1973526E1,9.328516E0,2.1324174E0],"tree_param":{"num_deleted":"0","num_feature":"64","num_nodes":"29","size_leaf_vector":"1"}},{"base_weights":[-2.8025946E-1,-3.7274438E-1,8.691608E-2,-3.456264E-2,-4.172501E-1,8.0124384E-1,-1.5470195E-1,-3.3527398E-1,2.1326354E-2,-1.6913801E-2,-4.5059904E-1,-4.2413096E-3,7.891264E-2,2.9120697E-2,-3.6761352E-1,-2.1726774E-2,-2.2125624E-3,1.6847339E-2,-1.970783E-2,-4.7742414E-1,2.1711313E-3,-2.5412012E-2,7.816017E-3,1.8052105E-4,-5.066601E-1,-1.9270364E-3,-2.6110718E-2],"categories":[],"categories_nodes":[],"categories_segments":[],"categories_sizes":[],"default_left":[0,0,0,0,0,0,0,0,0,0,0,0,0,0,0,0,0,0,0,0,0,0,0,0,0,0,0],"id":9,"left_children":[1,3,5,7,9,11,13,15,-1,17,19,-1,-1,-1,21,-1,-1,-1,-1,23,-1,-1,-1,-1,25,-1,-1],"loss_changes":[3.4142613E0,1.133728E0,3.7201643E0,1.5997909E0,8.763561E-1,4.027309E0,2.7073462E0,1.3771057E-1,0E0,1.023619E0,9.1337013E-1,0E0,0E0,0E0,1.0835725E0,0E0,0E0,0E0,0E0,9.108238E-1,0E0,0E0,0E0,0E0,3.4438133E-1,0E0,0E0],"parents":[2147483647,0,0,1,1,2,2,3,3,4,4,5,5,6,6,7,7,9,9,10,10,14,14,19,19,24,24],"right_children":[2,4,6,8,10,12,14,16,-1,18,20,-1,-1,-1,22,-1,-1,-1,-1,24,-1,-1,-1,-1,26,-1,-1],"split_conditions":[6.6222584E-1,-2.111171E-2,1.213842E8,3.7575915E-2,-3.161555E-2,3.3265546E-2,1.544109E-2,1.0520316E0,2.1326354E-2,3.839384E-2,7.3222667E-1,-4.2413096E-3,7.891264E-2,2.9120697E-2,1.8116578E8,-2.1726774E-2,-2.2125624E-3,1.6847339E-2,-1.970783E-2,1.1377039E-2,2.1711313E-3,-2.5412012E-2,7.816017E-3,1.8052105E-4,2.7439418E7,-1.9270364E-3,-2.6110718E-2],"split_indices":[63,60,37,2,61,7,45,53,0,27,15,0,0,0,47,0,0,0,0,2,0,0,0,0,47,0,0],"split_type":[0,0,0,0,0,0,0,0,0,0,0,0,0,0,0,0,0,0,0,0,0,0,0,0,0,0,0],"sum_hessian":[9.774729E1,7.828571E1,1.9461582E1,9.572384E0,6.871333E1,4.438163E0,1.5023418E1,6.09023E0,3.482154E0,5.630305E0,6.3083027E1,2.4296348E0,2.0085282E0,2.8727145E0,1.2150704E1,3.9173567E0,2.172873E0,2.8235242E0,2.8067806E0,6.005793E1,3.025094E0,9.753602E0,2.3971026E0,3.2952666E0,5.6762665E1,2.1439984E0,5.4618668E1],"tree_param":{"num_deleted":"0","num_feature":"64","num_nodes":"27","size_leaf_vector":"1"}},{"base_weights":[-1.6703805E-1,1.8241327E-1,-2.3414284E-1,-2.0548023E-1,6.0217768E-2,4.098992E-1,-2.7706245E-1,-2.492703E-2,2.101422E-2,-3.9214785E-3,4.1644897E-2,-2.712808E-2,-1.6004966E-1,-3.634221E-1,8.911771E-2,-4.4164243E-1,8.06039E-3,-2.4307562E-2,3.2354823E-1,-2.495063E-2,-6.5907747E-3,4.1564E-2,-4.1744527E-3],"categories":[],"categories_nodes":[],"categories_segments":[],"categories_sizes":[],"default_left":[0,0,0,0,0,0,0,0,0,0,0,0,0,0,0,0,0,0,0,0,0,0,0],"id":10,"left_children":[1,3,5,7,-1,9,11,-1,-1,-1,-1,-1,13,15,17,19,-1,-1,21,-1,-1,-1,-1],"loss_changes":[2.4088418E0,6.904359E0,2.4537258E0,2.5598388E0,0E0,1.2927849E0,2.3457341E0,0E0,0E0,0E0,0E0,0E0,2.978528E0,1.4178014E0,3.71036E0,3.7586403E-1,0E0,0E0,4.1799154E0,0E0,0E0,0E0,0E0],"parents":[2147483647,0,0,1,1,2,2,3,3,5,5,6,6,12,12,13,13,14,14,15,15,18,18],"right_children":[2,4,6,8,-1,10,12,-1,-1,-1,-1,-1,14,16,18,20,-1,-1,22,-1,-1,-1,-1],"split_conditions":[-3.033434E-2,8.578128E7,-1.1305271E0,-3.1915583E-2,6.0217768E-2,6.650176E7,-3.953291E-1,-2.492703E-2,2.101422E-2,-3.9214785E-3,4.1644897E-2,-2.712808E-2,2.2326E1,1.6734325E8,9.2380954E-4,2.1264214E1,8.06039E-3,-2.4307562E-2,4.9078677E-2,-2.495063E-2,-6.5907747E-3,4.1564E-2,-4.1744527E-3],"split_indices":[61,44,28,15,0,41,30,0,0,0,0,0,54,46,42,58,0,0,3,0,0,0,0],"split_type":[0,0,0,0,0,0,0,0,0,0,0,0,0,0,0,0,0,0,0,0,0,0,0],"sum_hessian":[9.968114E1,1.5541178E1,8.413996E1,1.1773461E1,3.767716E0,4.5770755E0,7.956289E1,8.2656E0,3.5078616E0,2.3928459E0,2.1842296E0,2.2964844E1,5.659804E1,3.113125E1,2.5466791E1,2.7395481E1,3.735769E0,6.93896E0,1.852783E1,2.2327717E1,5.0677648E0,7.8897243E0,1.0638106E1],"tree_param":{"num_deleted":"0","num_feature":"64","num_nodes":"23","size_leaf_vector":"1"}},{"base_weights":[1.2297476E-1,-8.0004886E-2,6.404437E-1,-1.5913549E-1,5.4338986E-1,1.0475124E0,-3.8394803E-1,1.3661905E-1,-3.109139E-1,7.0055194E-2,-0E0,-1.1357575E-2,1.3457664E0,-2.3600893E-2,-1.9544186E-3,-1.5925577E-1,5.205992E-1,1.971924E-1,-3.9875194E-1,-2.0227738E-2,2.607792E-2,1.6574377E0,2.822278E-1,2.1494806E-1,-2.427267E-2,-0E0,1.0498108E0,-2.173196E-2,5.6920167E-2,-4.1978203E-2,-4.844329E-1,7.916968E-1,1.998873E0,-1.8149694E-2,4.540109E-2,-2.0328632E-2,4.1825175E-2,2.227394E-2,-1.9902833E-2,7.843215E-2,1.0026634E-2,-2.1959124E-2,1.8779268E-2,-2.3175927E-3,-2.5629804E-2,-7.931939E-4,6.4540334E-2,4.4582043E-2,1.1689227E-1],"categories":[],"categories_nodes":[],"categories_segments":[],"categories_sizes":[],"default_left":[0,0,0,0,0,0,0,0,0,0,0,0,0,0,0,0,0,0,0,0,0,0,0,0,0,0,0,0,0,0,0,0,0,0,0,0,0,0,0,0,0,0,0,0,0,0,0,0,0],"id":11,"left_children":[1,3,5,7,9,11,13,15,17,-1,19,-1,21,-1,-1,23,25,27,29,-1,-1,31,33,35,-1,37,39,-1,-1,41,43,45,47,-1,-1,-1,-1,-1,-1,-1,-1,-1,-1,-1,-1,-1,-1,-1,-1],"loss_changes":[1.0911138E1,3.7294922E0,1.2657141E1,3.073732E0,3.9241157E0,8.498308E0,2.0299399E-1,2.7594779E0,2.1026363E0,0E0,1.5249553E0,0E0,5.116848E0,0E0,0E0,1.8092008E0,2.9094298E0,4.798731E0,1.1124501E0,0E0,0E0,2.0415077E0,2.495402E0,3.0686743E0,0E0,1.2892401E0,1.8090668E0,0E0,0E0,1.6359074E0,3.021822E-1,2.354044E0,8.693962E-1,0E0,0E0,0E0,0E0,0E0,0E0,0E0,0E0,0E0,0E0,0E0,0E0,0E0,0E0,0E0,0E0],"parents":[2147483647,0,0,1,1,2,2,3,3,4,4,5,5,6,6,7,7,8,8,10,10,12,12,15,15,16,16,17,17,18,18,21,21,22,22,23,23,25,25,26,26,29,29,30,30,31,31,32,32],"right_children":[2,4,6,8,10,12,14,16,18,-1,20,-1,22,-1,-1,24,26,28,30,-1,-1,32,34,36,-1,38,40,-1,-1,42,44,46,48,-1,-1,-1,-1,-1,-1,-1,-1,-1,-1,-1,-1,-1,-1,-1,-1],"split_conditions":[1.3337044E-1,2.0235099E-1,5.1672134E1,1.262826E8,2.596061E-1,1.0483141E0,2.8334326E-1,5.1903948E7,5.405771E7,7.0055194E-2,1.0594914E-1,-1.1357575E-2,-8.850491E-3,-2.3600893E-2,-1.9544186E-3,1.067316E8,1.0712346E0,4.3098744E7,-5.6409612E-2,-2.0227738E-2,2.607792E-2,-5.501808E-2,2.1110393E-1,2.0915732E7,-2.427267E-2,1.0384879E0,9.896149E-2,-2.173196E-2,5.6920167E-2,-5.8548856E-1,-3.6759394E-1,3.160469E-1,9.194582E-2,-1.8149694E-2,4.540109E-2,-2.0328632E-2,4.1825175E-2,2.227394E-2,-1.9902833E-2,7.843215E-2,1.0026634E-2,-2.1959124E-2,1.8779268E-2,-2.3175927E-3,-2.5629804E-2,-7.931939E-4,6.4540334E-2,4.4582043E-2,1.1689227E-1],"split_indices":[42,30,54,43,30,53,39,47,44,0,5,0,4,0,0,46,53,41,0,0,0,29,36,38,0,53,26,0,0,30,29,15,39,0,0,0,0,0,0,0,0,0,0,0,0,0,0,0,0],"split_type":[0,0,0,0,0,0,0,0,0,0,0,0,0,0,0,0,0,0,0,0,0,0,0,0,0,0,0,0,0,0,0,0,0,0,0,0,0,0,0,0,0,0,0,0,0,0,0,0,0],"sum_hessian":[1.01858925E2,7.362954E1,2.8229393E1,6.613929E1,7.490249E0,2.0255423E1,7.97397E0,2.224121E1,4.3898075E1,2.2759812E0,5.2142677E0,3.8224277E0,1.6432995E1,5.827144E0,2.1468263E0,1.274523E1,9.495982E0,6.1189733E0,3.7779102E1,3.0374513E0,2.1768167E0,1.220412E1,4.228875E0,5.951891E0,6.793339E0,5.274973E0,4.221009E0,3.9196756E0,2.1992977E0,7.8304257E0,2.9948677E1,4.47329E0,7.7308297E0,2.2102046E0,2.0186706E0,3.0685272E0,2.8833635E0,2.412992E0,2.8619812E0,2.0213614E0,2.1996474E0,4.1092463E0,3.7211795E0,2.1833289E0,2.7765348E1,2.0019653E0,2.4713247E0,2.7320826E0,4.998747E0],"tree_param":{"num_deleted":"0","num_feature":"64","num_nodes":"49","size_leaf_vector":"1"}},{"base_weights":[1.1889783E-2,2.357472E-1,-2.695919E-1,-8.0093786E-2,5.593661E-1,3.982527E-1,-3.5775378E-1,-2.1831912E-1,5.020654E-2,-3.1250075E-1,7.820346E-1,-1.9321244E-2,6.221677E-2,-0E0,-4.8171148E-1,-4.7763354E-1,2.3175359E-1,-2.1549787E-3,-2.0760143E-2,-2.1643318E-2,1.1720765E0,-2.4426272E-2,4.3941747E-2,-1.625535E-1,-2.7128635E-2,-2.64377E-2,-7.866528E-4,6.618735E-2,-2.4381295E-1,2.0616433E-2,-2.1796662E-2,1.4680989E0,7.90374E-3,-2.110803E-2,1.223307E-2,1.2396675E-2,-2.3137657E-2,2.3712447E-2,9.676565E-2],"categories":[],"categories_nodes":[],"categories_segments":[],"categories_sizes":[],"default_left":[0,0,0,0,0,0,0,0,0,0,0,0,0,0,0,0,0,0,0,0,0,0,0,0,0,0,0,0,0,0,0,0,0,0,0,0,0,0,0],"id":12,"left_children":[1,3,5,7,9,11,13,15,-1,17,19,-1,-1,21,23,25,27,-1,-1,29,31,-1,-1,33,-1,-1,-1,-1,35,-1,-1,37,-1,-1,-1,-1,-1,-1,-1],"loss_changes":[6.482427E0,5.9702587E0,2.8125856E0,4.609638E0,5.8598824E0,4.3093204E0,1.777832E0,3.327441E0,0E0,1.1496633E-1,7.4207516E0,0E0,0E0,5.3959856E0,4.2702723E-1,3.5802412E-1,5.8993735E0,0E0,0E0,1.7079506E0,4.329445E0,0E0,0E0,8.103324E-1,0E0,0E0,0E0,0E0,1.0100505E0,0E0,0E0,4.4063454E0,0E0,0E0,0E0,0E0,0E0,0E0,0E0],"parents":[2147483647,0,0,1,1,2,2,3,3,4,4,5,5,6,6,7,7,9,9,10,10,13,13,14,14,15,15,16,16,19,19,20,20,23,23,28,28,31,31],"right_children":[2,4,6,8,10,12,14,16,-1,18,20,-1,-1,22,24,26,28,-1,-1,30,32,-1,-1,34,-1,-1,-1,-1,36,-1,-1,38,-1,-1,-1,-1,-1,-1,-1],"split_conditions":[3.4581285E-2,3.984683E-1,-6.218423E-1,2.0283413E8,-2.0024674E-1,2.883108E8,5.008985E7,3.165126E-2,5.020654E-2,2.2128856E-2,5.5973824E-2,-1.9321244E-2,6.221677E-2,4.075116E-2,1.3553386E8,1.1704526E0,7.596588E7,-2.1549787E-3,-2.0760143E-2,-3.0878338E-1,1.21264625E-2,-2.4426272E-2,4.3941747E-2,2.1102474E1,-2.7128635E-2,-2.64377E-2,-7.866528E-4,6.618735E-2,1.8402961E-1,2.0616433E-2,-2.1796662E-2,4.9346834E-3,7.90374E-3,-2.110803E-2,1.223307E-2,1.2396675E-2,-2.3137657E-2,2.3712447E-2,9.676565E-2],"split_indices":[2,32,25,49,20,37,41,61,0,2,48,0,0,17,49,53,50,0,0,30,16,0,0,58,0,0,0,0,10,0,0,0,0,0,0,0,0,0,0],"split_type":[0,0,0,0,0,0,0,0,0,0,0,0,0,0,0,0,0,0,0,0,0,0,0,0,0,0,0,0,0,0,0,0,0,0,0,0,0,0,0],"sum_hessian":[1.0092155E2,5.650325E1,4.4418297E1,2.8819704E1,2.7683544E1,4.6374087E0,3.9780888E1,2.635113E1,2.468574E0,5.4584074E0,2.2225138E1,2.6265597E0,2.010849E0,1.0626137E1,2.9154753E1,1.6820665E1,9.530465E0,2.167118E0,3.2912896E0,7.486794E0,1.4738343E1,7.161651E0,3.464486E0,5.5202703E0,2.3634481E1,1.4819318E1,2.0013475E0,2.414064E0,7.116401E0,3.5409634E0,3.9458303E0,1.0984995E1,3.7533484E0,3.498671E0,2.0215995E0,2.0108345E0,5.105567E0,4.2255564E0,6.759439E0],"tree_param":{"num_deleted":"0","num_feature":"64","num_nodes":"39","size_leaf_vector":"1"}},{"base_weights":[-2.5830814E-4,9.030964E-1,-6.4291336E-2,8.529181E-2,1.220538E-3,4.6567973E-2,-1.1300724E-1,4.638825E-2,-1.569725E-1,-2.0695491E-1,5.739939E-1,-2.7196074E-1,2.7332374E-1,5.622376E-2,-4.1665337E-3,-3.097649E-3,-2.6011383E-2,-2.0708539E-2,3.4149613E-2],"categories":[],"categories_nodes":[],"categories_segments":[],"categories_sizes":[],"default_left":[0,0,0,0,0,0,0,0,0,0,0,0,0,0,0,0,0,0,0],"id":13,"left_children":[1,3,5,-1,-1,-1,7,-1,9,11,13,15,17,-1,-1,-1,-1,-1,-1],"loss_changes":[5.6097517E0,4.307999E0,4.4864774E0,0E0,0E0,0E0,4.127716E0,0E0,3.226391E0,2.6160977E0,2.2404652E0,3.684093E0,3.132233E0,0E0,0E0,0E0,0E0,0E0,0E0],"parents":[2147483647,0,0,1,1,2,2,6,6,8,8,9,9,10,10,11,11,12,12],"right_children":[2,4,6,-1,-1,-1,8,-1,10,12,14,16,18,-1,-1,-1,-1,-1,-1],"split_conditions":[3.3634785E-1,-2.0376677E-2,-3.19774E-2,8.529181E-2,1.220538E-3,4.6567973E-2,-1.4434566E-1,4.638825E-2,2.3278736E-1,2.0748265E-2,9.358671E-1,4.150026E7,-6.6539466E-1,5.622376E-2,-4.1665337E-3,-3.097649E-3,-2.6011383E-2,-2.0708539E-2,3.4149613E-2],"split_indices":[33,36,1,0,0,0,39,0,28,11,52,38,30,0,0,0,0,0,0],"split_type":[0,0,0,0,0,0,0,0,0,0,0,0,0,0,0,0,0,0,0],"sum_hessian":[9.6426155E1,5.41189E0,9.101427E1,2.2767582E0,3.1351316E0,3.3045845E0,8.770968E1,2.6479948E0,8.506169E1,8.0416595E1,4.6450896E0,7.1395195E1,9.0213995E0,2.2240171E0,2.4210725E0,3.9572964E1,3.1822235E1,3.2732427E0,5.748157E0],"tree_param":{"num_deleted":"0","num_feature":"64","num_nodes":"19","size_leaf_vector":"1"}},{"base_weights":[-1.5866858E-1,-2.2550064E-1,2.0065731E-1,-3.9432395E-1,-8.919817E-2,5.656631E-2,-1.8784557E-1,-5.1815875E-2,-2.7238315E-2,4.005517E-2,-1.8180422E-1,-4.0423825E-1,2.5858436E-2,6.230811E-1,-2.4577225E-2,4.0429065E-1,-2.7746302E-1,-7.781371E-4,-2.435821E-2,-2.5776695E-3,5.6792427E-2,-1.9108085E-2,5.1039148E-2,-4.3178064E-1,2.063095E-2,-2.4706295E-2,-4.4784243E-3,7.1988545E-2,-1.7506989E-2],"categories":[],"categories_nodes":[],"categories_segments":[],"categories_sizes":[],"default_left":[0,0,0,0,0,0,0,0,0,0,0,0,0,0,0,0,0,0,0,0,0,0,0,0,0,0,0,0,0],"id":14,"left_children":[1,3,5,7,9,-1,11,13,-1,-1,15,17,-1,19,-1,21,23,-1,-1,-1,-1,-1,-1,25,27,-1,-1,-1,-1],"loss_changes":[2.4748495E0,1.8936815E0,6.144219E0,1.8579602E0,4.1369214E0,0E0,2.0546825E0,4.1015286E0,0E0,0E0,2.647438E0,2.6391053E-1,0E0,2.039827E0,0E0,3.671854E0,1.8812904E0,0E0,0E0,0E0,0E0,0E0,0E0,4.6269178E-1,8.14385E0,0E0,0E0,0E0,0E0],"parents":[2147483647,0,0,1,1,2,2,3,3,4,4,6,6,7,7,10,10,11,11,13,13,15,15,16,16,23,23,24,24],"right_children":[2,4,6,8,10,-1,12,14,-1,-1,16,18,-1,20,-1,22,24,-1,-1,-1,-1,-1,-1,26,28,-1,-1,-1,-1],"split_conditions":[1.5214299E-1,1.9617823E-1,1.510242E8,1.0609757E0,2.5296256E-1,5.656631E-2,9.2848664E7,8.174562E-2,-2.7238315E-2,4.005517E-2,-1.8043704E-2,-6.894578E-3,2.5858436E-2,2.787048E-2,-2.4577225E-2,2.9914964E7,-1.4566915E-1,-7.781371E-4,-2.435821E-2,-2.5776695E-3,5.6792427E-2,-1.9108085E-2,5.1039148E-2,1.5136134E2,-9.1264956E-2,-2.4706295E-2,-4.4784243E-3,7.1988545E-2,-1.7506989E-2],"split_indices":[28,20,46,53,20,0,47,23,0,0,42,60,0,22,0,38,27,0,0,0,0,0,0,54,27,0,0,0,0],"split_type":[0,0,0,0,0,0,0,0,0,0,0,0,0,0,0,0,0,0,0,0,0,0,0,0,0,0,0,0,0],"sum_hessian":[1.00068855E2,8.492428E1,1.5144581E1,3.6763096E1,4.816118E1,3.972864E0,1.1171717E1,1.1832803E1,2.4930294E1,3.715018E0,4.4446163E1,8.982997E0,2.1887197E0,4.4139214E0,7.418882E0,5.6369843E0,3.8809177E1,2.0004435E0,6.9825535E0,2.2103124E0,2.2036088E0,2.5727947E0,3.06419E0,2.5496906E1,1.3312271E1,2.0944956E1,4.5519505E0,2.2162E0,1.109607E1],"tree_param":{"num_deleted":"0","num_feature":"64","num_nodes":"29","size_leaf_vector":"1"}},{"base_weights":[3.1098828E-1,-6.668592E-2,8.1710124E-1,-1.9760606E-1,4.2731142E-1,1.0925467E0,2.6972905E-1,1.5967399E-1,-3.8915983E-1,8.829289E-1,-2.1709971E-2,-1.0745445E-2,1.300249E0,1.1944053E0,-2.4012966E-1,6.6712683E-1,-2.1867035E-1,7.7763214E-3,-4.4327274E-1,1.3017019E0,-4.3859496E-3,1.5127015E0,-0E0,7.910658E-2,2.835936E-2,1.370759E-2,-2.434889E-2,1.1689371E0,-1.8111862E-2,-2.4551967E-2,2.9027436E-2,3.2664326E-3,-5.058658E-1,1.0232271E-1,1.604664E-2,1.7402554E0,1.768361E-2,1.2488362E-2,8.018894E-2,-2.7096177E-2,-2.1665988E-3,1.5816484E-2,9.977038E-2],"categories":[],"categories_nodes":[],"categories_segments":[],"categories_sizes":[],"default_left":[0,0,0,0,0,0,0,0,0,0,0,0,0,0,0,0,0,0,0,0,0,0,0,0,0,0,0,0,0,0,0,0,0,0,0,0,0,0,0,0,0,0,0],"id":15,"left_children":[1,3,5,7,9,11,13,15,17,19,-1,-1,21,23,25,27,29,-1,31,33,-1,35,-1,-1,-1,-1,-1,37,-1,-1,-1,-1,39,-1,-1,41,-1,-1,-1,-1,-1,-1,-1],"loss_changes":[1.9486877E1,3.8646407E0,6.1223392E0,3.324222E0,5.3252525E0,8.118061E0,7.9253297E0,3.463363E0,1.0197835E0,3.7174258E0,0E0,0E0,6.8519745E0,3.28269E-1,1.5608774E0,4.4506984E0,2.5411801E0,0E0,9.9659634E-1,3.5761166E0,0E0,4.7917976E0,0E0,0E0,0E0,0E0,0E0,1.587718E0,0E0,0E0,0E0,0E0,3.517437E-1,0E0,0E0,5.4862213E0,0E0,0E0,0E0,0E0,0E0,0E0,0E0],"parents":[2147483647,0,0,1,1,2,2,3,3,4,4,5,5,6,6,7,7,8,8,9,9,12,12,13,13,14,14,15,15,16,16,18,18,19,19,21,21,27,27,32,32,35,35],"right_children":[2,4,6,8,10,12,14,16,18,20,-1,-1,22,24,26,28,30,-1,32,34,-1,36,-1,-1,-1,-1,-1,38,-1,-1,-1,-1,40,-1,-1,42,-1,-1,-1,-1,-1,-1,-1],"split_conditions":[4.0612048E-1,6.448274E-2,1.47176655E-2,2.692259E-2,2.3991136E-1,-8.106134E-3,4.6713234E1,9.6241735E-2,-4.7897775E-2,6.2257104E-2,-2.1709971E-2,-1.0745445E-2,1.4461683E-1,-5.238028E-1,3.8573258E-2,1.1538895E-2,1.2459137E-1,7.7763214E-3,-1.3572526E-1,2.0718647E1,-4.3859496E-3,2.8666806E8,-0E0,7.910658E-2,2.835936E-2,1.370759E-2,-2.434889E-2,1.6622497E-2,-1.8111862E-2,-2.4551967E-2,2.9027436E-2,3.2664326E-3,-7.8746397E-4,1.0232271E-1,1.604664E-2,3.3391E-2,1.768361E-2,1.2488362E-2,8.018894E-2,-2.7096177E-2,-2.1665988E-3,1.5816484E-2,9.977038E-2],"split_indices":[63,8,16,12,10,45,56,20,60,36,0,0,42,27,2,1,45,0,14,58,0,37,0,0,0,0,0,2,0,0,0,0,4,0,0,17,0,0,0,0,0,0,0],"split_type":[0,0,0,0,0,0,0,0,0,0,0,0,0,0,0,0,0,0,0,0,0,0,0,0,0,0,0,0,0,0,0,0,0,0,0,0,0,0,0,0,0,0,0],"sum_hessian":[1.0027005E2,5.780509E1,4.2464954E1,4.6329243E1,1.1475849E1,2.7465334E1,1.4999621E1,1.6045698E1,3.0283546E1,7.565816E0,3.9100327E0,3.694273E0,2.377106E1,4.923645E0,1.0075976E1,6.6403646E0,9.405333E0,2.400332E0,2.7883213E1,5.119175E0,2.446641E0,2.0296087E1,3.4749737E0,2.0033474E0,2.9202974E0,3.100566E0,6.9754105E0,4.4382796E0,2.202085E0,7.39566E0,2.0096726E0,2.8756607E0,2.5007553E1,2.2341328E0,2.8850424E0,1.6473972E1,3.822114E0,2.0048263E0,2.4334536E0,2.2839235E1,2.1683173E0,2.9032915E0,1.3570681E1],"tree_param":{"num_deleted":"0","num_feature":"64","num_nodes":"43","size_leaf_vector":"1"}},{"base_weights":[6.13394E-2,-3.3142548E-2,1.4012514E0,3.4657627E-1,-1.331962E-1,9.1672115E-2,2.8787179E-2,5.9832573E-2,1.0766547E-1,-2.0014682E-1,6.826753E-1,-2.5488374E-1,4.3111163E-1,-4.61744E-1,3.0969886E-2,7.430242E-2,-6.5903994E-3,-2.333538E-2,1.2555187E-2,7.815838E-2,-7.661808E-2,-5.1723003E-1,1.07765095E-2,5.951891E-1,-1.3015841E-1,2.0846196E-2,-2.1693548E-2,-2.3577027E-3,-2.734535E-2,5.504073E-2,-1.3359162E-3,-2.2468438E-2,5.6686974E-3],"categories":[],"categories_nodes":[],"categories_segments":[],"categories_sizes":[],"default_left":[0,0,0,0,0,0,0,0,0,0,0,0,0,0,0,0,0,0,0,0,0,0,0,0,0,0,0,0,0,0,0,0,0],"id":16,"left_children":[1,3,5,7,9,-1,-1,-1,11,13,15,17,19,21,23,-1,-1,-1,-1,-1,25,27,-1,29,31,-1,-1,-1,-1,-1,-1,-1,-1],"loss_changes":[1.3068502E1,3.671481E0,1.1285152E0,3.8200622E0,4.2887936E0,0E0,0E0,0E0,2.105787E0,4.4076138E0,4.221419E0,1.0430245E0,5.690433E0,1.41997E0,3.6637304E0,0E0,0E0,0E0,0E0,0E0,1.4881749E0,3.5942554E-1,0E0,2.9563837E0,2.4920666E0,0E0,0E0,0E0,0E0,0E0,0E0,0E0,0E0],"parents":[2147483647,0,0,1,1,2,2,3,3,4,4,8,8,9,9,10,10,11,11,12,12,13,13,14,14,20,20,21,21,23,23,24,24],"right_children":[2,4,6,8,10,-1,-1,-1,12,14,16,18,20,22,24,-1,-1,-1,-1,-1,26,28,-1,30,32,-1,-1,-1,-1,-1,-1,-1,-1],"split_conditions":[1.6231602E0,6.0847993E-3,2.778222E8,-6.7300927E-3,1.1130928E8,9.1672115E-2,2.8787179E-2,5.9832573E-2,6.493791E-3,-3.661508E-2,2.7145008E8,1.7223567E-1,1.9025838E-2,9.9638397E-1,2.6851472E-2,7.430242E-2,-6.5903994E-3,-2.333538E-2,1.2555187E-2,7.815838E-2,4.993517E-3,-1.0762795E0,1.07765095E-2,1.4218915E-2,2.8518176E-2,2.0846196E-2,-2.1693548E-2,-2.3577027E-3,-2.734535E-2,5.504073E-2,-1.3359162E-3,-2.2468438E-2,5.6686974E-3],"split_indices":[53,42,40,1,47,0,0,0,0,29,40,10,0,52,17,0,0,0,0,0,10,26,0,60,3,0,0,0,0,0,0,0,0],"split_type":[0,0,0,0,0,0,0,0,0,0,0,0,0,0,0,0,0,0,0,0,0,0,0,0,0,0,0,0,0,0,0,0,0],"sum_hessian":[1.00781235E2,9.49842E1,5.797039E0,1.9086117E1,7.589808E1,2.9240448E0,2.8729944E0,3.2159634E0,1.5870152E1,7.095292E1,4.9451623E0,7.436934E0,8.433219E0,3.301668E1,3.7936237E1,2.1362753E0,2.8088868E0,5.4363527E0,2.0005815E0,2.028532E0,6.4046865E0,3.0871477E1,2.1452045E0,7.9665823E0,2.9969656E1,2.501686E0,3.9030006E0,2.187085E0,2.8684391E1,4.0580363E0,3.9085462E0,1.2781586E1,1.718807E1],"tree_param":{"num_deleted":"0","num_feature":"64","num_nodes":"33","size_leaf_vector":"1"}},{"base_weights":[-2.5751528E-1,6.556613E-1,-3.0534324E-1,-1.8144501E-2,7.717069E-2,5.4902244E-1,-3.565274E-1,-1.7854866E-2,6.0568817E-2,1.6901216E-2,-3.832602E-1,2.5439298E-2,-4.1672698E-1,2.3389809E-2,-2.0489817E-2,5.8311606E-3,-4.366085E-1,-2.283184E-2,-0E0],"categories":[],"categories_nodes":[],"categories_segments":[],"categories_sizes":[],"default_left":[0,0,0,0,0,0,0,0,0,0,0,0,0,0,0,0,0,0,0],"id":17,"left_children":[1,3,5,-1,-1,7,9,-1,-1,-1,11,13,15,-1,-1,-1,17,-1,-1],"loss_changes":[4.597417E0,5.438221E0,4.427801E0,0E0,0E0,3.9859612E0,1.85042E0,0E0,0E0,0E0,1.2755423E0,1.6413773E0,9.6431446E-1,0E0,0E0,0E0,7.2557926E-1,0E0,0E0],"parents":[2147483647,0,0,1,1,2,2,5,5,6,6,10,10,11,11,12,12,16,16],"right_children":[2,4,6,-1,-1,8,10,-1,-1,-1,12,14,16,-1,-1,-1,18,-1,-1],"split_conditions":[6.4953384E-3,1.1561827E-3,-2.0428237E-1,-1.8144501E-2,7.717069E-2,9.622242E-2,-4.5064595E-1,-1.7854866E-2,6.0568817E-2,1.6901216E-2,3.779258E-2,-3.0809585E-2,7.9974E7,2.3389809E-2,-2.0489817E-2,5.8311606E-3,1.7024691E-1,-2.283184E-2,-0E0],"split_indices":[48,60,10,0,0,51,29,0,0,0,51,9,37,0,0,0,51,0,0],"split_type":[0,0,0,0,0,0,0,0,0,0,0,0,0,0,0,0,0,0,0],"sum_hessian":[1.0048157E2,4.264285E0,9.6217285E1,2.2087207E0,2.0555644E0,4.7782683E0,9.143901E1,2.1486883E0,2.62958E0,2.818764E0,8.862025E1,6.499506E0,8.212074E1,3.300229E0,3.1992772E0,2.5955532E0,7.952519E1,7.609607E1,3.429123E0],"tree_param":{"num_deleted":"0","num_feature":"64","num_nodes":"19","size_leaf_vector":"1"}},{"base_weights":[-9.3400724E-2,4.0533832E-1,-1.7431842E-1,1.2718155E0,-2.587147E-1,-2.1212E-1,4.156515E-2,1.028612E-1,-2.814342E-3,1.2543474E-2,-2.337467E-2,-4.7704184E-1,-6.6592075E-2,-2.7121523E-2,-1.5847465E-4,-2.3084252E-1,3.554482E-1,2.8615255E-2,-2.9105008E-1,5.183637E-2,7.843109E-2,1.4629349E-2,-1.761347E-2,2.1116342E-2,-1.6721187E-2],"categories":[],"categories_nodes":[],"categories_segments":[],"categories_sizes":[],"default_left":[0,0,0,0,0,0,0,0,0,0,0,0,0,0,0,0,0,0,0,0,0,0,0,0,0],"id":18,"left_children":[1,3,5,7,9,11,-1,-1,-1,-1,-1,13,15,-1,-1,17,19,-1,21,23,-1,-1,-1,-1,-1],"loss_changes":[3.9943242E0,8.35932E0,3.346244E0,6.796919E0,1.0503902E0,3.1072242E0,0E0,0E0,0E0,0E0,0E0,8.411255E-1,3.873011E0,0E0,0E0,2.0858655E0,5.5005713E0,0E0,1.4754624E0,2.0923953E0,0E0,0E0,0E0,0E0,0E0],"parents":[2147483647,0,0,1,1,2,2,3,3,4,4,5,5,11,11,12,12,15,15,16,16,18,18,19,19],"right_children":[2,4,6,8,10,12,-1,-1,-1,-1,-1,14,16,-1,-1,18,20,-1,22,24,-1,-1,-1,-1,-1],"split_conditions":[-5.3634476E-2,1.24263786E-1,1.5869943E-2,2.4124429E-2,3.056377E-2,-3.953291E-1,4.156515E-2,1.028612E-1,-2.814342E-3,1.2543474E-2,-2.337467E-2,7.758868E-2,8.465121E7,-2.7121523E-2,-1.5847465E-4,1.5024091E-2,-1.3426711E-2,2.8615255E-2,-4.2053592E-1,5.2283253E-3,7.843109E-2,1.4629349E-2,-1.761347E-2,2.1116342E-2,-1.6721187E-2],"split_indices":[62,27,21,39,12,30,0,0,0,0,0,12,50,0,0,7,4,0,36,11,0,0,0,0,0],"split_type":[0,0,0,0,0,0,0,0,0,0,0,0,0,0,0,0,0,0,0,0,0,0,0,0,0],"sum_hessian":[9.679682E1,1.2780247E1,8.401658E1,5.213225E0,7.5670214E0,8.182911E1,2.1874714E0,2.9782555E0,2.2349696E0,2.0014145E0,5.565607E0,2.796178E1,5.3867325E1,2.4258677E1,3.703105E0,3.9272972E1,1.4594355E1,2.0297925E0,3.724318E1,1.25729685E1,2.0213857E0,3.0218136E0,3.4221363E1,6.5019703E0,6.0709987E0],"tree_param":{"num_deleted":"0","num_feature":"64","num_nodes":"25","size_leaf_vector":"1"}},{"base_weights":[1.1913638E-1,5.252759E-1,-5.104638E-2,1.08621895E-1,1.4082584E0,7.4991636E-2,-3.8410985E-1,-2.37614E-2,3.673593E-1,-1.3549902E-3,9.1639705E-2,4.6476173E-1,-6.458342E-2,-4.7553837E-1,1.2529328E-2,-1.9846154E-2,5.806207E-1,1.7818633E-2,7.803403E-2,-2.6060417E-1,3.97165E-1,-2.6328122E-2,-2.1461223E-3,-1.8757178E-2,8.558623E-1,4.5330845E-2,-3.68428E-1,1.9005736E-2,-3.4642407E-1,-6.4203046E-2,9.3967927E-1,1.1664027E-3,6.067192E-2,-2.3038266E-2,-1.9543448E-3,-2.2024515E-3,-2.3703463E-2,1.55028505E-2,-2.0759186E-2,7.6027624E-2,6.545157E-3],"categories":[],"categories_nodes":[],"categories_segments":[],"categories_sizes":[],"default_left":[0,0,0,0,0,0,0,0,0,0,0,0,0,0,0,0,0,0,0,0,0,0,0,0,0,0,0,0,0,0,0,0,0,0,0,0,0,0,0,0,0],"id":19,"left_children":[1,3,5,7,9,11,13,-1,15,-1,-1,17,19,21,-1,-1,23,25,-1,27,29,-1,-1,-1,31,-1,33,-1,35,37,39,-1,-1,-1,-1,-1,-1,-1,-1,-1,-1],"loss_changes":[6.9154577E0,1.0544543E1,3.018762E0,3.3657446E0,5.893423E0,2.8857033E0,1.2867355E0,0E0,2.754009E0,0E0,0E0,6.65107E0,3.6016083E0,3.1183958E-1,0E0,0E0,3.6640916E0,4.160941E0,0E0,1.6675042E0,3.103033E0,0E0,0E0,0E0,2.857895E0,0E0,1.8422973E-1,0E0,9.0559983E-1,1.0872364E0,2.2618074E0,0E0,0E0,0E0,0E0,0E0,0E0,0E0,0E0,0E0,0E0],"parents":[2147483647,0,0,1,1,2,2,3,3,4,4,5,5,6,6,8,8,11,11,12,12,13,13,16,16,17,17,19,19,20,20,24,24,26,26,28,28,29,29,30,30],"right_children":[2,4,6,8,10,12,14,-1,16,-1,-1,18,20,22,-1,-1,24,26,-1,28,30,-1,-1,-1,32,-1,34,-1,36,38,40,-1,-1,-1,-1,-1,-1,-1,-1,-1,-1],"split_conditions":[1.9303707E1,4.0978033E-2,1.4520104E-2,1.2172662E8,-3.2837793E-1,4.6376247E-2,2.596061E-1,-2.37614E-2,-5.6024592E-2,-1.3549902E-3,9.1639705E-2,2.0101365E8,1.0561489E-1,2.711866E-1,1.2529328E-2,-1.9846154E-2,-4.5100042E-1,2.843023E-2,7.803403E-2,3.102401E-1,6.1293207E-2,-2.6328122E-2,-2.1461223E-3,-1.8757178E-2,2.9207354E7,4.5330845E-2,2.5683148E-2,1.9005736E-2,7.612873E7,2.081981E1,1.2947837E-1,1.1664027E-3,6.067192E-2,-2.3038266E-2,-1.9543448E-3,-2.2024515E-3,-2.3703463E-2,1.55028505E-2,-2.0759186E-2,7.6027624E-2,6.545157E-3],"split_indices":[59,3,1,49,27,51,30,0,39,0,0,40,42,39,0,0,30,12,0,32,36,0,0,0,41,0,60,0,50,59,39,0,0,0,0,0,0,0,0,0,0],"split_type":[0,0,0,0,0,0,0,0,0,0,0,0,0,0,0,0,0,0,0,0,0,0,0,0,0,0,0,0,0,0,0,0,0,0,0,0,0,0,0,0,0],"sum_hessian":[9.797895E1,2.8489676E1,6.948927E1,2.0196024E1,8.293652E0,5.0756557E1,1.8732718E1,5.826074E0,1.4369948E1,2.0530133E0,6.2406387E0,1.2957827E1,3.7798733E1,1.6730932E1,2.0017855E0,2.8447762E0,1.1525172E1,9.990825E0,2.9670017E0,2.6992218E1,1.0806513E1,1.4564801E1,2.1661308E0,2.4145339E0,9.110639E0,2.6968086E0,7.294016E0,2.6456602E0,2.4346558E1,6.2168627E0,4.5896506E0,3.1414318E0,5.969207E0,5.147987E0,2.1460292E0,7.858735E0,1.6487822E1,2.9271967E0,3.289666E0,2.087018E0,2.5026326E0],"tree_param":{"num_deleted":"0","num_feature":"64","num_nodes":"41","size_leaf_vector":"1"}},{"base_weights":[-1.5020914E-3,2.1818873E-1,-2.828317E-1,-4.108144E-1,3.5689658E-1,-3.7451684E-1,3.8021293E-1,-1.8430079E-3,-2.4504453E-2,3.7112042E-2,6.5411806E-1,6.5304725E-3,-4.3708003E-1,4.4038564E-2,-5.8074906E-3,5.354128E-1,-1.4575584E-1,8.5478866E-1,-2.4411173E-1,-0E0,-2.7253712E-2,-0E0,5.3737253E-2,-2.7830425E-1,2.7860198E-2,-1.8478144E-3,1.08672E0,-1.0259988E-3,-1.7661838E-2,2.658773E-2,-2.8211957E-1,1.7761516E-3,-2.5075873E-2,6.5865315E-2,1.553589E-2,-1.9552898E-2,-1.2238612E-3],"categories":[],"categories_nodes":[],"categories_segments":[],"categories_sizes":[],"default_left":[0,0,0,0,0,0,0,0,0,0,0,0,0,0,0,0,0,0,0,0,0,0,0,0,0,0,0,0,0,0,0,0,0,0,0,0,0],"id":20,"left_children":[1,3,5,7,9,11,13,-1,-1,15,17,-1,19,-1,-1,21,23,25,27,29,-1,-1,-1,31,-1,-1,33,-1,-1,-1,35,-1,-1,-1,-1,-1,-1],"loss_changes":[6.208941E0,5.040599E0,2.828894E0,2.39936E-1,4.3428416E0,1.3350177E0,1.6032649E0,0E0,0E0,2.2771664E0,4.589979E0,0E0,1.6921573E0,0E0,0E0,1.9015946E0,1.8025846E0,4.261877E0,7.8927964E-2,1.35521E0,0E0,0E0,0E0,1.1792686E0,0E0,0E0,2.2761993E0,0E0,0E0,0E0,1.1270645E-1,0E0,0E0,0E0,0E0,0E0,0E0],"parents":[2147483647,0,0,1,1,2,2,3,3,4,4,5,5,6,6,9,9,10,10,12,12,15,15,16,16,17,17,18,18,19,19,23,23,26,26,30,30],"right_children":[2,4,6,8,10,12,14,-1,-1,16,18,-1,20,-1,-1,22,24,26,28,30,-1,-1,-1,32,-1,-1,34,-1,-1,-1,36,-1,-1,-1,-1,-1,-1],"split_conditions":[3.4581285E-2,2.733065E7,1.1641878E8,1.331284E7,3.2225788E-2,6.3960788E7,1.642449E8,-1.8430079E-3,-2.4504453E-2,6.0821076E7,5.1019054E-2,6.5304725E-3,4.0993754E-2,4.4038564E-2,-5.8074906E-3,1.236975E8,1.8237306E-1,1.2051473E8,3.3933032E-2,8.707693E7,-2.7253712E-2,-0E0,5.3737253E-2,6.602674E-2,2.7860198E-2,-1.8478144E-3,9.749697E-3,-1.0259988E-3,-1.7661838E-2,2.658773E-2,7.4207135E-2,1.7761516E-3,-2.5075873E-2,6.5865315E-2,1.553589E-2,-1.9552898E-2,-1.2238612E-3],"split_indices":[2,41,44,38,17,50,50,0,0,50,17,0,48,0,0,40,42,49,26,50,0,0,0,45,0,0,21,0,0,0,17,0,0,0,0,0,0],"split_type":[0,0,0,0,0,0,0,0,0,0,0,0,0,0,0,0,0,0,0,0,0,0,0,0,0,0,0,0,0,0,0,0,0,0,0,0,0],"sum_hessian":[9.835625E1,5.5154766E1,4.3201477E1,9.480511E0,4.5674255E1,3.846812E1,4.7333574E0,2.1351223E0,7.345389E0,2.270594E1,2.2968313E1,3.9434268E0,3.4524693E1,2.0714314E0,2.6619258E0,5.72493E0,1.698101E1,1.8904593E1,4.063721E0,6.986864E0,2.753783E1,3.409645E0,2.315285E0,1.4915023E1,2.0659888E0,3.9865067E0,1.4918086E1,2.023038E0,2.0406833E0,2.149715E0,4.837149E0,6.3625007E0,8.552522E0,1.0863589E1,4.054497E0,2.7629356E0,2.0742137E0],"tree_param":{"num_deleted":"0","num_feature":"64","num_nodes":"37","size_leaf_vector":"1"}},{"base_weights":[3.1663667E-2,1.1473074E0,-3.508936E-2,7.885912E-2,1.2163455E-2,5.276675E-1,-1.2263501E-1,1.3394612E0,-9.907452E-2,-1.8398397E-1,5.869312E-1,2.5522223E-2,8.5626096E-2,-2.2511614E-2,2.5451202E-2,3.918955E-2,-2.2721145E-1,7.099485E-2,-1.956304E-2,-3.074195E-1,3.2352015E-1,-1.3435715E-3,-2.3830943E-2,-2.1505555E-2,4.544893E-2],"categories":[],"categories_nodes":[],"categories_segments":[],"categories_sizes":[],"default_left":[0,0,0,0,0,0,0,0,0,0,0,0,0,0,0,0,0,0,0,0,0,0,0,0,0],"id":21,"left_children":[1,3,5,-1,-1,7,9,11,13,15,17,-1,-1,-1,-1,-1,19,-1,-1,21,23,-1,-1,-1,-1],"loss_changes":[7.2415934E0,1.5674605E0,4.4934683E0,0E0,0E0,6.4879217E0,3.5270295E0,5.965929E-1,1.8831191E0,3.2196493E0,5.899995E0,0E0,0E0,0E0,0E0,0E0,3.2669933E0,0E0,0E0,2.9413476E0,4.608005E0,0E0,0E0,0E0,0E0],"parents":[2147483647,0,0,1,1,2,2,5,5,6,6,7,7,8,8,9,9,10,10,16,16,19,19,20,20],"right_children":[2,4,6,-1,-1,8,10,12,14,16,18,-1,-1,-1,-1,-1,20,-1,-1,22,24,-1,-1,-1,-1],"split_conditions":[3.203978E-1,-2.0376677E-2,9.6207E7,7.885912E-2,1.2163455E-2,-1.7296709E-3,2.3278736E-1,2.0679934E1,3.2135826E-2,-3.19774E-2,8.01245E7,2.5522223E-2,8.5626096E-2,-2.2511614E-2,2.5451202E-2,3.918955E-2,2.0748265E-2,7.099485E-2,-1.956304E-2,2.9994028E-2,-6.8149E-2,-1.3435715E-3,-2.3830943E-2,-2.1505555E-2,4.544893E-2],"split_indices":[33,36,37,0,0,0,28,55,3,1,50,0,0,0,0,0,11,0,0,3,9,0,0,0,0],"split_type":[0,0,0,0,0,0,0,0,0,0,0,0,0,0,0,0,0,0,0,0,0,0,0,0,0],"sum_hessian":[9.420434E1,4.4890776E0,8.971526E1,2.4627938E0,2.0262837E0,1.1247165E1,7.84681E1,4.474238E0,6.7729263E0,7.303513E1,5.4329634E0,2.206736E0,2.2675018E0,4.5623603E0,2.210566E0,2.2913506E0,7.074378E1,2.745634E0,2.6873293E0,6.2294624E1,8.449161E0,2.4094145E1,3.8200478E1,3.7353582E0,4.713803E0],"tree_param":{"num_deleted":"0","num_feature":"64","num_nodes":"25","size_leaf_vector":"1"}},{"base_weights":[-1.208599E-1,-1.807348E-1,4.2587924E-1,-2.2700688E-1,4.1591253E-2,5.3421717E-2,-2.5744757E-1,1.17000796E-1,-3.389854E-1,-2.1244583E-3,-1.7958801E-2,-1.8742397E-1,7.39352E-1,-1.2179462E-1,-4.5502144E-1,-4.2192724E-1,2.0951165E-2,6.741231E-2,-6.608666E-3,-4.0853754E-1,4.5523134E-1,-2.7083708E-2,-3.0479664E-1,-1.6391088E-3,-2.4854122E-2,-2.6120964E-2,6.292034E-3,4.648605E-2,-9.01406E-3,2.6127664E-2,-2.6176324E-2],"categories":[],"categories_nodes":[],"categories_segments":[],"categories_sizes":[],"default_left":[0,0,0,0,0,0,0,0,0,0,0,0,0,0,0,0,0,0,0,0,0,0,0,0,0,0,0,0,0,0,0],"id":22,"left_children":[1,3,5,7,-1,-1,9,11,13,-1,-1,15,17,19,21,23,-1,-1,-1,25,27,-1,29,-1,-1,-1,-1,-1,-1,-1,-1],"loss_changes":[3.1586442E0,4.1758823E0,4.5267982E0,3.2781053E0,0E0,0E0,6.120652E-2,4.1776485E0,1.4863315E0,0E0,0E0,2.2833357E0,4.1297603E0,4.113454E0,2.8005219E-1,2.6113248E-1,0E0,0E0,0E0,1.110662E0,2.729228E0,0E0,3.4581704E0,0E0,0E0,0E0,0E0,0E0,0E0,0E0,0E0],"parents":[2147483647,0,0,1,1,2,2,3,3,6,6,7,7,8,8,11,11,12,12,13,13,14,14,15,15,19,19,20,20,22,22],"right_children":[2,4,6,8,-1,-1,10,12,14,-1,-1,16,18,20,22,24,-1,-1,-1,26,28,-1,30,-1,-1,-1,-1,-1,-1,-1,-1],"split_conditions":[3.4181675E-1,1.00800335E-1,4.548412E-2,2.3021597E-2,4.1591253E-2,5.3421717E-2,1.6897127E-1,8.408887E-2,4.631596E-2,-2.1244583E-3,-1.7958801E-2,8.963446E-3,8.393284E7,3.259772E-2,2.7920134E-2,9.14955E7,2.0951165E-2,6.741231E-2,-6.608666E-3,7.717755E7,-3.1940006E-2,-2.7083708E-2,8.203007E-3,-1.6391088E-3,-2.4854122E-2,-2.6120964E-2,6.292034E-3,4.648605E-2,-9.01406E-3,2.6127664E-2,-2.6176324E-2],"split_indices":[39,60,7,3,0,0,48,45,63,0,0,60,47,22,60,40,0,0,0,50,29,0,6,0,0,0,0,0,0,0,0],"split_type":[0,0,0,0,0,0,0,0,0,0,0,0,0,0,0,0,0,0,0,0,0,0,0,0,0,0,0,0,0,0,0],"sum_hessian":[9.3886116E1,8.538744E1,8.498678E0,8.249226E1,2.895174E0,4.1649766E0,4.333702E0,2.0027668E1,6.24646E1,2.1632676E0,2.1704345E0,1.3810426E1,6.2172422E0,2.2765196E1,3.96994E1,1.029765E1,3.5127752E0,3.4056313E0,2.8116112E0,1.5518731E1,7.2464647E0,2.3102175E1,1.6597229E1,2.1147077E0,8.182942E0,1.2965218E1,2.5535138E0,3.9738755E0,3.272589E0,3.0843594E0,1.351287E1],"tree_param":{"num_deleted":"0","num_feature":"64","num_nodes":"31","size_leaf_vector":"1"}},{"base_weights":[3.077328E-1,-3.884887E-2,7.2735393E-1,6.3691646E-1,-1.4428984E-1,-2.1290015E-2,8.364274E-1,1.1618026E0,-1.8577108E-2,1.9343583E-1,-3.5891268E-1,1.1425349E0,3.1062827E-1,9.373646E-2,7.67323E-3,7.549065E-1,-9.735565E-2,-4.7597936E-1,2.5720065E-2,1.320254E0,1.04545094E-1,-7.158873E-2,1.249385E0,6.745466E-2,-1.8117761E-2,-4.166112E-1,3.6637E-2,-1.6798957E-1,-2.7009783E-2,6.6528902E-3,1.5522536E0,2.8415656E-2,-1.7805984E-2,-3.959646E-1,2.7714584E-2,8.912723E-2,1.2226389E-2,-2.465132E-2,-2.1102629E-3,-2.1201933E-2,1.2344911E-2,1.2828059E-2,8.940654E-2,-2.4129804E-2,-8.385499E-4],"categories":[],"categories_nodes":[],"categories_segments":[],"categories_sizes":[],"default_left":[0,0,0,0,0,0,0,0,0,0,0,0,0,0,0,0,0,0,0,0,0,0,0,0,0,0,0,0,0,0,0,0,0,0,0,0,0,0,0,0,0,0,0,0,0],"id":23,"left_children":[1,3,5,7,9,-1,11,13,-1,15,17,19,21,-1,-1,23,25,27,-1,29,31,33,35,-1,-1,37,-1,39,-1,-1,41,-1,-1,43,-1,-1,-1,-1,-1,-1,-1,-1,-1,-1,-1],"loss_changes":[1.5177711E1,4.1474333E0,6.319624E0,4.6564837E0,3.7664206E0,0E0,6.490486E0,3.4335494E0,0E0,3.4370883E0,3.4693751E0,4.6925125E0,6.47756E0,0E0,0E0,5.3164215E0,4.003777E0,4.0142155E-1,0E0,5.918247E0,1.3151377E0,2.9016092E0,2.1399803E0,0E0,0E0,2.3723781E-1,0E0,8.2684207E-1,0E0,0E0,5.128254E0,0E0,0E0,2.5211847E-1,0E0,0E0,0E0,0E0,0E0,0E0,0E0,0E0,0E0,0E0,0E0],"parents":[2147483647,0,0,1,1,2,2,3,3,4,4,6,6,7,7,9,9,10,10,11,11,12,12,15,15,16,16,17,17,19,19,20,20,21,21,22,22,25,25,27,27,30,30,33,33],"right_children":[2,4,6,8,10,-1,12,14,-1,16,18,20,22,-1,-1,24,26,28,-1,30,32,34,36,-1,-1,38,-1,40,-1,-1,42,-1,-1,44,-1,-1,-1,-1,-1,-1,-1,-1,-1,-1,-1],"split_conditions":[4.0612048E-1,8.451658E-1,-8.106134E-3,1.3776697E-1,2.692259E-2,-2.1290015E-2,4.723696E-1,8.3186936E7,-1.8577108E-2,6.8654865E-2,5.495291E-2,2.8666806E8,9.75362E-1,9.373646E-2,7.67323E-3,1.8070724E-2,1.2459137E-1,3.064354E-2,2.5720065E-2,3.4340743E-2,1.6399209E-1,1.2715554E-1,4.066828E-1,6.745466E-2,-1.8117761E-2,9.766895E-1,3.6637E-2,3.0404523E-2,-2.7009783E-2,6.6528902E-3,3.5155986E-2,2.8415656E-2,-1.7805984E-2,6.1680656E-2,2.7714584E-2,8.912723E-2,1.2226389E-2,-2.465132E-2,-2.1102629E-3,-2.1201933E-2,1.2344911E-2,1.2828059E-2,8.940654E-2,-2.4129804E-2,-8.385499E-4],"split_indices":[63,52,45,39,12,0,15,44,0,20,2,37,52,0,0,60,45,22,0,17,10,61,10,0,0,52,0,22,0,0,12,0,0,7,0,0,0,0,0,0,0,0,0,0,0],"split_type":[0,0,0,0,0,0,0,0,0,0,0,0,0,0,0,0,0,0,0,0,0,0,0,0,0,0,0,0,0,0,0,0,0,0,0,0,0,0,0,0,0,0,0,0,0],"sum_hessian":[1.026945E2,5.6608456E1,4.6086044E1,6.8322215E0,4.9776234E1,3.652301E0,4.2433743E1,4.4586635E0,2.373558E0,1.9198576E1,3.057766E1,2.595831E1,1.6475433E1,2.0504978E0,2.408166E0,6.1233125E0,1.3075263E1,2.7465431E1,3.112228E0,2.184914E1,4.1091695E0,1.2289111E1,4.186323E0,3.92037E0,2.2029421E0,9.890104E0,3.1851587E0,5.63111E0,2.1834322E1,3.8994255E0,1.7949715E1,2.0394142E0,2.0697553E0,8.441333E0,3.8477778E0,2.1644561E0,2.0218668E0,7.7287707E0,2.1613338E0,3.6175206E0,2.0135894E0,3.151255E0,1.479846E1,6.434812E0,2.0065207E0],"tree_param":{"num_deleted":"0","num_feature":"64","num_nodes":"45","size_leaf_vector":"1"}},{"base_weights":[1.569857E-2,-5.863474E-2,9.9184394E-1,-2.8472298E-1,2.0169523E-1,-2.7070134E-3,1.4792596E0,-3.5268947E-1,4.0907305E-2,5.6185424E-1,-1.9260547E-3,2.7494207E-2,9.540361E-2,-4.030196E-1,1.3793821E-2,9.898259E-1,-1.754403E-1,5.7255816E-2,-1.4079113E-1,-0E0,-4.7491074E-1,1.4786515E0,-7.814639E-3,1.2481344E-2,-2.1486884E-2,2.6109782E-1,-4.6399784E-1,3.2491673E-2,-2.239763E-2,-0E0,-2.6097829E-2,1.2074558E-2,9.369714E-2,-1.4513962E-3,5.9220415E-2,-2.6072541E-2,-2.424943E-3],"categories":[],"categories_nodes":[],"categories_segments":[],"categories_sizes":[],"default_left":[0,0,0,0,0,0,0,0,0,0,0,0,0,0,0,0,0,0,0,0,0,0,0,0,0,0,0,0,0,0,0,0,0,0,0,0,0],"id":24,"left_children":[1,3,5,7,9,-1,11,13,-1,15,17,-1,-1,19,-1,21,23,-1,25,27,29,31,-1,-1,-1,33,35,-1,-1,-1,-1,-1,-1,-1,-1,-1,-1],"loss_changes":[7.489449E0,5.6467485E0,3.9479604E0,4.0925336E0,3.3171153E0,0E0,7.31472E-1,1.6794691E0,0E0,5.378253E0,4.7146497E0,0E0,0E0,1.2936535E0,0E0,6.2512445E0,8.523996E-1,0E0,3.6525102E0,2.6485686E0,8.8078785E-1,3.0154343E0,0E0,0E0,0E0,3.511938E0,2.8724384E-1,0E0,0E0,0E0,0E0,0E0,0E0,0E0,0E0,0E0,0E0],"parents":[2147483647,0,0,1,1,2,2,3,3,4,4,6,6,7,7,9,9,10,10,13,13,15,15,16,16,18,18,19,19,20,20,21,21,25,25,26,26],"right_children":[2,4,6,8,10,-1,12,14,-1,16,18,-1,-1,20,-1,22,24,-1,26,28,30,32,-1,-1,-1,34,36,-1,-1,-1,-1,-1,-1,-1,-1,-1,-1],"split_conditions":[7.871431E-1,-1.3475721E-2,7.7483386E-2,5.747203E-1,-1.1916411E-1,-2.7070134E-3,4.150026E7,1.1130928E8,4.0907305E-2,-4.669691E-2,9.908688E-3,2.7494207E-2,9.540361E-2,2.7756266E7,1.3793821E-2,7.11841E-1,4.0752764E7,5.7255816E-2,1.3195302E8,2.8223624E-2,-3.5244174E-2,2.91983E7,-7.814639E-3,1.2481344E-2,-2.1486884E-2,4.9204826E-2,2.7914757E-1,3.2491673E-2,-2.239763E-2,-0E0,-2.6097829E-2,1.2074558E-2,9.369714E-2,-1.4513962E-3,5.9220415E-2,-2.6072541E-2,-2.424943E-3],"split_indices":[63,29,48,10,26,0,38,47,0,14,3,0,0,41,0,63,38,0,49,8,61,44,0,0,0,3,26,0,0,0,0,0,0,0,0,0,0],"split_type":[0,0,0,0,0,0,0,0,0,0,0,0,0,0,0,0,0,0,0,0,0,0,0,0,0,0,0,0,0,0,0,0,0,0,0,0,0],"sum_hessian":[1.00129555E2,9.382248E1,6.307078E0,5.0369022E1,4.3453453E1,2.2221496E0,4.084928E0,4.8171253E1,2.1977699E0,1.5236104E1,2.821735E1,2.0839274E0,2.0010006E0,4.507959E1,3.0916638E0,9.509385E0,5.726719E0,2.186902E0,2.6030447E1,7.159161E0,3.792043E1,6.5239844E0,2.9854002E0,2.003284E0,3.7234347E0,1.1550647E1,1.4479801E1,2.6579275E0,4.5012336E0,3.4669042E0,3.4453526E1,2.0310905E0,4.492894E0,9.443525E0,2.1071212E0,1.2285372E1,2.1944292E0],"tree_param":{"num_deleted":"0","num_feature":"64","num_nodes":"37","size_leaf_vector":"1"}},{"base_weights":[-2.6977646E-1,4.3773085E-1,-3.0980295E-1,-1.8718408E-2,6.218938E-2,5.0044987E-2,-3.78003E-1,-2.1083899E-1,5.5017788E-2,1.0994155E-2,-3.9920548E-1,1.6208168E-2,-4.0513903E-1,7.661737E-3,-4.2099074E-1,-2.434654E-2,-1.7713358E-3,-2.0220052E-1,-5.13976E-1,-2.5340958E-2,2.3401661E-3,-5.036695E-4,-2.763925E-2],"categories":[],"categories_nodes":[],"categories_segments":[],"categories_sizes":[],"default_left":[0,0,0,0,0,0,0,0,0,0,0,0,0,0,0,0,0,0,0,0,0,0,0],"id":25,"left_children":[1,3,5,-1,-1,7,9,11,-1,-1,13,-1,15,-1,17,-1,-1,19,21,-1,-1,-1,-1],"loss_changes":[2.8390908E0,4.098209E0,2.2972841E0,0E0,0E0,4.4935746E0,1.0852671E0,1.4867487E0,0E0,0E0,9.956312E-1,0E0,2.3561823E-1,0E0,1.3041506E0,0E0,0E0,1.864471E0,9.1734314E-1,0E0,0E0,0E0,0E0],"parents":[2147483647,0,0,1,1,2,2,5,5,6,6,7,7,10,10,12,12,14,14,17,17,18,18],"right_children":[2,4,6,-1,-1,8,10,12,-1,-1,14,-1,16,-1,18,-1,-1,20,22,-1,-1,-1,-1],"split_conditions":[-2.0428237E-1,-2.9712546E-1,4.378234E-2,-1.8718408E-2,6.218938E-2,4.2257514E-2,-1.2871151E0,1.8052557E-3,5.5017788E-2,1.0994155E-2,1.1377039E-2,1.6208168E-2,8.636087E-2,7.661737E-3,1.0985309E0,-2.434654E-2,-1.7713358E-3,-1.0386144E-2,2.6534465E-1,-2.5340958E-2,2.3401661E-3,-5.036695E-4,-2.763925E-2],"split_indices":[10,10,51,0,0,51,28,6,0,0,2,0,42,0,53,0,0,1,32,0,0,0,0],"split_type":[0,0,0,0,0,0,0,0,0,0,0,0,0,0,0,0,0,0,0,0,0,0,0],"sum_hessian":[9.49169E1,4.416504E0,9.05004E1,2.4049857E0,2.011518E0,1.4228046E1,7.627235E1,1.1961108E1,2.2669382E0,2.1297154E0,7.414263E1,2.8714845E0,9.089623E0,2.4097967E0,7.1732834E1,6.9619026E0,2.1277208E0,2.2661436E1,4.90714E1,9.907419E0,1.2754018E1,3.7834034E0,4.5287994E1],"tree_param":{"num_deleted":"0","num_feature":"64","num_nodes":"23","size_leaf_vector":"1"}},{"base_weights":[-9.7376555E-2,8.9152294E-1,-1.5824574E-1,7.525175E-2,-2.3635856E-3,1.7074291E-1,-2.5784498E-1,-1.1818896E-2,4.997499E-2,2.9849965E-2,-3.024067E-1,-3.2354337E-1,3.452216E-1,-3.4485886E-1,2.3874906E-1,1.2279922E-2,-2.4640588E-2,-1.8225979E-2,6.3717985E-1,-4.6444646E-1,-7.5267814E-2,2.9120553E-2,-4.8134546E-3,-5.5929096E-3,5.6871183E-2,-9.741363E-3,-2.739625E-2,3.6362935E-2,-1.30215185E-2],"categories":[],"categories_nodes":[],"categories_segments":[],"categories_sizes":[],"default_left":[0,0,0,0,0,0,0,0,0,0,0,0,0,0,0,0,0,0,0,0,0,0,0,0,0,0,0,0,0],"id":26,"left_children":[1,3,5,-1,-1,7,9,11,-1,-1,13,15,17,19,21,-1,-1,-1,23,25,27,-1,-1,-1,-1,-1,-1,-1,-1],"loss_changes":[6.006665E0,3.5438743E0,3.1291437E0,0E0,0E0,3.4674153E0,2.9204879E0,2.2320983E0,0E0,0E0,1.6981678E0,1.1907675E0,2.1708055E0,2.0186267E0,7.3817027E-1,0E0,0E0,0E0,2.8523314E0,8.2806206E-1,3.3431883E0,0E0,0E0,0E0,0E0,0E0,0E0,0E0,0E0],"parents":[2147483647,0,0,1,1,2,2,5,5,6,6,7,7,10,10,11,11,12,12,13,13,14,14,18,18,19,19,20,20],"right_children":[2,4,6,-1,-1,8,10,12,-1,-1,14,16,18,20,22,-1,-1,-1,24,26,28,-1,-1,-1,-1,-1,-1,-1,-1],"split_conditions":[2.7901525E-2,-9.499874E-2,1.1296785E8,7.525175E-2,-2.3635856E-3,1.1002095E8,-4.6252343E-1,5.3349544E7,4.997499E-2,2.9849965E-2,1.5440777E-2,2.2794592E7,-2.1176258E-1,1.1512024E-1,2.1926159E-2,1.2279922E-2,-2.4640588E-2,-1.8225979E-2,2.3346998E-2,3.0938141E-2,-3.42512E-2,2.9120553E-2,-4.8134546E-3,-5.5929096E-3,5.6871183E-2,-9.741363E-3,-2.739625E-2,3.6362935E-2,-1.30215185E-2],"split_indices":[22,36,40,0,0,40,36,47,0,0,21,44,29,51,11,0,0,0,8,7,61,0,0,0,0,0,0,0,0],"split_type":[0,0,0,0,0,0,0,0,0,0,0,0,0,0,0,0,0,0,0,0,0,0,0,0,0,0,0,0,0],"sum_hessian":[9.766369E1,4.7763433E0,9.2887344E1,2.588255E0,2.1880882E0,2.1186705E1,7.170064E1,1.8071024E1,3.1156797E0,2.8270519E0,6.887359E1,9.847383E0,8.223641E0,6.437136E1,4.502226E0,2.0185537E0,7.828829E0,2.224618E0,5.9990234E0,4.3833565E1,2.05378E1,2.0052664E0,2.4969594E0,2.6330006E0,3.366023E0,1.1434421E1,3.2399143E1,3.200132E0,1.7337667E1],"tree_param":{"num_deleted":"0","num_feature":"64","num_nodes":"29","size_leaf_vector":"1"}},{"base_weights":[1.1805133E-1,4.2205727E-1,-1.3310076E-1,-2.4167784E-1,6.1332643E-1,2.868521E-1,-3.0645543E-1,6.62671E-3,-2.399881E-2,8.859917E-2,4.528879E-1,1.097193E0,-1.05448484E-1,-8.0673635E-2,-2.676273E-2,2.3336124E-1,1.2796121E0,2.154128E-2,7.21574E-2,2.524453E-1,-2.3340335E-2,6.2377936E-1,-3.4672597E-1,-3.8648745E-1,5.1090735E-1,-1.8273659E-2,1.1023299E-1,3.5426527E-2,-8.456581E-3,1.3817344E-3,5.892372E-2,-4.4505733E-1,2.5542479E-3,-2.3765009E-2,-7.9428E-4,6.236846E-2,1.304427E-2,-2.5504936E-2,-1.1023731E-3],"categories":[],"categories_nodes":[],"categories_segments":[],"categories_sizes":[],"default_left":[0,0,0,0,0,0,0,0,0,0,0,0,0,0,0,0,0,0,0,0,0,0,0,0,0,0,0,0,0,0,0,0,0,0,0,0,0,0,0],"id":27,"left_children":[1,3,5,7,9,11,13,-1,-1,-1,15,17,19,21,-1,23,25,-1,-1,27,-1,29,31,33,35,-1,-1,-1,-1,-1,-1,37,-1,-1,-1,-1,-1,-1,-1],"loss_changes":[7.8630548E0,6.0894003E0,4.193257E0,1.0796279E0,5.7604446E0,5.560881E0,1.9898739E0,0E0,0E0,0E0,5.626551E0,4.9485683E-1,1.7119495E0,4.2754745E0,0E0,4.9881887E0,1.1195498E1,0E0,0E0,1.4465271E0,0E0,1.9076312E0,7.104583E-1,2.4114108E-1,3.1560717E0,0E0,0E0,0E0,0E0,0E0,0E0,3.095417E-1,0E0,0E0,0E0,0E0,0E0,0E0,0E0],"parents":[2147483647,0,0,1,1,2,2,3,3,4,4,5,5,6,6,10,10,11,11,12,12,13,13,15,15,16,16,19,19,21,21,22,22,23,23,24,24,31,31],"right_children":[2,4,6,8,10,12,14,-1,-1,-1,16,18,20,22,-1,24,26,-1,-1,28,-1,30,32,34,36,-1,-1,-1,-1,-1,-1,38,-1,-1,-1,-1,-1,-1,-1],"split_conditions":[2.0770153E1,-4.3794528E-2,6.8654865E-2,1.5982634E1,-1.0152674E-2,-8.099239E-2,-4.3748653E-1,6.62671E-3,-2.399881E-2,8.859917E-2,3.6732572E-1,8.985799E-1,6.549201E-2,4.6376247E-2,-2.676273E-2,4.050664E-3,-4.6187547E-1,2.154128E-2,7.21574E-2,-6.809222E-2,-2.3340335E-2,1.9494525E8,2.514636E-2,1.2462048E-1,1.6013866E1,-1.8273659E-2,1.1023299E-1,3.5426527E-2,-8.456581E-3,1.3817344E-3,5.892372E-2,7.212852E-2,2.5542479E-3,-2.3765009E-2,-7.9428E-4,6.236846E-2,1.304427E-2,-2.5504936E-2,-1.1023731E-3],"split_indices":[59,5,20,56,60,9,28,0,0,0,36,52,25,51,0,11,26,0,0,10,0,40,6,15,58,0,0,0,0,0,0,17,0,0,0,0,0,0,0],"split_type":[0,0,0,0,0,0,0,0,0,0,0,0,0,0,0,0,0,0,0,0,0,0,0,0,0,0,0,0,0,0,0,0,0,0,0,0,0,0,0],"sum_hessian":[1.0087043E2,4.5505806E1,5.5364624E1,1.00039835E1,3.5501823E1,1.5816787E1,3.9547836E1,3.9014797E0,6.102504E0,3.02049E0,3.2481335E1,4.6564517E0,1.1160335E1,2.080594E1,1.8741896E1,2.6774832E1,5.706503E0,2.4574215E0,2.1990304E0,5.619437E0,5.5408974E0,5.2320604E0,1.5573881E1,8.048084E0,1.8726748E1,2.23271E0,3.4737928E0,2.4862318E0,3.1332057E0,3.1147065E0,2.117354E0,1.2593593E1,2.980288E0,6.046688E0,2.0013964E0,3.633867E0,1.509288E1,1.0531937E1,2.0616555E0],"tree_param":{"num_deleted":"0","num_feature":"64","num_nodes":"39","size_leaf_vector":"1"}},{"base_weights":[6.014171E-2,6.2813514E-1,-3.4398507E-2,1.214315E0,-1.8362387E-1,1.4406139E-1,-3.1520572E-1,7.219699E-3,1.5975606E0,-2.166223E-2,1.2536362E-2,-2.8168282E-1,3.2197028E-1,1.6198689E-1,-4.6691E-1,1.0476239E-1,2.4240686E-2,8.356305E-3,-4.3650842E-1,4.6717217E-3,7.544034E-1,-2.0280078E-2,5.607239E-1,-4.9940324E-1,-1.3226066E-3,-2.5296047E-2,-8.3819166E-4,5.7362255E-2,-2.3835677E-1,6.29761E-2,1.1512597E0,-5.0176214E-3,5.7961524E-2,-1.4711132E-3,-2.6895443E-2,-2.2790248E-2,1.3432453E-2,-1.1861227E-2,2.8360937E-2,8.4928595E-2,1.9829972E-2],"categories":[],"categories_nodes":[],"categories_segments":[],"categories_sizes":[],"default_left":[0,0,0,0,0,0,0,0,0,0,0,0,0,0,0,0,0,0,0,0,0,0,0,0,0,0,0,0,0,0,0,0,0,0,0,0,0,0,0,0,0],"id":28,"left_children":[1,3,5,7,9,11,13,-1,15,-1,-1,17,19,21,23,-1,-1,-1,25,27,29,-1,31,33,-1,-1,-1,-1,35,37,39,-1,-1,-1,-1,-1,-1,-1,-1,-1,-1],"loss_changes":[5.4702435E0,7.237107E0,4.414222E0,3.1365528E0,8.7361807E-1,4.1518173E0,2.5873332E0,0E0,2.1546383E0,0E0,0E0,1.2223825E0,5.190755E0,2.2461379E0,3.123722E-1,0E0,0E0,0E0,3.0208063E-1,6.8324623E0,4.228236E0,0E0,2.4862332E0,3.6792946E-1,0E0,0E0,0E0,0E0,2.342128E0,1.2312059E0,3.2840595E0,0E0,0E0,0E0,0E0,0E0,0E0,0E0,0E0,0E0,0E0],"parents":[2147483647,0,0,1,1,2,2,3,3,4,4,5,5,6,6,8,8,11,11,12,12,13,13,14,14,18,18,19,19,20,20,22,22,23,23,28,28,29,29,30,30],"right_children":[2,4,6,8,10,12,14,-1,16,-1,-1,18,20,22,24,-1,-1,-1,26,28,30,-1,32,34,-1,-1,-1,-1,36,38,40,-1,-1,-1,-1,-1,-1,-1,-1,-1,-1],"split_conditions":[-2.672351E-1,4.798451E-2,3.429133E-2,-1.6137247E-3,2.758116E8,-1.8962914E-2,4.747539E-2,7.219699E-3,2.3913165E8,-2.166223E-2,1.2536362E-2,-4.8574246E-3,2.6475707E-2,-1.2288198E-1,1.3379303E-1,1.0476239E-1,2.4240686E-2,8.356305E-3,7.3446897E-3,1.708454E1,5.5248976E-2,-2.0280078E-2,4.891634E-2,-2.1447366E-1,-1.3226066E-3,-2.5296047E-2,-8.3819166E-4,5.7362255E-2,4.7040746E-2,4.4707492E-2,7.515434E7,-5.0176214E-3,5.7961524E-2,-1.4711132E-3,-2.6895443E-2,-2.2790248E-2,1.3432453E-2,-1.1861227E-2,2.8360937E-2,8.4928595E-2,1.9829972E-2],"split_indices":[29,7,2,60,37,0,45,0,43,0,0,16,7,36,61,0,0,0,21,59,48,0,2,20,0,0,0,0,8,12,44,0,0,0,0,0,0,0,0,0,0],"split_type":[0,0,0,0,0,0,0,0,0,0,0,0,0,0,0,0,0,0,0,0,0,0,0,0,0,0,0,0,0,0,0,0,0,0,0,0,0,0,0,0,0],"sum_hessian":[9.936204E1,1.3524013E1,8.583802E1,7.63673E0,5.887282E0,5.2563488E1,3.3274536E1,2.4459562E0,5.190774E0,3.886496E0,2.0007858E0,1.5153964E1,3.7409523E1,7.851219E0,2.5423315E1,2.914442E0,2.276332E0,3.7007842E0,1.145318E1,2.2293606E1,1.5115918E1,3.1290774E0,4.7221417E0,2.3340582E1,2.0827332E0,9.447341E0,2.005839E0,3.3297913E0,1.8963816E1,6.026627E0,9.089292E0,2.5598845E0,2.1622572E0,2.0977368E0,2.1242846E1,1.348045E1,5.4833655E0,3.985241E0,2.0413861E0,4.4666195E0,4.6226716E0],"tree_param":{"num_deleted":"0","num_feature":"64","num_nodes":"41","size_leaf_vector":"1"}},{"base_weights":[5.2371368E-2,8.529475E-1,-3.0984639E-3,6.493922E-2,-1.8586813E-3,4.665698E-2,-5.5388037E-2,4.6555903E-2,-1.04449145E-1,-1.7158017E-1,4.9989912E-1,3.8035672E-2,-2.3048402E-1,8.4645456E-1,-1.7904691E-2,1.4803536E-2,-1.4268594E-2,-2.9399262E-3,6.714664E-2],"categories":[],"categories_nodes":[],"categories_segments":[],"categories_sizes":[],"default_left":[0,0,0,0,0,0,0,0,0,0,0,0,0,0,0,0,0,0,0],"id":29,"left_children":[1,3,5,-1,-1,-1,7,-1,9,11,13,-1,15,17,-1,-1,-1,-1,-1],"loss_changes":[4.5293746E0,2.7942853E0,4.586292E0,0E0,0E0,0E0,4.393288E0,0E0,3.5898905E0,4.480301E0,2.975228E0,0E0,2.2657757E0,3.2026458E0,0E0,0E0,0E0,0E0,0E0],"parents":[2147483647,0,0,1,1,2,2,6,6,8,8,9,9,10,10,12,12,13,13],"right_children":[2,4,6,-1,-1,-1,8,-1,10,12,14,-1,16,18,-1,-1,-1,-1,-1],"split_conditions":[2.046181E-2,5.994114E-2,1.8958744E7,6.493922E-2,-1.8586813E-3,4.665698E-2,-3.19774E-2,4.6555903E-2,6.5104437E-1,-1.3137245E-1,8.502291E-1,3.8035672E-2,1.55665E1,-2.3986346E-1,-1.7904691E-2,1.4803536E-2,-1.4268594E-2,-2.9399262E-3,6.714664E-2],"split_indices":[12,28,41,0,0,0,1,0,15,39,15,0,58,36,0,0,0,0,0],"split_type":[0,0,0,0,0,0,0,0,0,0,0,0,0,0,0,0,0,0,0],"sum_hessian":[9.902171E1,5.601615E0,9.34201E1,3.5011969E0,2.100418E0,3.9493551E0,8.947074E1,3.290445E0,8.61803E1,7.8357864E1,7.822435E0,3.8476398E0,7.451022E1,5.6644735E0,2.1579616E0,6.4469337E0,6.8063286E1,2.2471974E0,3.4172761E0],"tree_param":{"num_deleted":"0","num_feature":"64","num_nodes":"19","size_leaf_vector":"1"}},{"base_weights":[-1.1659751E-1,-2.4745315E-1,1.3783026E-1,-2.981343E-1,3.172761E-2,4.646961E-1,-3.7009495E-1,-3.348461E-1,1.3561124E-2,6.8895936E-1,-2.6481146E-1,-2.5237193E-2,2.2834071E-3,-2.6787693E-2,-2.1941897E-1,2.7749446E-1,7.807921E-2,-1.8514723E-2,-1.730027E-3,3.089218E-1,-3.128596E-1,7.8486586E-1,-1.9382147E-1,4.6103213E-2,-1.9050857E-2,3.509741E-3,-2.0059355E-2,1.5280416E-3,7.4428305E-2,-2.1888353E-2,1.2463673E-2],"categories":[],"categories_nodes":[],"categories_segments":[],"categories_sizes":[],"default_left":[0,0,0,0,0,0,0,0,0,0,0,0,0,0,0,0,0,0,0,0,0,0,0,0,0,0,0,0,0,0,0],"id":30,"left_children":[1,3,5,7,-1,9,11,13,-1,15,17,-1,-1,-1,19,21,-1,-1,-1,23,25,27,29,-1,-1,-1,-1,-1,-1,-1,-1],"loss_changes":[3.2504702E0,3.025153E0,5.6738195E0,1.3825545E0,0E0,3.6100578E0,8.185713E-1,1.1608295E0,0E0,5.2026362E0,7.983914E-2,0E0,0E0,0E0,2.0268126E0,3.1547077E0,0E0,0E0,0E0,3.0352423E0,1.20731E0,3.1084394E0,8.9336777E-1,0E0,0E0,0E0,0E0,0E0,0E0,0E0,0E0],"parents":[2147483647,0,0,1,1,2,2,3,3,5,5,6,6,7,7,9,9,10,10,14,14,15,15,19,19,20,20,21,21,22,22],"right_children":[2,4,6,8,-1,10,12,14,-1,16,18,-1,-1,-1,20,22,-1,-1,-1,24,26,28,30,-1,-1,-1,-1,-1,-1,-1,-1],"split_conditions":[1.05731845E-1,2.6456568E-1,1.502148E8,1.6165665E-1,3.172761E-2,2.9194437E-2,3.536962E-1,-1.4568691E-1,1.3561124E-2,1.390846E-2,9.855873E-1,-2.5237193E-2,2.2834071E-3,-2.6787693E-2,-1.3998095E-2,1.0527284E0,7.807921E-2,-1.8514723E-2,-1.730027E-3,9.4519573E-4,-6.985904E-2,-3.7095476E-2,3.423646E-2,4.6103213E-2,-1.9050857E-2,3.509741E-3,-2.0059355E-2,1.5280416E-3,7.4428305E-2,-2.1888353E-2,1.2463673E-2],"split_indices":[51,0,49,45,0,60,36,36,0,60,52,0,0,0,42,53,0,0,0,6,4,4,22,0,0,0,0,0,0,0,0],"split_type":[0,0,0,0,0,0,0,0,0,0,0,0,0,0,0,0,0,0,0,0,0,0,0,0,0,0,0,0,0,0,0],"sum_hessian":[9.527764E1,6.319569E1,3.2081947E1,6.0494934E1,2.7007558E0,1.9691706E1,1.2390244E1,5.738247E1,3.1124656E0,1.5208891E1,4.4828143E0,9.379202E0,3.0110419E0,1.9293373E1,3.8089096E1,1.1309004E1,3.8998873E0,2.3590217E0,2.1237924E0,5.2166047E0,3.287249E1,5.2279863E0,6.0810175E0,2.660627E0,2.5559778E0,5.985968E0,2.6886522E1,3.0954595E0,2.1325269E0,4.075154E0,2.0058634E0],"tree_param":{"num_deleted":"0","num_feature":"64","num_nodes":"31","size_leaf_vector":"1"}},{"base_weights":[2.8541002E-1,-1.1087307E-1,7.308373E-1,-2.4245541E-1,3.786699E-1,1.3267643E0,5.3722143E-1,4.424599E-2,-3.2013813E-1,8.226736E-1,-2.154567E-2,1.1966954E-2,1.5266743E0,8.1527877E-1,-1.14693314E-1,1.1574313E-1,-4.3294477E-1,6.544768E-2,8.589068E-4,9.845822E-2,3.64047E-2,4.0083537E-1,1.4197445E0,4.147108E-1,-2.423742E-2,-2.2102801E-2,6.671017E-1,8.144369E-3,-4.854645E-1,-6.935096E-2,1.0478327E0,-5.9845136E-3,1.9516424E0,4.4552244E-2,-4.6773856E-3,-9.092659E-4,5.6822892E-2,-2.5650179E-2,-8.779446E-4,-1.8061567E-2,2.235963E-2,7.990079E-2,-4.2576063E-3,1.1232144E-1,3.968591E-2],"categories":[],"categories_nodes":[],"categories_segments":[],"categories_sizes":[],"default_left":[0,0,0,0,0,0,0,0,0,0,0,0,0,0,0,0,0,0,0,0,0,0,0,0,0,0,0,0,0,0,0,0,0,0,0,0,0,0,0,0,0,0,0,0,0],"id":31,"left_children":[1,3,5,7,9,11,13,-1,15,17,-1,-1,19,21,23,25,27,-1,-1,-1,-1,29,31,33,-1,-1,35,-1,37,39,41,-1,43,-1,-1,-1,-1,-1,-1,-1,-1,-1,-1,-1,-1],"loss_changes":[1.8476576E1,3.6669838E0,4.771847E0,4.1399155E0,4.718667E0,1.9027023E0,7.2157717E0,0E0,2.1773944E0,3.0544329E0,0E0,0E0,1.5601597E0,6.1388474E0,2.637577E0,3.198775E0,1.1831045E0,0E0,0E0,0E0,0E0,5.587782E0,9.1744175E0,1.5019069E0,0E0,0E0,1.8051546E0,0E0,3.4874058E-1,1.8357402E0,5.0536556E0,0E0,6.62447E-1,0E0,0E0,0E0,0E0,0E0,0E0,0E0,0E0,0E0,0E0,0E0,0E0],"parents":[2147483647,0,0,1,1,2,2,3,3,4,4,5,5,6,6,8,8,9,9,12,12,13,13,14,14,15,15,16,16,21,21,22,22,23,23,26,26,28,28,29,29,30,30,32,32],"right_children":[2,4,6,8,10,12,14,-1,16,18,-1,-1,20,22,24,26,28,-1,-1,-1,-1,30,32,34,-1,-1,36,-1,38,40,42,-1,44,-1,-1,-1,-1,-1,-1,-1,-1,-1,-1,-1,-1],"split_conditions":[2.1464947E1,1.632745E8,4.6713234E1,-4.6963282E-2,3.846209E-2,-4.6645E-2,4.8540682E-1,4.424599E-2,2.715267E7,1.803852E8,-2.154567E-2,1.1966954E-2,8.940583E7,4.8916576E7,4.644786E-2,2.5500776E7,1.0821182E8,6.544768E-2,8.589068E-4,9.845822E-2,3.64047E-2,3.6138758E-2,-1.0304536E0,1.0191062E-1,-2.423742E-2,-2.2102801E-2,5.898903E-2,8.144369E-3,2.3377454E-2,4.8481957E-3,1.589823E8,-5.9845136E-3,2.4312698E8,4.4552244E-2,-4.6773856E-3,-9.092659E-4,5.6822892E-2,-2.5650179E-2,-8.779446E-4,-1.8061567E-2,2.235963E-2,7.990079E-2,-4.2576063E-3,1.1232144E-1,3.968591E-2],"split_indices":[58,49,56,60,61,39,15,0,41,37,0,0,38,38,17,41,49,0,0,0,0,39,30,45,0,0,48,0,1,1,40,0,49,0,0,0,0,0,0,0,0,0,0,0,0],"split_type":[0,0,0,0,0,0,0,0,0,0,0,0,0,0,0,0,0,0,0,0,0,0,0,0,0,0,0,0,0,0,0,0,0,0,0,0,0,0,0,0,0,0,0,0,0],"sum_hessian":[1.0286379E2,5.471347E1,4.8150326E1,4.3681496E1,1.1031975E1,1.0245824E1,3.79045E1,2.0630214E0,4.1618473E1,7.193926E0,3.8380487E0,2.0099587E0,8.235866E0,2.6503096E1,1.1401405E1,8.368881E0,3.324959E1,4.0186677E0,3.1752582E0,4.2756767E0,3.9601886E0,1.6807695E1,9.6954E0,4.529936E0,6.87147E0,4.16853E0,4.2003517E0,2.3689182E0,3.0880674E1,1.0161427E1,6.646268E0,2.6404119E0,7.054989E0,2.0511959E0,2.47874E0,2.011558E0,2.1887937E0,2.887132E1,2.0093534E0,6.8084717E0,3.3529549E0,4.2569075E0,2.3893602E0,4.8052506E0,2.2497382E0],"tree_param":{"num_deleted":"0","num_feature":"64","num_nodes":"45","size_leaf_vector":"1"}},{"base_weights":[3.0445807E-2,-5.8629096E-2,8.6708724E-1,-2.5039697E-1,1.8086772E-1,-1.7709343E-2,1.2396593E0,-3.5753784E-1,4.3529227E-1,3.6977106E-1,-2.2827496E-1,8.249035E-2,1.6742837E-2,-1.3659781E-2,-4.402642E-1,4.580695E-2,-1.8651703E-2,1.7905162E-1,7.1397774E-2,2.0680429E-1,-2.4798889E-2,-3.5161278E-1,3.4853756E-2,-4.898743E-1,9.010742E-3,4.6870822E-1,-2.4173215E-1,3.3250824E-2,-1.7789984E-2,-1.1586755E-3,-2.24385E-2,-2.7198484E-2,-6.9466704E-3,-2.3735787E-3,6.668022E-2,1.2324623E-2,-1.9443773E-2],"categories":[],"categories_nodes":[],"categories_segments":[],"categories_sizes":[],"default_left":[0,0,0,0,0,0,0,0,0,0,0,0,0,0,0,0,0,0,0,0,0,0,0,0,0,0,0,0,0,0,0,0,0,0,0,0,0],"id":32,"left_children":[1,3,5,7,9,-1,11,13,15,17,19,-1,-1,21,23,-1,-1,25,-1,27,-1,29,-1,31,-1,33,35,-1,-1,-1,-1,-1,-1,-1,-1,-1,-1],"loss_changes":[7.7273827E0,4.3209786E0,5.068042E0,3.98765E0,3.3197713E0,0E0,2.1923237E0,1.2537398E0,3.2676415E0,5.448819E0,1.7173415E0,0E0,0E0,2.6516895E0,1.2494273E0,0E0,0E0,3.2863584E0,0E0,1.7498226E0,0E0,1.8645597E-1,0E0,5.0948906E-1,0E0,7.2412806E0,9.0444213E-1,0E0,0E0,0E0,0E0,0E0,0E0,0E0,0E0,0E0,0E0],"parents":[2147483647,0,0,1,1,2,2,3,3,4,4,6,6,7,7,8,8,9,9,10,10,13,13,14,14,17,17,19,19,21,21,23,23,25,25,26,26],"right_children":[2,4,6,8,10,-1,12,14,16,18,20,-1,-1,22,24,-1,-1,26,-1,28,-1,30,-1,32,-1,34,36,-1,-1,-1,-1,-1,-1,-1,-1,-1,-1],"split_conditions":[2.1926159E-2,-1.4768063E-2,-2.6090667E-1,6.50318E-2,1.0191062E-1,-1.7709343E-2,1.2583177E-1,5.1501584E-3,7.850968E-2,9.210843E-2,-1.4954482E-2,8.249035E-2,1.6742837E-2,-6.5114773E-3,1.2546856E8,4.580695E-2,-1.8651703E-2,-3.0709067E-2,7.1397774E-2,3.524788E-2,-2.4798889E-2,-3.052536E-3,3.4853756E-2,-3.661508E-2,9.010742E-3,-1.142899E-1,1.3277627E-2,3.3250824E-2,-1.7789984E-2,-1.1586755E-3,-2.24385E-2,-2.7198484E-2,-6.9466704E-3,-2.3735787E-3,6.668022E-2,1.2324623E-2,-1.9443773E-2],"split_indices":[11,29,36,12,45,0,8,42,12,45,36,0,0,42,41,0,0,15,0,22,0,61,0,29,0,15,3,0,0,0,0,0,0,0,0,0,0],"split_type":[0,0,0,0,0,0,0,0,0,0,0,0,0,0,0,0,0,0,0,0,0,0,0,0,0,0,0,0,0,0,0,0,0,0,0,0,0],"sum_hessian":[1.009232E2,9.194452E1,8.978681E0,5.1266705E1,4.067782E1,2.0476193E0,6.9310617E0,4.4878693E1,6.388011E0,2.806206E1,1.2615758E1,4.1265726E0,2.804489E0,9.163141E0,3.5715553E1,3.9992962E0,2.388715E0,2.4847445E1,3.2146144E0,4.7499394E0,7.8658185E0,6.648009E0,2.5151322E0,3.341549E1,2.3000634E0,1.4790091E1,1.0057354E1,2.615478E0,2.1344616E0,2.0353384E0,4.6126704E0,2.8229155E1,5.186333E0,9.781734E0,5.008356E0,2.015404E0,8.04195E0],"tree_param":{"num_deleted":"0","num_feature":"64","num_nodes":"37","size_leaf_vector":"1"}},{"base_weights":[-2.0976017E-1,2.8840643E-1,-3.1548345E-1,-1.0888636E-2,6.2142085E-2,3.1804934E-1,-3.6576098E-1,3.8239412E-2,-2.4607666E-1,-1.9769074E-2,5.3729165E-2,-1.7142722E-2,-4.1469157E-1,-2.3686696E-2,8.754485E-2,4.2519248E-1,-2.2585033E-2,-4.4094723E-1,6.3303085E-3,2.5937473E-2,-1.7596342E-2,4.25949E-2,-3.586617E-3,-1.7644828E-3,-4.6699324E-1,-2.6337141E-2,-1.3196069E-2],"categories":[],"categories_nodes":[],"categories_segments":[],"categories_sizes":[],"default_left":[0,0,0,0,0,0,0,0,0,0,0,0,0,0,0,0,0,0,0,0,0,0,0,0,0,0,0],"id":33,"left_children":[1,3,5,7,-1,9,11,-1,13,-1,-1,15,17,-1,19,21,-1,23,-1,-1,-1,-1,-1,-1,25,-1,-1],"loss_changes":[5.0437384E0,4.9389267E0,2.6111708E0,2.6373274E0,0E0,3.804881E0,1.1956072E0,0E0,9.440575E-1,0E0,0E0,2.1715617E0,9.9334526E-1,0E0,1.1997617E0,1.3048437E0,0E0,5.799618E-1,0E0,0E0,0E0,0E0,0E0,0E0,4.759264E-1,0E0,0E0],"parents":[2147483647,0,0,1,1,2,2,3,3,5,5,6,6,8,8,11,11,12,12,14,14,15,15,17,17,24,24],"right_children":[2,4,6,8,-1,10,12,-1,14,-1,-1,16,18,-1,20,22,-1,24,-1,-1,-1,-1,-1,-1,26,-1,-1],"split_conditions":[4.378234E-2,8.594992E-1,-2.0428237E-1,-1.9363893E-2,6.2142085E-2,-1.3408848E-2,-7.147446E-2,3.8239412E-2,-5.4862898E-2,-1.9769074E-2,5.3729165E-2,7.874933E7,1.7024691E-1,-2.3686696E-2,-1.4156573E-1,5.761384E-3,-2.2585033E-2,4.8630595E-2,6.3303085E-3,2.5937473E-2,-1.7596342E-2,4.25949E-2,-3.586617E-3,-1.7644828E-3,1.2700622E-1,-2.6337141E-2,-1.3196069E-2],"split_indices":[51,34,10,61,0,11,39,0,14,0,0,41,51,0,36,61,0,51,0,0,0,0,0,0,51,0,0],"split_type":[0,0,0,0,0,0,0,0,0,0,0,0,0,0,0,0,0,0,0,0,0,0,0,0,0,0,0],"sum_hessian":[9.298613E1,1.5811019E1,7.717511E1,1.2709384E1,3.1016345E0,5.1365166E0,7.20386E1,2.3341346E0,1.037525E1,2.8212254E0,2.3152914E0,9.284301E0,6.2754295E1,6.095535E0,4.279715E0,4.49762E0,4.786681E0,6.0204216E1,2.5500789E0,2.1839757E0,2.0957394E0,2.143721E0,2.353899E0,4.0060267E0,5.619819E1,4.181014E1,1.4388051E1],"tree_param":{"num_deleted":"0","num_feature":"64","num_nodes":"27","size_leaf_vector":"1"}},{"base_weights":[-1.0466308E-1,-3.0261666E-1,3.5342727E-2,-4.0809235E-1,4.094083E-1,3.0910748E-1,-2.153586E-1,1.02464715E-2,-4.5723885E-1,-4.886639E-3,4.453144E-2,-5.6554144E-4,8.651235E-1,-3.2796246E-1,3.5355277E-2,-2.7157059E-2,3.320752E-3,2.7791858E-1,-2.382443E-2,-4.868741E-3,1.2172521E0,2.782773E-2,-4.253935E-1,1.7830176E-2,-1.833274E-2,-1.6804492E-1,5.992153E-2,8.823564E-2,2.1283193E-2,-4.9773827E-1,1.221843E-2,2.4342297E-2,-2.3605423E-2,-2.3238957E-3,-2.6856178E-2],"categories":[],"categories_nodes":[],"categories_segments":[],"categories_sizes":[],"default_left":[0,0,0,0,0,0,0,0,0,0,0,0,0,0,0,0,0,0,0,0,0,0,0,0,0,0,0,0,0,0,0,0,0,0,0],"id":34,"left_children":[1,3,5,7,9,11,13,-1,15,-1,-1,17,19,21,-1,-1,23,25,-1,-1,27,-1,29,-1,-1,31,-1,-1,-1,33,-1,-1,-1,-1,-1],"loss_changes":[2.6974363E0,3.1831164E0,3.9754934E0,1.1915679E0,1.5228847E0,4.866863E0,3.3160605E0,0E0,1.3780184E0,0E0,0E0,2.632578E0,3.6355658E0,2.5993073E0,0E0,0E0,9.224235E-1,5.3557715E0,0E0,0E0,2.2825098E0,0E0,1.3825383E0,0E0,0E0,2.039027E0,0E0,0E0,0E0,3.3395243E-1,0E0,0E0,0E0,0E0,0E0],"parents":[2147483647,0,0,1,1,2,2,3,3,4,4,5,5,6,6,8,8,11,11,12,12,13,13,16,16,17,17,20,20,22,22,25,25,29,29],"right_children":[2,4,6,8,10,12,14,-1,16,-1,-1,18,20,22,-1,-1,24,26,-1,-1,28,-1,30,-1,-1,32,-1,-1,-1,34,-1,-1,-1,-1,-1],"split_conditions":[-2.680736E-1,1.5440777E-2,6.500587E-2,1.8958744E7,9.467796E-1,8.27072E-2,1.4669064E-1,1.02464715E-2,1.0866875E8,-4.886639E-3,4.453144E-2,6.1310427E-3,6.8722785E-2,1.4672067E1,3.5355277E-2,-2.7157059E-2,7.255607E-2,9.400055E-1,-2.382443E-2,-4.868741E-3,4.1279184E7,2.782773E-2,5.968241E-1,1.7830176E-2,-1.833274E-2,5.1557764E7,5.992153E-2,8.823564E-2,2.1283193E-2,3.0039543E-1,1.221843E-2,2.4342297E-2,-2.3605423E-2,-2.3238957E-3,-2.6856178E-2],"split_indices":[30,21,42,41,52,45,51,0,47,0,0,6,48,55,0,0,3,52,0,0,41,0,63,0,0,47,0,0,0,32,0,0,0,0,0],"split_type":[0,0,0,0,0,0,0,0,0,0,0,0,0,0,0,0,0,0,0,0,0,0,0,0,0,0,0,0,0,0,0,0,0,0,0],"sum_hessian":[9.4978615E1,3.916135E1,5.581726E1,3.4602776E1,4.558575E0,2.6760654E1,2.9056608E1,2.181956E0,3.2420822E1,2.5063372E0,2.052238E0,1.7713985E1,9.046668E0,2.6566544E1,2.490063E0,2.735623E1,5.0645905E0,1.1304901E1,6.409085E0,2.5409067E0,6.5057616E0,2.0665882E0,2.4499956E1,2.7474926E0,2.3170981E0,8.092911E0,3.2119908E0,3.0445194E0,3.4612424E0,2.2478117E1,2.0218384E0,2.2711992E0,5.8217115E0,2.183185E0,2.0294933E1],"tree_param":{"num_deleted":"0","num_feature":"64","num_nodes":"35","size_leaf_vector":"1"}},{"base_weights":[7.814929E-2,-1.2644933E-1,5.878365E-1,8.9986905E-2,-3.0630553E-1,1.223946E0,1.1403226E-1,7.844798E-1,-5.9823096E-2,-1.5608148E-2,-4.3617505E-1,6.468713E-3,1.7030252E0,-2.4947561E-1,6.5179205E-1,-4.393574E-3,6.932687E-2,6.8450844E-1,-2.479825E-1,4.6369293E-1,-2.3951171E-2,8.5851945E-2,-2.6938451E-2,9.6733525E-2,3.7207484E-2,-2.406849E-2,6.7002266E-3,6.699111E-2,-1.9839657E-2,-2.2139007E-3,5.717134E-2,-3.774601E-1,1.9980843E-1,-1.857222E-2,4.863489E-2,-1.8094322E-2,2.7864901E-2,-2.3449806E-2,5.5171363E-3,-1.8533822E-2,3.6458682E-2],"categories":[],"categories_nodes":[],"categories_segments":[],"categories_sizes":[],"default_left":[0,0,0,0,0,0,0,0,0,0,0,0,0,0,0,0,0,0,0,0,0,0,0,0,0,0,0,0,0,0,0,0,0,0,0,0,0,0,0,0,0],"id":35,"left_children":[1,3,5,7,9,11,13,15,17,19,21,-1,23,25,27,-1,-1,29,31,33,-1,35,-1,-1,-1,-1,-1,-1,-1,-1,-1,37,39,-1,-1,-1,-1,-1,-1,-1,-1],"loss_changes":[1.0745485E1,2.9059367E0,8.618173E0,3.6388025E0,1.479249E0,6.0993156E0,3.7411609E0,3.5034606E0,4.1365666E0,3.288744E0,1.5782862E0,0E0,1.7597008E-1,1.11411E0,6.172728E0,0E0,0E0,2.1461232E0,1.4672041E0,3.475929E0,0E0,1.3319558E0,0E0,0E0,0E0,0E0,0E0,0E0,0E0,0E0,0E0,9.316423E-1,2.056526E0,0E0,0E0,0E0,0E0,0E0,0E0,0E0,0E0],"parents":[2147483647,0,0,1,1,2,2,3,3,4,4,5,5,6,6,7,7,8,8,9,9,10,10,12,12,13,13,14,14,17,17,18,18,19,19,21,21,31,31,32,32],"right_children":[2,4,6,8,10,12,14,16,18,20,22,-1,24,26,28,-1,-1,30,32,34,-1,36,-1,-1,-1,-1,-1,-1,-1,-1,-1,38,40,-1,-1,-1,-1,-1,-1,-1,-1],"split_conditions":[1.3043499E-1,1.1164701E-1,7.671913E7,-1.2059252E-1,4.6376247E-2,-5.2091766E-2,1.5089947E-1,8.99592E-2,3.2866452E7,-4.3748653E-1,2.9994028E-2,6.468713E-3,1.4237936E-1,1.903217E8,3.161473E-1,-4.393574E-3,6.932687E-2,2.2332644E7,2.0843334E1,-1.3998095E-2,-2.3951171E-2,1.1056326E8,-2.6938451E-2,9.6733525E-2,3.7207484E-2,-2.406849E-2,6.7002266E-3,6.699111E-2,-1.9839657E-2,-2.2139007E-3,5.717134E-2,8.436035E7,-6.275781E-2,-1.857222E-2,4.863489E-2,-1.8094322E-2,2.7864901E-2,-2.3449806E-2,5.5171363E-3,-1.8533822E-2,3.6458682E-2],"split_indices":[42,20,50,29,51,5,51,26,44,28,8,0,45,46,39,0,0,38,54,42,0,37,0,0,0,0,0,0,0,0,0,41,36,0,0,0,0,0,0,0,0],"split_type":[0,0,0,0,0,0,0,0,0,0,0,0,0,0,0,0,0,0,0,0,0,0,0,0,0,0,0,0,0,0,0,0,0,0,0,0,0,0,0,0,0],"sum_hessian":[1.0088803E2,7.238639E1,2.8501635E1,3.2826797E1,3.9559597E1,1.1400934E1,1.71007E1,5.1913986E0,2.7635399E1,1.27995405E1,2.6760057E1,3.9210756E0,7.4798584E0,1.0412393E1,6.6883073E0,2.4007633E0,2.7906353E0,4.936789E0,2.269861E1,6.185556E0,6.613984E0,4.262045E0,2.2498013E1,5.1208334E0,2.3590252E0,6.492075E0,3.920318E0,3.928344E0,2.759963E0,2.1724448E0,2.7643442E0,1.7902521E1,4.7960877E0,2.3703136E0,3.8152423E0,2.196386E0,2.0656588E0,1.5278981E1,2.6235409E0,2.36175E0,2.4343379E0],"tree_param":{"num_deleted":"0","num_feature":"64","num_nodes":"41","size_leaf_vector":"1"}},{"base_weights":[-1.2976155E-2,8.684768E-1,-8.3576225E-2,-6.0794107E-3,7.530287E-2,-1.6461468E-1,6.096221E-1,3.8747255E-2,-3.7882584E-1,6.602537E-2,8.870719E-2,-1.5959892E-1,6.347963E-1,-1.7494316E-1,-2.6866755E-2,2.0339636E-2,-1.8046694E-2,-2.950532E-1,4.4617352E-1,9.401965E-1,-1.830103E-2,2.8565932E-2,-2.998642E-1,-2.205433E-2,5.28599E-3,4.848457E-2,-1.8126968E-2,6.770023E-2,1.019888E-2,-2.2248758E-2,8.112627E-3],"categories":[],"categories_nodes":[],"categories_segments":[],"categories_sizes":[],"default_left":[0,0,0,0,0,0,0,0,0,0,0,0,0,0,0,0,0,0,0,0,0,0,0,0,0,0,0,0,0,0,0],"id":36,"left_children":[1,3,5,-1,-1,7,9,11,13,-1,15,17,19,21,-1,-1,-1,23,25,27,-1,-1,29,-1,-1,-1,-1,-1,-1,-1,-1],"loss_changes":[6.072402E0,4.882833E0,5.193012E0,0E0,0E0,3.6553414E0,3.31737E0,5.2489824E0,1.1485686E0,0E0,1.1132963E0,2.827753E0,3.7936473E0,1.9657903E0,0E0,0E0,0E0,1.7037098E0,3.0800848E0,2.2672415E0,0E0,0E0,1.2745873E0,0E0,0E0,0E0,0E0,0E0,0E0,0E0,0E0],"parents":[2147483647,0,0,1,1,2,2,5,5,6,6,7,7,8,8,10,10,11,11,12,12,13,13,17,17,18,18,19,19,22,22],"right_children":[2,4,6,-1,-1,8,10,12,14,-1,16,18,20,22,-1,-1,-1,24,26,28,-1,-1,30,-1,-1,-1,-1,-1,-1,-1,-1],"split_conditions":[1.708454E1,1.694635E1,1.1641878E8,-6.0794107E-3,7.530287E-2,3.0719323E-2,1.1835654E-2,3.672849E-2,8.8811296E-1,6.602537E-2,1.7664726E8,5.946876E-2,3.7932687E-2,6.3960788E7,-2.6866755E-2,2.0339636E-2,-1.8046694E-2,1.6836508E-1,-1.1154796E-1,5.0869577E-2,-1.830103E-2,2.8565932E-2,9.088444E7,-2.205433E-2,5.28599E-3,4.848457E-2,-1.8126968E-2,6.770023E-2,1.019888E-2,-2.2248758E-2,8.112627E-3],"split_indices":[59,59,44,0,0,2,0,12,52,0,41,8,39,50,0,0,0,26,25,17,0,0,44,0,0,0,0,0,0,0,0],"split_type":[0,0,0,0,0,0,0,0,0,0,0,0,0,0,0,0,0,0,0,0,0,0,0,0,0,0,0,0,0,0,0],"sum_hessian":[9.667387E1,6.2258143E0,9.044805E1,2.6943524E0,3.531462E0,8.179284E1,8.655215E0,4.2139698E1,3.965314E1,2.9298897E0,5.725325E0,3.2041706E1,1.0097993E1,1.8540262E1,2.1112879E1,3.5392675E0,2.1860578E0,2.6740402E1,5.301303E0,7.8599973E0,2.2379959E0,2.0313435E0,1.6508919E1,1.9708105E1,7.0322967E0,3.1723135E0,2.1289897E0,4.40763E0,3.4523673E0,1.2756648E1,3.7522714E0],"tree_param":{"num_deleted":"0","num_feature":"64","num_nodes":"31","size_leaf_vector":"1"}},{"base_weights":[1.2211619E-2,4.3804118E-1,-1.3512543E-1,7.1681E-1,-1.6227289E-1,-2.3319416E-1,4.031671E-1,-2.0461716E-2,9.832403E-1,-2.2618128E-2,1.12059815E-2,-3.1336364E-1,3.517865E-1,1.0343821E0,-3.013915E-1,2.506515E-1,1.3840646E0,2.4152204E-1,-3.6740434E-1,4.5644116E-2,-2.0264888E-2,-8.916668E-4,7.658907E-2,-1.1490878E-3,-2.0465447E-2,5.671957E-2,-2.0950476E-2,9.518942E-2,2.0042814E-2,-1.8573657E-2,4.2768862E-2,-3.1258013E-2,-4.7644377E-1,2.5680443E-2,-1.9489985E-2,2.5183337E-3,-2.618516E-2],"categories":[],"categories_nodes":[],"categories_segments":[],"categories_sizes":[],"default_left":[0,0,0,0,0,0,0,0,0,0,0,0,0,0,0,0,0,0,0,0,0,0,0,0,0,0,0,0,0,0,0,0,0,0,0,0,0],"id":37,"left_children":[1,3,5,7,9,11,13,-1,15,-1,-1,17,19,21,23,25,27,29,31,-1,-1,-1,-1,-1,-1,-1,-1,-1,-1,-1,-1,33,35,-1,-1,-1,-1],"loss_changes":[6.3686404E0,4.5457625E0,4.033314E0,5.9040813E0,1.131886E0,3.1165454E0,5.614564E0,0E0,3.906087E0,0E0,0E0,1.8144073E0,3.8433208E0,3.5820713E0,1.3533133E-1,4.4695554E0,3.8159618E0,2.439185E0,1.8630099E0,0E0,0E0,0E0,0E0,0E0,0E0,0E0,0E0,0E0,0E0,0E0,0E0,2.9585671E0,1.0555534E0,0E0,0E0,0E0,0E0],"parents":[2147483647,0,0,1,1,2,2,3,3,4,4,5,5,6,6,8,8,11,11,12,12,13,13,14,14,15,15,16,16,17,17,18,18,31,31,32,32],"right_children":[2,4,6,8,10,12,14,-1,16,-1,-1,18,20,22,24,26,28,30,32,-1,-1,-1,-1,-1,-1,-1,-1,-1,-1,-1,-1,34,36,-1,-1,-1,-1],"split_conditions":[1.8969093E1,1.2220905E-1,9.2436485E-2,3.6727924E-2,1.350291E8,6.5104437E-1,1.3634049E0,-2.0461716E-2,2.9860955E-2,-2.2618128E-2,1.12059815E-2,-3.5736263E-1,5.1746983E-2,3.5585654E-1,4.0894464E-2,4.7297485E-2,3.301601E-2,4.7727697E-2,2.692208E7,4.5644116E-2,-2.0264888E-2,-8.916668E-4,7.658907E-2,-1.1490878E-3,-2.0465447E-2,5.671957E-2,-2.0950476E-2,9.518942E-2,2.0042814E-2,-1.8573657E-2,4.2768862E-2,1.0828106E0,-1.1514547E0,2.5680443E-2,-1.9489985E-2,2.5183337E-3,-2.618516E-2],"split_indices":[58,45,29,45,37,15,53,0,22,0,0,29,12,31,45,42,12,7,38,0,0,0,0,0,0,0,0,0,0,0,0,53,26,0,0,0,0],"split_type":[0,0,0,0,0,0,0,0,0,0,0,0,0,0,0,0,0,0,0,0,0,0,0,0,0,0,0,0,0,0,0,0,0,0,0,0,0],"sum_hessian":[9.908147E1,2.5136963E1,7.39445E1,1.7146935E1,7.9900274E0,6.318561E1,1.0758897E1,3.1064548E0,1.404048E1,4.6140413E0,3.375986E0,5.6128647E1,7.056965E0,5.502766E0,5.25613E0,5.628346E0,8.412133E0,4.5091643E0,5.161948E1,4.0107713E0,3.0461936E0,2.0112338E0,3.4915323E0,2.0659359E0,3.1901946E0,2.1915483E0,3.4367976E0,4.824103E0,3.5880308E0,2.3722177E0,2.1369467E0,1.318294E1,3.8436543E1,4.949661E0,8.233278E0,2.9846237E0,3.545192E1],"tree_param":{"num_deleted":"0","num_feature":"64","num_nodes":"37","size_leaf_vector":"1"}},{"base_weights":[-1.1081648E-1,-4.7427073E-1,-2.6049197E-2,-1.3029643E-3,-2.6229156E-2,-1.3569789E-1,5.479656E-1,1.682307E-2,-3.4167388E-1,8.203825E-1,-1.8956937E-2,-1.6235954E-1,5.915101E-1,-4.251306E-1,7.589254E-3,1.0766507E0,-2.6606757E-3,1.7641471E-1,-3.1266102E-1,-2.0206245E-2,1.1088655E0,-4.9302062E-1,-0E0,5.7717646E-3,1.4865261E0,6.1593235E-2,-1.1771993E-2,-2.5825283E-2,-5.011565E-4,-2.3314746E-3,8.434181E-2,-2.015845E-3,-2.6738042E-2,9.733243E-2,2.5509808E-2],"categories":[],"categories_nodes":[],"categories_segments":[],"categories_sizes":[],"default_left":[0,0,0,0,0,0,0,0,0,0,0,0,0,0,0,0,0,0,0,0,0,0,0,0,0,0,0,0,0,0,0,0,0,0,0],"id":38,"left_children":[1,3,5,-1,-1,7,9,11,13,15,-1,17,19,21,-1,23,-1,25,27,-1,29,31,-1,-1,33,-1,-1,-1,-1,-1,-1,-1,-1,-1,-1],"loss_changes":[2.935085E0,3.3984947E-1,5.0792437E0,0E0,0E0,2.1827493E0,3.6158879E0,4.247071E0,1.301307E0,2.4830322E0,0E0,1.6505281E0,5.5821805E0,7.581053E-1,0E0,2.8829975E0,0E0,4.728529E0,1.3044913E0,0E0,4.785432E0,3.3893394E-1,0E0,0E0,1.2603884E0,0E0,0E0,0E0,0E0,0E0,0E0,0E0,0E0,0E0,0E0],"parents":[2147483647,0,0,1,1,2,2,5,5,6,6,7,7,8,8,9,9,11,11,12,12,13,13,15,15,17,17,18,18,20,20,21,21,24,24],"right_children":[2,4,6,-1,-1,8,10,12,14,16,-1,18,20,22,-1,24,-1,26,28,-1,30,32,-1,-1,34,-1,-1,-1,-1,-1,-1,-1,-1,-1,-1],"split_conditions":[-4.3595836E-1,3.483957E-2,6.65458E-2,-1.3029643E-3,-2.6229156E-2,1.5108155E8,-1.926007E-2,1.3318815E8,1.0322955E8,3.6732572E-1,-1.8956937E-2,2.2488585E-2,-2.5237557E-1,3.9293048E-1,7.589254E-3,4.1296706E-2,-2.6606757E-3,1.59592E1,-3.8138047E-2,-2.0206245E-2,2.2031887E-2,2.5490768E-2,-0E0,5.7717646E-3,4.975911E7,6.1593235E-2,-1.1771993E-2,-2.5825283E-2,-5.011565E-4,-2.3314746E-3,8.434181E-2,-2.015845E-3,-2.6738042E-2,9.733243E-2,2.5509808E-2],"split_indices":[25,12,61,0,0,46,9,46,47,36,0,3,25,36,0,12,0,54,9,0,7,12,0,0,38,0,0,0,0,0,0,0,0,0,0],"split_type":[0,0,0,0,0,0,0,0,0,0,0,0,0,0,0,0,0,0,0,0,0,0,0,0,0,0,0,0,0,0,0,0,0,0,0],"sum_hessian":[9.6291985E1,1.7118557E1,7.917342E1,2.0814385E0,1.5037119E1,6.726267E1,1.1910751E1,3.889475E1,2.8367926E1,9.3781E0,2.5326507E0,3.0064396E1,8.830353E0,2.4555988E1,3.8119364E0,7.1598125E0,2.218288E0,8.981452E0,2.1082943E1,3.0282154E0,5.802137E0,2.1121233E1,3.4347563E0,2.5964298E0,4.5633826E0,2.030282E0,6.95117E0,1.1977964E1,9.1049795E0,2.1833754E0,3.6187618E0,2.1512282E0,1.8970005E1,2.3565338E0,2.2068489E0],"tree_param":{"num_deleted":"0","num_feature":"64","num_nodes":"35","size_leaf_vector":"1"}},{"base_weights":[2.5782287E-1,-8.749599E-2,6.8090826E-1,-2.3615983E-1,4.4849122E-1,-1.6586263E-1,8.068583E-1,2.1592653E-1,-4.2090532E-1,6.015837E-2,3.5742994E-2,1.2009097E-2,-2.1126484E-2,3.3103805E-2,9.5162237E-1,-1.9778003E-1,5.4896623E-2,1.1930942E-2,-4.7771493E-1,2.7037097E-2,-2.9157963E-1,-2.2385366E-2,4.483759E-2,1.130102E0,8.3665304E-2,1.1346277E-1,-2.2705369E-2,-1.7413506E-1,-2.69633E-2,-8.4714015E-4,-2.0031447E-2,9.68829E-3,1.2554286E0,-2.1415407E-2,4.170731E-2,-1.2138132E-3,1.240907E-2,-2.1276994E-2,1.1277448E-2,9.377215E-2,4.278774E-2],"categories":[],"categories_nodes":[],"categories_segments":[],"categories_sizes":[],"default_left":[0,0,0,0,0,0,0,0,0,0,0,0,0,0,0,0,0,0,0,0,0,0,0,0,0,0,0,0,0,0,0,0,0,0,0,0,0,0,0,0,0],"id":39,"left_children":[1,3,5,7,9,11,13,15,17,-1,19,-1,-1,21,23,25,-1,-1,27,-1,29,-1,-1,31,33,35,-1,37,-1,-1,-1,-1,39,-1,-1,-1,-1,-1,-1,-1,-1],"loss_changes":[1.4545148E1,4.477062E0,4.956547E0,3.7825897E0,3.6234477E0,7.9755497E-1,4.2513294E0,5.143968E0,1.3256187E0,0E0,1.6673658E0,0E0,0E0,3.4817166E0,4.8659935E0,8.668996E-1,0E0,0E0,3.8894892E-1,0E0,1.3053536E-1,0E0,0E0,2.784233E0,2.9993463E0,1.2206354E-1,0E0,7.942806E-1,0E0,0E0,0E0,0E0,3.961773E0,0E0,0E0,0E0,0E0,0E0,0E0,0E0,0E0],"parents":[2147483647,0,0,1,1,2,2,3,3,4,4,5,5,6,6,7,7,8,8,10,10,13,13,14,14,15,15,18,18,20,20,23,23,24,24,25,25,27,27,32,32],"right_children":[2,4,6,8,10,12,14,16,18,-1,20,-1,-1,22,24,26,-1,-1,28,-1,30,-1,-1,32,34,36,-1,38,-1,-1,-1,-1,40,-1,-1,-1,-1,-1,-1,-1,-1],"split_conditions":[4.1148418E-1,3.6950316E-2,-1.2058228E0,4.0058032E-1,-1.1617496E-1,1.2509464E-2,-1.1217012E-2,5.1145564E7,-4.5123033E-2,6.015837E-2,1.8031134E1,1.2009097E-2,-2.1126484E-2,4.4776827E-2,2.159193E-2,4.1778736E-2,5.4896623E-2,1.1930942E-2,1.5512333E1,2.7037097E-2,6.34797E7,-2.2385366E-2,4.483759E-2,-9.301612E-1,5.4599084E-2,-2.2158924E-2,-2.2705369E-2,5.7368153E-3,-2.69633E-2,-8.4714015E-4,-2.0031447E-2,9.68829E-3,-6.65046E-1,-2.1415407E-2,4.170731E-2,-1.2138132E-3,1.240907E-2,-2.1276994E-2,1.1277448E-2,9.377215E-2,4.278774E-2],"split_indices":[63,2,26,33,10,16,42,44,60,0,55,0,0,3,11,5,0,0,57,0,44,0,0,30,7,0,0,60,0,0,0,0,26,0,0,0,0,0,0,0,0],"split_type":[0,0,0,0,0,0,0,0,0,0,0,0,0,0,0,0,0,0,0,0,0,0,0,0,0,0,0,0,0,0,0,0,0,0,0,0,0,0,0,0,0],"sum_hessian":[9.774259E1,5.412392E1,4.3618668E1,4.2955544E1,1.116838E1,5.504005E0,3.8114662E1,1.2255451E1,3.070009E1,3.1859107E0,7.982469E0,2.0056717E0,3.4983335E0,6.3096166E0,3.1805046E1,8.793314E0,3.4621375E0,2.0412977E0,2.8658792E1,3.002954E0,4.979515E0,4.2881393E0,2.021477E0,2.6034319E1,5.7707267E0,4.0467796E0,4.7465343E0,5.7504444E0,2.2908348E1,2.0042548E0,2.97526E0,3.4680333E0,2.2566286E1,3.6064615E0,2.1642652E0,2.0392854E0,2.0074942E0,3.6439037E0,2.106541E0,7.2996674E0,1.5266619E1],"tree_param":{"num_deleted":"0","num_feature":"64","num_nodes":"41","size_leaf_vector":"1"}},{"base_weights":[5.744537E-2,8.877908E-1,-3.1145424E-2,1.2423319E0,-4.6129148E-3,2.476894E-1,-2.0778984E-1,8.361234E-3,8.4182434E-2,9.5807076E-1,9.320227E-2,-2.8749734E-1,5.161113E-1,8.1166014E-2,-3.3950682E-3,4.2699853E-1,-1.5235873E-1,1.1113624E-1,-4.2328057E-1,5.4050952E-2,-1.751273E-2,6.327327E-2,-0E0,-4.2316556E-1,2.350726E-1,-2.0037399E-1,3.6680125E-2,-2.3291903E-2,-5.148544E-1,-2.1490565E-2,1.5963947E-2,-2.4920136E-2,-9.115849E-4,3.7192322E-2,-2.0413425E-2,2.251184E-2,-2.4077239E-2,-1.5377514E-2,2.6538301E-2,-2.7245507E-2,-1.3753985E-3],"categories":[],"categories_nodes":[],"categories_segments":[],"categories_sizes":[],"default_left":[0,0,0,0,0,0,0,0,0,0,0,0,0,0,0,0,0,0,0,0,0,0,0,0,0,0,0,0,0,0,0,0,0,0,0,0,0,0,0,0,0],"id":40,"left_children":[1,3,5,7,-1,9,11,-1,-1,